tree
version=v2
num_class=1
num_tree_per_iteration=1
label_index=0
max_feature_idx=9
objective=regression
feature_names=Column_0 Column_1 Column_2 Column_3 Column_4 Column_5 Column_6 Column_7 Column_8 Column_9
feature_infos=[0:1] [0:1] [0:1] [0:1] [0:1] [0:1] [0:0.98030634573300002] [0:1] [0:1] 1:0:5:3:2:-1
tree_sizes=1153 1343 1336 1265 1417 1331 1419 1344 1260 1349 1271 1276 1261 1348 1188 1509 1359 1359 1428 1357

Tree=0
num_leaves=14
num_cat=0
split_feature=8 6 8 2 2 2 5 6 0 3 5 6 0
split_gain=27.2046 3.39745 1.87499 1.69157 1.16206 1.13175 0.507731 0.49128 0.640068 0.530513 0.217602 0.191535 1.77636e-15
threshold=0.49384119978400004 0.47172741390350004 0.93777654867250015 0.34839455835700001 0.38720764408750008 0.41686143262550007 0.30522257326450003 0.35493722475300005 0.43416606541600006 0.35812518885700001 0.50836193745200009 0.28548275063650008 0.30752555307200008
decision_type=2 2 2 2 2 2 2 2 2 2 2 2 2
left_child=1 3 4 7 -2 -5 -7 8 9 11 -4 12 -1
right_child=2 -3 10 5 -6 6 -8 -9 -10 -11 -12 -13 -14
leaf_value=0.29999999900658925 0.38181818326314287 0.35185185240374667 0.38636363794406253 0.34400000031789141 0.35000000049670538 0.3096774186498375 0.32702702683908441 0.32380952352569214 0.32142857107378187 0.3199999996026357 0.40000000198682151 0.30882352868131563 0.29999999900658925
leaf_count=64 22 27 22 25 24 31 37 21 28 20 25 34 25
internal_value=0 -0.153846 0.462366 -0.185965 0.318841 -0.0752688 -0.142157 -0.239583 -0.25731 -0.284382 0.602837 -0.308943 -0.333333
internal_count=405 312 93 285 46 93 68 192 171 143 47 123 89
shrinkage=1


Tree=1
num_leaves=16
num_cat=0
split_feature=8 6 7 2 2 2 1 8 6 0 3 2 3 6 6
split_gain=22.0357 2.75194 1.52434 1.37018 0.916714 0.774323 0.498665 0.466449 0.714212 0.491584 0.356371 0.159202 0.0929152 0.000577514 2.25863e-05
threshold=0.49384119978400004 0.47172741390350004 0.89181286549700012 0.34839455835700001 0.41686143262550007 0.38720764408750008 0.29475539621100005 0.081989247311800018 0.31281565656550009 0.36991733562150003 0.16251857299000003 0.59891972264049997 0.74487584638700011 0.31035212260850004 0.19653372184800003
decision_type=2 2 2 2 2 2 2 2 2 2 2 2 2 2 2
left_child=1 3 5 7 -5 -2 11 8 9 10 14 -6 -4 -9 -1
right_child=2 -3 12 4 6 -7 -8 13 -10 -11 -12 -13 -14 -15 -16
leaf_value=-0.030000001192092896 0.04244755323116596 0.016666665231740034 0.05138528304440635 0.0096000001430511482 -0.023875997616694525 0.018041957685580621 -0.00041134953498840333 -0.030790756642818454 -0.0052107375860214232 -0.011065778341786616 -0.016546218735831127 -0.012008718252182008 0.060909092426300049 -0.031550700217485426 -0.030126051391874045
leaf_count=44 26 27 21 25 26 26 22 20 30 29 28 20 20 20 21
internal_value=0 -0.138462 0.416129 -0.167368 -0.0677419 0.302448 -0.127941 -0.215625 -0.19034 -0.224332 -0.259779 -0.187163 0.56031 -0.311707 -0.300407
internal_count=405 312 93 285 93 52 68 192 152 122 93 46 41 40 65
shrinkage=0.1


Tree=2
num_leaves=16
num_cat=0
split_feature=8 6 8 2 2 2 4 6 4 5 6 5 3 8 0
split_gain=17.8489 2.22907 1.31195 1.10984 0.815293 0.742538 0.521486 1.07742 0.537879 0.378282 0.168782 0.161855 0.0298285 0.00437085 0.00183688
threshold=0.49384119978400004 0.47172741390350004 0.93777654867250015 0.34839455835700001 0.38720764408750008 0.41686143262550007 0.26100158422800007 0.28548275063650008 0.081590899842900008 0.30522257326450003 0.2116755793225 0.50836193745200009 0.0539975704688 0.093478260869550023 0.22047068254850002
decision_type=2 2 2 2 2 2 2 2 2 2 2 2 2 2 2
left_child=1 3 4 6 -2 -5 7 8 12 -7 -8 -4 14 -12 -1
right_child=2 -3 11 5 -6 9 10 -9 -10 -11 13 -13 -14 -15 -16
leaf_value=-0.026992028562918952 0.039350981603969229 0.014999998719603927 0.042946190725673329 0.0086399991512298591 0.012699648241202037 -0.019663128833616934 -0.018423959165811538 -4.7769510384761933e-06 -0.0087817535400390636 -0.0046876485283310352 -0.030102078510182248 0.054706828594207772 -0.022926985621452331 -0.028241597569507101 -0.028302403837442397
leaf_count=23 22 27 22 25 24 31 20 33 25 37 28 25 20 23 20
internal_value=0 -0.124615 0.374516 -0.150632 0.254459 -0.0609677 -0.194063 -0.154141 -0.211926 -0.115147 -0.262098 0.492018 -0.261175 -0.29263 -0.276015
internal_count=405 312 93 285 46 93 192 121 88 68 71 47 63 51 43
shrinkage=0.1


Tree=3
num_leaves=15
num_cat=0
split_feature=8 6 8 5 3 8 0 3 5 6 1 0 4 7
split_gain=14.4576 1.82409 1.06268 0.94998 0.893714 1.11923 0.859526 0.583268 0.282863 0.275562 0.21366 0.0961539 0.0062487 0.00211381
threshold=0.49384119978400004 0.39976218787150003 0.93777654867250015 0.36082448827950003 0.33391132468500007 0.093478260869550023 0.40444024854700006 0.45963275754350008 0.38350808107550011 0.31960570395850008 0.60579836131950004 0.12563624186750003 0.088904255005149993 0.015386593913300004
decision_type=2 2 2 2 2 2 2 2 2 2 2 2 2 2
left_child=1 4 8 -3 6 7 9 -6 -2 11 -4 -1 -13 -14
right_child=2 3 10 -5 5 -7 -8 -9 -10 -11 -12 12 13 -15
leaf_value=-0.019615064922607308 0.015059668473575427 -0.0079505111860192334 0.036447726041078564 0.020210218787193299 0.011447409008230483 -0.02509697682183722 -0.0052270865754077307 -0.0077965289354324343 0.030743019995482075 -0.012199215007864911 0.050084578770178335 -0.024980359290327346 -0.027298241534403397 -0.025952195152640346
leaf_count=33 23 23 20 25 28 23 38 36 23 23 27 35 28 20
internal_value=0 -0.112154 0.337065 0.0671654 -0.144757 -0.0617676 -0.185549 0.00622694 0.229013 -0.221985 0.442817 -0.241811 -0.259965 -0.267374
internal_count=405 312 93 48 264 87 177 64 46 139 47 116 83 48
shrinkage=0.1


Tree=4
num_leaves=17
num_cat=0
split_feature=8 4 6 4 7 2 2 3 3 2 2 0 4 0 2 4
split_gain=11.7107 1.70961 0.908654 0.933087 0.889541 0.611933 0.590288 0.58789 0.7659 0.51226 0.505607 0.309925 0.0815582 0.0814558 0.0112768 0.00331532
threshold=0.49384119978400004 0.74351816198200005 0.31281565656550009 0.28407906044800008 0.89181286549700012 0.34839455835700001 0.17159530604300002 0.34873906853800002 0.46719501104350009 0.48468249883550002 0.38720764408750008 0.41747174027350004 0.56776285712050012 0.12563624186750003 0.30716990488900003 0.088904255005149993
decision_type=2 2 2 2 2 2 2 2 2 2 2 2 2 2 2 2
left_child=1 2 7 6 10 -5 -4 11 -9 -7 -2 13 -6 -1 15 -15
right_child=4 -3 3 5 12 9 -8 8 -10 -11 -12 -13 -14 14 -16 -17
leaf_value=-0.017653558200055902 0.031512204729593721 0.016145717190659565 -0.005277612534436313 -0.025670420734778696 0.036779750585556034 0.0061166559159755709 0.017887563190676952 0.0073989844038372943 -0.019608946783202037 -0.016516515016555787 0.011790928473839394 -0.0097423289830868079 0.045702549531346282 -0.022146759638863228 -0.025608237758278848 -0.02362140064438184
leaf_count=33 26 23 22 23 20 20 22 21 21 20 26 26 21 31 20 30
internal_value=0 -0.100938 -0.121821 -0.0486914 0.303358 -0.126733 0.0630498 -0.164815 -0.0610498 -0.0519993 0.216516 -0.195945 0.4135 -0.218414 -0.235476 -0.22872
internal_count=405 312 289 107 93 63 44 182 42 40 52 140 41 114 81 61
shrinkage=0.1


Tree=5
num_leaves=16
num_cat=0
split_feature=7 5 2 6 0 6 5 0 2 4 3 6 0 4 3
split_gain=7.97759 2.11282 1.34154 0.755348 0.982212 0.535781 0.407358 0.294944 0.278292 0.546792 0.451942 0.22118 0.177131 0.121531 0.0914648
threshold=0.46263483497500008 0.54404028258250015 0.7489215186035002 0.4585751823675 0.43416606541600006 0.39745981778400002 0.2383510746935 0.43685840482050003 0.088251761635150014 0.26100158422800007 0.21587573385550005 0.33620526862450006 0.28200180197200003 0.05102596242795001 0.012416559902300001
decision_type=2 2 2 2 2 2 2 2 2 2 2 2 2 2 2
left_child=1 3 5 4 8 -2 -6 -3 13 10 -10 12 -11 14 -1
right_child=2 7 -4 -5 6 -7 -8 -9 9 11 -12 -13 -14 -15 -16
leaf_value=-0.020540766647228828 0.0096971475372188976 0.0054085129783267068 0.04330376427749108 0.0054789147697962247 -0.0082615974545478827 0.027259226143360141 0.011921505928039552 0.022376764714717865 -0.013000282712958076 -0.0086930414361338464 0.0077698654681444173 -0.024792912430488145 -0.020587885521707081 -0.024582702643943556 -0.011545705199241639
leaf_count=26 38 21 29 26 20 32 20 20 22 31 20 26 21 33 20
internal_value=0 -0.0743952 0.252181 -0.10708 -0.124689 0.177255 0.0182995 0.136857 -0.15343 -0.123088 -0.0310974 -0.172621 -0.134967 -0.199519 -0.166299
internal_count=405 306 99 265 239 70 40 41 199 120 42 78 52 79 46
shrinkage=0.1


Tree=6
num_leaves=17
num_cat=0
split_feature=8 5 7 0 2 5 5 7 5 5 4 4 0 4 0 3
split_gain=8.07013 1.15661 0.929052 0.908001 0.382254 0.370355 0.942262 0.498497 0.463191 0.334642 0.410736 0.300727 0.0790391 0.0385093 0.0161776 0.00284561
threshold=0.42820512820500006 0.54404028258250015 0.89181286549700012 0.39466791722600009 0.44960937303000009 0.41491275557900004 0.35745399038300008 0.32038123167150007 0.06787280701755001 0.24616858237550002 0.25040123864300007 0.20148219794800001 0.190770042364 0.19638998633650004 0.56778550453950005 0.32120901639300004
decision_type=2 2 2 2 2 2 2 2 2 2 2 2 2 2 2 2
left_child=1 5 3 4 -2 6 7 8 11 13 -11 12 -1 -10 -4 -7
right_child=2 -3 14 -5 -6 15 -8 -9 9 10 -12 -13 -14 -15 -16 -17
leaf_value=-0.01604181408882141 0.01675704771822149 0.0090507175241197873 0.033815817463965642 0.031731486856937406 -0.0023447600007057193 -0.018317966982722284 0.010004576047261557 0.0039927050471305851 -0.019233283400535584 -0.0011473367611567178 -0.019126886405326702 0.0020621592799822492 -0.0071514190733432768 -0.024302940944145465 0.037789789140224461 -0.02000486008822918
leaf_count=20 22 35 21 25 20 20 24 20 31 24 27 27 20 29 20 20
internal_value=0 -0.0802317 0.238979 0.166425 0.0766095 -0.10304 -0.0870811 -0.109763 -0.126582 -0.166214 -0.106659 -0.0609233 -0.115966 -0.216836 0.357543 -0.191614
internal_count=405 297 108 67 42 262 222 198 178 111 51 67 40 60 41 40
shrinkage=0.1


Tree=7
num_leaves=16
num_cat=0
split_feature=8 5 6 5 1 5 5 7 5 6 6 5 5 5 4
split_gain=6.53681 0.936857 0.792258 0.914117 0.329051 0.299988 0.763232 0.403782 0.375185 0.504274 0.294209 0.55621 0.208122 0.0319907 0.00215876
threshold=0.42820512820500006 0.54404028258250015 0.39745981778400002 0.33790637124300005 0.47480535498750004 0.41491275557900004 0.35745399038300008 0.32038123167150007 0.06787280701755001 0.22786138613850002 0.35493722475300005 0.26620188055700006 0.53219507030000013 0.19308695426800002 0.40107409141400002
decision_type=2 2 2 2 2 2 2 2 2 2 2 2 2 2 2
left_child=1 5 3 -2 -4 6 7 8 9 -1 11 13 -6 -10 -7
right_child=2 -3 4 -5 12 14 -8 -9 10 -11 -12 -13 -14 -15 -16
leaf_value=-0.014030096592272029 -0.003981384422097888 0.0081456456865583154 0.019298180699348452 0.02552433680920374 0.041154819577932357 -0.016510636880993843 0.009004118169347446 0.0035934347659349443 -0.016352919851030625 0.0033228957743355724 -0.024761418501536053 -0.0015086052398527823 0.026901169192223323 -0.021289912575767154 -0.017979907169938088
leaf_count=34 21 35 25 21 20 20 24 20 35 33 24 31 21 21 20
internal_value=0 -0.0722086 0.215081 0.107715 0.283405 -0.0927363 -0.078373 -0.0987869 -0.113924 -0.054831 -0.149593 -0.122553 0.338542 -0.182043 -0.172453
internal_count=405 297 108 42 66 262 222 198 178 67 111 87 41 56 40
shrinkage=0.1


Tree=8
num_leaves=15
num_cat=0
split_feature=7 5 0 2 6 7 0 6 4 5 0 1 6 2
split_gain=4.38545 1.25154 0.857366 0.848198 0.598225 0.577122 0.621261 0.621462 0.581289 0.327588 0.285711 0.063167 0.0610284 0.0484127
threshold=0.46263483497500008 0.48153190138350005 0.43416606541600006 0.7489215186035002 0.4585751823675 1.0000000180025095e-35 0.41747174027350004 0.22786138613850002 0.26499593920400005 0.43123666868200006 0.35586465013650009 0.20682565789450003 0.048887893715450007 0.066577221228399999
decision_type=2 2 2 2 2 2 2 2 2 2 2 2 2 2
left_child=1 4 -3 9 5 6 7 12 -9 10 -2 -7 -1 -14
right_child=3 2 -4 -5 -6 11 -8 8 -10 -11 -12 -13 13 -15
leaf_value=-0.012208466082811356 0.010552673236183498 -0.0029962409753352404 0.02171961295604706 0.033071512703237861 0.0067821509164312614 -0.015291598391148352 0.005683940985510426 0.0074474741672647411 -0.011351860059719337 0.0040999347964922588 0.026895172595977786 -0.021728378981351854 -0.015919454109210234 -0.0223749910791715
leaf_count=20 23 32 25 29 23 31 31 29 38 27 20 30 26 21
internal_value=0 -0.0552266 0.0784405 0.186908 -0.085825 -0.101462 -0.0707359 -0.10025 -0.0321483 0.12733 0.181538 -0.184572 -0.168351 -0.188038
internal_count=405 306 57 99 249 226 165 134 67 70 43 61 67 47
shrinkage=0.1


Tree=9
num_leaves=16
num_cat=0
split_feature=8 0 6 6 3 0 3 4 6 4 0 6 4 6 6
split_gain=4.48303 0.645659 0.436776 0.373308 0.593465 1.55598 0.650444 0.455613 0.448943 0.367751 0.362479 0.257996 0.192066 0.10688 0.0255141
threshold=0.42820512820500006 0.20733149186150004 0.41009696561550008 0.27237846358050005 0.45163859689050007 0.22047068254850002 0.060762232167150008 0.20148219794800001 0.31960570395850008 0.36499183128350005 0.50524083196500014 0.36200463201200006 0.31726713612750007 0.060055973123450006 0.18820037353250005
decision_type=2 2 2 2 2 2 2 2 2 2 2 2 2 2 2
left_child=3 -2 -3 7 5 -5 -7 13 -8 -9 -4 -6 -10 -1 -15
right_child=1 2 10 4 11 6 8 9 12 -11 -12 -13 -14 14 -16
leaf_value=-0.0090862041115760805 0.0015850149095058442 0.013022610752118958 0.034787078047620844 0.020976318778662847 -0.0044064234197139741 0.010423558503389359 -0.0211367703974247 0.0080821654200553903 0.0030959224700927734 -0.0095441167467627038 0.017976585808007615 -0.019784866397579513 -0.0096423179168125678 -0.015251197218894959 -0.019597123631022194
leaf_count=25 20 36 29 29 20 20 24 20 20 29 23 24 29 35 22
internal_value=0 0.178037 0.214898 -0.0598785 -0.0283839 0.00752403 -0.0555398 -0.0997878 -0.0993139 -0.0234972 0.273517 -0.127947 -0.0444304 -0.145376 -0.169286
internal_count=405 108 88 297 166 122 93 131 73 49 52 44 49 82 57
shrinkage=0.1


Tree=10
num_leaves=15
num_cat=0
split_feature=7 6 5 6 2 2 5 0 3 0 0 5 5 0
split_gain=3.26851 0.988945 1.06594 0.59129 0.591151 0.76157 0.572566 0.438893 0.350465 0.482718 0.309354 0.0761807 0.0191389 0.0143624
threshold=0.45643939393900007 0.29484207476100005 0.45318652656100006 0.3348681649625001 0.40384960023600008 0.31954860797050005 0.29464631221550003 0.21037965365400005 0.34873906853800002 0.41747174027350004 0.35973330217400007 0.15641219599550002 0.34749482039150009 0.10395712283150001
decision_type=2 2 2 2 2 2 2 2 2 2 2 2 2 2
left_child=1 8 3 -3 5 -2 7 -5 9 11 -6 13 -13 -1
right_child=4 2 -4 6 10 -7 -8 -9 -10 -11 -12 12 -14 -15
leaf_value=-0.0097657113202980587 0.020053420442601909 0.0088688719889213306 0.016226604810127845 -0.012175296956584567 0.014407493591308593 -0.006628075018525123 -0.019917175976129679 0.0072618197649717336 0.00042110001047452293 0.00091844129562377935 0.028887598878807492 -0.015412843458611389 -0.019188451319932937 -0.013175510788957279
leaf_count=21 23 29 39 21 25 20 26 26 30 25 36 29 25 30
internal_value=0 -0.039406 0.0216535 -0.0321101 0.166232 0.0764342 -0.0800987 -0.0142285 -0.0932147 -0.115698 0.229531 -0.145431 -0.171608 -0.117715
internal_count=405 301 141 102 104 43 73 47 160 130 61 105 54 51
shrinkage=0.1


Tree=11
num_leaves=15
num_cat=0
split_feature=7 0 3 2 2 3 0 4 4 4 2 5 5 5
split_gain=2.64749 0.662445 1.10903 0.539463 0.504376 0.489698 0.62826 0.400375 0.435562 0.389187 0.366175 0.261904 0.0626354 0.106983
threshold=0.45643939393900007 0.43416606541600006 0.028394365440650004 0.33981594934200005 0.17159530604300002 0.63251725305600004 0.35973330217400007 0.35203608219300003 0.28966292134850002 0.0040311322071750009 0.49160491099350007 0.29464631221550003 0.31461660614950004 0.070779319900400012
decision_type=2 2 2 2 2 2 2 2 2 2 2 2 2 2
left_child=1 4 -3 -4 9 6 -2 8 11 -1 -9 -6 13 -11
right_child=5 2 3 -5 7 -7 -8 10 -10 12 -12 -13 -14 -15
leaf_value=-0.0024192297884396145 0.0017465690641026749 0.025006240233778954 -0.014981919881843386 0.0071864351630210876 0.0055381094291806227 0.026548908982012009 0.019813771622303206 -0.00046441828211148578 0.014486767413715521 -0.018880016766488553 -0.015423486679792403 -0.010645346865057945 -0.019579241424798968 -0.0093730721237330599
leaf_count=35 38 20 21 23 20 27 39 36 24 20 30 20 23 29
internal_value=0 -0.0354654 0.0548113 -0.0339392 -0.0598439 0.149608 0.108975 -0.0179912 0.0383653 -0.110693 -0.0726399 -0.0255362 -0.152742 -0.132535
internal_count=405 301 64 44 237 104 77 130 64 107 66 40 72 49
shrinkage=0.1


Tree=12
num_leaves=15
num_cat=0
split_feature=6 1 5 6 4 6 4 8 8 3 5 2 4 6
split_gain=2.20012 0.67164 0.625089 0.537422 0.665282 0.587346 0.564961 0.502494 0.421528 0.524133 0.289369 0.201392 0.116881 0.0142248
threshold=0.37316840488300002 0.39642857142850008 0.38543131075550002 0.29484207476100005 0.3193210148570001 0.088760836402900015 0.058879532644650005 0.30683122847300009 0.24715909090900004 0.45163859689050007 0.33383956714050006 0.37134344528700003 0.20746414602300003 0.19653372184800003
decision_type=2 2 2 2 2 2 2 2 2 2 2 2 2 2
left_child=1 3 7 5 -5 6 -1 -2 -4 -10 12 -3 13 -7
right_child=2 11 8 4 -6 10 -8 -9 9 -11 -12 -13 -14 -15
leaf_value=-0.010203005031992993 -0.0058252564278142207 0.00069279684261842206 0.02899613841013475 0.011114144144636212 -0.0091219999361783263 -0.011831198739154 0.012553996816277505 0.01186245700551404 0.002722694531635002 0.022426665105201582 -0.021031882209437233 0.01455778956413269 -0.0059065061931808799 -0.01551188248254004
leaf_count=24 29 22 22 33 32 21 20 36 27 27 35 20 36 21
internal_value=0 -0.0430109 0.111707 -0.0649497 0.0115173 -0.0966081 0.00141087 0.0397102 0.173283 0.125747 -0.134775 0.0729517 -0.100877 -0.136715
internal_count=405 264 141 222 65 157 44 65 76 54 113 42 78 42
shrinkage=0.1


Tree=13
num_leaves=16
num_cat=0
split_feature=7 0 3 4 2 2 2 2 2 4 4 0 0 4 4
split_gain=1.84113 0.487401 0.89818 0.417724 0.357437 0.585883 0.349658 0.34932 0.589601 0.367185 0.234074 0.176338 0.392667 0.12632 0.097285
threshold=0.45643939393900007 0.43416606541600006 0.028394365440650004 0.34209214216050005 0.40384960023600008 0.31954860797050005 0.50199879164650008 0.28956828930800005 0.38351352643750009 0.37009680969900005 0.0040311322071750009 0.32740023440050009 0.25761661265200003 0.16807327012150003 0.52962754487850017
decision_type=2 2 2 2 2 2 2 2 2 2 2 2 2 2 2
left_child=1 7 -3 -4 5 -2 -6 10 -9 -10 -1 12 13 -12 -11
right_child=4 2 3 -5 6 -7 -8 8 9 14 11 -13 -14 -15 -16
leaf_value=-0.0012273096825395312 0.016349612046842991 0.022328505814075472 -0.012124327632288139 0.0074438621848821641 0.026454701006412507 -0.0070528145134449013 0.011060218637188276 0.010634216037578881 0.0054057185351848603 -0.015039230227470399 -0.017082334285782232 -0.017303677108781092 0.0024265770955632132 -0.006888800133019686 -0.0058066689897151224
leaf_count=35 23 20 24 20 25 20 36 32 20 25 31 29 24 20 21
internal_value=0 -0.0298638 0.0475724 -0.032297 0.124473 0.0546476 0.173694 -0.0507749 -0.0050522 -0.0590616 -0.083011 -0.106817 -0.0812121 -0.130849 -0.108244
internal_count=405 301 64 44 104 43 61 237 98 66 139 104 75 51 46
shrinkage=0.1


Tree=14
num_leaves=14
num_cat=0
split_feature=6 0 0 7 2 2 6 6 2 2 2 6 3
split_gain=1.6162 0.767095 1.08578 1.05032 0.594971 0.579528 0.564539 0.972771 0.547996 1.83796 1.11598 0.277915 0.0670806
threshold=0.39745981778400002 0.36260124848150005 0.30752555307200008 0.20156250000000003 0.38351352643750009 0.088251761635150014 0.31281565656550009 0.18301435406700003 0.49160491099350007 0.26530839982350002 0.7489215186035002 0.31600877192950005 0.012974027037250003
decision_type=2 2 2 2 2 2 2 2 2 2 2 2 2
left_child=1 2 3 4 5 12 7 -3 9 -2 -10 -4 -1
right_child=8 6 11 -5 -6 -7 -8 -9 10 -11 -12 -13 -14
leaf_value=-0.012148559813698133 -0.001638942791355981 0.014130729922781821 -0.013289282703772188 0.015567876688308186 -0.020729507991801139 0.0074087121656962809 0.014382355724062238 -0.012497320639736513 -0.015232315845787527 0.033788296347483995 0.013950987630768828 -0.028316124603152276 -0.0054038231871251403
leaf_count=30 27 23 32 27 23 35 35 34 20 32 38 20 29
internal_value=0 -0.0314725 -0.066831 -0.0221048 -0.0631317 -0.0278577 0.0438566 -0.0175267 0.107903 0.175758 0.0388778 -0.190688 -0.0883335
internal_count=405 288 196 144 117 94 92 57 117 59 58 52 59
shrinkage=0.1


Tree=15
num_leaves=18
num_cat=0
split_feature=7 5 4 3 3 3 6 5 5 4 4 4 4 2 3 6 0
split_gain=1.66385 0.739302 0.42427 0.588605 0.690423 0.373686 0.58314 0.551881 0.288355 0.487123 0.656223 0.118752 0.470866 0.180697 0.352011 0.0809642 0.0296209
threshold=0.46263483497500008 0.38144725913600003 0.31520892430200004 0.63251725305600004 0.39723183239400006 0.49442083239800011 0.27237846358050005 0.48153190138350005 0.090962890931950022 0.38487390396900006 0.088904255005149993 0.23365541473200005 0.11843163944450001 0.38998612547000006 0.32561220045050004 0.13922777502000003 0.22047068254850002
decision_type=2 2 2 2 2 2 2 2 2 2 2 2 2 2 2 2 2
left_child=1 8 -2 4 -4 6 -3 -8 9 10 15 12 16 14 -13 -1 -10
right_child=2 5 3 -5 -6 -7 7 -9 11 -11 -12 13 -14 -15 -16 -17 -18
leaf_value=-0.010754661895334722 0.021489265002310277 -0.0069426736591950717 0.013405935253415789 0.01926299233151519 -0.010770193956516407 -0.0091766072171075002 7.0183388888835917e-05 0.022165478307467242 -0.011353858336806298 -0.015977358818054201 0.015929179154336455 -0.018420842905407367 0.0047923543676733973 -0.020150438988847393 -0.00051350125244685582 -0.001756650283932686 -0.016517075039446355
leaf_count=20 24 23 21 23 27 21 20 26 25 23 20 23 20 28 21 20 20
internal_value=0 -0.0513168 0.0999495 0.0610955 -0.00193137 0.0250351 0.0605833 0.125588 -0.0825517 -0.0360388 0.0113929 -0.110731 -0.0797447 -0.138705 -0.0987416 -0.0625566 -0.136486
internal_count=405 310 95 71 48 90 69 46 220 83 60 137 65 72 44 40 45
shrinkage=0.1


Tree=16
num_leaves=16
num_cat=0
split_feature=7 5 4 3 3 3 3 7 5 3 5 3 3 6 5
split_gain=1.34772 0.598834 0.343659 0.47677 0.559243 0.302686 0.480873 0.262251 0.255091 0.209094 0.181818 0.165529 0.221572 0.140289 0.139002
threshold=0.46263483497500008 0.38144725913600003 0.31520892430200004 0.63251725305600004 0.39723183239400006 0.49442083239800011 0.28779265150650007 1.0000000180025095e-35 1.0000000180025095e-35 0.23440061475400004 0.54404028258250015 0.33679929150150006 0.016728137006000003 0.27105069555900002 0.22266004957500002
decision_type=2 2 2 2 2 2 2 2 2 2 2 2 2 2 2
left_child=1 7 -2 4 -4 6 10 8 -1 -9 -3 12 -10 -14 -13
right_child=2 5 3 -5 -6 -7 -8 9 11 -11 -12 14 13 -15 -16
leaf_value=0.0022997075363117105 0.019340338713179032 -0.008397693801671267 0.01206534185579845 0.017336692952591441 -0.0096931748368121965 -0.008258946168990363 0.015256905221733556 -0.0051400267332792279 -0.0027370473819560018 -0.017892621498968867 0.0050862889364361764 -0.0080168252544743687 -0.0099202481122353144 -0.020221494287252426 0.0034889501120362967
leaf_count=34 24 20 21 23 27 21 29 20 29 36 20 21 39 20 21
internal_value=0 -0.0461852 0.0899546 0.054986 -0.00173824 0.0225316 0.0545249 -0.0742966 -0.0541213 -0.133381 -0.016557 -0.0742907 -0.0989425 -0.134122 -0.0226394
internal_count=405 310 95 71 48 90 69 220 164 56 40 130 88 59 42
shrinkage=0.1


Tree=17
num_leaves=16
num_cat=0
split_feature=7 5 4 2 6 6 7 5 4 6 8 3 3 6 5
split_gain=1.09165 0.485056 0.315686 0.316949 0.30021 0.214561 0.212423 0.206624 0.199329 0.174458 0.171162 0.134078 0.179473 0.113634 0.112592
threshold=0.46263483497500008 0.38144725913600003 0.56776285712050012 0.38351352643750009 0.3348681649625001 0.29894112843050008 1.0000000180025095e-35 1.0000000180025095e-35 0.48691881023800004 0.44263974403200007 0.16927083333350004 0.33679929150150006 0.016728137006000003 0.27105069555900002 0.22266004957500002
decision_type=2 2 2 2 2 2 2 2 2 2 2 2 2 2 2
left_child=1 6 3 5 -2 -3 7 -1 9 -6 -8 12 -9 -14 -13
right_child=4 2 -4 -5 8 -7 10 11 -10 -11 -12 14 13 -15 -16
leaf_value=0.0020697369733277487 -0.0027900347113609318 -0.0040644299238920215 0.013107857331633568 -0.010453649765501422 0.021713552353056997 0.0097124955688531588 -0.017733945269827491 -0.0024633426989974648 0.0051828663231748527 0.0088089807331562051 -0.0066698240308926031 -0.0072151427822453639 -0.0089282233172502286 -0.018199344929307699 0.0031400549624647413
leaf_count=34 20 20 20 24 22 26 27 29 33 20 29 21 39 20 21
internal_value=0 -0.0415666 0.0202784 -0.0113788 0.0809591 0.0372253 -0.0668669 -0.0487092 0.109988 0.155685 -0.120043 -0.0668616 -0.0890482 -0.12071 -0.0203754
internal_count=405 310 90 70 95 46 220 164 75 42 56 130 88 59 42
shrinkage=0.1


Tree=18
num_leaves=17
num_cat=0
split_feature=1 7 3 5 8 6 5 4 3 4 0 0 4 4 2 1
split_gain=0.907363 0.526029 0.573313 0.610585 0.407857 0.60651 0.34211 0.59271 0.276019 0.251298 0.23666 0.215801 0.157588 0.2356 0.164063 0.254896
threshold=0.9104316546765 0.46263483497500008 0.49993206673100005 0.38543131075550002 0.15267441860450001 0.29894112843050008 0.090962890931950022 0.20148219794800001 0.63251725305600004 0.0042517585034300013 0.23718367031000001 0.30570818070850009 0.23365541473200005 0.084882934002350016 0.38998612547000006 0.03348214285715001
decision_type=2 2 2 2 2 2 2 2 2 2 2 2 2 2 2 2
left_child=1 2 3 6 5 -5 7 9 -2 -1 -4 -3 13 -8 15 -14
right_child=8 11 10 4 -6 -7 12 -9 -10 -11 -12 -13 14 -15 -16 -17
leaf_value=0.0018767352615083968 0.0051080896154693939 0.013281997390415357 -0.022339947691017933 -0.00025568887252699245 -0.0051502116024494176 0.023503526832376206 -0.010306140068261062 0.014087695202657156 0.021171008460223677 -0.012961894743144513 -0.0078324333805104961 0.0010688936863190088 -0.00039693892002105717 0.0026345187177260719 -0.019657937139272691 -0.015682702961688243
leaf_count=21 23 23 22 22 23 21 34 21 20 25 23 39 20 24 20 24
internal_value=0 -0.0278568 -0.0451863 -0.0268221 0.0559839 0.113476 -0.0557385 0.00167249 0.125792 -0.0618774 -0.14925 0.0559956 -0.0872674 -0.0495138 -0.121482 -0.0873463
internal_count=405 362 300 255 66 43 189 67 43 46 45 62 122 58 64 44
shrinkage=0.1


Tree=19
num_leaves=16
num_cat=0
split_feature=1 7 3 3 5 7 3 0 6 3 3 0 0 6 6
split_gain=0.734964 0.426084 0.464384 0.526492 0.346573 0.274169 0.259914 0.250148 0.443746 0.231977 0.223575 0.191694 0.174799 0.0776861 0.0435973
threshold=0.9104316546765 0.46263483497500008 0.49993206673100005 0.42819306720900002 0.62392531876150015 0.21378418329650004 0.32745399650850004 0.16515817667900004 0.20907129881900002 0.028394365440650004 0.63251725305600004 0.23718367031000001 0.30570818070850009 0.29154329272650004 0.17735566448800003
decision_type=2 2 2 2 2 2 2 2 2 2 2 2 2 2 2
left_child=1 2 3 4 5 6 7 8 -1 -9 -2 -4 -3 14 -11
right_child=10 12 11 -5 -6 -7 -8 9 -10 13 -12 -13 -14 -15 -16
leaf_value=-0.0076147190398640104 0.0045972806927950484 0.011953797385744426 -0.02010595282031731 0.012373439442705025 0.0084437760214010876 -0.01297551958511273 0.0054374457736100466 -0.0012069492984343978 0.011767173966481574 -0.01262227173894644 0.019053907450288537 -0.0070491904473823051 0.00096200439028250881 -0.016577487289905549 -0.0064120485805548161
leaf_count=27 23 23 22 22 21 36 28 34 21 20 20 23 39 20 26
internal_value=0 -0.0250711 -0.0406676 -0.0241399 -0.0381022 -0.0502406 -0.0339763 -0.0506913 0.00864859 -0.0791745 0.113213 -0.134325 0.0503961 -0.113744 -0.0911215
internal_count=405 362 300 255 233 212 176 148 48 100 43 45 62 66 46
shrinkage=0.1



feature importances:
Column_6=49
Column_5=45
Column_4=40
Column_2=39
Column_3=39
Column_0=37
Column_7=21
Column_8=18
Column_1=8

pandas_categorical:null
