tree
version=v2
num_class=1
num_tree_per_iteration=1
label_index=0
max_feature_idx=14
objective=regression
feature_names=Column_0 Column_1 Column_2 Column_3 Column_4 Column_5 Column_6 Column_7 Column_8 Column_9 Column_10 Column_11 Column_12 Column_13 Column_14
feature_infos=[0:1] [0:1] [0:0.98742930739899992] [-13.448183182799999:14.448183182799999] [0:1] [0.0019321093425999998:0.99659550117500006] [0:1] [0:1] [0:1] [0:1] [0:1] [0.026432072104999999:0.87826037461500006] [0:1] [0:1] 1:0:5:3:2:-1
tree_sizes=2379 3003 2917 3169 2935 3003 3159 3157 3148 3150 3164 3174 3241 3236 3310 3156 3008 3246 2938 3167 3099 3106 3183 3047 3035 3113 3194 3355 3117 3116 3027 3273 2972 2977 2972 3043 2964 2811 3040 3063 3062 3234 3144 3241

Tree=0
num_leaves=30
num_cat=0
split_feature=2 12 13 11 11 2 2 1 9 6 11 0 6 4 2 9 2 11 7 10 7 10 0 10 9 2 2 0 0
split_gain=63.4683 13.4498 11.9158 6.46403 3.68506 2.9785 2.45786 2.21426 1.49246 4.03048 1.21763 2.20003 1.51553 1.14545 0.674355 0.83113 0.54872 0.535714 0.502309 0.477939 0.380952 0.314759 0.283333 0.275349 0.0564263 0.109091 0.0437107 7.10543e-15 3.55271e-15
threshold=0.41090879373750006 0.71130952380950008 0.51666666666650019 0.32873467282350005 0.32259854222700007 0.12116998666100001 0.71779657538350017 0.39079750594750001 0.41102669857950008 0.34492965293150007 0.33917463337800008 0.22431068916350003 0.35252261164500004 0.40638238929400011 0.12025971968950001 0.35920877659550005 0.72107615557900007 0.33322485799050006 0.50345398435550015 0.07727906050955001 0.06997382409265003 0.3295277633630001 0.23677893789200002 0.34491379310350007 0.23595948568650002 0.24045107463450002 0.017302260547750001 0.64192257605600012 0.33302005012500008
decision_type=2 2 2 2 2 2 2 2 2 2 2 2 2 2 2 2 2 2 2 2 2 2 2 2 2 2 2 2 2
left_child=1 3 4 14 20 22 8 10 9 -6 17 -12 -13 -9 26 19 18 -7 -4 -16 -2 24 -5 -23 25 -21 -1 -18 -28
right_child=2 -3 16 5 6 7 -8 13 -10 -11 11 12 -14 -15 15 -17 27 -19 -20 21 -22 23 -24 -25 -26 -27 28 -29 -30
leaf_value=0.32600823017059527 0.33303203969440481 0.36134606800843311 0.36290216956453469 0.32350823017059527 0.35779394445630958 0.33600823017059528 0.37100823017059525 0.35350823017059529 0.35940566606803115 0.33150823017059527 0.3273543840167491 0.35254048823511142 0.33714459380695894 0.33850823017059528 0.3331236147859799 0.33527293605294822 0.37350823017059526 0.32529394445630955 0.37184156350392861 0.32350823017059527 0.3425558492182143 0.33243680159916672 0.33100823017059527 0.32536008202244715 0.32350823017059527 0.32850823017059527 0.32350823017059527 0.37350823017059526 0.32350823017059527
leaf_count=20 21 37 33 34 35 20 20 35 39 25 26 31 33 20 26 34 53 28 30 24 21 28 20 27 72 20 117 21 22
internal_value=0 -0.169912 0.384297 -0.203957 0.199838 -0.0773771 0.289717 -0.0192915 0.225122 0.126132 -0.0869118 -0.0183128 0.08134 0.150374 -0.284125 -0.249626 0.601071 -0.215535 0.532481 -0.274545 -0.0548207 -0.293751 -0.284979 -0.231444 -0.323294 -0.29508 -0.334246 0.659465 -0.340535
internal_count=972 674 298 637 161 247 119 193 99 60 138 90 64 55 390 231 137 48 63 197 42 171 54 55 116 44 159 74 139
shrinkage=1


Tree=1
num_leaves=37
num_cat=0
split_feature=2 12 13 11 11 11 2 1 5 11 9 6 3 2 10 1 9 2 9 3 1 10 7 5 8 7 2 11 2 10 10 2 11 2 0 0
split_gain=57.2802 12.4218 10.754 7.82372 3.32576 3.25854 2.21822 1.73526 1.84347 1.48575 1.34695 3.6375 1.32895 0.780379 0.706926 0.636747 0.591535 0.49522 0.456145 0.44884 0.508346 0.452931 0.34381 0.333351 0.38419 0.13968 0.230523 0.0445921 0.000479017 0.000326833 0.000323806 7.24064e-05 4.64708e-05 2.8476e-05 3.55271e-15 8.88178e-16
threshold=0.41090879373750006 0.34393939393900003 0.51666666666650019 0.34175342380050006 0.32259854222700007 0.32785797736950006 0.71779657538350017 0.34499040893600003 0.32639397204450005 0.35581619047250007 0.41102669857950008 0.34492965293150007 0.35629397369600008 0.30559497337650005 0.40538878842650006 0.32360287616400002 0.31920962677300008 0.72107615557900007 0.49850299401200004 0.22364913773600001 0.14481646825400002 0.31838294448900001 0.06997382409265003 0.32555369564400005 0.24594119032850001 0.00055719299732400016 0.089155176841300005 0.32259854222700007 0.12025971968950001 0.14330357142850003 0.31891512742550004 0.17868075496750002 0.30673351955500006 0.024691295297750004 0.68136767558050015 0.20715764077000001
decision_type=2 2 2 2 2 2 2 2 2 2 2 2 2 2 2 2 2 2 2 2 2 2 2 2 2 2 2 2 2 2 2 2 2 2 2 2
left_child=1 5 4 12 22 15 10 13 -9 -10 11 -6 -3 19 -5 25 23 18 -4 -7 -21 -22 -2 24 -17 26 -1 28 33 -30 32 -25 -31 -27 -19 -35
right_child=2 3 17 14 6 7 -8 8 9 -11 -12 -13 -14 -15 -16 16 -18 34 -20 20 21 -23 -24 31 -26 27 -28 -29 29 30 -32 -33 -34 35 -36 -37
leaf_value=-0.016201453283429146 -0.0071277922817638943 -0.0099810854808704275 0.021363581804668203 0.017295419392378435 0.016396017457757678 -0.016454700885280487 0.028949589133262635 0.010543711593857518 -0.014867787516635398 0.0033071995458819649 0.01792715363777601 -0.0085754109621047972 0.0049416810274124151 -0.0023749384668565569 0.029832251911813563 -0.014347263654837242 -0.0048888670901457466 0.031324589252471925 0.029899562843914693 -0.0039619041872876034 -0.016544085368514063 -0.006692348495125771 0.0019198270780699596 -0.01619098403237083 -0.0054759017799211589 -0.016244161576032642 -0.008933148086071015 -0.013786404132843016 -0.016532554654848011 -0.016193268767424992 -0.016466496546160093 -0.016322432905435565 -0.016293058693408965 -0.016175411641597748 0.031324589252471925 -0.016175411641597748
leaf_count=24 21 37 34 23 35 31 20 27 23 22 39 25 25 31 22 26 30 54 29 28 28 20 21 22 23 20 20 20 21 28 22 20 20 34 20 27
internal_value=0 -0.161416 0.365082 0.151093 0.189846 -0.220391 0.275231 -0.121548 0.00429986 -0.119645 0.213866 0.119825 -0.0792768 -0.187208 0.468491 -0.278533 -0.219552 0.571017 0.505857 -0.227684 -0.18632 -0.248784 -0.0520797 -0.259698 -0.203663 -0.308774 -0.257954 -0.32042 -0.325617 -0.327191 -0.326153 -0.325072 -0.324697 -0.323848 0.626492 -0.323508
internal_count=972 674 298 107 161 567 119 210 72 45 99 60 62 138 45 357 121 137 63 107 76 48 42 91 49 236 44 192 172 91 70 42 48 81 74 61
shrinkage=0.05


Tree=2
num_leaves=36
num_cat=0
split_feature=2 12 13 11 11 11 2 1 5 11 8 9 6 2 10 1 2 5 2 7 0 0 3 7 4 7 11 5 13 2 8 10 9 2 0
split_gain=51.6954 11.2107 9.70551 7.0609 3.0015 2.94083 2.00194 1.56607 1.66373 1.34089 1.23099 1.21562 3.28285 0.704292 0.638 0.574664 0.539138 0.942932 0.446936 0.449888 0.406321 1.38124 0.360577 0.310288 0.19551 0.128472 0.118541 0.0345672 0.0432322 0.000641316 0.000514025 0.000263712 0.000367072 1.98248e-05 6.84097e-06
threshold=0.41090879373750006 0.34393939393900003 0.51666666666650019 0.34175342380050006 0.32259854222700007 0.32785797736950006 0.71779657538350017 0.34499040893600003 0.32639397204450005 0.35581619047250007 0.39520591487000006 0.41102669857950008 0.34492965293150007 0.30559497337650005 0.40538878842650006 0.32360287616400002 0.19527762696750003 0.3208767156970001 0.72107615557900007 0.50345398435550015 0.23920413218950001 0.31140982474050005 0.31602901590150007 0.06997382409265003 0.031986284649050005 1.6962625764500003e-05 0.35581619047250007 0.48570438674350008 0.034523809523800013 0.12025971968950001 0.19991091674750003 0.31669985067200007 0.18764671361500004 0.023346857708000001 0.16314185865500003
decision_type=2 2 2 2 2 2 2 2 2 2 2 2 2 2 2 2 2 2 2 2 2 2 2 2 2 2 2 2 2 2 2 2 2 2 2
left_child=1 5 4 10 23 15 11 13 -9 -10 22 12 -6 20 -5 25 24 -18 19 -4 26 -22 -3 -2 -17 -1 -7 28 29 33 -26 32 -31 -27 -35
right_child=2 3 18 14 6 7 -8 8 9 -11 -12 -13 -14 -15 -16 16 17 -19 -20 -21 21 -23 -24 -25 30 27 -28 -29 -30 31 -32 -33 -34 34 -36
leaf_value=-0.010934011496248701 -0.006771402983438402 -0.013737824186682701 0.019999584420160813 0.016430648383886918 0.015576215641839164 -0.010813039019703867 0.027502108290791513 0.010016526171454678 -0.014124398257421412 0.0031418391926722094 0.0057342792099172417 0.017030795568074936 -0.0081466407179832459 -0.0022561916901219273 0.028340639648112384 -0.010137544461974393 -0.00057651534162718671 -0.013827190220355987 0.029758358001708986 0.028459675560394922 0.0018766410648822784 -0.014504736469637965 -0.0042433938384056095 0.0018238347201120287 -0.015464860871434212 -0.015434226458487306 -0.01566421696368386 -0.013051703050732614 -0.013032160550355913 -0.015688387925426164 -0.015823338478803635 -0.015739131257647559 -0.015439858535925548 -0.01539837474624316 -0.015366435050964355
leaf_count=21 21 20 33 23 35 20 20 27 23 22 22 39 25 31 22 27 29 25 74 30 22 31 20 21 20 23 34 20 20 24 20 21 39 30 38
internal_value=0 -0.153345 0.346828 0.143538 0.180354 -0.209371 0.26147 -0.115471 0.00408486 -0.113663 -0.075313 0.203172 0.113834 -0.177847 0.445066 -0.264607 -0.208575 -0.134222 0.542466 0.480564 -0.2163 -0.154098 -0.179812 -0.0494757 -0.268501 -0.293335 -0.27735 -0.300627 -0.304688 -0.309721 -0.312882 -0.311714 -0.310691 -0.307882 -0.307611
internal_count=972 674 298 107 161 567 119 210 72 45 62 99 60 138 45 357 121 54 137 63 107 53 40 42 67 236 54 215 195 175 40 84 63 91 68
shrinkage=0.05


Tree=3
num_leaves=39
num_cat=0
split_feature=2 12 13 11 11 11 9 7 1 5 13 11 3 5 1 10 12 1 9 11 4 1 5 3 7 9 11 2 8 2 2 10 11 10 11 6 2 1
split_gain=46.6551 10.1177 8.75922 6.37247 2.70886 2.6541 1.86691 1.99524 1.41338 1.50152 1.2474 1.21015 1.13903 0.681223 0.937984 0.681814 0.608319 0.518635 0.524044 0.407342 0.453307 0.298583 0.274829 0.352192 0.11826 0.219019 0.0429076 0.040163 0.0386727 0.00253647 0.000490596 0.000294683 0.000205775 0.000204801 9.47125e-05 1.17013e-05 6.83617e-06 5.25689e-07
threshold=0.41090879373750006 0.34393939393900003 0.51666666666650019 0.34175342380050006 0.32259854222700007 0.32785797736950006 0.4917804304695001 0.48599779729600007 0.34499040893600003 0.32639397204450005 0.19523809523800004 0.35581619047250007 0.35629397369600008 0.48447528907800008 0.14481646825400002 0.32527767015350006 0.88706739526400014 0.32360287616400002 0.31920962677300008 0.37437300677300006 0.47318832052950005 0.31984057477450006 0.32555369564400005 0.32372708326600003 0.00055719299732400016 0.066089829490350013 0.35581619047250007 0.34120784247050012 0.77199432404500012 0.6933638716595002 0.12025971968950001 0.13827244793450003 0.27396551928750007 0.31838294448900001 0.30673351955500006 0.24570576455600002 0.031225894928700006 0.56259140474150005
decision_type=2 2 2 2 2 2 2 2 2 2 2 2 2 2 2 2 2 2 2 2 2 2 2 2 2 2 2 2 2 2 2 2 2 2 2 2 2 2
left_child=1 5 4 12 21 17 7 10 13 -10 -6 -11 -3 14 -7 26 -5 24 22 20 -4 -2 23 -19 25 -1 -16 30 29 -21 35 -32 -24 34 -33 36 -26 -31
right_child=2 3 19 16 6 8 -8 -9 9 11 -12 -13 -14 -15 15 -17 -18 18 -20 28 -22 -23 32 -25 27 -27 -28 -29 -30 37 31 33 -34 -35 -36 -37 -38 -39
leaf_value=-0.014966120344141257 -0.0067716419696807863 -0.0091480885405798209 0.025972062721848488 0.015455037161060002 0.021978536505123665 -0.00044565158776747876 0.025214506880096767 -0.0013372016946474712 0.0095157006824458101 -0.013418178519477015 0.0081287105743949491 0.002984747358343818 0.0046673022508621218 -0.015410685645682471 -0.015867083413260326 -0.0043692933519681298 0.027084690671075475 -0.013405990064144136 -0.0041764132181803387 0.028943320683070591 0.016376336961984633 0.0016694941303946756 -0.014870051904158159 -0.0049262565250198049 -0.014640421242940994 -0.0079035289230800811 -0.012631115615367889 -0.012348504513502121 0.025976949930191041 0.028270441293716433 -0.01496838852763176 -0.014628303624116457 -0.014648454561829567 -0.014882880896329881 -0.01477303110063076 -0.014656565437714259 -0.014604336236204421 0.028281417191028599
leaf_count=23 20 37 32 23 29 39 23 30 27 23 37 22 25 28 21 30 22 25 30 21 20 22 22 24 21 21 20 20 20 24 20 26 20 20 20 30 35 20
internal_value=0 -0.145678 0.329487 0.136361 0.171336 -0.198903 0.248396 0.187088 -0.109697 0.00388063 0.284285 -0.107979 -0.0715473 -0.168955 -0.133507 -0.201946 0.422813 -0.251376 -0.198146 0.515343 0.445628 -0.0470019 -0.235932 -0.185053 -0.278668 -0.231907 -0.285771 -0.289384 0.557992 0.569824 -0.294316 -0.296005 -0.295291 -0.294986 -0.293825 -0.292627 -0.292357 0.565509
internal_count=972 674 298 107 161 567 119 96 210 72 66 45 62 138 110 71 45 357 121 137 52 42 91 49 236 44 41 192 85 65 172 86 42 66 46 86 56 44
shrinkage=0.05


Tree=4
num_leaves=36
num_cat=0
split_feature=2 12 13 11 11 2 0 1 8 11 4 11 0 6 2 9 11 10 2 7 10 10 0 9 7 2 2 1 9 4 7 11 6 8 6
split_gain=42.1062 9.16479 7.9052 4.3768 2.47734 2.18453 2.16279 1.66596 1.40976 1.70187 1.03741 0.964846 1.79401 1.26024 0.508421 0.628726 0.482405 0.417554 0.39111 0.409975 0.247498 0.231643 0.231306 0.0569565 0.110114 0.0428971 0.00185422 0.00145996 0.000735012 0.000556555 0.000522879 0.000282228 5.21183e-05 2.80936e-05 6.89884e-07
threshold=0.41090879373750006 0.71130952380950008 0.51666666666650019 0.32873467282350005 0.35128923393450001 0.12116998666100001 0.44412113222800004 0.39079750594750001 0.31855017741500008 0.32785797736950006 0.40638238929400011 0.33917463337800008 0.22431068916350003 0.35252261164500004 0.12025971968950001 0.35920877659550005 0.33322485799050006 0.07727906050955001 0.72107615557900007 0.50345398435550015 0.3295277633630001 0.34491379310350007 0.23677893789200002 0.23595948568650002 0.060048244103000005 0.017302260547750001 0.33701521763550008 0.37294635978400009 0.30195999732450007 0.28642710673350008 0.00055719299732400016 0.38543662280050006 0.23119768458750004 0.72738095238050005 0.020392495743150003
decision_type=2 2 2 2 2 2 2 2 2 2 2 2 2 2 2 2 2 2 2 2 2 2 2 2 2 2 2 2 2 2 2 2 2 2 2
left_child=1 3 4 14 8 22 -6 11 -2 -10 -9 16 -13 -14 25 17 -7 -16 19 -4 23 -22 -5 24 -19 -1 28 29 -25 30 -27 -20 34 -33 -32
right_child=2 -3 18 5 6 7 -8 10 9 -11 -12 12 13 -15 15 -17 -18 20 31 -21 21 -23 -24 26 -26 27 -28 -29 -30 -31 32 33 -34 -35 -36
leaf_value=-0.011634118258953094 -0.0050205734130498525 0.017272205046705298 0.017737667849569611 -0.014516407821108314 0.0066223330222643347 -0.0033563496172428135 0.023617441910836433 0.01191952224288668 -0.0028505512646266394 0.015979098209312984 -0.0023554941266775136 -0.011584734400877587 0.011229291462129164 -0.0028101171959530225 -0.0053057186878644504 -0.0038464980528635142 -0.013523580772536143 -0.014282648389538131 0.027104227244853975 0.025813758671283722 -0.0061578213104179933 -0.01264864636792077 -0.0077399080991745004 -0.013957836776971816 -0.0092592658102512351 -0.014177863558997278 -0.014665196023204111 -0.014440777677076836 -0.014349151849746706 -0.014244608270625273 -0.013865087747573855 0.026856693099526797 -0.013967631459236147 0.026931375116109848 -0.013877546638250353
leaf_count=20 37 37 33 34 39 20 36 35 21 28 20 26 31 33 26 34 28 24 20 30 28 27 20 30 20 23 22 27 20 24 25 34 20 20 20
internal_value=0 -0.138394 0.313013 -0.166498 0.162769 -0.06234 0.2956 -0.0125951 0.0469284 0.158185 0.134572 -0.0712487 -0.0101842 0.0798044 -0.232465 -0.202509 -0.185745 -0.224183 0.489576 0.431669 -0.242135 -0.186885 -0.240132 -0.268331 -0.239986 -0.275984 -0.285653 -0.282215 -0.282287 -0.280624 -0.279459 0.538876 -0.278009 0.537687 -0.277413
internal_count=972 674 298 637 161 247 75 193 86 49 55 138 90 64 390 231 48 197 137 63 171 55 54 116 44 159 72 139 50 112 88 74 65 54 45
shrinkage=0.05


Tree=5
num_leaves=37
num_cat=0
split_feature=2 12 13 11 11 11 0 2 5 8 4 1 2 8 1 8 10 9 2 9 3 5 11 7 9 5 0 1 2 2 11 9 11 2 8 6
split_gain=38.0008 8.45545 7.13444 5.41736 2.2358 2.1225 1.95192 1.54165 1.36562 1.27231 1.6009 1.09106 1.04274 1.04146 0.671677 1.23962 0.516937 0.492252 0.352976 0.389329 0.292666 0.253903 0.154348 0.161694 0.328726 0.0349098 0.0285434 0.00651381 0.00451295 0.00193256 0.000844521 0.000378111 0.000254712 6.43713e-05 2.53552e-05 3.1529e-06
threshold=0.41090879373750006 0.34393939393900003 0.51666666666650019 0.34175342380050006 0.35128923393450001 0.33917463337800008 0.44412113222800004 0.10803734559400001 0.29395572042650003 0.31855017741500008 0.27448271183900003 0.39685111865250006 0.20762725055950004 0.39520591487000006 0.34186514465950002 0.48277125173700003 0.40538878842650006 0.33295107033600008 0.72107615557900007 0.49850299401200004 0.31602901590150007 0.21010868438100003 0.32873467282350005 0.0012440637146100004 0.073964578862350014 0.47763456878400007 0.42231701002600003 0.31554268102000005 0.19527762696750003 0.12025971968950001 0.31722876080350004 0.23868354479250004 0.38543662280050006 0.025743300486350002 0.72738095238050005 0.06912841052925002
decision_type=2 2 2 2 2 2 2 2 2 2 2 2 2 2 2 2 2 2 2 2 2 2 2 2 2 2 2 2 2 2 2 2 2 2 2 2
left_child=1 5 4 13 9 14 -6 -7 -9 -2 -11 12 -10 20 22 17 -5 21 19 -4 -3 -16 23 24 -1 26 27 29 -23 33 31 -31 -20 -25 -34 -35
right_child=2 3 18 16 6 7 -8 8 11 10 -12 -13 -14 -15 15 -17 -18 -19 32 -21 -22 28 -24 25 -26 -27 -28 -29 -30 30 -32 -33 34 35 -36 -37
leaf_value=-0.013645712711981365 -0.0047695448269715187 -0.012349673956632615 0.016874161844744402 0.014282427728176117 0.0062912165354459719 -0.01268915260831515 0.022436569589707588 0.0085362546402832553 0.0002654480663212863 -0.0017102034762501717 0.016368815362453461 0.0046984717249870305 -0.013875187654048205 0.0054711820049719376 -0.0073665477690242594 0.0033924564009621032 0.025003043020313438 -0.0041584408393612613 0.025749016404151916 0.024760225209696542 -0.0037959318608045581 -0.013405382579990797 -0.0089339182206562597 -0.013289655074477198 -0.0056711995974183084 -0.01113765360344024 -0.011708043396472932 -0.014342595778760457 -0.01432019334573012 -0.013611888312376464 -0.013846159832818167 -0.013349299903573662 0.025513858304304238 -0.013170630050202213 0.025584807246923448 -0.013195537141075842
leaf_count=28 37 20 34 23 39 36 36 29 22 24 25 24 32 22 21 21 22 27 20 29 20 28 35 20 24 21 25 21 26 26 21 29 34 24 20 27
internal_value=0 -0.131475 0.297362 0.126358 0.154631 -0.180131 0.28082 -0.0747778 -0.0145517 0.0445819 0.150276 -0.0834366 -0.162284 -0.0653375 -0.215663 -0.1534 0.390472 -0.198951 0.465097 0.410085 -0.161456 -0.240633 -0.241106 -0.24932 -0.199303 -0.261473 -0.265686 -0.270377 -0.276917 -0.268024 -0.271528 -0.269469 0.511932 -0.264273 0.510803 -0.263676
internal_count=972 674 298 107 161 567 75 143 107 86 49 78 54 62 424 123 45 102 137 63 40 75 301 266 52 214 193 168 54 147 76 55 74 71 54 51
shrinkage=0.05


Tree=6
num_leaves=39
num_cat=0
split_feature=2 12 13 11 9 11 2 5 0 9 0 4 11 1 9 2 1 8 6 9 12 11 4 11 7 9 11 8 2 10 2 1 2 7 2 5 4 6
split_gain=34.3098 7.6944 6.1464 5.18698 2.30785 1.98437 1.42423 1.70638 1.28481 1.1029 1.88446 1.02817 0.984879 0.945816 0.825169 0.69772 0.606188 1.11875 0.484714 0.749988 0.4241 0.341685 0.399562 0.139299 0.145929 0.296675 0.0467024 0.0351497 0.0349102 0.129275 0.00558456 0.00322793 0.00161046 0.000646931 4.10539e-05 3.32034e-05 1.25923e-06 9.62601e-07
threshold=0.41268426362550009 0.34393939393900003 0.51666666666650019 0.34175342380050006 0.4917804304695001 0.33917463337800008 0.082752919681750012 0.29395572042650003 0.42863758295900006 0.24979806138950003 0.36944171550450006 0.40638238929400011 0.35884609073300006 0.39685111865250006 0.33745790386800006 0.20762725055950004 0.34186514465950002 0.48277125173700003 0.19524901008350001 0.22853721444350003 0.88706739526400014 0.37437300677300006 0.47318832052950005 0.32873467282350005 0.0012440637146100004 0.073964578862350014 0.31892786575850002 0.77199432404500012 0.28260437936850008 0.25622556081500009 0.6933638716595002 0.31131827522050004 0.12025971968950001 0.034691490126250002 0.024691295297750004 0.36743568526500003 0.74259793897500015 0.067984928296700012
decision_type=2 2 2 2 2 2 2 2 2 2 2 2 2 2 2 2 2 2 2 2 2 2 2 2 2 2 2 2 2 2 2 2 2 2 2 2 2 2
left_child=1 5 4 11 8 16 -7 -8 9 -2 -11 14 -10 15 -3 -9 23 18 19 -18 -5 22 -4 24 25 -1 -20 30 31 -30 -23 32 34 -34 -26 37 -32 -36
right_child=2 3 21 20 -6 6 7 13 12 10 -12 -13 -14 -15 -16 -17 17 -19 26 -21 -22 27 -24 -25 28 -27 -28 -29 29 -31 36 -33 33 -35 35 -37 -38 -39
leaf_value=-0.012963427150888102 -0.0091470138728618616 -0.0056740917265415197 0.022377105874399988 0.014151939128835998 0.021496231436729435 -0.013378751123773642 0.0088349188212305304 -0.0022675342581890252 0.0048722930252552039 0.013073094237235287 -0.0043609067316978207 -0.011759815527045209 0.018836091329222142 0.0034173123240470887 0.0086887824535369883 -0.013181428331881762 -0.011498781932251794 0.0032228335028602964 -0.011413282012710205 0.00068660738027614097 0.023762883652340284 0.025233943405605499 0.013312449976801873 -0.0084872224075453629 -0.012630508616566657 -0.0053876395647724472 -0.014439973115921021 0.022166092172265055 -0.008127405531704426 -0.013166584521532061 0.024235195542375246 -0.013389486223459243 -0.012685132324695586 -0.013038088179923394 -0.012515305372930708 -0.01260114885866642 0.024252182990312579 -0.012530444420519329
leaf_count=28 20 20 31 24 25 29 32 27 28 31 31 23 23 25 20 32 28 21 26 23 22 21 20 35 20 24 25 20 20 35 24 20 20 37 21 20 20 21
internal_value=0 -0.123719 0.28531 0.119679 0.151164 -0.170345 -0.0693604 -0.0198067 0.0987657 0.0212531 0.0871219 -0.0667244 0.223394 -0.0946658 0.0301469 -0.163739 -0.204879 -0.14573 -0.189004 -0.120068 0.37497 0.441156 0.376447 -0.22905 -0.236854 -0.189338 -0.257939 0.479982 -0.248399 -0.226683 0.491262 -0.255911 -0.254202 -0.258285 -0.251364 -0.250962 0.484858 -0.250457
internal_count=972 678 294 109 158 569 145 116 133 82 62 63 51 84 40 59 424 123 102 51 46 136 51 301 266 52 51 85 214 55 65 159 139 57 82 62 44 42
shrinkage=0.05


Tree=7
num_leaves=39
num_cat=0
split_feature=2 12 13 11 9 11 3 5 0 9 7 11 13 12 3 11 1 9 1 5 2 7 0 4 8 7 7 7 7 9 11 8 6 1 11 2 2 8
split_gain=30.9646 6.98686 5.54712 3.75275 2.08283 1.64798 1.63254 1.52448 1.92712 1.57386 1.27918 1.47421 1.63849 1.09492 0.875026 0.751559 0.575634 1.10483 0.488305 0.473444 0.322128 0.398424 0.127032 0.100549 0.124384 0.159736 0.0943673 0.233013 0.0464484 0.027187 0.0138989 0.00559512 0.00131476 0.00114815 0.000903542 0.000438761 0.000329766 9.15976e-05
threshold=0.41268426362550009 0.30981158905050005 0.51666666666650019 0.34175342380050006 0.4917804304695001 0.34055287572950005 0.38487767023750002 0.34391168753300005 0.22543847676699999 0.33745790386800006 0.56106850704300004 0.32259854222700007 0.19523809523800004 0.56969696969700012 0.31904560836050005 0.32873467282350005 0.34186514465950002 0.31920962677300008 0.37294635978400009 0.20019427929400005 0.72107615557900007 0.50345398435550015 0.072197539302800026 0.21463471382050001 0.12308827286650002 0.0056862675295500003 0.17469154130350004 0.33144803820650004 0.27920837517250002 0.33849921630100005 0.32785797736950006 0.19761566036700001 0.00022113682459150004 0.28715598768850004 0.38543662280050006 0.12661432870250003 0.12661432870250003 0.72738095238050005
decision_type=2 2 2 2 2 2 2 2 2 2 2 2 2 2 2 2 2 2 2 2 2 2 2 2 2 2 2 2 2 2 2 2 2 2 2 2 2 2
left_child=1 5 4 6 10 16 15 8 -7 -10 11 -2 -13 -5 -14 -3 22 19 29 -18 21 -4 -1 24 32 -26 -27 -28 31 -9 33 -21 -24 35 -22 -25 -34 -36
right_child=2 3 20 13 -6 7 -8 18 9 -11 -12 12 14 -15 -16 -17 17 -19 -20 28 34 -23 23 30 25 26 27 -29 -30 -31 -32 -33 36 -35 37 -37 -38 -39
leaf_value=-0.0081526783678461529 -0.0013524788456994136 -0.012829483779413359 0.014415528671815992 0.0072273178646961858 0.020421419620513918 -0.0090747922382972863 0.0092534598850068598 -0.010938178114593029 -0.0017390049993991853 0.01696714169305304 -0.0066328794473693485 0.01964833967147335 -0.0024104679850014774 0.021781197935342791 0.011691643771800129 -0.00077167314787705745 -0.0039580762075881164 0.00055559562785284858 -0.0027800754457712176 -0.012537127733230591 0.023469388633966446 0.022436061104138691 -0.012648603255334108 -0.012002772428095341 -0.0055254843831062314 -0.01231847293674946 -0.005022869892418385 -0.012655245736241341 -0.01019490197300911 -0.013485295054587452 -0.013668880850076677 -0.013664787872271104 -0.012037909385703859 -0.012631979174911975 0.023026031255722047 -0.012296345702239447 -0.012321597114205361 0.023160882368683817
leaf_count=34 37 28 32 24 25 27 21 20 22 23 21 31 22 28 22 24 24 35 20 22 20 30 23 20 20 38 20 20 20 22 25 22 21 20 34 35 20 20
internal_value=0 -0.117533 0.271045 0.095985 0.143606 -0.165796 -0.0502529 -0.0692649 0.029713 0.156438 0.0938274 0.136293 0.216876 0.30128 0.0928118 -0.145287 -0.196668 -0.139169 -0.184207 -0.19894 0.419098 0.365929 -0.220561 -0.228024 -0.212632 -0.19024 -0.210683 -0.176781 -0.243856 -0.245448 -0.252958 -0.262019 -0.246921 -0.246151 0.463646 -0.243792 -0.243526 0.46152
internal_count=972 678 294 125 158 553 73 134 72 45 133 112 75 52 44 52 419 123 62 88 136 62 296 262 162 98 78 40 64 42 100 44 64 75 74 55 41 54
shrinkage=0.05


Tree=8
num_leaves=39
num_cat=0
split_feature=2 12 13 11 9 11 3 5 0 9 7 11 13 12 3 11 1 9 1 5 9 3 0 4 8 7 7 7 0 8 1 11 2 2 2 1 2 7
split_gain=27.9456 6.30564 5.00628 3.38685 1.87976 1.4873 1.47337 1.37584 1.73922 1.42041 1.15446 1.33047 1.47874 0.988168 0.789711 0.678282 0.51951 0.997113 0.440695 0.427283 0.301977 0.489802 0.114647 0.0907456 0.112257 0.144162 0.0851665 0.210294 0.0438157 0.0385758 0.0250595 0.0125438 0.00829945 0.00358631 0.00124221 0.0010362 0.000395982 4.62926e-05
threshold=0.41268426362550009 0.30981158905050005 0.51666666666650019 0.34175342380050006 0.4917804304695001 0.34055287572950005 0.38487767023750002 0.34391168753300005 0.22543847676699999 0.33745790386800006 0.56106850704300004 0.32259854222700007 0.19523809523800004 0.56969696969700012 0.31904560836050005 0.32873467282350005 0.34186514465950002 0.31920962677300008 0.37294635978400009 0.20019427929400005 0.4917804304695001 0.4902206133255001 0.072197539302800026 0.21463471382050001 0.12308827286650002 0.0056862675295500003 0.17469154130350004 0.33144803820650004 0.24135603085450005 0.36021530024800003 0.20361155157550004 0.32785797736950006 0.67929434204400008 0.19527762696750003 0.12661432870250003 0.28715598768850004 0.12661432870250003 0.73744248157800019
decision_type=2 2 2 2 2 2 2 2 2 2 2 2 2 2 2 2 2 2 2 2 2 2 2 2 2 2 2 2 2 2 2 2 2 2 2 2 2 2
left_child=1 5 4 6 10 16 15 8 -7 -10 11 -2 -13 -5 -14 -3 22 19 30 -18 21 -4 -1 24 34 -26 -27 -28 -21 -22 -9 35 -31 -30 -24 36 -25 -34
right_child=2 3 20 13 -6 7 -8 18 9 -11 -12 12 14 -15 -16 -17 17 -19 -20 28 29 -23 23 31 25 26 27 -29 33 32 -32 -33 37 -35 -36 -37 -38 -39
leaf_value=-0.007745044415487963 -0.0012848547181567632 -0.012188009625034673 0.013216789337721739 0.0068659521949787933 0.01940034866333008 -0.0086210527629763996 0.008790786954618636 -0.010437436224449249 -0.0016520548273216596 0.016118784767130148 -0.0063012354430698227 0.01866592255330855 -0.0022899445484985004 0.020692137735230584 0.011107061464678158 -0.00073308994372685754 -0.0037601725819210209 0.00052781624453408381 -0.0026410716027021408 -0.0096427072212100038 0.019876769930124286 0.023133013844490055 -0.01152821536575045 -0.011402633897960188 -0.0052492100745439533 -0.011702549183054974 -0.0047717263177037249 -0.012022483572363855 -0.012053129325310391 0.023238718360662464 -0.012880090198346548 -0.012985436737537385 0.021950218454003335 -0.012959696166217328 -0.011970726708913672 -0.012000380195677281 -0.011681528432028635 0.022054229935874109
leaf_count=34 37 28 33 24 25 27 21 21 22 23 21 31 22 28 22 24 24 35 20 20 20 20 35 20 20 38 20 20 24 20 21 25 20 20 29 20 35 23
internal_value=0 -0.111656 0.257492 0.0911857 0.136426 -0.157506 -0.0477402 -0.0658017 0.0282273 0.148616 0.089136 0.129479 0.206032 0.286216 0.0881712 -0.138022 -0.186834 -0.13221 -0.174997 -0.188993 0.398143 0.339175 -0.209533 -0.216622 -0.202 -0.180728 -0.200149 -0.167942 -0.231663 0.435798 -0.233175 -0.24031 0.447945 -0.249304 -0.234575 -0.233844 -0.231602 0.440117
internal_count=972 678 294 125 158 553 73 134 72 45 133 112 75 52 44 52 419 123 62 88 136 53 296 262 162 98 78 40 64 83 42 100 63 44 64 75 55 43
shrinkage=0.05


Tree=9
num_leaves=39
num_cat=0
split_feature=2 12 13 11 9 11 3 5 0 9 10 7 4 7 2 11 1 9 8 6 5 2 7 0 4 1 7 5 7 11 11 8 1 5 11 2 9 8
split_gain=25.2209 5.69084 4.51817 3.05664 1.69648 1.34229 1.32972 1.2417 1.56965 1.28192 1.10657 1.33836 1.88421 1.01621 0.894534 0.612149 0.468857 0.899894 0.433308 0.446126 0.385623 0.28316 0.348591 0.103469 0.081898 0.105843 0.163216 0.100696 0.0416295 0.03549 0.0113208 0.00473164 0.00305499 0.00291063 0.00168924 0.000985192 0.000452974 5.7233e-05
threshold=0.41268426362550009 0.30981158905050005 0.51666666666650019 0.34175342380050006 0.4917804304695001 0.34055287572950005 0.38487767023750002 0.34391168753300005 0.22543847676699999 0.33745790386800006 0.31455915218800007 0.48599779729600007 0.27946661821300006 0.23204466713000002 0.33477475859450007 0.32873467282350005 0.34186514465950002 0.31920962677300008 0.42294577169550002 0.47503647828849999 0.20019427929400005 0.72107615557900007 0.50345398435550015 0.072197539302800026 0.21463471382050001 0.135403367696 0.0052119132567350008 0.37132090915150001 0.27920837517250002 0.26176942593000002 0.32785797736950006 0.19761566036700001 0.27862992901550004 0.31844418524450008 0.38543662280050006 0.29595506350400008 0.24154986251750002 0.72738095238050005
decision_type=2 2 2 2 2 2 2 2 2 2 2 2 2 2 2 2 2 2 2 2 2 2 2 2 2 2 2 2 2 2 2 2 2 2 2 2 2 2
left_child=1 5 4 6 10 16 15 8 -7 -10 13 12 -12 -2 -5 -3 23 20 19 -9 -18 22 -4 -1 25 33 -27 29 31 -28 35 -22 -31 -25 -23 36 -26 -36
right_child=2 3 21 14 -6 7 -8 18 9 -11 11 -13 -14 -15 -16 -17 17 -19 -20 -21 28 34 -24 24 30 26 27 -29 -30 32 -32 -33 -34 -35 37 -37 -38 -39
leaf_value=-0.0073577921399298838 0.0050069652497768402 -0.011578609075929438 0.01278921226039529 0.0067800794839859013 0.018430331707000733 -0.0081899999468414888 0.0083512477221943087 -0.00027472504547664098 -0.0015694522044875404 0.015312845551449321 0.00096463920040564108 -0.0020643576979637148 0.019855341766819811 -0.0086424068808555604 0.019905651774671344 -0.00069643501192331316 -0.0035721638550361002 0.00050142539399010801 -0.01436968233436346 -0.010581054503009432 -0.011345259608192878 0.021392670199275016 0.020291411727666856 -0.011098066018894315 -0.011169217696244066 -0.0046140764653682708 -0.0088835089044137436 -0.0064992506802082064 -0.0091125777363777177 -0.010967806354165078 -0.012336164951324464 -0.012382261319593951 -0.011789769269526004 -0.011845157972790978 0.02081526850952822 -0.011398168724207652 -0.010874492395669223 0.020921863242983819
leaf_count=34 30 28 32 25 25 27 21 21 22 23 22 23 33 25 27 24 24 35 20 21 22 20 30 32 22 20 22 20 20 26 25 22 20 22 34 21 32 20
internal_value=0 -0.106073 0.244618 0.0866264 0.129604 -0.149631 -0.0453532 -0.0625116 0.026816 0.141186 0.0846792 0.161274 0.245981 -0.0239459 0.271906 -0.131121 -0.177493 -0.1256 -0.166247 -0.108558 -0.179543 0.378236 0.328386 -0.199056 -0.205791 -0.1919 -0.173826 -0.192359 -0.22008 -0.210705 -0.228294 -0.237275 -0.226504 -0.228049 0.420003 -0.222151 -0.219891 0.417095
internal_count=972 678 294 125 158 553 73 134 72 45 133 78 55 55 52 52 419 123 62 42 88 136 62 296 262 162 108 88 64 68 100 44 46 54 74 75 54 54
shrinkage=0.05


Tree=10
num_leaves=39
num_cat=0
split_feature=2 12 13 11 2 10 3 1 4 5 1 10 6 5 11 10 7 2 9 9 10 9 3 11 3 0 0 2 8 2 1 1 7 4 2 10 4 7
split_gain=22.7618 5.23696 4.07765 2.58612 1.62736 1.85454 1.47943 1.66255 1.48401 0.939885 0.672056 0.817185 1.25463 0.590811 0.511219 0.434028 0.43347 0.39343 0.378634 0.370859 0.355748 0.264566 0.431292 0.251757 0.163248 0.207485 0.0645904 0.041541 0.0343386 0.0105399 0.00961516 0.00947739 0.00208065 0.00141477 0.000819211 0.000316411 6.39483e-05 4.32391e-05
threshold=0.41268426362550009 0.71130952380950008 0.51666666666650019 0.32873467282350005 0.71779657538350017 0.31455915218800007 0.19190726981700004 0.39079750594750001 0.40638238929400011 0.33338522208350002 0.14481646825400002 0.2493902439025 0.35252261164500004 0.39488800978150007 0.34375958953300007 0.30048543689300006 0.23204466713000002 0.12025971968950001 0.33913438256650003 0.35920877659550005 0.07727906050955001 0.4917804304695001 0.4902206133255001 0.34741503051200012 0.52859518739850009 0.16897049835600006 0.42231701002600003 0.017302260547750001 0.36021530024800003 0.67929434204400008 0.33329081651200004 0.37294635978400009 0.0022750370906900004 0.28642710673350008 0.29595506350400008 0.3126827485380001 0.069637988872150017 0.73744248157800019
decision_type=2 2 2 2 2 2 2 2 2 2 2 2 2 2 2 2 2 2 2 2 2 2 2 2 2 2 2 2 2 2 2 2 2 2 2 2 2 2
left_child=1 3 4 17 5 16 18 10 -9 14 15 -12 -13 -11 -7 -8 -2 27 -5 20 -19 22 -4 -14 25 -22 30 -1 -23 -30 34 32 -29 35 -27 36 -34 -31
right_child=2 -3 21 6 -6 9 7 8 -10 13 11 12 23 -15 -16 -17 -18 19 -20 -21 24 28 -24 -25 -26 26 -28 31 29 37 -32 -33 33 -35 -36 -37 -38 -39
leaf_value=-0.0084256313368678091 0.0010248418610829574 0.013251910298257261 0.01169511815815261 -0.0046625829217108814 0.01814650899420182 -0.0015959984582403432 0.0080151137337088601 0.01536288969218731 -0.0024697249382734303 0.020212822332978247 -0.011493045487441123 0.004523194463629472 -0.0040732636675238614 0.0080595213174819956 0.0093342167884111395 -0.0024015552923083308 -0.0081961573958396917 -0.0027077831901036777 -0.013298520371317863 -0.0025021429447566763 -0.0055390223860740662 0.017923470288515094 0.021000231578946114 -0.011911679875283014 -0.0050664448543735179 -0.010591374096624993 -0.008569243347102946 -0.011033349404377599 0.02124976731836796 0.019806658625602724 -0.011804666646889278 -0.011703673805351611 -0.010266137979924679 -0.01086983353547428 -0.010994657501578332 -0.010572703555226326 -0.010391063668898174 0.019907181224097376
leaf_count=20 26 37 33 22 24 23 20 28 20 20 32 38 20 20 20 20 25 26 30 34 26 20 20 21 23 34 33 28 20 20 35 27 20 23 20 20 21 23
internal_value=0 -0.10077 0.232387 -0.121885 0.123124 0.0801739 -0.0427093 -0.00346422 0.158653 0.172391 -0.0549981 -0.0950462 -0.0404378 0.282723 0.0697565 0.0561356 -0.0699051 -0.172841 -0.192897 -0.146491 -0.163136 0.359325 0.30413 -0.161761 -0.179707 -0.191887 -0.209172 -0.211125 0.394569 0.40603 -0.223183 -0.217256 -0.213202 -0.210713 -0.214815 -0.208193 -0.206602 0.397209
internal_count=972 678 294 641 158 134 251 199 48 83 151 111 79 40 43 40 51 390 52 231 197 136 53 41 171 148 122 159 83 63 89 139 112 84 54 61 41 43
shrinkage=0.05


Tree=11
num_leaves=39
num_cat=0
split_feature=2 12 13 11 2 9 3 1 4 5 5 10 1 10 6 9 10 2 9 10 11 2 10 0 10 4 9 9 2 1 12 11 7 4 11 6 1 5
split_gain=20.5464 4.75368 3.88636 2.24876 1.5112 1.59305 1.41181 1.52248 1.33932 1.02318 1.52911 1.36358 0.630619 0.706594 0.962243 0.422744 0.39171 0.355071 0.3347 0.321063 0.237461 0.233675 0.320746 0.209084 0.161862 0.192901 0.0519908 0.110498 0.0374907 0.00855334 0.00396497 0.00256815 0.00187778 0.00127683 0.000541811 0.000285698 7.44153e-05 2.42431e-05
threshold=0.41090879373750006 0.71130952380950008 0.51666666666650019 0.32873467282350005 0.71779657538350017 0.27210119188550003 0.19190726981700004 0.39079750594750001 0.40638238929400011 0.43543097959150007 0.33338522208350002 0.35198226395400006 0.14481646825400002 0.2493902439025 0.35252261164500004 0.33913438256650003 0.30048543689300006 0.12025971968950001 0.35920877659550005 0.07727906050955001 0.34902493752200009 0.72107615557900007 0.42912946428550008 0.38069924356700008 0.3295277633630001 0.20911896215150003 0.23595948568650002 0.15283854166650004 0.017302260547750001 0.37294635978400009 0.018899733806550006 0.38543662280050006 0.0022750370906900004 0.28642710673350008 0.30297706625400006 0.19154219449150003 0.49962121212100002 0.26882402801450006
decision_type=2 2 2 2 2 2 2 2 2 2 2 2 2 2 2 2 2 2 2 2 2 2 2 2 2 2 2 2 2 2 2 2 2 2 2 2 2 2
left_child=1 3 4 17 5 -2 15 12 -9 10 11 -7 16 -14 -15 -5 -8 28 19 -19 -16 22 -4 -24 26 -26 27 -21 -1 32 34 -23 -30 35 -28 37 -33 -34
right_child=2 -3 21 6 -6 9 7 8 -10 -11 -12 -13 13 14 20 -17 -18 18 -20 24 -22 31 23 -25 25 -27 30 -29 29 -31 -32 36 33 -35 -36 -37 -38 -39
leaf_value=-0.0080043498054146768 -0.0055663499236106879 0.012589314298049823 0.009839197780404773 -0.0044294536791064524 0.017239184180895487 0.012853684879484632 0.0076143578812479977 0.014594744624836105 -0.0023462385684251789 -0.0033437408506870273 0.017181657510144371 -0.0042765349149703983 -0.010918393405154348 0.0037331256109314997 -0.0036017755046486855 -0.013691423514059612 -0.0022814776748418808 -0.0025723939904799828 -0.0023770357756053703 -0.010528565725932519 -0.01130665421485901 0.019511939659714702 0.013707291260361671 0.020770938423546881 -0.0086291749468621094 -0.0025342276053769248 -0.0099296282444681448 -0.0054964241012930874 -0.010481681994029456 -0.011118490110944819 -0.010861825048923494 0.01877509994166238 -0.0097718460112810133 -0.010326341993134956 -0.010288797744682858 -0.010038516599507559 0.018895501304756514 -0.0098496970161795622
leaf_count=20 35 37 21 22 24 21 20 28 20 20 35 26 32 37 20 28 20 26 34 24 20 20 20 22 34 21 21 20 28 27 30 21 20 23 21 21 33 20
internal_value=0 -0.0966747 0.218653 -0.116915 0.113309 0.0727589 -0.0422554 -0.00416709 0.15072 0.135926 0.185389 0.0675479 -0.0540636 -0.0934737 -0.0415696 -0.192323 0.0533288 -0.164199 -0.139166 -0.15498 -0.149084 0.342452 0.297692 0.348146 -0.170721 -0.12604 -0.191906 -0.164825 -0.200568 -0.206393 -0.208456 0.380559 -0.202542 -0.200178 -0.202184 -0.197784 0.376974 -0.196215
internal_count=972 674 298 637 161 137 247 197 48 102 82 47 149 109 77 50 40 390 231 197 40 137 63 42 171 55 116 44 159 139 72 74 112 84 42 61 54 40
shrinkage=0.05


Tree=12
num_leaves=40
num_cat=0
split_feature=2 12 9 11 2 12 3 11 6 10 1 2 5 2 6 11 1 11 11 8 2 3 8 3 11 7 2 13 11 1 11 5 2 1 4 7 8 7 1
split_gain=18.5509 4.4007 3.3716 2.47771 2.08104 1.43085 1.16063 1.08218 1.12092 1.10428 1.04856 1.22907 1.6889 1.38095 0.764975 0.737546 0.719737 0.495049 0.406389 0.303838 0.265946 0.234371 0.175984 0.198815 0.412192 0.126734 0.0876977 0.0548027 0.0513298 0.0374533 0.03305 0.0305139 0.00652597 0.00526318 0.00417516 0.00288487 0.00171096 0.000524464 3.62315e-05
threshold=0.41268426362550009 0.30981158905050005 0.4917804304695001 0.34175342380050006 0.72107615557900007 0.70638945233250017 0.38487767023750002 0.32259854222700007 0.33246437261000006 0.35063086628750006 0.34186514465950002 0.12116998666100001 0.32639397204450005 0.24832364741100002 0.37259091061650002 0.35581619047250007 0.36195239274950003 0.32873467282350005 0.40885881551750008 0.35056843114800001 0.24832364741100002 0.71041516577900021 0.35056843114800001 0.36537372318050004 0.34103293807850005 0.0012440637146100004 0.28260437936850008 0.90148433597350008 0.33144792166700004 0.24238764456150005 0.3348384044255 0.40222229081150007 0.73291464442650012 0.2550814709055001 0.029258903797650004 0.20491575034450002 0.43952455590400008 0.17803691923750004 0.56831709956700005
decision_type=2 2 2 2 2 2 2 2 2 2 2 2 2 2 2 2 2 2 2 2 2 2 2 2 2 2 2 2 2 2 2 2 2 2 2 2 2 2 2
left_child=1 10 4 6 5 7 17 -2 16 -10 18 35 13 -13 -5 20 -9 -3 21 -4 -14 22 23 24 25 -1 31 -21 29 34 36 33 -29 37 -25 -12 -24 -27 -34
right_child=2 3 19 14 -6 -7 -8 8 9 -11 11 12 15 -15 -16 -17 -18 -19 -20 27 -22 -23 30 28 -26 26 -28 32 -30 -31 -32 -33 38 -35 -36 -37 -38 -39 -40
leaf_value=-0.005013500473328999 -0.0052588769479801787 -0.010540312502001013 0.01292298154698478 0.019633017835162938 0.017797412023399819 0.014894301593303681 0.007903641320410229 0.017749405652284621 -0.0089191458764530367 0.0061360128480812603 -0.010393496230244638 -0.0017502671231826147 -0.0047597197815775873 0.013836438815902781 0.0072734087224929564 0.001940228683607919 0.0043354462087154396 -0.00075417620440324147 -0.0017375880479812624 0.021245935701188587 -0.012203202669819196 -0.003757554435959229 -0.010483583211898804 -0.010614822364666245 -0.00085323857872382459 -0.0094768302964753134 -0.0059677674394586818 0.01901562824845314 -0.012042159619538681 -0.0075573716844831197 -0.012397052153297094 -0.0077586050060662361 0.017957041710615157 -0.010569387413561344 -0.0096291785438855498 -0.011242742203176023 -0.0098940597148612155 -0.0097830555781170184 0.01786186881363392
leaf_count=28 38 28 27 21 33 25 21 20 21 29 20 30 20 27 31 21 20 24 25 21 30 26 20 22 23 29 23 20 23 21 23 22 20 20 21 20 32 27 20
internal_value=0 -0.090972 0.209793 0.0784826 0.128191 0.0790666 -0.0403432 0.0363284 0.0960754 -0.00374308 -0.129275 -0.0633565 -0.0155422 0.112658 0.245296 -0.118464 0.220849 -0.120473 -0.15804 0.350329 -0.184516 -0.166602 -0.173721 -0.161369 -0.141664 -0.160897 -0.174927 0.380952 -0.200325 -0.185764 -0.216377 -0.187969 0.365564 -0.197463 -0.202669 -0.216362 -0.202416 -0.192489 0.358189
internal_count=972 678 294 125 186 153 73 128 90 50 553 168 128 57 52 71 40 52 385 108 50 360 334 259 172 149 121 81 87 64 75 98 60 76 43 40 52 56 40
shrinkage=0.05


Tree=13
num_leaves=40
num_cat=0
split_feature=13 2 11 2 11 6 8 4 7 8 0 8 10 9 13 6 10 5 6 2 2 5 2 6 8 8 10 2 11 5 5 11 0 4 7 1 0 7 8
split_gain=16.8276 5.58021 1.90279 1.69794 1.71442 1.52687 1.29848 1.70599 1.29042 1.16207 1.05587 1.23944 1.05301 1.03453 0.763553 0.638114 0.359916 0.326001 0.331942 0.396604 0.434313 0.300204 0.778414 0.290363 0.0934266 0.228162 0.0512729 0.0386396 0.0376861 0.0333227 0.046529 0.0368113 0.0320702 0.0230022 0.012789 0.0060734 0.00286055 0.0010381 0.000661186
threshold=0.51666666666650019 0.39449130664200011 0.35128923393450001 0.12025971968950001 0.33963506852900005 0.35252261164500004 0.3827610043300001 0.27448271183900003 0.23822117858000003 0.11005218353700001 0.44412113222800004 0.36774160524150007 0.44258241758250011 0.35920877659550005 0.90148433597350008 0.34103216278300003 0.07727906050955001 0.43543097959150007 0.23119768458750004 0.24832364741100002 0.31465394463750002 0.33318687756300003 0.5851602334335001 0.49590881778250001 0.33156386653800007 0.46243607389300007 0.71563342318050005 0.67929434204400008 0.35235834312050002 0.25071853913550007 0.32299118004900007 0.32618253839650008 0.29102611331350009 0.36483949513000008 0.64444411029400006 0.36410984848450006 0.056855533722149999 0.0030475187086650003 0.11005218353700001
decision_type=2 2 2 2 2 2 2 2 2 2 2 2 2 2 2 2 2 2 2 2 2 2 2 2 2 2 2 2 2 2 2 2 2 2 2 2 2 2 2
left_child=1 3 6 24 13 8 9 -8 -6 -3 11 -4 23 16 -2 -15 -5 18 19 32 -21 27 -23 -7 28 -26 34 -16 33 -20 -31 -32 -18 35 -24 36 -1 -38 -39
right_child=14 2 10 4 5 12 7 -9 -10 -11 -12 -13 -14 15 21 -17 17 -19 29 20 -22 22 26 -25 25 -27 -28 -29 -30 30 31 -33 -34 -35 -36 -37 37 38 -40
leaf_value=-0.0098072819411754615 0.0069750206124398022 0.0035458560694347726 0.013334584945724124 -0.0016378228366374971 -9.6337373058001208e-05 -0.0036401489241556688 -0.0032147405264170274 0.016260772164572369 0.015981524609602418 -0.011479718670729668 0.016342646303849344 -0.0040574571490287785 0.0050517002046108249 0.0073162006295245628 0.020192041669202888 -0.004895453490316868 -0.0078502645208076999 -0.0025497867886362406 -0.0122137501090765 0.0022286781533197922 -0.0074972966375450303 0.0067794895834392965 0.018790778443217276 -0.011674882050441661 -0.0029476533457636835 -0.010051101331527416 0.014803728461265564 0.017447782796004726 -0.011298984467983247 -0.0079281434416770945 -0.0095301502517291491 -0.012263250215487048 -0.010401294673127788 -0.0076215998083353047 0.017078816952804724 -0.010225458585080647 -0.0094154319167137155 -0.0087977172061800956 -0.0091620496502428355
leaf_count=21 31 22 21 30 24 22 23 22 26 31 39 20 25 23 23 20 22 29 20 22 24 27 20 23 20 26 20 29 25 21 28 22 28 20 24 21 25 20 33
internal_value=0 -0.06144 0.0946265 -0.106246 -0.0686586 0.0318157 0.00121133 0.126132 0.165283 -0.104854 0.20906 0.0970132 -0.063518 -0.110378 0.281777 0.0327272 -0.135392 -0.149647 -0.164946 -0.123926 -0.0569149 0.31262 0.277984 -0.154936 -0.179106 -0.139253 0.338057 0.373232 -0.190216 -0.20822 -0.198064 -0.214654 -0.185577 -0.18383 0.35714 -0.189063 -0.185786 -0.182997 -0.180491
internal_count=972 798 178 620 409 120 98 45 50 53 80 41 70 289 174 43 246 216 187 96 46 143 91 45 211 46 64 52 165 91 71 50 50 140 44 120 99 78 53
shrinkage=0.05


Tree=14
num_leaves=41
num_cat=0
split_feature=2 12 9 11 2 9 3 2 1 4 2 8 4 11 1 6 11 9 1 0 0 13 8 5 6 2 3 3 0 2 13 9 7 2 4 2 5 7 10 7
split_gain=15.19 3.74475 2.80573 1.76583 1.75611 1.24708 1.19603 1.27456 1.30034 0.796185 0.686497 0.859952 1.81268 0.648601 0.630846 0.77025 1.28816 0.340513 0.273824 0.360115 1.06264 0.38919 0.266158 0.248603 0.210173 0.258195 0.190625 0.0595565 0.0903383 0.172732 0.0580575 0.0461893 0.0460052 0.0130251 0.0135991 0.00582616 0.00476014 0.00231519 0.00141021 4.13995e-05
threshold=0.41268426362550009 0.71130952380950008 0.4917804304695001 0.32873467282350005 0.72107615557900007 0.27210119188550003 0.19190726981700004 0.12744535722300002 0.39079750594750001 0.39426653343900003 0.43702585057400006 0.3827610043300001 0.35271144992350006 0.36155527219100003 0.14481646825400002 0.35252261164500004 0.34250360752400005 0.33913438256650003 0.24238764456150005 0.393909815188 0.46319237800100005 0.19523809523800004 0.35056843114800001 0.41869814401950006 0.18511499093850001 0.21680331545850004 0.36877611645400005 0.32372708326600003 0.16897049835600006 0.073132602297250007 0.90148433597350008 0.33295107033600008 0.06902594124520002 0.12661432870250003 0.027875915415000004 0.73291464442650012 0.33150853980850009 0.14360704911900005 0.21935138987900002 0.77395073692250016
decision_type=2 2 2 2 2 2 2 2 2 2 2 2 2 2 2 2 2 2 2 2 2 2 2 2 2 2 2 2 2 2 2 2 2 2 2 2 2 2 2 2
left_child=1 3 4 18 5 -2 17 26 14 -10 -7 12 -12 -13 -9 16 -16 -5 27 21 -21 24 -4 -17 25 32 -8 28 29 -1 -24 36 -20 38 -35 -32 -26 -30 -29 -37
right_child=2 -3 22 6 -6 10 7 8 9 -11 11 13 -14 -15 15 23 -18 -19 19 20 -22 -23 30 -25 31 -27 -28 33 37 -31 35 -33 -34 34 -36 39 -38 -39 -40 -41
leaf_value=-0.0088365515613037619 -0.0043392024150020201 0.011350601830997982 0.011602857322604569 -0.0037646541541272944 0.01623110491217989 0.013630914315581322 -0.0044994902238249777 0.0058176275076610709 0.015804958408293518 0.0021643931046128272 0.0092801518738269816 0.013539630493947439 -0.012007633820176125 0.0022077806617902675 -0.0070874151587486268 -0.010492713692096565 0.010445441373369911 -0.01195433167119821 -0.006661205925047398 0.0060624134472825313 -0.0087411878009637199 -0.0010470771919126097 0.019597814409505754 -0.0030778965353965761 -0.0096800502212274642 -0.0015103771927810852 -0.011402840241789818 -0.008547860178454169 -0.0087222163715670181 -0.0024830731749534607 0.017239988446235657 -0.011941706761717796 -0.010052561275660992 -0.010921363793313503 -0.0092011738430570669 0.01614393934607506 -0.0086388535797595981 -0.0094122219458222384 -0.0090858679442178646 0.016245673671364785
leaf_count=23 38 37 27 22 33 24 20 28 23 20 20 28 20 23 20 26 22 30 20 22 27 23 21 20 21 21 20 29 31 20 20 22 20 20 27 20 23 20 21 20
internal_value=0 -0.0823198 0.18984 -0.100175 0.1154 0.0702734 -0.0347506 0.000535858 0.0406765 0.18921 0.122171 0.0824921 -0.0272748 0.168584 -0.0143834 -0.0559812 0.0419292 -0.169789 -0.142282 -0.116322 -0.0418935 -0.140636 0.318041 -0.145378 -0.162313 -0.119998 -0.159023 -0.169328 -0.15139 -0.117629 0.346703 -0.201422 -0.167138 -0.186711 -0.198663 0.330864 -0.182716 -0.179856 -0.175476 0.323896
internal_count=972 678 294 641 186 153 251 199 159 43 115 91 40 51 116 88 42 52 390 199 49 150 108 46 127 61 40 191 94 43 81 66 40 97 47 60 44 51 50 40
shrinkage=0.05


Tree=15
num_leaves=39
num_cat=0
split_feature=13 2 11 9 2 6 11 3 8 4 8 5 12 13 8 1 11 4 5 2 0 0 7 3 2 1 0 6 0 1 11 10 2 7 2 5 8 1
split_gain=13.9145 4.48853 1.64076 1.45475 1.37596 1.55266 1.74573 1.17021 1.1254 1.48249 1.02107 0.960569 0.680402 0.640817 0.384895 0.360275 0.93401 0.349186 0.259625 0.646577 0.257083 0.281473 0.29845 0.218758 0.34511 0.180674 0.149573 0.16525 0.247233 0.406878 0.0845904 0.0492105 0.0396537 0.014108 0.0100806 0.00781515 0.00363308 0.00149499
threshold=0.51666666666650019 0.39449130664200011 0.35128923393450001 0.33356610800750003 0.20873936170600002 0.34985482140850005 0.32930416574750004 0.33616063706000004 0.3827610043300001 0.27448271183900003 0.11005218353700001 0.30138363009750008 0.21513102282350002 0.90148433597350008 0.12668383655750001 0.31021905349950007 0.34055287572950005 0.40839614096100002 0.33318687756300003 0.5851602334335001 0.43788429733400003 0.36944171550450006 0.40795283603700006 0.47360467581150006 0.20162950551500003 0.35923358414950002 0.31822773673350002 0.16568487247100003 0.14445071752500002 0.21059495752950003 0.33395036001100004 0.71563342318050005 0.67929434204400008 0.64444411029400006 0.12744535722300002 0.32204442021200003 0.28365539452500005 0.050732600732600004
decision_type=2 2 2 2 2 2 2 2 2 2 2 2 2 2 2 2 2 2 2 2 2 2 2 2 2 2 2 2 2 2 2 2 2 2 2 2 2 2
left_child=1 3 8 15 14 6 -6 -7 10 -10 -3 -4 -13 -2 -5 23 20 -16 32 -20 21 22 25 26 -25 -17 27 34 -29 -30 36 33 -15 -21 37 -27 -28 -1
right_child=13 2 11 4 5 7 -8 -9 9 -11 -12 12 -14 18 17 16 -18 -19 19 31 -22 -23 -24 24 -26 35 30 28 29 -31 -32 -33 -34 -35 -36 -37 -38 -39
leaf_value=-0.0088690054913361863 0.0062944195203242766 0.0031687685034491801 0.018414121595295995 8.5116662085056311e-05 -0.0023779467493295673 -0.0095031322731125752 0.016692785422007243 0.0053820236545542022 -0.0031931121388207315 0.014961935545910488 -0.010915783600461099 0.00091198533773422246 0.01174943255526679 0.018592979337858119 -0.0041394949680374519 -0.0046363028830715587 0.0045821864468355974 -0.011644177162839522 0.0061248964733547637 0.01726675160229206 -0.010382310301065446 0.00034928508102893829 -0.00082172233611345303 -0.0080413163872435686 -1.1771334254223368e-05 -0.010536812916398049 -0.0085534112794058668 -0.0094941171316000137 0.0019458095729351045 -0.0076222374439239501 -0.012979063205420971 0.013294768929481508 0.015812943773023013 0.015468675084412098 -0.0097239070236682899 -0.0091711705719882807 -0.0094950289651751524 -0.0083457398108946965
leaf_count=21 31 22 22 20 20 31 30 23 23 22 31 30 28 23 31 28 24 31 27 20 28 20 20 32 23 20 21 26 20 25 20 20 29 24 25 22 20 39
internal_value=0 -0.0558695 0.084101 -0.0960545 -0.0220621 0.0543104 0.18129 -0.0632632 -0.00264396 0.113654 -0.101387 0.190364 0.122877 0.256229 -0.118925 -0.127766 -0.090432 -0.157837 0.284485 0.252275 -0.122097 -0.100321 -0.124167 -0.150001 -0.0936701 -0.154948 -0.164278 -0.147861 -0.11225 -0.0673954 -0.206263 0.307025 0.340851 0.32572 -0.177607 -0.19643 -0.180255 -0.170578
internal_count=972 798 178 620 186 104 50 54 98 45 53 80 58 174 82 434 162 62 143 91 138 110 90 272 55 70 217 156 71 45 61 64 52 44 85 42 41 60
shrinkage=0.05


Tree=16
num_leaves=37
num_cat=0
split_feature=13 2 11 9 2 6 11 3 8 4 8 0 0 2 8 11 4 1 11 4 2 2 3 2 12 9 5 5 11 11 2 0 7 2 2 8
split_gain=12.5579 4.0509 1.48078 1.31292 1.24181 1.40128 1.57552 1.05611 1.01567 1.33795 0.921514 0.900749 1.12558 0.605146 0.347367 0.345734 0.632593 0.325148 0.844152 0.31514 0.270306 0.34753 0.19743 0.311461 0.144109 0.141574 0.12777 0.115035 0.126866 0.114447 0.0885008 0.0306334 0.00426327 0.00107161 0.000627628 0.000382877
threshold=0.51666666666650019 0.39449130664200011 0.35128923393450001 0.33356610800750003 0.20873936170600002 0.34985482140850005 0.32930416574750004 0.33616063706000004 0.3827610043300001 0.27448271183900003 0.11005218353700001 0.44412113222800004 0.34352501168750005 0.34262091639500009 0.12668383655750001 0.37437300677300006 0.39823616481950003 0.31021905349950007 0.34175342380050006 0.40839614096100002 0.28457581266199999 0.19817803035400003 0.47360467581150006 0.20162950551500003 0.29217479674800007 0.099679487179500023 0.31570960785850005 0.18144275931400003 0.34175342380050006 0.32477780894350011 0.67080287320600007 0.48319405921550007 7.4673730208200012e-05 0.12661432870250003 0.044718773617950007 0.63650793650800008
decision_type=2 2 2 2 2 2 2 2 2 2 2 2 2 2 2 2 2 2 2 2 2 2 2 2 2 2 2 2 2 2 2 2 2 2 2 2
left_child=1 3 8 17 14 6 -6 -7 10 -10 -3 12 -4 -2 -5 16 -15 22 20 -16 21 25 24 -24 27 -19 -27 -1 29 32 -17 -32 -29 34 -34 -33
right_child=13 2 11 4 5 7 -8 -9 9 -11 -12 -13 -14 15 19 30 -18 18 -20 -21 -22 -23 23 -25 -26 26 -28 28 -30 -31 31 35 33 -35 -36 -37
leaf_value=-0.0049211889701454266 0.0039886598289012908 0.0030103301121429966 0.012356866821646691 8.0860815942287458e-05 -0.0022590494155883788 -0.0090279757495849364 0.015858146101236342 0.0051129227099211321 -0.0030334564654723459 0.014213838902386753 -0.010369994491338731 0.014482116852051172 -0.0042170597683815732 0.014551415749722059 -0.0039325201703656106 0.017387361526489259 0.0041981874704360963 -0.0028680277480320499 0.0050568696643624993 -0.011061968221779794 -0.0092926852993275005 0.00017181841035683951 -0.0076392505317926414 -1.1182770780895068e-05 -0.011847162842750551 -0.010321208989868562 -0.0053072453924903167 -0.0087428084858085803 -0.011253179490566255 -0.0045928434565149509 0.012471164911985397 0.014999744519591332 -0.008011293648318811 -0.0081819560272353049 -0.0076451186537742624 0.014700618062330329
leaf_count=38 20 22 20 20 20 31 30 23 23 22 31 39 21 36 31 30 25 22 21 31 38 30 32 23 20 24 27 23 25 29 20 20 22 35 25 23
internal_value=0 -0.053076 0.079896 -0.0912518 -0.020959 0.0515949 0.172225 -0.0601 -0.00251176 0.107971 -0.0963179 0.180845 0.0773556 0.243417 -0.112979 0.26467 0.206166 -0.121377 -0.0859104 -0.149945 -0.113769 -0.0871741 -0.142501 -0.0889866 -0.156065 -0.124411 -0.153335 -0.147853 -0.159667 -0.147466 0.303044 0.281756 -0.162825 -0.15945 -0.15633 0.296795
internal_count=972 798 178 620 186 104 50 54 98 45 53 80 41 174 82 154 61 434 162 62 141 103 272 55 217 73 51 197 159 134 93 63 105 82 47 43
shrinkage=0.05


Tree=17
num_leaves=40
num_cat=0
split_feature=12 2 2 11 11 3 2 1 4 12 10 3 4 1 11 4 1 11 9 4 0 0 0 2 6 3 2 7 6 8 5 9 11 2 7 8 9 1 1
split_gain=11.5049 4.51643 1.4016 1.28597 1.18513 1.06388 1.01402 1.02432 0.711201 0.961824 0.727917 0.718749 0.673401 0.579067 0.53459 1.15473 0.506908 0.831866 0.395972 0.246698 0.230161 0.719458 0.221035 0.375028 0.472268 0.171518 0.152737 0.109179 0.25143 0.099276 0.0986522 0.0380113 0.036658 0.0209219 0.0107776 0.0107457 0.00255062 0.00161571 0.00085524
threshold=0.70638945233250017 0.41090879373750006 0.72107615557900007 0.32873467282350005 0.32259854222700007 0.19190726981700004 0.12744535722300002 0.39079750594750001 0.36483949513000008 0.34393939393900003 0.37161172161200001 0.31308200922150003 0.39426653343900003 0.14481646825400002 0.37041681842150004 0.40638238929400011 0.25833853408250007 0.33963506852900005 0.33913438256650003 0.072842271056750021 0.393909815188 0.43639572932300003 0.29102611331350009 0.22121676509250002 0.32686673341800004 0.36877611645400005 0.54806893780600008 0.032548717602450004 0.010137540813400002 0.7495210727970002 0.29497110082900008 0.32866927592950007 0.097066515328150013 0.11718212986250003 0.5554383360145001 0.33666456584000004 0.28436817915650009 0.28810098017600011 0.25404667328700009
decision_type=2 2 2 2 2 2 2 2 2 2 2 2 2 2 2 2 2 2 2 2 2 2 2 2 2 2 2 2 2 2 2 2 2 2 2 2 2 2 2
left_child=1 3 4 20 19 18 25 13 11 10 -10 -6 -9 -8 15 -2 -15 -18 -5 -3 22 -22 23 27 -25 -7 -16 28 32 34 -23 35 -1 36 -28 37 38 -24 -29
right_child=14 2 -4 5 8 6 7 12 9 -11 -12 -13 -14 16 26 -17 17 -19 -20 -21 21 30 31 24 -26 -27 29 33 -30 -31 -32 -33 -34 -35 -36 -37 -38 -39 -40
leaf_value=-0.0056801686063408857 0.013789751159178243 -0.0084602414444088937 0.015629598438739779 -0.0030438568443059925 0.0040151491437269296 -0.0037297075614333153 0.005678637831338814 0.014324423217255137 0.00014659595631417774 -0.0058185382435719177 0.013311459975583213 0.016515138810095583 0.0017796684801578524 -0.0081248464062809948 0.018292651999564397 -0.00088984416354270205 -0.0073195677736531128 0.0049213165257658287 -0.012007758260837623 -0.00060692407190799714 0.003457178237537543 -0.0044633839279413223 -0.0075870110839605341 0.0013100834892076606 -0.0079667174297830337 -0.010277957618236543 0.015484384261071682 -0.0073374308645725254 -0.0008412333205342293 0.01088889229297638 -0.0090611841263515611 -0.010873319879174233 -0.0083635756160531718 -0.0092359085477167566 0.014073062904419438 -0.0093204011768102651 -0.0081621578335762026 -0.0082079515199769623 -0.0077542288228869445
leaf_count=20 37 20 25 22 23 20 28 23 21 24 21 23 20 28 21 21 23 35 28 20 24 20 20 34 23 20 24 32 20 25 28 20 35 31 31 20 20 22 20
internal_value=0 -0.048113 0.0931715 -0.0874327 0.0570826 -0.0310023 0.00206132 0.0382748 0.109852 0.0433255 0.134581 0.205303 0.169793 -0.011333 0.246012 0.169495 -0.0519999 0.00134346 -0.161273 -0.0906717 -0.123264 -0.0722246 -0.134856 -0.119258 -0.0486637 -0.140077 0.289952 -0.141864 -0.112841 0.270028 -0.142909 -0.179558 -0.147756 -0.162998 0.293778 -0.16733 -0.153646 -0.158245 -0.149955
internal_count=972 813 177 636 152 247 197 157 112 66 42 46 43 114 159 58 86 58 50 40 389 72 317 235 57 40 101 178 75 80 48 82 55 103 55 62 72 42 52
shrinkage=0.05


Tree=18
num_leaves=36
num_cat=0
split_feature=12 2 2 11 9 3 2 6 9 8 9 12 2 2 11 4 9 1 2 1 2 6 1 3 2 4 4 4 3 9 8 2 2 1 2
split_gain=10.3832 4.07608 1.26494 1.16116 1.105 0.994289 0.891454 0.941751 2.10301 0.754984 0.755651 0.749025 1.92154 0.857436 0.482467 1.04215 0.368947 0.311154 0.208193 0.313555 0.399308 0.813722 0.392869 0.154795 0.13857 0.0925697 0.0855327 0.161247 0.0707164 0.0426877 0.0162429 0.0042681 0.0037173 0.00322404 0.00101112
threshold=0.70638945233250017 0.41090879373750006 0.72107615557900007 0.32785797736950006 0.27210119188550003 0.19190726981700004 0.12744535722300002 0.35252261164500004 0.33426189430250003 0.22657296650700004 0.31120796627650005 0.023611111111100005 0.48378514021300006 0.51483413223350005 0.37041681842150004 0.40638238929400011 0.33913438256650003 0.32325429767350006 0.19527762696750003 0.20043473706250003 0.28950927104750007 0.20686411739700003 0.30292882744500005 0.36877611645400005 0.67080287320600007 0.47743682514450003 0.031986284649050005 0.007527176380585001 0.26078120021200007 0.30195999732450007 0.34118776113350008 0.090867779603200013 0.85959994781299998 0.2916496598640001 0.073132602297250007
decision_type=2 2 2 2 2 2 2 2 2 2 2 2 2 2 2 2 2 2 2 2 2 2 2 2 2 2 2 2 2 2 2 2 2 2 2
left_child=1 3 4 18 -3 16 23 8 17 -9 -11 13 -13 -6 15 -2 -5 -8 26 -20 21 -21 -22 -7 -16 -26 27 28 -1 -24 33 -30 -27 34 -28
right_child=14 2 -4 5 11 6 7 9 -10 10 -12 12 -14 -15 24 -17 -18 -19 19 20 22 -23 29 -25 25 32 30 -29 31 -31 -32 -33 -34 -35 -36
leaf_value=-0.005119792901371655 0.013100263637465401 -0.0048044300562626614 0.014848118364810946 -0.0028916637667200785 0.0044952932046726348 -0.0035432223230600357 -0.0065335558727383615 0.0050058641972450107 0.014286808025192572 0.0025547426566481591 -0.0095081740335838227 0.0085462693713213283 -0.0093023138940334319 0.01769251674413681 0.016315936488764626 -0.00084535209905533572 -0.011478375913254147 0.0019937727438366932 -0.0085872527531215114 0.0062586554541037634 -0.0010225269411291396 -0.0071561766415834428 -0.0071313530561469864 -0.0097640597820281977 0.0096829256841114587 0.014189063793136961 -0.0070297660538926722 -0.0018817013218289332 -0.0075864642858505249 -0.010359020233154298 -0.0088275325381093565 -0.0085158628722031907 0.013278154594202838 -0.0078370298851620068 -0.0074338125189145413
leaf_count=38 37 37 25 22 32 20 20 26 37 20 37 38 25 20 35 21 29 23 35 26 28 20 21 20 21 21 32 21 30 20 27 21 24 33 30
internal_value=0 -0.0457073 0.0885129 -0.0830611 0.0542284 -0.0306608 0.000699191 0.0335267 0.110949 -0.0410976 -0.105511 0.102591 0.02927 0.191423 0.233711 0.16102 -0.155486 -0.0394485 -0.117903 -0.0888696 -0.0636466 0.0085224 -0.111759 -0.133073 0.275455 0.248481 -0.136675 -0.116454 -0.135052 -0.174116 -0.154907 -0.159383 0.274065 -0.148756 -0.144505
internal_count=972 813 177 636 152 254 203 163 80 83 57 115 63 52 159 58 51 43 382 150 115 46 69 40 101 66 232 110 89 41 122 51 45 95 62
shrinkage=0.05


Tree=19
num_leaves=39
num_cat=0
split_feature=13 2 11 9 3 1 6 8 4 5 9 8 8 8 0 7 6 9 7 11 2 7 11 12 7 3 11 10 11 3 6 7 2 7 1 1 2 7
split_gain=9.40358 2.99746 1.14275 1.08001 1.00153 0.973746 1.93373 0.87951 1.1649 0.851615 0.815664 0.806537 0.65858 0.642364 0.511028 0.531007 1.45984 0.287292 0.278747 0.557569 0.862239 0.286945 0.265697 0.234116 0.209757 0.209866 0.0938808 0.0893364 0.290449 0.128004 0.14285 0.0610974 0.0582716 0.0365378 0.0190734 0.00752054 0.00346141 0.00152217
threshold=0.51666666666650019 0.39449130664200011 0.35128923393450001 0.33356610800750003 0.20888464081200003 0.25833853408250007 0.36951531686700007 0.3827610043300001 0.27448271183900003 0.30138363009750008 0.36102351859150006 0.11005218353700001 0.2732079100605001 0.33666456584000004 0.46768143232450005 0.52418154761950009 0.43582073191700005 0.41935358000250006 0.17469154130350004 0.33963506852900005 0.16916796224150002 0.26122502148900006 0.33202750599900005 0.031695331695300005 0.44693656890700001 0.35629397369600008 0.32978599515200008 0.081238214959150012 0.23227781946000003 0.32372708326600003 0.046858445547050008 0.72839742028700016 0.77649482594800012 0.30966916393200006 0.35228089045300004 0.27586305683000006 0.18874293250800003 0.0022750370906900004
decision_type=2 2 2 2 2 2 2 2 2 2 2 2 2 2 2 2 2 2 2 2 2 2 2 2 2 2 2 2 2 2 2 2 2 2 2 2 2 2
left_child=1 3 7 18 23 12 10 11 -9 -4 -7 -3 -6 -11 15 16 17 -2 22 21 -21 -20 27 -5 26 -26 33 28 -1 34 -31 32 -16 -23 36 -35 37 -29
right_child=14 2 9 4 5 6 -8 8 -10 13 -12 -13 -14 -15 31 -17 -18 -19 19 20 -22 24 -24 -25 25 -27 -28 29 -30 30 -32 -33 -34 35 -36 -37 -38 -39
leaf_value=-0.0079396042085829229 0.014784983403625943 0.0027601533315398477 0.016233023865656417 -0.008750496639145745 0.0020659323334693909 0.0049071104824543006 -0.0034151737888654075 -0.0029242608858191452 0.013169050690802661 0.011664122343063354 0.018713525455930961 -0.0097576442264741478 -0.0092999364464328837 0.0007153868675231934 0.016772552011978061 0.01312526415501322 -0.005735144130885602 0.0066961739050305407 -0.0011746006784960628 -0.0066458923661190539 0.0064196054690650525 -0.0052791555158116605 -0.01103917956352234 -0.0020034500397741795 0.00016910921782255174 -0.0066435688676742405 -0.010850169621407987 -0.0073491435836661942 0.0004796284623444081 -0.002344044982906311 -0.0073695487271134676 0.012035197109887095 0.013047744617575692 -0.0071955009097499512 -0.0090397593379020688 -0.0084472115550722395 -0.0078311781957745557 -0.0067788885831832893
leaf_count=21 21 22 22 36 25 20 36 23 22 21 23 31 26 37 21 35 20 23 32 23 28 22 29 20 20 26 20 22 20 31 26 33 21 28 20 21 20 25
internal_value=0 -0.045929 0.0684539 -0.0787679 -0.015014 0.0331472 0.102685 -0.00393928 0.0988716 0.157136 0.245839 -0.0912315 -0.0745686 0.0935917 0.21064 0.16347 0.109311 0.211135 -0.106091 -0.0810959 0.0105464 -0.108751 -0.131787 -0.126817 -0.128666 -0.0736307 -0.156486 -0.117836 -0.0766532 -0.129562 -0.0927276 0.272903 0.298203 -0.139439 -0.153695 -0.154639 -0.145605 -0.140916
internal_count=972 798 178 620 186 130 79 98 45 80 43 53 51 58 174 99 64 44 434 220 51 169 214 56 137 46 91 185 41 144 57 75 42 71 87 49 67 47
shrinkage=0.05


Tree=20
num_leaves=38
num_cat=0
split_feature=12 2 2 11 9 3 12 5 2 12 2 2 10 4 5 11 4 9 0 0 0 13 2 6 9 2 5 8 11 9 9 2 8 8 1 7 3
split_gain=8.64319 3.33438 1.09654 0.988642 0.968171 0.803565 0.814608 0.837371 1.24112 0.673411 1.73593 0.737953 0.667385 0.795653 0.644971 0.401367 0.908018 0.314988 0.201272 0.620791 0.204539 0.337712 0.165426 0.394435 0.142783 0.132996 0.0868195 0.0841827 0.0528821 0.08387 0.0389014 0.0164672 0.00895609 0.00505211 0.00313735 0.00161113 0.000451706
threshold=0.70638945233250017 0.41090879373750006 0.72107615557900007 0.32873467282350005 0.27210119188550003 0.19190726981700004 0.30981158905050005 0.29395572042650003 0.24045107463450002 0.023611111111100005 0.48378514021300006 0.51483413223350005 0.31669985067200007 0.41641568834500003 0.36178639541800001 0.37041681842150004 0.40638238929400011 0.33913438256650003 0.393909815188 0.43639572932300003 0.29102611331350009 0.034523809523800013 0.22121676509250002 0.24133238742550006 0.30482277399000007 0.67080287320600007 0.29497110082900008 0.7495210727970002 0.15766073758800001 0.066089829490350013 0.32866927592950007 0.11718212986250003 0.29186900704350011 0.4155408877095001 0.31021905349950007 0.03767394178140001 0.34581151918050007
decision_type=2 2 2 2 2 2 2 2 2 2 2 2 2 2 2 2 2 2 2 2 2 2 2 2 2 2 2 2 2 2 2 2 2 2 2 2 2
left_child=1 3 4 18 -3 17 7 8 -7 11 -11 -6 24 -14 -8 16 -2 -5 20 -20 21 22 28 -24 -9 -17 -21 33 29 -1 32 34 -22 -27 35 -30 -37
right_child=15 2 -4 5 9 6 14 12 -10 10 -12 -13 13 -15 -16 25 -18 -19 19 26 30 -23 23 -25 -26 27 -28 -29 31 -31 -32 -33 -34 -35 -36 36 -38
leaf_value=-0.0070504258076349901 0.012059670223577602 -0.0046464711226321563 0.013688615620136261 -0.002484108778563413 0.0041546351974830033 -0.0044318592264538719 0.00076902669209700375 -0.010012004219672898 0.012561944025483999 0.0079080287171037576 -0.0090565916001796726 0.016397862769663336 0.0072360744530504395 -0.0050395893328117605 0.012712138891220094 0.015056776574679784 -0.0009576240820544107 -0.010478985668825252 0.0036071095305184524 -0.0037256098166108132 -0.0068909515014716552 -8.5199097621029826e-05 0.0020033843629062176 -0.007926806658506395 -0.0046580605208873752 0.013093567676842215 -0.0080388653890362798 0.008718607777898962 -0.0069085569374940613 -0.0026663405261933802 -0.0099547622352838521 -0.008014164623968742 -0.0081029696734967061 0.012017567859341702 -0.0072690326161682613 -0.006531923890113831 -0.0062173685502438323
leaf_count=24 37 37 25 22 32 21 26 33 22 38 25 20 22 33 20 35 21 28 24 20 35 29 20 20 20 20 28 22 22 20 20 34 27 24 20 25 21
internal_value=0 -0.041702 0.079694 -0.0754868 0.0477732 -0.0260082 0.00272701 -0.0327651 0.0852529 0.0930428 0.0235207 0.177271 -0.0797537 -0.00258648 0.119234 0.213231 0.14693 -0.139225 -0.106904 -0.0591749 -0.117744 -0.10274 -0.116963 -0.0592342 -0.159833 0.251305 -0.124834 0.22488 -0.130874 -0.101153 -0.160746 -0.141592 -0.148375 0.250133 -0.134371 -0.131133 -0.127766
internal_count=972 813 177 636 152 247 197 151 43 115 63 52 108 55 46 159 58 50 389 72 317 235 206 40 53 101 48 66 166 44 82 122 62 44 88 68 46
shrinkage=0.05


Tree=21
num_leaves=38
num_cat=0
split_feature=12 2 2 9 11 12 5 2 5 10 5 3 3 11 0 0 11 4 1 1 3 11 6 5 2 11 0 8 8 9 7 4 2 0 2 2 5
split_gain=7.80048 3.01107 0.974885 1.00077 0.910676 0.688461 0.877622 1.81444 0.810438 0.600251 1.06358 0.489373 0.47899 0.378125 0.442252 0.438392 0.362234 0.819486 0.301173 0.197408 0.276253 0.617264 0.284609 0.489267 0.123727 0.0849551 0.0816646 0.0584055 0.101179 0.0530065 0.0420572 0.0288062 0.0197827 0.00733709 0.00628805 0.00476623 0.00117218
threshold=0.70638945233250017 0.41268426362550009 0.72107615557900007 0.4917804304695001 0.32873467282350005 0.30981158905050005 0.29395572042650003 0.24045107463450002 0.37313812176850003 0.31455915218800007 0.33338522208350002 0.29995662527650008 0.34581151918050007 0.37611120727600006 0.26931327233800001 0.21633895131100003 0.37041681842150004 0.40638238929400011 0.33273058925800003 0.24238764456150005 0.40388180349500008 0.29896635340000005 0.20686411739700003 0.32639397204450005 0.54806893780600008 0.33802322620600006 0.37025025169850007 0.14620701878800002 0.090962890931950022 0.33426189430250003 0.27920837517250002 6.3699324099050008e-05 0.12343199470700002 0.23367093105900003 0.12918098621650001 0.85959994781299998 0.34275248828800003
decision_type=2 2 2 2 2 2 2 2 2 2 2 2 2 2 2 2 2 2 2 2 2 2 2 2 2 2 2 2 2 2 2 2 2 2 2 2 2
left_child=1 4 3 9 19 6 7 -6 -7 12 11 -11 -3 14 15 -8 17 -2 -15 27 22 -22 23 -21 -18 -16 -26 28 31 30 -24 -1 36 -34 -33 -28 -29
right_child=16 2 -4 -5 5 8 13 -9 -10 10 -12 -13 -14 18 25 -17 24 -19 -20 20 21 -23 29 -25 26 -27 35 32 -30 -31 -32 34 33 -35 -36 -37 -38
leaf_value=-0.0045668551512062549 0.011456686842280467 -0.0092948675155639648 0.013004184722900393 0.012730671018362045 -0.0048929683097145137 -0.0019280628363291424 -0.007871872051195666 0.013063054283459982 0.010132754135590333 -0.0073468469083309181 0.0097617004894548012 0.0035815728455781942 0.0005508662263552348 -0.0045711365528404713 -0.0075917281955480576 0.002356340549886227 0.01535266229794139 -0.00090974285489036927 0.0034623568132519725 0.0011384135733048121 -0.0054037200396551809 0.005069356535871824 -0.0045803441666066652 -0.0076741552911698818 0.0082734068110585212 -0.011891216425983994 0.012439090013504029 -0.0062521407863608122 -0.0023105914748850326 -0.0093113087287003352 -0.0074699099120848324 -0.0063253781093018397 -0.0086467575654387476 -0.0073086251282975792 -0.0073636222928762434 0.011545827845111489 -0.0067438092252070266
leaf_count=20 37 21 25 20 34 30 22 24 26 21 36 20 30 28 20 20 21 21 20 36 34 24 20 28 20 27 28 27 21 22 34 35 20 21 25 32 22
internal_value=0 -0.0396169 0.0774359 0.0465833 -0.0712578 -0.0242976 -0.0523635 0.0507422 0.073432 0.0140785 0.0698101 -0.0403182 -0.0700652 -0.0960141 -0.134596 -0.0600259 0.20257 0.139584 -0.024477 -0.101559 -0.0794331 -0.0214007 -0.103475 -0.0543417 0.23874 -0.201233 0.220807 -0.124495 -0.107988 -0.144851 -0.127994 -0.124204 -0.14302 -0.159227 -0.13516 0.239254 -0.129458
internal_count=972 813 173 148 640 251 195 58 56 128 77 41 51 137 89 42 159 58 48 389 198 58 140 64 101 47 80 191 101 76 54 80 90 41 60 60 49
shrinkage=0.05


Tree=22
num_leaves=39
num_cat=0
split_feature=12 2 11 11 3 1 4 9 6 1 1 1 0 5 10 0 10 0 11 6 9 1 0 0 0 6 10 10 2 9 8 8 10 4 2 2 2 2
split_gain=7.03993 2.71749 0.900854 0.821886 0.669944 0.682211 0.844727 0.658861 0.798926 1.25306 0.85882 0.521977 0.493005 0.464146 0.376516 1.13433 0.347673 0.338102 0.326916 0.764989 0.242264 0.178161 0.264761 0.771188 0.327728 0.327298 0.558757 0.178377 0.11295 0.0824752 0.0531754 0.102207 0.0312127 0.0270091 0.0164265 0.00580172 0.00466183 0.00108741
threshold=0.70638945233250017 0.41268426362550009 0.32259854222700007 0.32873467282350005 0.19190726981700004 0.39079750594750001 0.40638238929400011 0.4917804304695001 0.33246437261000006 0.35140771083400008 0.37215149176950008 0.14481646825400002 0.18142319074500005 0.45192589875250005 0.30214056776550002 0.35099385908200004 0.30048543689300006 0.42673682116500006 0.37041681842150004 0.36595275418800005 0.33913438256650003 0.24238764456150005 0.393909815188 0.46319237800100005 0.29102611331350009 0.36595275418800005 0.31891512742550004 0.17752100840300003 0.67080287320600007 0.56383105436200009 0.12668383655750001 0.084375000000000019 0.32742946708500004 6.3699324099050008e-05 0.22260077205650003 0.12918098621650001 0.089155176841300005 0.8652712293110002
decision_type=2 2 2 2 2 2 2 2 2 2 2 2 2 2 2 2 2 2 2 2 2 2 2 2 2 2 2 2 2 2 2 2 2 2 2 2 2 2
left_child=1 3 17 21 20 11 -7 8 9 -4 -10 16 -13 14 -14 -16 -6 -3 19 -2 -5 30 24 -24 25 26 27 -23 -20 -30 31 33 -26 -1 36 -35 -32 -31
right_child=18 2 7 4 5 6 -8 -9 10 -11 -12 12 13 -15 15 -17 -18 -19 28 -21 -22 22 23 -25 32 -27 -28 -29 29 37 34 -33 -34 35 -36 -37 -38 -39
leaf_value=-0.0043385124206542971 0.012177786255876224 -0.006283404111862183 0.018204337731003762 -0.0022221495820717377 0.0080743527412414553 0.010964637196489744 -0.0024894632026553156 0.01259679671909128 -0.0064593135206787687 0.0012585712907214961 0.0059324792233006705 -0.0099511656740849663 -0.0042548457781473792 -0.0082989767938852314 0.011147780479355293 -0.0053049826249480254 -0.0012486433982849122 0.00243857815861702 0.013636232933827808 0.00068641352866377148 -0.0091300209984183315 -0.0012697517223980116 0.0063642322847788984 -0.0062469246486822764 -0.0069867795067174096 -0.0073371780167023337 0.0056773414391846884 -0.0077262209355831142 0.0074419542402029042 0.01155320324358486 -0.0059853081074025902 -0.0019076411798596383 -0.0094628788903355614 -0.006043912583228314 -0.0079222874472970554 -0.0070656121242791414 -0.0067956946364470892 0.011065151810646058
leaf_count=20 30 25 20 22 20 28 20 28 27 24 29 22 27 20 22 20 20 20 35 28 30 23 22 27 35 30 21 20 20 21 36 20 20 33 23 24 35 25
internal_value=0 -0.0376361 0.0735641 -0.0676949 -0.0230827 0.00332666 0.107175 0.116351 0.0783866 0.179224 -0.000842703 -0.0296848 -0.0649792 -0.0318447 0.00703498 0.0662626 0.0682571 -0.0481394 0.192441 0.132605 -0.124149 -0.0964806 -0.0754615 -0.0116955 -0.0964315 -0.0605574 -0.0201577 -0.0854552 0.226803 0.20245 -0.11827 -0.101845 -0.157744 -0.118388 -0.13522 -0.129482 -0.127696 0.225759
internal_count=972 813 173 640 251 199 48 128 100 44 56 151 111 89 69 42 40 45 159 58 52 389 198 49 149 94 64 43 101 66 191 97 55 77 94 57 71 46
shrinkage=0.05


Tree=23
num_leaves=37
num_cat=0
split_feature=13 11 12 6 11 2 5 10 2 5 8 6 10 5 10 10 9 0 10 9 6 0 4 0 0 13 9 2 9 2 2 2 1 1 7 8
split_gain=6.39155 2.00467 1.59362 1.11008 0.819257 0.733972 0.596237 0.624568 0.551333 0.494652 0.691036 0.598706 0.583349 0.813644 0.439246 0.791624 0.33734 0.389873 0.354581 0.331559 0.834063 0.259255 0.159145 0.0975529 0.398293 0.0907152 0.0610474 0.0783486 0.171738 0.042186 0.0190136 0.0180487 0.00746062 0.00470821 0.00284306 0.000298058
threshold=0.51666666666650019 0.32785797736950006 0.46824731090800004 0.37259091061650002 0.38216454087050006 0.53338345406550014 0.54867867701150008 0.46913109756100008 0.45306001800599999 0.21010868438100003 0.099754901960800016 0.44611340533650007 0.30214056776550002 0.33815389548850006 0.30214056776550002 0.42020373514450005 0.43223505434800008 0.40799453986700002 0.61741824894500008 0.35920877659550005 0.20686411739700003 0.28675211461150008 0.50298433682800014 0.46504044179500009 0.42231701002600003 0.034523809523800013 0.30785761516400006 0.22121676509250002 0.22853721444350003 0.017302260547750001 0.74982163044650019 0.11718212986250003 0.27047565401600004 0.34842509920650006 0.0012440637146100004 0.11005218353700001
decision_type=2 2 2 2 2 2 2 2 2 2 2 2 2 2 2 2 2 2 2 2 2 2 2 2 2 2 2 2 2 2 2 2 2 2 2 2
left_child=1 8 5 -4 -5 6 7 9 19 -3 -11 12 21 -14 -2 -16 -17 18 -18 23 -21 -12 -13 24 25 26 27 29 -29 -1 -19 33 -33 34 -31 -36
right_child=14 2 3 4 -6 -7 -8 -9 -10 10 11 22 13 -15 15 16 17 30 -20 20 -22 -23 -24 -25 -26 -27 -28 28 -30 31 -32 32 -34 -35 35 -37
leaf_value=-0.0038193590566515927 0.015286223082379861 0.0035748424337190745 0.013235736599093989 -0.0052362229336391794 0.0085705899766513292 0.0064684123297532401 -0.0079639589633135246 0.0058557446052630744 0.0022115268774570958 0.0037656442945202193 -0.0099225242824658097 -0.0063865857537497173 -0.0046527051620862707 0.0092816104739904398 0.00087509670040824205 0.015217277678576384 0.00011713653802871705 0.012307962439954282 0.0094195392355322857 0.0067147952105317795 -0.0061091821291483946 -0.0021387686952948569 -0.012400676242329857 -0.0076649848175676244 0.001843149047344923 -0.0028513693933685624 -0.0077304410364697962 -0.0065699861143474238 -0.00087657659672773797 -0.0061792172329581301 0.010385183327727849 -0.0065413061777750657 -0.0077880202606320382 -0.0065654589422047133 -0.0054008217873396701 -0.0056280549375280261
leaf_count=20 22 34 38 22 21 30 34 30 31 30 23 22 22 20 33 22 21 20 20 21 32 20 22 38 20 30 34 27 26 23 36 30 20 20 27 31
internal_value=0 -0.0378655 0.0163134 0.140184 0.0301328 -0.0186464 -0.0359244 -0.017117 -0.0842325 -0.037982 -0.0613926 -0.0931846 -0.0441696 0.0396537 0.173659 0.154544 0.192547 0.167191 0.0930979 -0.0942133 -0.0205597 -0.126043 -0.187873 -0.105496 -0.0995976 -0.109074 -0.115126 -0.109133 -0.0755399 -0.119545 0.221438 -0.125261 -0.1408 -0.117569 -0.114176 -0.110445
internal_count=972 798 368 81 43 287 257 223 430 193 159 129 85 42 174 152 119 97 41 399 53 43 44 346 308 288 258 224 53 171 56 151 50 101 81 58
shrinkage=0.05


Tree=24
num_leaves=37
num_cat=0
split_feature=12 2 2 9 2 11 7 10 5 12 5 3 5 1 8 3 3 1 6 6 0 3 0 1 11 8 8 6 2 8 11 4 1 0 10 2
split_gain=5.81612 2.22321 0.81172 0.808106 0.711696 0.728514 0.816721 0.495248 0.943446 0.489966 0.946169 0.694677 0.601047 0.828986 0.749529 0.422404 0.418192 0.382703 0.304354 0.787429 0.242711 0.365958 0.504832 0.224451 0.131737 0.0881355 0.170091 0.0832056 0.0652064 0.0650693 0.0405908 0.0221165 0.00590409 0.00561175 0.00171634 0.000986559
threshold=0.70638945233250017 0.41268426362550009 0.72107615557900007 0.4917804304695001 0.12025971968950001 0.37307750032800008 0.43674308996350003 0.31455915218800007 0.33338522208350002 0.30981158905050005 0.40864407586250007 0.35677787320600002 0.32380903787600007 0.34651308377750006 0.26516258003600007 0.34581151918050007 0.29995662527650008 0.14679559891100002 0.63343056017450017 0.42584212363700008 0.27963048865800005 0.32175200449400004 0.16680157741800003 0.38153256943550007 0.32720733397950008 0.33156386653800007 0.46243607389300007 0.201519663584 0.25399612590250004 0.62885327442150019 0.35235834312050002 0.36483949513000008 0.36410984848450006 0.056855533722149999 0.27151555043600006 0.057881271182450005
decision_type=2 2 2 2 2 2 2 2 2 2 2 2 2 2 2 2 2 2 2 2 2 2 2 2 2 2 2 2 2 2 2 2 2 2 2 2
left_child=1 4 3 7 25 9 -7 15 16 12 11 -11 13 17 -15 -3 -9 -6 19 23 21 -14 -23 -2 28 30 -27 -19 -22 -20 31 32 33 -1 35 -35
right_child=18 2 -4 -5 5 6 -8 8 -10 10 -12 -13 20 14 -16 -17 -18 27 29 -21 24 22 -24 -25 -26 26 -28 -29 -30 -31 -32 -33 -34 34 -36 -37
leaf_value=-0.0064436343244530948 0.013853135625166553 -0.0088097942017373587 0.011651748359203339 0.011257739774882794 0.00067461759092346313 0.010699253756067027 -0.0021224611473304256 -0.0071324929949783157 0.0088880448291699093 -0.0069202269568587804 0.010299447141587734 0.0048891661316156389 -0.0080893250389231577 -0.0030446080402249383 0.0094514705506818647 0.00043610018988450377 0.0029699195921421054 -0.0078935169964097444 0.013332118427958981 0.0014092126174976953 -0.0035281523317098624 -0.0061410675841298973 0.00445328409905019 0.007884288931058513 -0.0096730377021673562 -3.5673417150974274e-05 -0.0061688810586929326 -0.0043152633715759624 -0.0071900354518044385 0.0099528910858290541 -0.0077898818999528885 -0.0040992929227650172 -0.0066794354841113101 -0.0055957173795572355 -0.0059021382066218753 -0.0051721212764581047
leaf_count=22 28 21 25 20 31 23 27 21 36 33 20 20 27 21 28 30 20 32 29 38 20 22 23 36 37 20 26 33 31 28 26 20 20 28 23 27
internal_value=0 -0.0342087 0.0663713 0.0382186 -0.0613968 -0.0379273 0.0755106 0.00900984 0.0596326 -0.0529323 0.0206588 -0.049277 -0.0705459 -0.0239143 0.0819202 -0.0674207 -0.0440897 -0.077934 0.174916 0.14221 -0.112806 -0.0697471 -0.0145235 0.209913 -0.148036 -0.108779 -0.0700454 -0.121537 -0.11508 0.233443 -0.119512 -0.112773 -0.117904 -0.114767 -0.110789 -0.107755
internal_count=972 813 173 148 640 428 50 128 77 378 73 53 305 145 49 51 41 96 159 102 160 72 45 64 88 212 46 65 51 57 166 140 120 100 78 55
shrinkage=0.05


Tree=25
num_leaves=38
num_cat=0
split_feature=12 2 2 9 2 11 7 11 6 2 1 12 5 3 5 9 10 7 2 6 6 1 0 3 0 11 8 8 1 10 2 11 4 9 5 0 11
split_gain=5.24905 2.00644 0.732578 0.729316 0.642306 0.657484 0.737091 0.453413 0.804497 0.863086 0.457225 0.442194 0.853918 0.626946 0.542445 0.756452 0.49922 0.353602 0.499521 0.274679 0.716303 0.260878 0.219047 0.330277 0.455611 0.118893 0.0795423 0.153507 0.067374 0.0593906 0.0588488 0.0366332 0.0199601 0.0055068 0.00200354 0.00145755 0.000589652
threshold=0.70638945233250017 0.41268426362550009 0.72107615557900007 0.4917804304695001 0.12025971968950001 0.37307750032800008 0.43674308996350003 0.32259854222700007 0.33246437261000006 0.47652011614500006 0.36195239274950003 0.30981158905050005 0.40864407586250007 0.35677787320600002 0.32380903787600007 0.33356610800750003 0.081238214959150012 0.22672271704750002 0.24832364741100002 0.63343056017450017 0.46044061723800006 0.38153256943550007 0.27963048865800005 0.32175200449400004 0.16680157741800003 0.32720733397950008 0.33156386653800007 0.46243607389300007 0.25833853408250007 0.47849213691000009 0.25399612590250004 0.35235834312050002 0.36483949513000008 0.28288907406050007 0.16274919044000002 0.10550595238100002 0.24497678703050005
decision_type=2 2 2 2 2 2 2 2 2 2 2 2 2 2 2 2 2 2 2 2 2 2 2 2 2 2 2 2 2 2 2 2 2 2 2 2 2
left_child=1 4 3 7 26 11 -7 -3 10 -10 -9 14 13 -13 15 16 -6 28 -19 20 21 -2 23 -16 -25 30 31 -28 -18 -21 -24 32 33 34 -1 -36 -37
right_child=19 2 -4 -5 5 6 -8 8 9 -11 -12 12 -14 -15 22 -17 17 18 -20 29 -22 -23 25 24 -26 -27 27 -29 -30 -31 -32 -33 -34 -35 35 36 -38
leaf_value=-0.0058813921548426153 0.013056553227286187 -0.0041517799033930431 0.011069160938262941 0.010694852843880654 0.0037154386973097214 0.010164290958124659 -0.002016338085134824 0.012992596998810769 0.0041965264137144445 -0.0089841073621874275 0.0023011892288923265 -0.0065742155254790288 0.009784474633634091 0.004644707962870598 -0.0076848588194008225 0.0051481068030827578 -0.0059843031503260136 -0.0073978153722626828 0.0031615556993832197 0.013283755183219909 0.00069619927442435064 0.0068758142621893632 -0.0033517446927726273 -0.0058340142396363344 0.0042306198374084799 -0.0091893858301478459 -3.3889971673488619e-05 -0.0058604369799678145 -0.0099523023418758225 0.0099019367348503421 -0.0068305336539783781 -0.0074003878264473043 -0.0038943282514810568 -0.0062960358903459889 -0.0056636639108712025 -0.0053428854660264088 -0.0050154028529370278
leaf_count=20 31 38 25 20 21 23 27 20 27 23 20 33 20 20 27 36 20 21 24 20 33 38 20 22 23 37 20 26 23 37 31 26 20 23 22 28 27
internal_value=0 -0.0324983 0.0630527 0.0363077 -0.0583269 -0.0360309 0.071735 0.00855935 0.0472328 -0.0373313 0.152938 -0.0502857 0.0196259 -0.0468132 -0.0670186 -0.0227186 -0.0642278 -0.0972877 -0.035323 0.16617 0.1351 0.193053 -0.107165 -0.0662598 -0.0137974 -0.140634 -0.10334 -0.0665431 -0.162134 0.221771 -0.109326 -0.113536 -0.107134 -0.112009 -0.10871 -0.106394 -0.103642
internal_count=972 813 173 148 640 428 50 128 90 50 40 378 73 53 305 145 109 88 45 159 102 69 160 72 45 88 212 46 43 57 51 166 140 120 97 77 55
shrinkage=0.05


Tree=26
num_leaves=39
num_cat=0
split_feature=13 11 12 1 12 5 2 10 0 11 10 4 2 10 10 0 1 9 6 9 5 9 3 0 0 9 4 2 0 6 11 2 2 2 5 2 5 8
split_gain=4.75881 1.52793 1.22357 1.02375 0.649079 1.39716 1.35428 1.02997 0.868705 0.662864 0.53384 0.464446 0.447693 0.379907 0.689096 0.373711 0.340248 0.258642 0.734953 0.220486 0.205071 0.153236 0.109831 0.0840759 0.280313 0.0744228 0.0835009 0.143267 0.325237 0.0374415 0.107052 0.0275008 0.0196839 0.0161499 0.0149612 0.00553054 0.00103736 0.000580021
threshold=0.51666666666650019 0.32785797736950006 0.46824731090800004 0.32325429767350006 0.0076323275424050015 0.29395572042650003 0.24045107463450002 0.33242753623150006 0.35099385908200004 0.34303482275350006 0.34844134536550003 0.40638238929400011 0.45306001800599999 0.30214056776550002 0.40935314685300006 0.35099385908200004 0.2142126148705 0.35920877659550005 0.20686411739700003 0.45874413145500009 0.33549792676950002 0.33426189430250003 0.31762936794500002 0.47237369533650003 0.42231701002600003 0.32866927592950007 0.21463471382050001 0.22121676509250002 0.29102611331350009 0.031178617230500003 0.25874198253150005 0.21505949577500003 0.73291464442650012 0.11718212986250003 0.32380903787600007 0.11536658266000001 0.33106814038850002 0.055847953216400008
decision_type=2 2 2 2 2 2 2 2 2 2 2 2 2 2 2 2 2 2 2 2 2 2 2 2 2 2 2 2 2 2 2 2 2 2 2 2 2 2
left_child=1 12 4 -4 5 6 -3 21 9 -6 -5 -9 17 -2 -15 -13 -16 23 -19 -18 -10 31 32 24 25 26 27 29 -29 35 -31 -7 -21 -28 -35 36 37 -1
right_child=13 2 3 10 8 7 -8 11 20 -11 -12 15 -14 14 16 -17 19 18 -20 22 -22 -23 -24 -25 -26 -27 33 28 -30 30 -32 -33 -34 34 -36 -37 -38 -39
leaf_value=-0.0048751458153128632 0.013633335178548639 -0.0014963054253409307 -0.00079747098498046405 0.0044165215641260155 0.0058929907977581034 -0.0070754163939019919 0.014215895463712514 0.0074699357151985172 -0.012903729182752698 -0.0060070912946354263 0.015034936240007138 0.0038637085662533844 0.0021303918332822862 -0.00032990374441804559 0.0026034906845201146 -0.0046389505267143251 0.01402513977317583 0.0064134794863916576 -0.0056244830950163312 0.011198015064001084 -0.0059082091599702838 -0.0030438345635221118 0.0063689976357496712 -0.0069289252800600878 0.00096771192291508551 -0.007375279292464257 -0.004875106221208206 0.0019038589937346324 -0.0063276501283759173 -0.00085222989320755016 -0.005462326942121282 -0.0096105326153337958 0.0090062542330651054 -0.0072826938927173616 -0.0055852209528287258 -0.0061734232306480414 -0.0054929976774887607 -0.0052559413202106957
leaf_count=20 22 24 32 20 25 23 32 26 22 22 29 24 31 29 22 28 21 21 32 20 20 21 39 35 23 25 26 28 21 20 34 20 21 25 27 20 22 20
internal_value=0 -0.032673 0.0146269 0.123167 -0.0160062 0.0158776 0.149642 -0.0368745 -0.0869388 0.00645479 0.214018 0.040271 -0.073153 0.149845 0.132068 -0.0142929 0.164762 -0.0821469 -0.0170945 0.189309 -0.191451 -0.130896 0.165371 -0.0921116 -0.0868822 -0.0953664 -0.0904102 -0.0788403 -0.0324786 -0.0955441 -0.0750977 -0.165091 0.201508 -0.117852 -0.128026 -0.109009 -0.104344 -0.101311
internal_count=972 798 368 81 287 198 56 142 89 47 49 78 430 174 152 52 123 399 53 101 42 64 80 346 311 288 263 185 49 136 54 43 41 78 52 82 62 40
shrinkage=0.05


Tree=27
num_leaves=41
num_cat=0
split_feature=2 12 9 11 1 2 4 12 3 4 3 6 11 1 6 2 5 9 7 9 7 2 6 2 6 4 0 0 0 11 13 11 11 8 7 0 2 6 7 8
split_gain=4.34432 1.41734 0.934963 0.852206 0.817834 0.614388 0.582584 0.933118 0.704542 0.697847 0.56694 0.417417 0.381619 0.661903 0.377089 0.315638 0.290555 0.731861 0.743365 0.270923 0.383294 0.533381 0.201285 0.171703 0.178594 0.235165 0.170152 0.153075 0.254051 0.163954 0.092238 0.0907334 0.162166 0.0575115 0.0228213 0.0122243 0.0104924 0.00945591 0.00621797 0.0021416
threshold=0.42567994080600002 0.30981158905050005 0.4917804304695001 0.32873467282350005 0.30889765180300005 0.72107615557900007 0.36483949513000008 0.46181818181800011 0.31904560836050005 0.14987922705300002 0.35629397369600008 0.34147729638950003 0.37437300677300006 0.33329081651200004 0.47503647828849999 0.27975592968850005 0.32555369564400005 0.33356610800750003 0.25176076396950003 0.29453062029500005 0.21804676822100003 0.24045107463450002 0.22266189540650003 0.22492540951600001 0.011860306476250001 0.069637988872150017 0.19442213799000005 0.27963048865800005 0.23677893789200002 0.32720733397950008 0.90148433597350008 0.33037848576000006 0.31406010154900005 0.17656551579500004 0.30966916393200006 0.3626721597905001 0.089155176841300005 0.92196496754400015 0.25496850852150005 0.12308827286650002
decision_type=2 2 2 2 2 2 2 2 2 2 2 2 2 2 2 2 2 2 2 2 2 2 2 2 2 2 2 2 2 2 2 2 2 2 2 2 2 2 2 2
left_child=1 12 5 15 10 6 7 9 -8 -2 -5 -6 16 26 -10 -3 17 19 -19 20 23 -22 -4 24 36 -26 -14 28 31 33 -24 32 38 -29 -31 -35 -1 -32 39 -18
right_child=2 3 22 4 11 -7 8 -9 14 -11 -12 -13 13 -15 -16 -17 27 18 -20 -21 21 -23 30 -25 25 -27 -28 29 -30 34 37 -33 -34 35 -36 -37 -38 -39 -40 -41
leaf_value=-0.0049644235388508866 -0.0040919536917374049 -0.0080192719958722593 0.0044903383776545526 -0.004215043286482493 0.014864145795052703 0.009159746562892741 -0.0088619673705619319 0.013291522284800357 0.0070127420872449879 0.0078761787996405649 0.0068917942047119138 0.0053292212386926024 -0.0070082407072186471 0.0063743702515407846 -0.0021983921825885775 0.00086382927373051643 -0.0052808854081060584 0.0093027722400923565 -0.0035785969878946037 -0.008067873709144132 -0.00359772215115613 0.0070161226205527789 0.013034677170217038 -0.0081186999638493251 0.0026167547418957668 -0.0048660051964578184 -0.00056424183504922057 -0.002959764296455043 0.00059805931868376564 -0.009631732587392132 0.0096441199382146202 -0.0076898559419946236 -0.00014730101451277734 -0.0050621528988299171 -0.0073747367731162488 -0.0067306866425843465 -0.0064638799801468852 0.0084131160607704755 -0.0045762767305686366 -0.0059709183533083309
leaf_count=28 29 20 20 27 22 33 23 22 20 21 20 24 20 27 25 20 23 24 21 31 29 20 20 26 21 21 21 28 27 24 39 22 20 23 21 21 20 26 21 22
internal_value=0 -0.0423127 0.105629 0.0505013 0.102998 0.0604495 0.0315166 0.0942074 -0.0348618 0.0186932 0.0102254 0.197788 -0.0643167 0.00591003 0.0379089 -0.0715544 -0.0740031 -0.0491785 0.0658293 -0.0755834 -0.0594683 0.0146892 0.180069 -0.0907934 -0.0701146 -0.0224925 -0.0741531 -0.0977441 -0.0747996 -0.124219 0.201307 -0.0964899 -0.0818299 -0.0946243 -0.171569 -0.11717 -0.111784 0.183034 -0.105734 -0.112365
internal_count=972 694 278 133 93 173 140 72 68 50 47 46 561 68 45 40 493 241 45 196 165 49 105 116 90 42 41 252 135 117 85 108 86 72 45 44 48 65 66 45
shrinkage=0.05


Tree=28
num_leaves=38
num_cat=0
split_feature=12 2 11 2 1 5 8 3 11 9 3 7 0 3 12 1 11 6 0 13 12 7 11 7 5 2 6 8 2 8 11 4 7 9 1 0 2
split_gain=3.96279 1.4935 0.610772 0.496619 0.524085 0.927598 0.691296 0.583456 0.631844 0.405142 0.611218 0.85628 0.464668 0.40356 0.942088 0.405284 0.411319 0.36908 0.267589 0.256558 0.313252 0.244052 0.242803 0.642 0.133315 0.121922 0.121812 0.0790076 0.137992 0.0745754 0.0323299 0.0174163 0.0142416 0.00821815 0.00248396 0.00284937 0.00105376
threshold=0.70638945233250017 0.41268426362550009 0.32259854222700007 0.12025971968950001 0.34086320332350006 0.31277723904000004 0.26516258003600007 0.19190726981700004 0.35581619047250007 0.4917804304695001 0.31904560836050005 0.48878568976250009 0.39889434880350005 0.47360467581150006 0.10084745762700002 0.14481646825400002 0.33917463337800008 0.34147729638950003 0.42673682116500006 0.19523809523800004 0.29730290456450009 0.056982451567700008 0.37041681842150004 0.34249941199650008 0.29072978561850005 0.54806893780600008 0.26269946327800003 0.33156386653800007 0.083692189117599999 0.7495210727970002 0.35235834312050002 0.36483949513000008 0.5554383360145001 0.29803559620900005 0.34651308377750006 0.072197539302800026 0.057881271182450005
decision_type=2 2 2 2 2 2 2 2 2 2 2 2 2 2 2 2 2 2 2 2 2 2 2 2 2 2 2 2 2 2 2 2 2 2 2 2 2
left_child=1 3 18 27 13 6 -6 -7 17 10 -4 12 -12 15 -15 16 21 -9 -3 20 24 -5 23 -2 -17 -24 -26 30 -29 32 31 33 -27 34 35 -1 -37
right_child=22 2 9 4 5 7 -8 8 -10 -11 11 -13 -14 14 -16 19 -18 -19 -20 -21 -22 -23 25 -25 26 29 -28 28 -30 -31 -32 -33 -34 -35 -36 36 -38
leaf_value=-0.0051473303511738776 0.0099012093554283007 -0.0057491380274295812 -0.0022289932601981693 0.00054508505389094352 -2.1764516830444337e-05 -0.0090529073353694846 0.011323894997095241 0.0010973877112927109 0.0074142121488139749 0.0097875862515398454 0.004584707841277123 -0.0020761985670436512 0.01511498489840464 -0.0037689890026261935 0.0096377436444163335 -0.0075753847949015787 0.0052809553132170724 -0.007106614026885766 0.0020102088898420337 -0.0091838037827983495 0.001568464022129774 -0.0072659996524453169 0.012090439917076201 -0.00061970884943830557 -0.0015397131815552713 0.0097533630207180984 -0.0058815857342311324 -0.00026956692051429012 -0.0057938291225582365 0.0055454196035861977 -0.00663234620140149 -0.0033464328385889534 0.0081310139067711368 -0.005865364242345095 -0.0052534766495227819 -0.004660870543410702 -0.0042415599884658029
leaf_count=20 29 25 36 20 25 23 29 29 21 28 20 22 22 38 20 39 21 26 20 32 20 20 21 29 30 24 35 26 20 25 26 20 31 20 20 31 29
internal_value=0 -0.0282372 0.0542002 -0.050521 -0.030916 0.0159977 0.121425 -0.0415083 0.000723877 0.0894306 0.0596607 0.118296 0.202011 -0.057017 0.0170804 -0.0768219 -0.0077109 -0.0556174 -0.0460108 -0.103846 -0.0832448 -0.0672091 0.144382 0.092815 -0.105286 0.173995 -0.0775529 -0.090101 -0.0534284 0.156194 -0.100263 -0.0942492 0.176779 -0.0988026 -0.0951017 -0.0926097 -0.0891641
internal_count=972 813 173 640 428 153 54 99 76 128 100 64 42 275 58 217 61 55 45 156 124 40 159 58 104 101 65 212 46 80 166 140 55 120 100 80 60
shrinkage=0.05


Tree=29
num_leaves=38
num_cat=0
split_feature=13 11 12 6 11 12 5 2 10 0 11 6 0 7 11 11 6 10 10 9 2 9 6 8 1 9 7 1 2 3 0 0 2 2 2 8 2
split_gain=3.60471 1.13633 0.928341 0.909658 0.660125 0.592193 1.19971 1.09293 0.830812 0.786548 0.585147 0.407163 0.374566 0.476986 0.766489 0.645846 0.354311 0.33854 0.572694 0.322776 0.420732 0.19942 0.153632 0.216279 0.19417 0.125153 0.11777 0.301904 0.0908934 0.0816194 0.0425742 0.0393915 0.0296852 0.0190345 0.0180514 0.00860203 0.00678812
threshold=0.51666666666650019 0.32785797736950006 0.46824731090800004 0.37259091061650002 0.38216454087050006 0.0076323275424050015 0.29395572042650003 0.24045107463450002 0.33242753623150006 0.35099385908200004 0.34303482275350006 0.46044061723800006 0.38069924356700008 0.31775875378050006 0.23581057403400005 0.30601118101350006 0.62976348675050009 0.30214056776550002 0.40935314685300006 0.42577758662900006 0.45630610599150007 0.31920962677300008 0.36595275418800005 0.48277125173700003 0.44643863496600006 0.33426189430250003 0.090291906814600018 0.24238764456150005 0.23760111431450001 0.25591342586250004 0.16897049835600006 0.37025025169850007 0.21505949577500003 0.09495471113575002 0.30013374794450004 0.55970888318650014 0.10069385835400001
decision_type=2 2 2 2 2 2 2 2 2 2 2 2 2 2 2 2 2 2 2 2 2 2 2 2 2 2 2 2 2 2 2 2 2 2 2 2 2
left_child=1 12 5 -4 -5 6 7 -3 25 10 -7 -10 22 14 -14 -16 -13 -2 -19 -20 -21 -11 23 24 26 32 27 29 36 -1 -28 -22 -8 -31 -32 -33 -24
right_child=17 2 3 4 -6 9 8 -9 11 21 -12 16 13 -15 15 -17 -18 18 19 20 31 -23 28 -25 -26 -27 30 -29 -30 33 34 35 -34 -35 -36 -37 -38
leaf_value=-0.0023015771262549067 0.012317867204546929 -0.0010617577626059452 0.010981346784453644 -0.0056889051063494251 0.0067046622080462323 0.0055728356093168261 -0.0061801008475215538 0.013053198880515994 0.0056292542533294583 -0.0054629429336637263 -0.0056078885935924271 -0.0061412722493211433 -0.0060399528754794089 -0.0058994460975130402 0.010080929206950326 -0.0010967506871869168 0.0031575844995677472 -0.00063895896590989223 0.012512721088917359 -0.00054280925542116165 0.0057636923410675743 -0.012361405925317245 -0.0041891864949354426 0.00036456670724984374 -0.008674429673701526 -0.0026960673076765881 -0.0032078293710947042 0.0017511269978938565 -0.0083716676785395693 -0.0045518592596054076 -0.0050361989556174528 0.0089732418457667048 -0.0088139787316322323 -0.0066213448345661162 -0.0068920056708157073 0.0077368975343073123 -0.0053581045616580098
leaf_count=37 22 24 38 22 21 25 23 32 37 20 22 21 23 30 28 24 20 29 23 20 22 22 27 33 20 21 25 31 26 25 38 24 20 20 20 34 23
internal_value=0 -0.0284364 0.0123543 0.106897 0.00727535 -0.0143285 0.0161261 0.140079 -0.0327566 -0.0820814 0.0067861 0.0365301 -0.0633457 -0.0114206 0.0312067 0.09844 -0.0321049 0.130415 0.113634 0.143439 0.118871 -0.181528 -0.0801215 -0.0681097 -0.0796293 -0.1172 -0.0700519 -0.0490437 -0.119476 -0.0808248 -0.0986534 0.151303 -0.148103 -0.109433 -0.113523 0.16497 -0.0945378
internal_count=972 798 368 81 43 287 198 56 142 89 47 78 430 105 75 52 41 174 152 123 100 42 325 249 216 64 196 113 76 82 83 80 43 45 58 58 50
shrinkage=0.05


Tree=30
num_leaves=37
num_cat=0
split_feature=12 2 2 9 12 2 3 3 9 6 8 1 5 3 6 6 1 5 3 7 12 11 0 1 9 9 10 10 11 5 10 5 4 2 4 1
split_gain=3.28138 1.24579 0.535748 0.522756 0.581435 1.35736 0.521327 0.425147 0.653083 0.929282 1.03089 0.781975 0.705626 0.263573 0.24247 0.79792 0.250193 0.199901 0.333064 0.185336 0.20819 0.212564 0.187728 0.179887 0.176037 0.165429 0.140802 0.124416 0.078142 0.0544991 0.0366351 0.0367616 0.0261897 0.0217903 0.00490035 0.00342187
threshold=0.70638945233250017 0.41268426362550009 0.72107615557900007 0.27210119188550003 0.023611111111100005 0.48378514021300006 0.29197562672100003 0.19190726981700004 0.33356610800750003 0.40694477935850004 0.28221583241300002 0.25833853408250007 0.34113127961050005 0.24228541371250004 0.56158979051550018 0.46044061723800006 0.38153256943550007 0.31844418524450008 0.064244791294000014 0.78794694980350011 0.22420634920600005 0.3348384044255 0.42231701002600003 0.378456811527 0.26071814282650002 0.30277148439850005 0.34043276311300003 0.46042188805300005 0.15766073758800001 0.45012212128800005 0.26272648835200002 0.38677937313100008 0.27707199885500006 0.21034743732050001 0.23273180606300004 0.23323038689300005
decision_type=2 2 2 2 2 2 2 2 2 2 2 2 2 2 2 2 2 2 2 2 2 2 2 2 2 2 2 2 2 2 2 2 2 2 2 2
left_child=1 7 3 -3 6 -6 -5 17 13 11 -11 -10 -13 -9 15 16 -2 18 -1 20 21 22 26 32 -23 -22 28 -16 -15 -29 31 33 -19 35 -32 -30
right_child=14 2 -4 4 5 -7 -8 8 9 10 -12 12 -14 19 27 -17 -18 23 -20 -21 25 24 -24 -25 -26 -27 -28 29 30 -31 34 -33 -34 -35 -36 -37
leaf_value=0.00055681354262762607 0.011051874307374802 -0.0038107139838708414 0.00924980115890503 0.013019112674962908 0.0060714546910354073 -0.0091827104985713962 0.0027474649995565415 0.0020951503744492165 -0.002061128571177974 0.0041322916932404049 -0.010844857542327157 0.011677121037715361 0.00058111631028030233 -0.0019250154208678466 0.012198515105992555 -0.0027076078653335573 0.0049990286756502952 -0.003754831048158499 -0.0065765460704763738 0.0015314270555973055 0.003147295489907265 -0.0036587041210044517 -2.9818889861171313e-05 -0.01025674759664319 -0.0097357750082245256 -0.0032836693152785302 -0.00017658577046611093 0.0059025670439004901 -0.0039883810592194402 0.0094043242745101459 -0.0065175571693823894 -0.0024988223576829548 -0.0059402315652575984 -0.0062788808532059197 -0.0054765330906957387 -0.0048327086027711635
leaf_count=36 31 37 25 21 35 25 30 26 33 20 27 38 23 26 20 25 38 26 30 20 20 22 37 22 26 20 22 25 30 20 26 21 29 20 20 20
internal_value=0 -0.025695 0.0495962 0.0267246 0.0610376 -0.00568895 0.139539 -0.0460472 -0.032222 0.0253778 -0.0894321 0.0827828 0.149868 -0.0550354 0.131384 0.0989109 0.154368 -0.0940968 -0.0537125 -0.062673 -0.0686925 -0.0786671 -0.0656202 -0.128712 -0.139009 -0.00136374 -0.078625 0.178345 -0.0887603 0.149178 -0.0982986 -0.0866722 -0.0981427 -0.0976809 -0.121299 -0.0865222
internal_count=972 813 173 148 111 60 51 640 497 141 47 94 61 356 159 94 69 143 66 330 310 270 222 77 48 40 185 65 163 45 137 91 55 70 46 50
shrinkage=0.05


Tree=31
num_leaves=40
num_cat=0
split_feature=13 11 1 3 7 12 6 9 1 3 0 12 2 5 10 10 9 2 5 9 3 8 9 13 3 5 3 2 3 1 6 10 2 0 2 5 8 1 3
split_gain=2.9823 0.979342 0.969967 0.604509 0.598569 0.507156 1.31569 0.532477 0.49073 0.41688 0.300424 0.579117 0.567615 0.466568 0.298494 0.499306 0.305972 0.369981 0.247673 0.325354 0.651536 0.996963 0.547663 0.299741 0.278305 0.251936 0.24305 0.160178 0.158291 0.156314 0.108773 0.101625 0.049547 0.0336635 0.0206749 0.018166 0.00816484 0.00386276 0.00240345
threshold=0.51666666666650019 0.37307750032800008 0.33329081651200004 0.39199639908350004 0.41441092654250006 0.46824731090800004 0.37096323555300009 0.31920962677300008 0.15119047619050005 0.32550995321450005 0.41983488733500002 0.05634920634925001 0.45023204481150009 0.29497110082900008 0.30214056776550002 0.40935314685300006 0.42577758662900006 0.45630610599150007 0.47044805314750004 0.22853721444350003 0.37958152471000006 0.17656551579500004 0.26071814282650002 0.20443037974700004 0.34195083213250005 0.32380903787600007 0.22662299556000001 0.32772624846550008 0.34598823013350005 0.32933446857100007 0.29939897969000001 0.27151555043600006 0.0216314436036 0.37525444598600005 0.12661432870250003 0.27516253806300006 0.55970888318650014 0.26726190476200007 0.26713905584050007
decision_type=2 2 2 2 2 2 2 2 2 2 2 2 2 2 2 2 2 2 2 2 2 2 2 2 2 2 2 2 2 2 2 2 2 2 2 2 2 2 2
left_child=1 5 3 8 -4 10 7 -7 -3 -6 18 12 13 -12 -2 -16 -17 -18 19 27 22 -22 -21 24 25 26 -24 30 -20 -27 32 -15 -1 -19 37 -36 -35 38 -34
right_child=14 2 4 -5 9 6 -8 -9 -10 -11 11 -13 -14 31 15 16 17 33 28 20 21 -23 23 -25 -26 29 -28 -29 -30 -31 -32 -33 34 36 35 -37 -38 -39 -40
leaf_value=-0.0020853810721919649 0.011374604447998784 0.0073419230151921507 0.012988382786512376 -0.0089431142434477813 -0.0015328844839876349 0.0013609209859913047 -0.005991122623284658 0.012026583671569824 -0.0031658927500247958 0.0084412135928869248 0.0044007308115916596 -0.0075258734382011687 0.0089523800462484367 -0.0063912113951075647 -0.00075851743077409684 0.011734667809113213 -0.00074381012469530109 0.0052448030561208728 -0.0030368832250436146 0.004151686702085578 -0.0052467387088614963 0.0079424689082722918 -0.0031993689692833209 -0.008699731663640204 -0.0082816979714802324 -0.0022181086298642739 0.0039413303638306946 -0.0082990339364517815 -0.0083089861380202436 -0.0078200060967355961 -0.0007193724662065506 -0.0014722229824179695 -0.0043523202933695012 0.0082385605606048011 -0.0045988293098551888 -0.0067043841537088164 0.0070187906351159603 -0.0047848031900468331 -0.0036567726413960812
leaf_count=21 22 20 25 20 22 22 33 25 25 20 28 22 20 21 29 23 20 23 24 23 23 38 22 29 21 33 26 22 35 20 25 21 23 23 21 20 34 21 27
internal_value=0 -0.0258652 0.0528241 -0.0342065 0.137257 -0.0414613 0.0332245 0.140683 0.030085 0.0643337 -0.0516573 -0.00507737 0.0304747 -0.0119748 0.118623 0.102866 0.130696 0.106776 -0.0626635 -0.0540446 -0.0295395 0.0593898 -0.0607159 -0.0826115 -0.0608893 -0.0391107 0.0133702 -0.0860374 -0.123288 -0.0866406 -0.074906 -0.0786343 -0.0862817 0.137189 -0.0946393 -0.112519 0.15022 -0.0843147 -0.0795345
