tree
version=v2
num_class=1
num_tree_per_iteration=1
label_index=0
max_feature_idx=14
objective=regression
feature_names=Column_0 Column_1 Column_2 Column_3 Column_4 Column_5 Column_6 Column_7 Column_8 Column_9 Column_10 Column_11 Column_12 Column_13 Column_14
feature_infos=[0:1] [0:1] [0:0.98684075499300006] [-13.448183182799999:14.448183182799999] [0:1] [0.00147238948238:0.99659550117500006] [0:1] [0:1] [0:1] [0:1] [0:1] [0.045341120330099995:0.87493002421800004] [0:1] [0:1] 1:0:5:3:2:-1
tree_sizes=1673 1810 1811 1970 1970 2055 1893 1903 1735 1977 2052

Tree=0
num_leaves=21
num_cat=0
split_feature=2 12 13 11 4 9 7 1 0 10 9 7 2 9 1 3 3 8 0 0
split_gain=36.5238 8.78155 8.431 3.65067 2.63305 2.35172 1.62 1.15227 0.7 0.612985 0.666973 0.859846 0.485126 0.442735 0.25 0.197597 0.509544 0.143965 3.55271e-15 8.88178e-16
threshold=0.39612115357450006 0.60769230769250016 0.5422619047620002 0.34284942032000004 0.49990823630000003 0.41102669857950008 0.36801556631200005 0.33329081651200004 0.41162185145650004 0.048809523809500009 0.32420494409200007 0.19494462200250004 0.62736591412150011 0.49170778508750007 0.32344813795900001 0.34782442596800006 0.32124375812800005 0.34849907620100007 0.54554570040750006 0.3006412208180001
decision_type=2 2 2 2 2 2 2 2 2 2 2 2 2 2 2 2 2 2 2 2
left_child=1 3 5 9 7 6 8 -5 -2 -1 15 -12 -4 -7 -13 16 17 19 -14 -11
right_child=2 -3 12 4 -6 13 -8 -9 -10 10 11 14 18 -15 -16 -17 -18 -19 -20 -21
leaf_value=0.32330276741031344 0.34115991000136414 0.37676597007685309 0.38210193837678758 0.32949324350854436 0.30917066316621311 0.36036280826594325 0.32282657694121875 0.36199324302425662 0.3661599096288351 0.29949324395557919 0.32992802611076122 0.29949324395557919 0.39949324246546303 0.38044562370167562 0.31449324373206178 0.29949324395557919 0.31735038654662989 0.30901705333747287 0.39949324246546303 0.29949324395557919
leaf_count=21 24 22 23 20 31 23 30 24 21 40 23 25 26 21 20 97 28 21 27 25
internal_value=0 -0.17408 0.354409 -0.210104 -0.0127703 0.188238 0.0805631 0.144502 0.200563 -0.259437 -0.271838 -0.185711 0.614598 0.371775 -0.266104 -0.299595 -0.271367 -0.309514 0.66723 -0.33277
internal_count=592 397 195 375 75 119 75 44 45 300 279 68 76 44 45 211 114 86 53 65
shrinkage=1


Tree=1
num_leaves=22
num_cat=0
split_feature=2 12 13 11 9 1 1 2 4 11 10 9 3 5 3 8 3 5 3 3 2
split_gain=29.5843 7.11306 6.8406 2.95704 2.2233 2.1354 1.3864 0.832189 0.782195 0.570631 0.496518 0.540249 0.706222 0.167563 0.305806 0.546726 0.132317 0.108743 0.000597786 0.000788598 0.000564585
threshold=0.39612115357450006 0.60769230769250016 0.7916666666665001 0.34284942032000004 0.30195951107700009 0.33329081651200004 0.27669569370950003 0.47652011614500006 0.49990823630000003 0.34672446129400009 0.048809523809500009 0.32420494409200007 0.25519708431950006 0.30156148604800009 0.34782442596800006 0.33142768355750002 0.25314616488450004 0.36819527369450006 0.35157347862750005 0.25143983597650005 0.71779657538350017
decision_type=2 2 2 2 2 2 2 2 2 2 2 2 2 2 2 2 2 2 2 2 2
left_child=1 3 4 10 -2 8 -6 9 -5 -8 -1 13 -13 18 15 17 -4 -15 19 -12 -18
right_child=2 -3 16 5 6 -7 7 -9 -10 -11 11 12 -14 14 -16 -17 20 -19 -20 -21 -22
leaf_value=-0.0085207531700076198 -0.0041390479227758625 0.039596131221215067 0.050659373263409323 -0.0029493245921928366 0.049391670068974332 0.016889384896043563 0.017318003066720038 0.0075685011419430528 -0.03091706679637829 0.040630189189764687 -0.030119393788992831 -0.027847642505974973 -0.0073858703605537476 -0.030377896999983441 -0.029949325769384583 -0.0061100394444173478 0.060746329735909835 -0.020485039658621539 -0.029949325769384583 -0.030930050958856981 0.060050679147998665
leaf_count=21 33 22 20 20 20 35 21 32 20 21 28 31 37 25 56 20 20 20 41 21 28
internal_value=0 -0.156672 0.318968 -0.189093 0.181917 -0.0114932 0.260312 0.197176 -0.169332 0.289741 -0.233493 -0.244655 -0.16714 -0.269635 -0.245332 -0.198669 0.574931 -0.259811 -0.302311 -0.304668 0.603405
internal_count=592 397 195 375 127 75 94 74 40 42 300 279 68 211 121 65 68 45 90 49 48
shrinkage=0.1


Tree=2
num_leaves=22
num_cat=0
split_feature=2 12 2 11 9 6 8 4 13 2 10 11 0 9 7 7 0 2 9 3 3
split_gain=23.9633 5.76157 5.68313 2.3952 1.96314 1.87689 1.27617 1.14435 0.783388 0.480964 0.40218 0.511249 0.485307 0.181525 0.562585 0.0912452 0.053216 0.126749 0.00520086 0.00116019 0.000411274
threshold=0.39612115357450006 0.60769230769250016 0.56273962875350014 0.34284942032000004 0.30195951107700009 0.49621301142500002 0.32679336300050005 0.39912112057150007 0.7916666666665001 0.48201985429050004 0.048809523809500009 0.32860284798100003 0.30828172679300003 0.33309421329500005 0.25107672009950005 0.0011779319165200004 0.16938316993500002 0.18347255754350003 0.27625152625150007 0.26456576586100006 0.35157347862750005
decision_type=2 2 2 2 2 2 2 2 2 2 2 2 2 2 2 2 2 2 2 2 2
left_child=1 3 4 10 -2 6 -5 -6 -4 -9 -1 13 -13 15 -15 -12 17 -17 20 -10 -18
right_child=2 -3 8 5 7 -7 -8 9 19 -11 11 12 -14 14 -16 16 18 -19 -20 -21 -22
leaf_value=-0.0076686786477354659 -0.0094044251438357464 0.035636517123744813 0.03430820980716269 -0.0040785856324885789 0.036009167298811179 -0.022751414312500658 0.028367235053722944 0.020423713299654287 0.055054302737925977 0.00024536834242282532 -0.019945196760718129 -0.0044716130709220505 -0.02392284141301159 -0.0059519141309248508 -0.028884304777655263 -0.027562049983824579 -0.027430225616267345 -0.017473260126609502 -0.028704972061588938 0.05411334134101356 -0.026954392000353211
leaf_count=21 28 22 29 27 32 26 22 27 20 21 26 29 23 20 23 33 34 20 32 38 39
internal_value=0 -0.141005 0.287071 -0.170184 0.133848 -0.0103439 0.104889 0.213611 0.477279 0.115957 -0.210144 -0.220189 -0.13075 -0.240677 -0.182181 -0.254348 -0.263381 -0.23755 -0.27642 0.544378 -0.27176
internal_count=592 397 195 375 108 75 49 80 87 48 300 279 52 227 43 184 158 53 105 58 73
shrinkage=0.1


Tree=3
num_leaves=24
num_cat=0
split_feature=13 2 11 12 9 5 6 7 8 11 2 12 0 8 2 9 2 9 9 2 5 3 3
split_gain=19.4681 8.05561 2.40202 1.84568 1.56601 1.28447 1.13798 0.95448 0.513237 0.384581 0.351667 0.246412 0.655114 0.196131 0.863373 0.148763 0.0436379 0.0059875 0.00158576 0.00132809 0.000523184 0.00034232 0.000206237
threshold=0.7916666666665001 0.39612115357450006 0.34284942032000004 0.18550368550350002 0.39867549668850005 0.33420348014000006 0.48238317767600009 0.27347787987850009 0.48848817390950011 0.40476008263150004 0.52301820230300011 0.20472481383200003 0.33366516507700006 0.29254454454450007 0.19491533625150004 0.33309421329500005 0.29507138635200009 0.065638864241350028 0.28532289628150004 0.70700868828850016 0.34938414722500005 0.32750146257050006 0.365565784748
decision_type=2 2 2 2 2 2 2 2 2 2 2 2 2 2 2 2 2 2 2 2 2 2 2
left_child=1 2 8 6 5 7 -4 -3 11 -6 -2 13 -13 15 -15 16 17 -1 20 -12 21 -19 -21
right_child=10 4 3 -5 9 -7 -8 -9 -10 -11 19 12 -14 14 -16 -17 -18 18 -20 22 -22 -23 -24
leaf_value=-0.02680498557314932 0.034410150590961155 0.011934491871811325 0.0050976987091215387 0.025954340785061425 0.037385289034028178 0.021351535657071104 -0.024576928211901505 -0.016888265618562239 -0.0073340614387152449 0.019467659131182376 0.049855894444225633 -0.0050532274475406985 -0.027647001885649017 -0.0012812581590135055 -0.025828829792571506 -0.016008545572686373 -0.020256923589958595 -0.024282158819546935 -0.0257531521581583 0.049084929065181741 -0.025150193106927819 -0.024811777899532487 0.048630795309406442
leaf_count=22 22 20 28 22 25 32 24 27 37 23 20 33 21 23 38 24 20 23 20 20 22 26 20
internal_value=0 -0.0727148 -0.145086 0.0167412 0.145539 0.0589817 -0.0859828 -0.0462326 -0.183841 0.287998 0.452251 -0.198872 -0.138397 -0.213852 -0.165732 -0.232549 -0.245625 -0.253245 -0.249666 0.491905 -0.247451 -0.245632 0.488579
internal_count=592 510 383 74 127 79 52 47 309 48 82 272 54 218 61 157 133 113 91 60 71 49 40
shrinkage=0.1


Tree=4
num_leaves=24
num_cat=0
split_feature=12 2 2 11 0 6 11 2 13 9 1 13 7 5 11 9 2 9 3 8 11 0 3
split_gain=16.0931 7.34561 1.87875 1.70453 1.60593 1.87236 1.57104 1.5397 0.748227 0.658529 0.357223 0.333561 0.140454 0.259866 0.700062 0.258275 0.0402331 0.039479 0.01124 0.00467582 0.00121885 0.000498228 0.00013985
threshold=0.67489177489200014 0.39612115357450006 0.56273962875350014 0.34284942032000004 0.19775326797350001 0.37045623668150002 0.32700983926800004 0.48390513029250004 0.91833333333350009 0.37138470708150001 0.4401385402595 0.40833333333350003 0.0011779319165200004 0.37313812176850003 0.31662010606100005 0.090655438311700018 0.64425893579550009 0.30748797637050007 0.27847434291950007 0.36438094468600007 0.30856589721400002 0.20641047168200002 0.43257468979200003
decision_type=2 2 2 2 2 2 2 2 2 2 2 2 2 2 2 2 2 2 2 2 2 2 2
left_child=1 3 6 10 -5 -6 -3 9 -2 -8 11 12 -1 15 -15 -14 -10 19 -19 20 21 -17 -18
right_child=8 2 -4 4 5 -7 7 -9 16 -11 -12 -13 13 14 -16 17 22 18 -20 -21 -22 -23 -24
leaf_value=-0.012347486024312465 0.025959764914253676 -0.013573913092136189 0.03451982824150103 -0.023998409512473423 0.029478310736193912 -0.0077256714333910183 0.013057085498598922 -0.0065403584349479748 0.049419049611971515 0.037549980738661559 -0.0075723033431077304 -0.0060300996308043529 -0.01227418175477331 -0.023922134909150732 -0.0022594337043540269 -0.022479977851005365 0.044112871648563014 -0.024717832203475117 -0.027959271191943746 -0.024173711451496351 -0.023014787411680854 -0.021854744104366657 0.043738906290216824
leaf_count=25 28 27 33 21 24 31 21 22 20 23 34 20 22 35 26 26 20 20 23 20 26 25 20
internal_value=0 -0.0688946 0.140208 -0.138595 -0.0047346 0.0850879 0.0674693 0.1506 0.394578 0.258602 -0.172282 -0.184532 -0.194551 -0.202519 -0.146889 -0.223467 0.457569 -0.239295 -0.264516 -0.228114 -0.224576 -0.221735 0.439259
internal_count=592 504 126 378 76 55 93 66 88 44 302 268 248 223 61 162 60 140 43 97 77 51 40
shrinkage=0.1


Tree=5
num_leaves=25
num_cat=0
split_feature=12 2 11 11 1 5 7 11 13 2 3 9 10 3 5 4 9 3 2 5 11 11 6 3
split_gain=13.0354 5.94994 1.59054 1.38067 1.35192 1.3077 1.21161 0.935002 0.606064 0.38379 0.323244 0.594353 0.477089 0.269398 0.408663 0.168141 0.132391 0.0446576 0.0325888 0.012839 0.00760531 0.00334934 0.00246453 0.00011328
threshold=0.67489177489200014 0.39612115357450006 0.35137606599600002 0.34284942032000004 0.33329081651200004 0.33445736014600008 0.27347787987850009 0.40950777649000009 0.91833333333350009 0.25428716215850006 0.25519708431950006 0.33713139038200007 0.057580778790400008 0.34782442596800006 0.34863094842250003 0.0048364808843850008 0.25390369266350005 0.61342511488750007 0.64425893579550009 0.31921616277750003 0.31533905325000006 0.31337952473450004 0.037509687430950012 0.43257468979200003
decision_type=2 2 2 2 2 2 2 2 2 2 2 2 2 2 2 2 2 2 2 2 2 2 2 2
left_child=1 3 5 10 9 6 -3 -4 -2 -5 15 12 -12 14 16 -1 -14 20 -10 -17 22 -21 -15 -20
right_child=8 2 7 4 -6 -7 -8 -9 18 -11 11 -13 13 17 -16 19 -18 -19 23 21 -22 -23 -24 -25
leaf_value=-0.012341101296716591 0.023363787709701298 0.007921351858794964 0.038515316098092299 -0.02219086684358134 0.014009206418617377 0.019525966339200229 -0.024969358901435795 0.011304065494429484 0.0444771452915243 -0.0028349350815256688 -0.00075059645996386481 0.00087319350168282633 -0.011933332337935748 -0.021414726621131992 -0.00017932862310601205 -0.021080014754865119 -0.023439462459675403 -0.016121435182115954 0.039701585020148526 -0.022768054422260136 -0.022569626093270945 -0.024598175653788079 -0.019938190005371739 0.039365013679340678
leaf_count=21 28 24 28 21 35 30 21 23 20 20 20 26 20 20 20 36 20 20 20 20 33 20 26 20
internal_value=0 -0.0620052 0.126187 -0.124736 -0.00426114 0.033538 -0.0742765 0.262436 0.355121 -0.127489 -0.155054 -0.13255 -0.153071 -0.171381 -0.118507 -0.202615 -0.176864 -0.203426 0.411812 -0.224501 -0.214112 -0.236831 -0.205802 0.395333
internal_count=592 504 126 378 76 75 45 51 88 41 302 205 179 159 60 97 40 99 60 76 79 40 46 40
shrinkage=0.1


Tree=6
num_leaves=23
num_cat=0
split_feature=13 2 12 11 7 1 1 1 11 2 10 2 2 7 8 12 0 0 9 11 8 2
split_gain=10.6218 3.87743 1.50167 1.10544 0.801699 0.745304 0.68305 0.676388 0.792098 0.441994 0.76743 0.32199 0.33422 0.240541 0.1733 0.198638 0.103548 0.352689 0.0160045 0.0140357 0.0113163 0.00335767
threshold=0.59470304975950006 0.39612115357450006 0.47279411764700002 0.35137606599600002 0.46311318302200005 0.33329081651200004 0.27847564240850003 0.34342817529300007 0.2827716345245001 0.28139008732750009 0.31643132220800002 0.30449368540700006 0.34589708107100009 0.0011779319165200004 0.33299510121300002 0.95799059929450003 0.23649127155850003 0.30382149677700004 0.30250058333950008 0.32964335600300004 0.28048150893800006 0.10803734559400001
decision_type=2 2 2 2 2 2 2 2 2 2 2 2 2 2 2 2 2 2 2 2 2 2
left_child=1 2 7 5 -5 -3 -2 11 -9 10 -10 13 -13 -1 -8 -16 19 -18 -19 20 21 -15
right_child=6 3 -4 4 -6 -7 14 8 9 -11 -12 12 -14 16 15 -17 17 18 -20 -21 -22 -23
leaf_value=-0.0076289733678162365 0.014506009153401701 0.012890418624735153 0.0079599242863204606 0.034293749942785744 0.0089483928409093902 -0.007822861286083619 0.042881720258023136 -0.020299926968769276 -0.0080796180521249608 -0.010511207792385091 0.018361025674384301 0.0013091104672716626 -0.015616451968710681 -0.018842696927627373 0.024364816086392412 0.036734621949483862 -0.0061976245596650908 -0.019484418473905595 -0.023136419775134615 -0.023124103191510228 -0.022413533216916515 -0.020486909909869615
leaf_count=21 21 32 38 24 26 38 20 28 21 27 23 20 28 27 21 34 24 30 20 26 20 23
internal_value=0 -0.0589294 -0.108879 0.0975777 0.211142 0.0164607 0.304469 -0.130068 -0.0605625 -0.00439028 0.0574163 -0.158859 -0.0856413 -0.17726 0.349103 0.320116 -0.189733 -0.161622 -0.209452 -0.211401 -0.204032 -0.19599
internal_count=592 496 376 120 50 70 96 338 99 71 44 239 48 191 75 55 170 74 50 96 70 50
shrinkage=0.1


Tree=7
num_leaves=23
num_cat=0
split_feature=12 2 2 11 0 3 11 0 6 10 10 1 7 7 11 10 11 2 9 4 11 9
split_gain=8.93255 4.36089 1.32208 1.15546 1.44665 1.2698 0.996132 1.04039 1.55809 0.267923 0.235311 0.360213 0.373555 0.212873 0.564821 0.0872973 0.0871788 0.0353089 0.0106288 0.00316308 0.00141761 0.000435594
threshold=0.82213438735200017 0.39612115357450006 0.56273962875350014 0.32380901418200009 0.36963580571150007 0.30348221931450009 0.34284942032000004 0.19775326797350001 0.37045623668150002 0.048809523809500009 0.31475155279500006 0.37652820739450005 0.19867490617200004 0.33354728284100005 0.38856623539800006 0.34549071618050003 0.32404386347750008 0.023492363508700004 0.27625152625150007 0.0036411724161600008 0.30856589721400002 0.16732804232800003
decision_type=2 2 2 2 2 2 2 2 2 2 2 2 2 2 2 2 2 2 2 2 2 2
left_child=1 6 3 -3 -5 -6 9 -8 -9 -1 16 12 -12 -2 -15 -14 17 -11 19 -19 21 -21
right_child=13 2 -4 4 5 -7 7 8 -10 10 11 -13 15 14 -16 -17 -18 18 -20 20 -22 -23
leaf_value=-0.0019002813951642093 0.038931104286478516 -0.015930837275405424 0.027504400509874311 0.028633317884447791 -0.019212934959127525 0.013778027299144843 -0.01893888917545241 0.026354591941156857 -0.0075838429481267589 -0.013431116989718628 -0.005513377238678261 -0.0007509718450552002 -0.01342175004514679 0.014435308641721434 0.035613930843715121 -0.021747873127209646 -0.011720438020898137 -0.018490887611644691 -0.019912480373736982 -0.01709486738936947 -0.017810714435737045 -0.016450046098978013
leaf_count=21 25 21 35 28 20 28 21 24 31 20 36 30 20 20 34 34 36 23 23 22 20 20
internal_value=0 -0.0482038 0.108437 0.0483208 0.105692 0.00031793 -0.102473 -4.02102e-05 0.0722566 -0.127997 -0.136057 -0.102406 -0.134038 0.31302 0.2777 -0.186641 -0.160679 -0.172906 -0.180054 -0.174893 -0.171178 -0.167878
internal_count=592 513 132 97 76 48 381 76 55 305 284 120 90 79 54 54 164 128 108 85 62 42
shrinkage=0.1


Tree=8
num_leaves=21
num_cat=0
split_feature=12 2 2 11 0 3 11 2 8 3 11 5 7 10 6 3 3 3 11 11
split_gain=7.23536 3.53232 1.07089 0.935921 1.17179 1.02854 0.806867 0.92514 0.635874 0.221664 0.454307 0.193158 0.376361 0.140439 0.271106 0.222972 0.105619 0.214798 0.0177224 0.00417966
threshold=0.82213438735200017 0.39612115357450006 0.56273962875350014 0.32380901418200009 0.36963580571150007 0.30348221931450009 0.34284942032000004 0.19711988973600003 0.24233182773250003 0.44702838644200005 0.28530253627850005 0.33864488857050007 0.71657871159250008 0.31475155279500006 0.197637907157 0.28222326600750008 0.32124375812800005 0.36077601397100006 0.31892786575850002 0.26127960356350005
decision_type=2 2 2 2 2 2 2 2 2 2 2 2 2 2 2 2 2 2 2 2
left_child=1 6 3 -3 -5 -6 9 -8 -9 13 -11 -2 -13 16 -15 -16 18 -18 19 -1
right_child=11 2 -4 4 5 -7 7 8 -10 10 -12 12 -14 14 15 -17 17 -19 -20 -21
leaf_value=-0.017379261617895707 0.03371594930549103 -0.014337753824600737 0.024753960399282234 0.02576998627694569 -0.017291641344005484 0.012400224244597913 -0.015303750736150326 -0.0047699225930587109 0.017948598948206627 -0.016366305675371302 0.00088244259061457959 0.014513065001698668 0.033010273444534707 -0.002270771789163315 -0.019325564037819629 -0.008107591440541068 -0.0053846775159085269 -0.017212162072699516 -0.019595035189316198 -0.01558748462181515
leaf_count=23 35 21 35 28 20 28 26 22 28 26 37 22 22 31 34 37 28 34 25 30
internal_value=0 -0.0433835 0.0975931 0.0434887 0.0951228 0.000286136 -0.0922257 -3.61902e-05 0.0795245 -0.115198 -0.0623609 0.281718 0.237617 -0.128953 -0.10073 -0.134796 -0.149515 -0.118707 -0.174003 -0.16365
internal_count=592 513 132 97 76 48 381 76 50 305 63 79 44 242 102 71 140 62 78 53
shrinkage=0.1


Tree=9
num_leaves=24
num_cat=0
split_feature=12 2 5 11 4 7 1 12 11 4 8 2 6 7 7 6 8 11 11 8 7 4 2
split_gain=5.86065 2.86118 0.911536 0.988868 0.97129 0.929059 0.723475 1.04766 0.550156 0.465441 0.322679 0.225538 0.358573 0.175584 0.552929 0.138183 0.129026 0.0680001 0.045696 0.0401123 0.0364416 0.00529801 0.00400872
threshold=0.82213438735200017 0.39612115357450006 0.33420348014000006 0.35467800528150006 0.37808863484600003 0.27347787987850009 0.26400089605750005 0.30528852590700006 0.37567548652850008 0.039309462812800004 0.3965368608660001 0.27833713051850006 0.30677734116300004 0.38534296098650006 0.71657871159250008 0.42498874907300005 0.34599356008050003 0.31533905325000006 0.32618253839650008 0.05069951338200001 0.37900911284 0.014078453981500002 0.20095505971000002
decision_type=2 2 2 2 2 2 2 2 2 2 2 2 2 2 2 2 2 2 2 2 2 2 2
left_child=1 6 3 5 -4 -3 11 8 9 -8 15 16 -13 -2 -15 18 17 19 22 -1 -19 -21 -11
right_child=13 2 4 -5 -6 -7 7 -9 -10 10 -12 12 -14 14 -16 -17 -18 20 -20 21 -22 -23 -24
leaf_value=-0.010710678444678049 0.031717214460927456 0.005587088275756759 0.034723739843424251 0.015826362915575768 0.0080535623306732373 -0.023214247884849139 0.0011005142687385804 0.011279570686347178 0.0075718542358768383 -0.017336633091220747 -0.0040407046797111355 0.0031952831997764581 -0.015513957168227926 0.0088981210276204478 0.030224841418271135 -0.0087896768195878956 -0.0083215823519465649 -0.022397686378126631 -0.02200959923200389 -0.014904149356660866 -0.016506481806888545 -0.01694299663518364 -0.015334453774011932
leaf_count=21 28 24 22 29 36 21 31 36 21 20 31 20 21 20 31 20 25 21 22 26 21 25 20
internal_value=0 -0.0390451 0.0878338 0.0142642 0.181698 -0.0785354 -0.0830032 -0.0417661 -0.0754887 -0.0975397 -0.127318 -0.129051 -0.063875 0.253546 0.218614 -0.160174 -0.148276 -0.162543 -0.183489 -0.14389 -0.194521 -0.159036 -0.163355
internal_count=592 513 132 74 58 45 381 201 165 144 113 180 41 79 51 82 139 114 62 72 42 51 40
shrinkage=0.1


Tree=10
num_leaves=25
num_cat=0
split_feature=13 11 10 6 9 11 7 7 11 2 10 7 9 12 11 0 7 7 2 1 8 9 9 2
split_gain=4.89147 2.09712 1.32233 1.20276 0.96702 0.927386 0.862924 0.777733 0.789417 0.690669 0.466656 0.285013 0.685181 0.226758 0.185354 0.143023 0.111153 0.175994 0.0826714 0.10265 0.0509384 0.0129748 0.00989019 0.008641
threshold=0.7916666666665001 0.32860284798100003 0.36402157164850008 0.41913795601050008 0.45108380455250002 0.38216454087050006 0.49545512731750008 0.11536745990000001 0.35137606599600002 0.45919918948100008 0.28269230769200004 0.26149790479750007 0.33309421329500005 0.28730158730150007 0.30210248420300007 0.32039461745550007 0.39887490281850008 0.48599779729600007 0.20989923468950003 0.28087349741000006 0.70099821405800011 0.26009279304400007 0.11475752508400001 0.6933638716595002
decision_type=2 2 2 2 2 2 2 2 2 2 2 2 2 2 2 2 2 2 2 2 2 2 2 2
left_child=1 9 4 -4 6 -5 7 -3 10 11 -9 12 14 16 18 -2 21 -18 19 22 23 -13 -1 -17
right_child=15 2 3 5 -6 -7 -8 8 -10 -11 -12 13 -14 -15 -16 20 17 -19 -20 -21 -22 -23 -24 -25
leaf_value=-0.015711088570762855 0.01531602457636631 -0.017705724231077052 0.027907344501180549 -0.0091707616755314237 0.016203379678128675 0.017289829368508525 -0.023125982846458493 -0.013667986097778752 0.020258579332509324 0.0072724671255419704 0.006069194198685797 -0.014344765534173926 0.006760957479353645 -0.024066069867914246 -0.0048422249170192097 0.028453551798721569 -0.0020432015440345033 -0.014628695199321135 -0.017700333312655483 -0.0056137382756304898 0.020887519879453174 -0.017863999234687185 -0.012642012015327279 0.025584836543515718
leaf_count=21 20 23 34 27 23 26 24 23 20 23 25 20 26 21 35 21 20 25 30 21 20 22 21 21
internal_value=0 -0.0364486 0.0357216 0.132273 -0.0251478 0.0380991 -0.0625841 -0.0180982 0.0356673 -0.093425 -0.033882 -0.108011 -0.08039 -0.147396 -0.110452 0.226692 -0.124883 -0.0903514 -0.133797 -0.113223 0.250412 -0.161882 -0.141766 0.270192
internal_count=592 510 225 87 138 53 115 91 68 285 48 262 154 108 128 82 87 45 93 63 62 42 42 42
shrinkage=0.1



feature importances:
Column_2=38
Column_11=37
Column_9=24
Column_3=23
Column_7=21
Column_0=14
Column_12=14
Column_8=13
Column_1=12
Column_10=11
Column_5=10
Column_6=9
Column_13=9
Column_4=8

pandas_categorical:null
