tree
version=v2
num_class=1
num_tree_per_iteration=1
label_index=0
max_feature_idx=5
objective=regression
feature_names=Column_0 Column_1 Column_2 Column_3 Column_4 Column_5
feature_infos=[0:1] [0:1] [0:1] [0:1] [0:0.99985439013699995] [0:1]
tree_sizes=774 795 797 801 802

Tree=0
num_leaves=9
num_cat=0
split_feature=3 4 5 5 5 5 4 0
split_gain=14.6669 1.45378 0.803571 0.594388 0.400476 0.219131 0.237863 0.025
threshold=0.73611111111100014 0.34196558274650007 0.22326366444000004 0.13170840323950003 0.34859764478600003 0.027393090281200003 0.12451550387600001 0.50286373926000005
decision_type=2 2 2 2 2 2 2 2
left_child=1 3 -3 5 -5 6 -1 -2
right_child=7 2 -4 4 -6 -7 -8 -9
leaf_value=0.31904761862187159 0.35916666743656001 0.34166666691501935 0.32916666654249033 0.33095238088142304 0.32266666634877522 0.31666666616996125 0.32666666646798448 0.3616666675110658
leaf_count=21 20 20 36 35 25 23 20 20
internal_value=0 -0.127778 0.00595238 -0.188172 -0.116667 -0.255208 -0.211382 0.541667
internal_count=220 180 56 124 60 64 41 40
shrinkage=1


Tree=1
num_leaves=9
num_cat=0
split_feature=3 4 5 5 5 5 4 5
split_gain=13.2369 1.31203 0.725223 0.536436 0.36143 0.197766 0.214671 0.025
threshold=0.73611111111100014 0.34196558274650007 0.22326366444000004 0.13170840323950003 0.34859764478600003 0.027393090281200003 0.12451550387600001 0.53894745697850011
decision_type=2 2 2 2 2 2 2 2
left_child=1 3 -3 5 -5 6 -1 -2
right_child=7 2 -4 4 -6 -7 -8 -9
leaf_value=-0.013571429110708692 0.024479165971279145 0.0079166673123836524 -0.0039583336561918262 -0.0022619049463953292 -0.010133333563804628 -0.015833333134651184 -0.006333332657814026 0.026979165971279147
leaf_count=21 20 20 36 35 25 23 20 20
internal_value=0 -0.121389 0.00565476 -0.178763 -0.110833 -0.242448 -0.200813 0.514583
internal_count=220 180 56 124 60 64 41 40
shrinkage=0.05


Tree=2
num_leaves=9
num_cat=0
split_feature=3 4 5 5 5 5 4 0
split_gain=11.9463 1.18411 0.654514 0.484133 0.32619 0.178484 0.193741 0.0225625
threshold=0.73611111111100014 0.34196558274650007 0.22326366444000004 0.13170840323950003 0.34859764478600003 0.027393090281200003 0.12451550387600001 0.50286373926000005
decision_type=2 2 2 2 2 2 2 2
left_child=1 3 -3 5 -5 6 -1 -2
right_child=7 2 -4 4 -6 -7 -8 -9
leaf_value=-0.012892857052031019 0.02325520843267441 0.0075208336114883428 -0.0037604164332151416 -0.002148809177534921 -0.0096266659498214727 -0.015041667222976686 -0.0060166668891906737 0.0256302085518837
leaf_count=21 20 20 36 35 25 23 20 20
internal_value=0 -0.115319 0.00537203 -0.169825 -0.105292 -0.230326 -0.190772 0.488854
internal_count=220 180 56 124 60 64 41 40
shrinkage=0.05


Tree=3
num_leaves=9
num_cat=0
split_feature=3 4 5 5 5 5 4 5
split_gain=10.7815 1.06866 0.590699 0.43693 0.294387 0.161081 0.174851 0.0225625
threshold=0.73611111111100014 0.34196558274650007 0.22326366444000004 0.13170840323950003 0.34859764478600003 0.027393090281200003 0.12451550387600001 0.53894745697850011
decision_type=2 2 2 2 2 2 2 2
left_child=1 3 -3 5 -5 6 -1 -2
right_child=7 2 -4 4 -6 -7 -8 -9
leaf_value=-0.012248214937391736 0.022033072039484979 0.0071447908878326423 -0.0035723954439163211 -0.0020413688250950405 -0.0091453332901000987 -0.014289583265781404 -0.0057158333063125613 0.024408072084188465
leaf_count=21 20 20 36 35 25 23 20 20
internal_value=0 -0.109553 0.00510342 -0.161334 -0.100027 -0.218809 -0.181234 0.464411
internal_count=220 180 56 124 60 64 41 40
shrinkage=0.05


Tree=4
num_leaves=9
num_cat=0
split_feature=3 2 2 2 0 2 0 5
split_gain=9.73033 1.01246 0.588161 0.904181 0.615441 0.186995 0.0203627 0.0113758
threshold=0.73611111111100014 0.50907219095700018 0.24786461280850003 0.37103429467150001 0.17524189424100003 0.17761815061200001 0.50286373926000005 0.063886891924300013
decision_type=2 2 2 2 2 2 2 2
left_child=1 2 4 7 -1 -6 -2 -4
right_child=6 -3 3 -5 5 -7 -8 -9
leaf_value=-0.0081314172181818217 0.020931419953703883 0.0051145953791482115 -0.012461891025304796 -0.0025401269892851514 -0.0025387381762266162 0.0042985633015632631 0.023187669813632968 -0.013973108114618243
leaf_count=36 20 21 20 30 20 20 20 33
internal_value=0 -0.104076 -0.131332 -0.189531 -0.0677722 0.0175983 0.441191 -0.268057
internal_count=220 180 159 83 76 40 40 53
shrinkage=0.05



feature importances:
Column_5=19
Column_4=8
Column_3=5
Column_0=4
Column_2=4

pandas_categorical:null
