tree
version=v2
num_class=1
num_tree_per_iteration=1
label_index=0
max_feature_idx=5
objective=regression
feature_names=Column_0 Column_1 Column_2 Column_3 Column_4 Column_5
feature_infos=[0:1] [0:1] [0:1] [0:1] [0:0.99996440804599995] [0:1]
tree_sizes=1152 1002 1109 1191 1112 1110 1186 1187 1116 1189 1124 1046 1109 1122 1201 1200 1116 1209 1201 1041

Tree=0
num_leaves=14
num_cat=0
split_feature=3 4 2 5 5 5 0 2 4 2 2 4 0
split_gain=14.5954 4.32141 2.32894 1.45973 0.711572 0.679367 0.629173 0.586667 0.545455 0.41957 0.26501 0.24289 8.88178e-16
threshold=0.76154672395250012 0.31607374918750003 0.36906284504950004 0.15075757575750001 0.39356829996150006 0.34970527453950001 0.24718834402900003 0.36571873035300001 0.40499871868800008 0.30366975042300004 0.53923076923100011 0.18736508419850001 0.25916403504100011
decision_type=2 2 2 2 2 2 2 2 2 2 2 2 2
left_child=1 3 4 7 6 11 -3 12 -4 -7 -2 -5 -1
right_child=10 2 8 5 -6 9 -8 -9 -10 -11 -12 -13 -14
leaf_value=0.31666666616996125 0.35666666736205416 0.33333333333333331 0.33939393957455949 0.33563218397655703 0.33725490207765613 0.31904761862187159 0.32243589711112852 0.32666666646798448 0.35000000049670538 0.32916666654249033 0.3642857152081671 0.32857142842951276 0.31666666616996125
leaf_count=30 25 27 22 29 34 21 26 20 27 20 21 21 25
internal_value=0 -0.0684327 0.0637255 -0.176707 -0.0344828 -0.0915751 -0.106918 -0.28 0.238095 -0.186992 0.536232 -0.0133333 -0.333333
internal_count=348 302 136 166 87 91 53 75 49 41 46 50 55
shrinkage=1


Tree=1
num_leaves=12
num_cat=0
split_feature=3 4 2 5 5 0 0 0 2 4 2
split_gain=13.1723 3.90007 2.10187 1.3174 0.642194 0.62029 0.700016 0.567828 0.529467 0.492273 0.239172
threshold=0.76154672395250012 0.31607374918750003 0.36906284504950004 0.15075757575750001 0.39356829996150006 0.095491388044600015 0.28468742390750007 0.24718834402900003 0.36571873035300001 0.40499871868800008 0.53923076923100011
decision_type=2 2 2 2 2 2 2 2 2 2 2
left_child=1 3 4 8 7 -5 -7 -3 -1 -4 -2
right_child=10 2 9 5 -6 6 -8 -9 -10 -11 -12
leaf_value=-0.015833333134651184 0.022166666090488438 -0 0.0057575762271881107 0.0034280581772327423 0.0037254903246374694 -0.011868345195596869 -0.001914187834451073 -0.010352563686095752 -0.006333332657814026 0.015833332637945809 0.029404762245359872
leaf_count=55 25 27 22 20 34 33 38 26 20 27 21
internal_value=0 -0.065011 0.0605392 -0.167871 -0.0327586 -0.0869963 -0.130815 -0.101572 -0.266 0.22619 0.50942
internal_count=348 302 136 166 87 91 71 53 75 49 46
shrinkage=0.05


Tree=2
num_leaves=13
num_cat=0
split_feature=1 4 3 5 0 0 5 4 0 4 0 0
split_gain=15.9204 1.75093 1.62869 1.44052 0.938345 0.743537 0.816632 0.640641 0.463835 0.199755 0.129119 0.164929
threshold=0.47282806252250004 0.40499871868800008 0.93317543562850014 0.23605131251900005 0.40644381684900005 0.31905427905450007 0.38869633052900004 0.56631370129400016 0.39794931074200002 0.057580778790400008 0.32622341813450006 0.10699855699900002
decision_type=2 2 2 2 2 2 2 2 2 2 2 2
left_child=1 3 8 9 5 6 -5 -3 -2 -1 11 -11
right_child=2 7 -4 4 -6 -7 -8 -9 -10 10 -12 -13
leaf_value=-0.015416864664466293 0.018631104007363321 0.0063617587503459723 0.02906201976922251 0.0015441606893683926 -0.01226080921681031 0.007278223690532503 -0.010304399809012047 -0.0039381963129226979 0.0088009331197965706 -0.0082484451681375508 -0.0073766221602757772 -0.014036475494503976
leaf_count=27 28 36 31 33 23 21 26 26 21 20 24 32
internal_value=0 -0.106486 0.401853 -0.150829 -0.0672064 -0.0160286 -0.0735448 0.0408485 0.288363 -0.234453 -0.208204 -0.236206
internal_count=348 268 80 206 103 80 59 62 49 103 76 52
shrinkage=0.05


Tree=3
num_leaves=14
num_cat=0
split_feature=3 4 2 5 5 5 0 2 2 2 4 2 4
split_gain=10.8794 3.20268 1.88075 1.0672 0.569321 0.560103 0.519218 0.475813 0.443137 0.360765 0.222171 0.207507 0.000258817
threshold=0.76154672395250012 0.31607374918750003 0.36906284504950004 0.15075757575750001 0.34970527453950001 0.39356829996150006 0.24718834402900003 0.36571873035300001 0.42492492639600005 0.30366975042300004 0.18736508419850001 0.53923076923100011 0.079002079002100017
decision_type=2 2 2 2 2 2 2 2 2 2 2 2 2
left_child=1 3 5 7 10 6 -3 12 -4 -6 -5 -2 -1
right_child=11 2 8 4 9 -7 -8 -9 -10 -11 -12 -13 -14
leaf_value=-0.014292194843292236 0.0200669606924057 -3.8525903666460957e-05 0.015833443538709122 0.0024388887245079568 -0.012923116414319903 0.003327269676853629 -0.009938052869760074 -0.0054298768937587746 0.0062737534995432253 -0.0035399507731199266 -0.0043140143156051641 0.026808911987713409 -0.014517670018332346
leaf_count=20 25 27 22 29 21 34 26 20 27 20 21 21 35
internal_value=0 -0.0591514 0.0546213 -0.152363 -0.0795716 -0.0336327 -0.097898 -0.240683 0.211317 -0.166919 -0.00794661 0.462896 -0.288714
internal_count=348 302 136 166 91 87 53 75 49 41 50 46 55
shrinkage=0.05


Tree=4
num_leaves=13
num_cat=0
split_feature=1 2 3 5 0 2 0 0 5 0 5 5
split_gain=13.4543 1.56676 1.28573 1.14242 0.971455 0.728211 0.694902 0.985279 0.750283 0.371388 0.11491 0.0285936
threshold=0.47282806252250004 0.36906284504950004 0.93317543562850014 0.18622444791050002 0.38666972060850008 0.36906284504950004 0.36505590086400003 0.15077476374200002 0.39077412513250004 0.23154059326450002 0.0011217803079950001 0.032337752666800008
decision_type=2 2 2 2 2 2 2 2 2 2 2 2
left_child=1 3 5 10 9 -2 7 -5 -9 -3 -1 -12
right_child=2 4 -4 6 -6 -7 -8 8 -10 -11 11 -13
leaf_value=-0.0089554417133331302 0.0083586486762967614 0.0015336969359354541 0.026431585127307523 -0.0077593781266893664 0.008343106713788264 0.02076038755476475 -0.0097048053756738327 0.0096981721079867824 -0.003543349802494049 -0.0072931743585146402 -0.012105710618197919 -0.014421159277359645
leaf_count=20 29 22 31 35 29 20 39 23 20 26 24 30
internal_value=0 -0.0980662 0.369247 -0.146613 0.0223556 0.268412 -0.0851068 -0.0306121 0.0707865 -0.0649505 -0.24386 -0.267841
internal_count=348 268 80 191 77 49 117 78 43 48 74 54
shrinkage=0.05


Tree=5
num_leaves=13
num_cat=0
split_feature=1 1 4 5 4 4 1 0 4 0 4 5
split_gain=13.8935 1.41197 1.16294 0.822634 1.11829 0.737185 0.483523 0.339982 0.391668 0.151468 0.0584093 0.00596486
threshold=0.49236641221350003 0.80909090909100023 0.40499871868800008 0.23605131251900005 0.19491012672000005 0.56631370129400016 0.20344827586200004 0.3506107785330001 0.27342943886150001 0.50021222410850008 0.31414006710850007 0.078411652637250015
decision_type=2 2 2 2 2 2 2 2 2 2 2 2
left_child=2 -2 3 7 -5 -4 10 8 11 -3 -6 -1
right_child=1 9 5 4 6 -7 -8 -9 -10 -11 -12 -13
leaf_value=-0.013467225069935258 0.011641569808125496 0.028177555402119955 0.0052849136091567377 0.002866985285893465 -0.012764219601045956 -0.0057011184210960684 -0.0015406748652458191 -0.0041798181831836706 -0.0067851301530996964 0.022097637876868248 -0.009030777364969253 -0.014538971036672593
leaf_count=37 36 21 37 39 22 26 20 20 30 20 20 20
internal_value=0 0.377345 -0.10401 -0.140062 -0.0753326 0.0150199 -0.158788 -0.201162 -0.228189 0.504235 -0.219728 -0.276866
internal_count=348 77 271 208 101 63 62 107 87 41 42 57
shrinkage=0.05


Tree=6
num_leaves=14
num_cat=0
split_feature=1 2 1 2 5 5 5 4 4 4 2 4 5
split_gain=12.5578 2.22246 1.35575 0.663379 0.557846 0.4901 0.413741 1.14071 0.448589 0.210401 0.14297 0.0389908 0.00135415
threshold=0.47282806252250004 0.38275368170850005 0.80909090909100023 0.42672775683950004 0.18622444791050002 0.27864778694700004 0.34426406532300002 0.28458032309600007 0.30896343932000009 0.2885724585440001 0.46889103716350006 0.42011835415850002 0.071173618048650009
decision_type=2 2 2 2 2 2 2 2 2 2 2 2 2
left_child=1 4 -2 -3 9 -5 7 -6 -8 12 -4 -10 -1
right_child=2 3 10 5 6 -7 8 -9 11 -11 -12 -13 -14
leaf_value=-0.012584251703487504 0.010841549580034457 0.010078816860914231 0.026976640671491626 -0.0051897357617105757 0.0042982385076325517 0.0042515861215414825 -0.014251255989074708 -0.0099831300201239422 -0.0038012754917144775 -0.0067931567132472996 0.021069740184715816 -0.0069234067946672452 -0.013097387030720713
leaf_count=36 38 20 20 28 29 27 22 27 20 20 21 20 20
internal_value=0 -0.100573 0.352905 0.0456151 -0.157089 -0.0110981 -0.114054 -0.0517484 -0.170329 -0.223906 0.479023 -0.107247 -0.25535
internal_count=348 269 79 75 194 55 118 56 62 76 41 40 56
shrinkage=0.05


Tree=7
num_leaves=14
num_cat=0
split_feature=1 2 1 0 5 5 5 0 0 0 5 5 0
split_gain=11.3334 2.00577 1.22356 1.21332 0.503456 0.393909 0.373401 0.55103 0.226772 0.132964 0.101359 0.0697734 0.0283675
threshold=0.47282806252250004 0.38275368170850005 0.80909090909100023 0.35966539595300007 0.18622444791050002 0.23605131251900005 0.34426406532300002 0.24718834402900003 0.24718834402900003 0.50021222410850008 0.0012980623910700004 0.48183218091800006 0.13951806799500002
decision_type=2 2 2 2 2 2 2 2 2 2 2 2 2
left_child=1 4 -2 5 10 -3 7 -6 -8 -4 -1 -10 -12
right_child=2 3 9 -5 6 -7 8 -9 11 -11 12 -13 -14
leaf_value=-0.0077748033472082832 0.010299472157892429 -0.0072229009742538139 0.025532358388106031 0.010406137151377542 0.002869625160327325 0.0019339793402215711 -0.012315886183863596 -0.0070753685633341478 -0.0080400776118040081 0.019835898503661159 -0.010306841582059861 -0.0039135741336005078 -0.012679977408226798
leaf_count=22 38 24 21 28 26 23 21 30 20 20 20 21 34
internal_value=0 -0.0955442 0.33526 0.0433343 -0.149234 -0.0548375 -0.108351 -0.049161 -0.161813 0.455072 -0.212711 -0.11853 -0.236021
internal_count=348 269 79 75 194 47 118 56 62 41 76 41 54
shrinkage=0.05


Tree=8
num_leaves=13
num_cat=0
split_feature=3 2 0 2 5 0 5 0 4 5 4 5
split_gain=8.21341 2.10639 1.34526 1.04191 0.65277 0.574702 0.550381 0.407742 0.339932 0.242445 0.675117 0.000809934
threshold=0.59063526834600011 0.36740585193950009 0.35966539595300007 0.42672775683950004 0.18622444791050002 0.41618980121950006 0.49999501771800009 0.38399249433800003 0.29908139779250004 0.39356829996150006 0.27898193816850003 0.075303684852100011
decision_type=2 2 2 2 2 2 2 2 2 2 2 2
left_child=1 4 3 -3 8 6 9 -2 11 10 -6 -1
right_child=7 2 -4 -5 5 -7 -8 -9 -10 -11 -12 -13
leaf_value=-0.011473117547260749 0.011923367828130723 0.0073862701654434206 0.011240770058198409 -0.0070765033364295965 0.0034421352048714959 -0.010023441987818685 -0.00944778710603714 0.020827479577726789 -0.0040353517234325417 0.0044393619256360194 -0.0072564368104112561 -0.011868044175207615
leaf_count=37 20 20 33 33 30 29 20 36 20 21 29 20
internal_value=0 -0.0651376 0.0663131 -0.0323771 -0.120015 -0.0765243 -0.0405804 0.352949 -0.192876 -0.0034865 -0.0363297 -0.232234
internal_count=348 292 86 53 206 129 100 56 77 80 59 57
shrinkage=0.05


Tree=9
num_leaves=14
num_cat=0
split_feature=1 2 1 0 5 5 0 5 0 0 2 2 5
split_gain=9.56883 1.63838 0.9972 0.971011 0.415572 0.407546 0.423085 0.353039 0.205355 0.141174 0.140004 0.137427 0.0648075
threshold=0.47282806252250004 0.38275368170850005 0.80909090909100023 0.35966539595300007 0.21251908004700001 0.34426406532300002 0.24718834402900003 0.23605131251900005 0.24718834402900003 0.50021222410850008 0.19482740380650002 0.27868774588250006 0.48183218091800006
decision_type=2 2 2 2 2 2 2 2 2 2 2 2 2
left_child=1 4 -2 7 10 6 -6 -3 -7 -4 -1 -12 -10
right_child=2 3 9 -5 5 8 -8 -9 12 -11 11 -13 -14
leaf_value=-0.011728510280188762 0.0095659222257764714 -0.0067489771172404289 0.023672402046975637 0.0092553154698440023 0.0037384417924014009 -0.011530700609797523 -0.0056024574019290785 0.0019198525211085447 -0.0074874917790293694 0.017802729308605197 -0.0045174984261393547 -0.010078179597854614 -0.0035105452651069281
leaf_count=38 38 24 21 28 22 21 27 23 20 20 20 25 21
internal_value=0 -0.0878286 0.30802 0.037688 -0.136353 -0.0963309 -0.0281717 -0.0501357 -0.150199 0.416183 -0.189877 -0.152135 -0.10901
internal_count=348 269 79 75 194 111 49 47 62 41 83 45 41
shrinkage=0.05


Tree=10
num_leaves=13
num_cat=0
split_feature=1 2 1 3 2 4 1 0 0 0 2 0
split_gain=8.49035 1.54965 1.19134 1.06918 0.99056 0.790112 0.393827 0.294197 0.167568 0.57453 0.0460422 0.0381921
threshold=0.47282806252250004 0.18910495250000001 0.046710287168300009 0.072751322751350031 0.36906284504950004 0.41671804317150007 0.28838840399000004 0.083405483405450023 0.31905427905450007 0.41167348662550002 0.28421534605750004 0.15077476374200002
decision_type=2 2 2 2 2 2 2 2 2 2 2 2
left_child=1 11 3 5 -2 7 -4 -3 10 -10 -9 -1
right_child=4 2 6 -5 -6 -7 -8 8 9 -11 -12 -13
leaf_value=-0.012265451844124232 0.0088918888568878165 0.00093302248666683827 -0.012832424301525642 0.0095280436798930168 0.020625770293377543 0.0051226702909315793 -0.003712176978588104 -0.0059093418344855313 0.0024430439892140303 -0.0092660896480083466 -0.0092614294872397484 -0.0098388805985450759
leaf_count=34 35 24 29 24 37 31 20 20 22 20 21 31
internal_value=0 -0.0871593 -0.0455703 -0.00424485 0.298436 -0.0381241 -0.182197 -0.0788522 -0.107049 -0.0626547 -0.152525 -0.222163
internal_count=348 276 211 162 72 138 49 107 83 42 41 65
shrinkage=0.05


Tree=11
num_leaves=12
num_cat=0
split_feature=1 2 1 3 2 4 1 0 0 2 0
split_gain=7.66254 1.39856 1.07519 0.964934 0.89398 0.713076 0.355429 0.265513 0.167961 0.427151 0.0344684
threshold=0.47282806252250004 0.18910495250000001 0.046710287168300009 0.072751322751350031 0.36906284504950004 0.41671804317150007 0.28838840399000004 0.083405483405450023 0.38666972060850008 0.35331723545000004 0.15077476374200002
decision_type=2 2 2 2 2 2 2 2 2 2 2
left_child=1 10 3 5 -2 7 -4 -3 9 -9 -1
right_child=4 2 6 -5 -6 -7 -8 8 -10 -11 -12
leaf_value=-0.011652179478722461 0.0084472945758274614 0.00088637148340543119 -0.012190803011943556 0.0090516413872440658 0.019594481788777016 0.0048665369229931987 -0.0035265683010220527 -0.0034216276093109233 -0.0017544907446090992 -0.012491105683147909 -0.0093469365710212339
leaf_count=34 35 24 29 24 37 31 20 37 26 20 31
internal_value=0 -0.0828013 -0.0432918 -0.00403261 0.283514 -0.0362179 -0.173088 -0.0749096 -0.101696 -0.132078 -0.211055
internal_count=348 276 211 162 72 138 49 107 83 57 65
shrinkage=0.05


Tree=12
num_leaves=13
num_cat=0
split_feature=3 4 2 4 5 0 4 2 2 2 0 4
split_gain=5.49907 1.72928 0.960505 0.959365 0.794561 0.527733 0.216299 0.910373 0.217599 0.151285 0.102737 0.320939
threshold=0.76154672395250012 0.30896343932000009 0.35594391389700003 0.438456632653 0.33375769149150003 0.35966539595300007 0.19491012672000005 0.33192167484050006 0.25832925735700002 0.53923076923100011 0.22028985507250001 0.082180041441750021
decision_type=2 2 2 2 2 2 2 2 2 2 2 2
left_child=1 6 3 4 -3 -4 7 10 -8 -2 11 -1
right_child=9 2 5 -5 -6 -7 8 -9 -10 -11 -12 -13
leaf_value=-0.010274314020688718 0.012911784589290621 -0.0048887172270388832 0.00099164889408991899 -0.0084798374346324382 0.0080789782934718671 0.01065098354893346 -0.0055105286960800493 0.0018495954798929621 -0.011998600565961429 0.018596844307400964 -0.010372344702482224 -0.0018495347350835801
leaf_count=26 25 21 26 35 27 31 24 33 28 22 30 20
internal_value=0 -0.0563343 0.0249483 -0.0436928 0.0481122 0.124899 -0.127015 -0.101698 -0.180082 0.311458 -0.161919 -0.132227
internal_count=348 301 140 83 48 57 161 109 52 47 76 46
shrinkage=0.05


Tree=13
num_leaves=13
num_cat=0
split_feature=1 2 1 2 4 5 5 2 1 0 5 4
split_gain=6.48964 1.18507 0.976191 0.71983 0.566091 0.47969 0.917164 0.343075 0.292042 0.169563 0.0417779 0.0180398
threshold=0.47282806252250004 0.18910495250000001 0.046710287168300009 0.36906284504950004 0.41671804317150007 0.25582934110200006 0.38869633052900004 0.40550890761550001 0.28838840399000004 0.23154059326450002 0.29764647328050003 0.12029270943000002
decision_type=2 2 2 2 2 2 2 2 2 2 2 2
left_child=1 10 4 -2 5 7 -7 9 -4 -3 11 -1
right_child=3 2 8 -5 -6 6 -8 -9 -10 -11 -12 -13
leaf_value=-0.0076428370550274856 0.0079117099727903095 -0.0039358528330922125 -0.011374774344008545 0.017914386778264433 0.0052242317874180641 0.0085416228438799213 -0.0041012510890141131 0.00026260633831438814 -0.0035210250318050383 -0.010230778190104858 -0.011310222148895264 -0.0097665004432201385
leaf_count=20 35 20 29 37 38 26 32 23 20 23 25 20
internal_value=0 -0.0760763 -0.0397072 0.261039 -0.00229902 -0.035023 0.0313249 -0.0933288 -0.163383 -0.146058 -0.194136 -0.174093
internal_count=348 276 211 72 162 124 58 66 49 43 65 40
shrinkage=0.05


Tree=14
num_leaves=14
num_cat=0
split_feature=1 2 1 3 2 2 2 5 5 3 2 5 0
split_gain=5.8569 1.06953 0.881012 0.802955 0.649646 0.587108 0.686489 0.469015 0.643632 0.284836 0.176419 0.0377046 0.0104524
threshold=0.47282806252250004 0.18910495250000001 0.046710287168300009 0.072751322751350031 0.36906284504950004 0.23231900535000002 0.40550890761550001 0.36933001619950007 0.18622444791050002 0.29440582588550007 0.51688330339150013 0.29764647328050003 0.10100332618700002
decision_type=2 2 2 2 2 2 2 2 2 2 2 2 2
left_child=1 11 3 5 -2 -3 7 8 -7 -4 -8 12 -1
right_child=4 2 9 -5 -6 6 10 -9 -10 -11 -12 -13 -14
leaf_value=-0.0090776887163519868 0.0075161242059298937 0.0055306180690725647 -0.011062115750142508 0.0083317614470918965 0.017018667306448961 -0.0082349418795534552 0.0054052771255373964 -0.011927212029695511 0.0033447828321229848 -0.0033588221740154995 -0.0010831721127033233 -0.0107447110414505 -0.0074611819908022882
leaf_count=20 35 24 28 24 37 28 20 23 21 21 22 25 20
internal_value=0 -0.0722725 -0.0377218 -0.00218407 0.247988 -0.0315439 -0.0614716 -0.12074 -0.0654441 -0.155214 0.0401313 -0.184429 -0.165389
internal_count=348 276 211 162 72 138 114 72 49 49 42 65 40
shrinkage=0.05


Tree=15
num_leaves=14
num_cat=0
split_feature=3 2 1 5 5 0 0 5 3 2 5 2 0
split_gain=4.52189 1.25854 1.00951 0.628707 0.456558 0.674709 0.564397 0.406781 0.408084 0.310116 0.156515 0.124804 0.0851695
threshold=0.84259259259250008 0.35594391389700003 0.40270270270250003 0.088597099607450019 0.30880832735100006 0.15077476374200002 0.090388591881750011 0.38869633052900004 0.082482993197250012 0.28597969938650009 0.28374884153050001 0.20020794541100004 0.56101632007450009
decision_type=2 2 2 2 2 2 2 2 2 2 2 2 2
left_child=1 4 3 -3 6 -6 -1 -7 -9 11 -5 -8 -2
right_child=12 2 -4 10 5 7 9 8 -10 -11 -12 -13 -14
leaf_value=-0.0011947647978862129 0.01286383452622787 0.0073648812870184587 0.012426807412079403 0.00041564391417936854 -0.0090949704789597061 0.0065987559301512585 -0.0087016781447110357 -0.0057232890810285306 0.0032652075847853785 -0.013097465479815449 -0.0050628117518499499 -0.0036284031177108941 0.017215374857187271
leaf_count=36 23 21 21 22 23 21 27 28 23 27 32 22 22
internal_value=0 -0.0398955 0.0547416 0.000479119 -0.0837851 -0.0327922 -0.127038 0.0148393 -0.0333931 -0.175895 -0.056617 -0.128478 0.299825
internal_count=348 303 96 75 207 95 112 72 51 76 54 49 45
shrinkage=0.05


Tree=16
num_leaves=13
num_cat=0
split_feature=1 2 3 5 4 1 5 5 4 4 2 2
split_gain=4.13832 1.36562 0.840893 0.553261 0.50608 1.38813 0.392493 0.50978 0.689909 0.220075 0.0613001 0.0371893
threshold=0.8831168831170001 0.36906284504950004 0.22003699294600002 0.28999274661500007 0.48208297387500004 0.47282806252250004 0.18622444791050002 0.38869633052900004 0.28458032309600007 0.30896343932000009 0.21212851249550002 0.48828960444500008
decision_type=2 2 2 2 2 2 2 2 2 2 2 2
left_child=1 4 3 -3 5 6 10 8 -8 -9 -1 -2
right_child=11 2 -4 -5 -6 -7 7 9 -10 -11 -12 -13
leaf_value=-0.0059199439109982668 0.016846146509051325 0.0046787388157099484 0.01088447885380851 -0.0050398682002668026 -0.010261144047534025 0.0091859740870339542 0.0050545669240610949 -0.010098492455753415 -0.005820636481046677 -0.0030262273143638265 -0.0088840363377874539 0.013796995952725412
leaf_count=37 20 32 27 27 27 21 35 22 25 22 33 20
internal_value=0 -0.0354664 0.0715172 0.00462481 -0.0769105 -0.0591442 -0.0884553 -0.0494904 0.0104646 -0.131247 -0.146346 0.306431
internal_count=348 308 86 59 222 195 174 104 60 44 70 40
shrinkage=0.05


Tree=17
num_leaves=14
num_cat=0
split_feature=1 1 4 1 3 5 0 0 0 0 4 1 0
split_gain=3.73483 0.731753 0.462394 0.443091 0.956625 0.229855 0.216177 0.348877 0.350719 0.335207 0.31654 0.212867 0.00792868
threshold=0.8831168831170001 0.47282806252250004 0.38987170329450005 0.046710287168300009 0.072751322751350031 0.0041292837768800014 0.083405483405450023 0.18195316605350004 0.28738705738750009 0.50021222410850008 0.31414006710850007 0.25932835820900008 0.48660359890000005
decision_type=2 2 2 2 2 2 2 2 2 2 2 2 2
left_child=1 3 -3 4 5 -1 -7 -8 -9 10 -10 -5 -2
right_child=12 2 -4 11 -6 6 7 8 9 -11 -12 -13 -14
leaf_value=-0.0072984414398670197 0.015259440541267395 0.0096949079207011638 -0.00079764879885173973 -0.0097996575964821725 0.0075808304250240327 0.0010940865255319157 -0.0087285122145777157 0.0032253597378730774 -0.0025943532012976133 0.00078610543299604358 -0.010961200296878816 -0.0036303407930094625 0.013851544782519341
leaf_count=25 20 21 21 27 25 39 23 25 26 27 20 29 20
internal_value=0 -0.0336931 0.0889726 -0.0530613 -0.0319852 -0.0567963 -0.0428631 -0.0637313 -0.037718 -0.0727267 -0.124642 -0.132097 0.29111
internal_count=348 308 42 266 210 185 160 121 98 73 46 56 40
shrinkage=0.05


Tree=18
num_leaves=14
num_cat=0
split_feature=3 2 1 5 5 1 0 2 5 2 5 2 0
split_gain=3.40401 0.97577 0.730139 0.528892 0.364138 0.507908 0.500409 0.347155 0.634345 0.298858 0.168516 0.113642 0.109661
threshold=0.76154672395250012 0.35594391389700003 0.40270270270250003 0.088597099607450019 0.30880832735100006 0.25932835820900008 0.090388591881750011 0.18910495250000001 0.46283578218600008 0.28597969938650009 0.33688604178500009 0.20020794541100004 0.56101632007450009
decision_type=2 2 2 2 2 2 2 2 2 2 2 2 2
left_child=1 4 3 -3 6 7 -1 -6 -9 11 -5 -8 -2
right_child=12 2 -4 10 5 -7 9 8 -10 -11 -12 -13 -14
leaf_value=-0.00081054996699094775 0.010337328738891163 0.0068532115291981477 0.010872184038162232 -0.0048141600796952847 -0.008713572828666024 0.0044978577930193681 -0.0078128838428744556 0.0046031588769477353 -0.0074163177183696211 -0.012190654183979389 0.00087045725773681306 -0.0029717718335715206 0.015133762156421489
leaf_count=36 26 21 20 32 23 26 27 23 21 27 22 22 22
internal_value=0 -0.0361023 0.0476754 0.00240383 -0.0749261 -0.0286748 -0.113331 -0.0747111 -0.0226682 -0.159335 -0.0499641 -0.112786 0.250714
internal_count=348 300 95 75 205 93 112 67 44 76 54 49 48
shrinkage=0.05


Tree=19
num_leaves=12
num_cat=0
split_feature=1 4 0 0 1 5 1 5 4 4 0
split_gain=3.10396 0.685512 1.02275 1.18473 0.959148 0.41147 0.416047 0.340817 1.40364 0.155123 0.0101068
threshold=0.8831168831170001 0.56631370129400016 0.54783338263500014 0.41167348662550002 0.49236641221350003 0.44883478277150007 1.0000000180025095e-35 0.18622444791050002 0.2334432284015 0.17138301846500001 0.48660359890000005
decision_type=2 2 2 2 2 2 2 2 2 2 2
left_child=1 2 3 4 5 6 7 9 -9 -1 -2
right_child=10 -3 -4 -5 -6 -7 -8 8 -10 -11 -12
leaf_value=-0.0060664934547323933 0.014062445163726806 -0.009651844110339881 0.0074233963634028587 -0.010473353628601348 0.0084499841126111832 0.0032857676347096765 -0.0078455855674815899 0.0085269970759268739 -0.0070667150395887883 -0.0011618345975875856 0.012472889050841332
leaf_count=38 20 24 33 35 26 33 33 31 27 28 20
internal_value=0 -0.0307491 -0.0170347 -0.038794 -0.0111386 -0.0357891 -0.0571244 -0.0305681 0.0253571 -0.0797146 0.265353
internal_count=348 308 284 251 216 190 157 124 58 66 40
shrinkage=0.05



feature importances:
Column_5=54
Column_0=53
Column_2=51
Column_4=38
Column_1=34
Column_3=16

pandas_categorical:null
