tree
version=v2
num_class=1
num_tree_per_iteration=1
label_index=0
max_feature_idx=10
objective=regression
feature_names=Column_0 Column_1 Column_2 Column_3 Column_4 Column_5 Column_6 Column_7 Column_8 Column_9 Column_10
feature_infos=[0:1] [0:1] [-4.6505857154500001:6.2929301845599994] [0:1] [0.0032178035420399997:0.97553422112100008] [0:1] [0:1] [0:1] [0:1] [0.0297307358623:0.87502660366899998] 1:0:5:3:2:-1
tree_sizes=1525 1557 1562 1640 1642 1574 1573 1646 1653 1572 1581 1583 1744 1499 1582 1660 1431 1425 1514 1746

Tree=0
num_leaves=19
num_cat=0
split_feature=9 0 6 8 9 0 1 7 1 8 2 2 8 3 1 1 7 8
split_gain=25.0842 3.12421 2.23543 1.88948 1.74147 1.43691 1.56421 1.22768 1.21212 1.10027 0.502836 0.326655 0.301045 0.237863 0.197084 0.286024 0.525062 0.144958
threshold=0.34214389128850003 0.42099150863700002 0.42562803814600003 0.37624711579050002 0.31876638112600003 0.36446930950800011 0.34949970131400004 0.27943376068400005 0.31775218131750005 0.49111531488100008 0.47323431954200007 0.44216465581800007 0.42792207792200004 0.15416666666700005 0.32459651645900006 0.11813186813200001 0.12545445847700001 0.28490130646400008
decision_type=2 2 2 2 2 2 2 2 2 2 2 2 2 2 2 2 2 2
left_child=3 2 8 5 -5 10 13 -4 -2 11 14 -3 -9 -7 15 -1 -17 -18
right_child=1 9 7 4 -6 6 -8 12 -10 -11 -12 -13 -14 -15 -16 16 17 -19
leaf_value=0.29815950929387214 0.3481595100389302 0.35530236728822423 0.31720712862532285 0.31244522379246015 0.35270496465211731 0.31815950959189537 0.34101665278963617 0.33815950988991861 0.38149284386896892 0.38763319483766023 0.3161082275100468 0.37315951041145923 0.35530236728822423 0.30292141412673479 0.29815950929387214 0.32315950966640117 0.30887379516781316 0.29815950929387214
leaf_count=33 20 21 21 21 22 20 28 20 24 38 39 20 21 21 49 20 28 23
internal_value=0 0.290333 0.178146 -0.176683 0.0175489 -0.208683 -0.0849115 0.0558084 0.35053 0.440864 -0.253163 0.327248 0.156517 -0.209337 -0.279001 -0.254365 -0.218612 -0.272465
internal_count=489 185 106 304 43 261 69 62 44 79 192 41 41 41 153 104 71 51
shrinkage=1


Tree=1
num_leaves=19
num_cat=0
split_feature=9 0 6 8 9 0 1 2 7 8 2 3 8 7 1 1 7 8
split_gain=20.3182 2.53061 1.8107 1.53048 1.41059 1.1639 1.26701 0.994587 0.994421 0.891222 0.407297 0.337951 0.243847 0.227556 0.159638 0.231679 0.4253 0.117416
threshold=0.34214389128850003 0.42099150863700002 0.42562803814600003 0.37624711579050002 0.31876638112600003 0.36446930950800011 0.34949970131400004 0.31357109376000003 0.27943376068400005 0.49111531488100008 0.47323431954200007 0.43128017718750006 0.42792207792200004 0.28297204641350004 0.32459651645900006 0.11813186813200001 0.12545445847700001 0.28490130646400008
decision_type=2 2 2 2 2 2 2 2 2 2 2 2 2 2 2 2 2 2
left_child=3 2 7 5 -5 10 13 -2 -4 11 14 -3 -10 -7 15 -1 -17 -18
right_child=1 9 8 4 -6 6 -8 -9 12 -11 -12 -13 -14 -15 -16 16 17 -19
leaf_value=-0.029815951434015497 0.017822937684599621 0.038755476605228718 -0.012673094489840511 -0.016958808300136789 0.019274959255381807 -0.011206427979565082 0.0087554779676206305 0.04801738274123344 0.0061840499368913454 0.050710364520155218 -0.013662104932475581 0.020592211706607428 0.021612619398509465 -0.026110736350449394 -0.029815951434015497 -0.0073159516947858272 -0.020173094509353933 -0.029815951434015497
leaf_count=33 24 20 21 21 22 20 28 20 20 38 39 21 21 21 49 20 28 23
internal_value=0 0.2613 0.160331 -0.159015 0.015794 -0.187815 -0.0764204 0.315477 0.0502276 0.396777 -0.227847 0.294523 0.140865 -0.188403 -0.251101 -0.228929 -0.196751 -0.245218
internal_count=489 185 106 304 43 261 69 44 62 79 192 41 41 41 153 104 71 51
shrinkage=0.1


Tree=2
num_leaves=19
num_cat=0
split_feature=9 8 3 7 0 3 9 4 3 8 3 9 3 1 9 9 8 6
split_gain=16.4578 2.16694 1.46399 1.3236 1.31671 1.21195 1.12415 0.652232 0.622096 0.834877 0.683353 0.416242 0.398893 0.337853 0.265285 0.106955 0.00531394 0.00258634
threshold=0.34214389128850003 0.49871979805250005 0.37060326736350008 0.28165064102550003 0.34349340366700004 0.48268232629550006 0.30257692736700009 0.3378470057575001 0.25032679738550007 0.31423915551450005 0.067293038323300011 0.49121235948200009 0.6146707909850001 0.35045787545800006 0.32967229043400009 0.15854330634950003 0.33484840525350007 0.33396167137900007
decision_type=2 2 2 2 2 2 2 2 2 2 2 2 2 2 2 2 2 2
left_child=4 2 13 -3 8 -4 -6 -8 9 10 15 -5 -7 -2 16 -1 17 -10
right_child=1 3 5 11 6 12 7 -9 14 -11 -12 -13 -14 -15 -16 -17 -18 -19
leaf_value=-0.020031433975171552 0.021854195473405644 0.016572587289997744 -0.0078478279821731691 0.038279698241944576 -0.019138897091091268 0.0091327749980482618 -0.005039570124331141 0.0157578581535497 -0.028725581363937363 0.00055020699005497043 -0.0071070785761934291 0.057322677740386192 0.027428540996142337 0.040234968814774875 -0.015654449469094785 -0.028649680329440569 -0.029958869814259846 -0.027190627775733792
leaf_count=24 20 20 31 24 35 26 38 25 23 29 32 22 22 20 21 36 20 21
internal_value=0 0.23517 0.15457 0.380494 -0.143113 0.0756452 -0.0476958 0.0321338 -0.188506 -0.142447 -0.189084 0.473872 0.175183 0.310446 -0.254072 -0.252024 -0.286073 -0.27993
internal_count=489 185 119 66 304 79 98 63 206 121 92 46 48 40 85 60 64 44
shrinkage=0.1


Tree=3
num_leaves=20
num_cat=0
split_feature=9 0 7 9 6 8 0 1 4 7 4 4 5 3 8 4 7 2 2
split_gain=13.3308 1.9145 1.25643 1.45038 1.19694 0.802563 0.613603 1.59065 0.538526 0.537925 0.402809 1.13909 0.334105 0.317699 0.267001 0.342113 0.100747 0.0421514 0.00281331
threshold=0.34214389128850003 0.39828812190450008 0.47420347961150006 0.31768282402250009 0.38526084977200004 0.35160542582400006 0.34595830896050006 0.34949970131400004 0.4176397940885001 0.31533929355000007 0.30220160663700008 0.32549045770050006 0.16617889839450004 0.56925996204900009 0.33366666666650002 0.3378470057575001 0.11195199541300001 0.29996449329400005 0.39151143761450008
decision_type=2 2 2 2 2 2 2 2 2 2 2 2 2 2 2 2 2 2 2
left_child=2 4 6 -4 -2 -3 10 12 13 -6 17 -12 -8 -7 15 -13 -17 -1 -19
right_child=1 5 3 -5 9 8 7 -9 -10 -11 11 14 -14 -15 -16 16 -18 18 -20
leaf_value=-0.021439119747863999 0.025770515265299276 0.015940504726269712 -0.012966122202346332 0.022563746907766857 -0.0086865746779229425 0.036147389478694232 -0.0086827923161207476 0.011974789151402914 0.02411405763200011 0.010536343982833754 0.0064243381682684729 -0.0074370900560825712 -0.025483423440116885 0.053212684291790179 -0.028442464734215044 -0.016353559961223004 -0.025717701290701233 -0.026168048558865994 -0.027786211677096544
leaf_count=20 37 23 27 20 24 24 20 26 20 37 20 26 29 20 26 20 27 21 22
internal_value=0 0.211653 -0.128802 0.0215297 0.115804 0.319621 -0.156295 -0.0801774 0.377199 0.0297323 -0.187661 -0.153431 -0.18626 0.439043 -0.197406 -0.166413 -0.21733 -0.252319 -0.269959
internal_count=489 185 304 47 98 87 257 75 64 61 182 119 49 44 99 73 47 63 43
shrinkage=0.1


Tree=4
num_leaves=20
num_cat=0
split_feature=9 8 2 3 5 3 7 0 3 3 9 6 2 9 7 9 7 2 3
split_gain=10.9649 2.16929 1.19962 1.62794 1.57174 1.04654 1.02701 0.830983 0.61082 1.33796 0.458114 0.361217 0.339951 0.290405 0.232518 0.158168 0.0311485 0.0134892 0.003598
threshold=0.33482285997400002 0.49871979805250005 0.18233367130450001 0.40256526621500005 0.32487507421350009 0.48268232629550006 0.28165064102550003 0.53421201769450011 0.25032679738550007 0.17804419408300001 0.31310980047550002 0.76557525540200011 0.40446715893950008 0.39849924437550005 0.30356714189450001 0.14645264923900006 0.39581462904600007 0.25143983597650005 0.0093369958634350013
decision_type=2 2 2 2 2 2 2 2 2 2 2 2 2 2 2 2 2 2 2
left_child=7 2 -2 4 -4 -5 -3 8 9 10 14 -8 16 -7 15 -1 17 -10 -17
right_child=1 6 3 5 -6 13 11 -9 12 -11 -12 -13 -14 -15 -16 18 -18 -19 -20
leaf_value=-0.01457805290189464 -0.012498816139978408 0.013018402949249785 0.010524508141346395 -0.012046000598254118 0.044669084171490125 0.021742794099732999 0.047619383691484919 0.005547137505653923 -0.027178339022075216 0.0099360568353404639 -0.0043637722900206708 0.029888271240715247 -0.010068443308429998 0.0056403128649837693 -0.011663678199300457 -0.024448505950154988 -0.020499693460757928 -0.023969854928496039 -0.026278475957149543
leaf_count=20 20 20 28 26 26 21 27 22 20 26 31 20 23 24 34 22 20 38 21
internal_value=0 0.171167 0.102405 0.138788 0.269645 0.0392634 0.319979 -0.131001 -0.147089 -0.107453 -0.149462 0.400742 -0.207524 0.131548 -0.183283 -0.21925 -0.239028 -0.250762 -0.253422
internal_count=489 212 145 125 54 71 67 277 255 154 128 47 101 45 97 63 78 58 43
shrinkage=0.1


Tree=5
num_leaves=19
num_cat=0
split_feature=9 8 0 3 9 2 3 5 1 6 1 2 6 3 4 5 0 9
split_gain=8.90296 1.89378 1.20492 1.1095 1.11862 1.05459 0.839059 0.786301 0.753383 1.57811 0.924551 0.7154 0.356832 0.299258 0.276099 0.0912174 0.0236069 0.0044736
threshold=0.33288741284400003 0.49871979805250005 0.33277222838800008 0.25032679738550007 0.25912652106900008 0.50587754410600005 0.17804419408300001 0.085683233989200011 0.31775218131750005 0.36566957825100005 0.20729920948950004 0.34920720780950004 0.0012406214583350003 0.47101270794650008 0.29061928429250006 0.24867077929800002 0.32596836951050007 0.32013944326900007
decision_type=2 2 2 2 2 2 2 2 2 2 2 2 2 2 2 2 2 2
left_child=3 5 -3 4 12 8 7 -6 10 -10 -2 -9 -1 -11 -4 -5 17 -17
right_child=1 2 14 15 6 -7 -8 11 9 13 -12 -13 -14 -15 -16 16 -18 -19
leaf_value=-0.009875953302067671 0.0066703306670022351 0.0076334039514273973 0.045799074110374947 -0.015623787684686702 0.0067023853260736888 0.026455753663240395 0.015567592825506019 -0.026632809452747916 0.025194242781009221 0.0061120097504855642 -0.020880949311667913 -0.00077273250777620817 -0.023961167354262833 -0.010789330058047214 0.030526355261054683 -0.021035681283012246 -0.025803017504061519 -0.022938701426495203
leaf_count=35 29 20 20 22 29 27 24 23 39 20 21 20 37 22 29 30 21 21
internal_value=0 0.144961 0.283176 -0.125596 -0.076919 0.084601 -0.00625186 -0.0602278 0.0475107 0.107093 -0.0490121 -0.146049 -0.171142 -0.0274107 0.367601 -0.212593 -0.229812 -0.218193
internal_count=489 227 69 262 168 158 96 72 131 81 50 43 72 42 49 94 72 51
shrinkage=0.1


Tree=6
num_leaves=19
num_cat=0
split_feature=9 0 8 9 6 6 2 3 3 0 7 4 3 8 6 2 3 3
split_gain=7.32786 1.21038 1.02811 0.857568 0.836486 0.813102 0.798532 0.627149 0.947582 0.687948 0.5602 0.556328 0.223426 0.390401 0.132284 0.0640355 0.0450919 0.0311065
threshold=0.34214389128850003 0.39828812190450008 0.37624711579050002 0.31876638112600003 0.47822097311850004 0.67448336879900006 0.32286650168000003 0.2521450982120001 0.17022410352800002 0.45007440256550008 0.31986528142600007 0.35112131128950003 0.0044362487846250015 0.24625285744000006 0.40570456043100006 0.26434431669950004 0.42292690428250007 0.33178206667550009
decision_type=2 2 2 2 2 2 2 2 2 2 2 2 2 2 2 2 2 2
left_child=2 4 7 -4 6 -6 -2 8 9 12 -3 -12 15 -14 16 -1 17 -9
right_child=1 10 3 -5 5 -7 -8 14 -10 -11 11 -13 13 -15 -16 -17 -18 -19
leaf_value=-0.015563362994244139 0.0051428171985988614 0.013491910320255648 -0.0096765723989180284 0.018575325614117191 -0.014988725175508128 0.011323157618291538 0.030212204235974011 -0.020014451810120137 0.0070432690654866062 0.0046146897311072146 0.038879174387144652 0.018738279770885102 -0.0038063644123845137 -0.020568538825738506 -0.013237549732120648 -0.022821075400735739 -0.016946722894113104 -0.025332220750308068
leaf_count=20 27 31 21 22 23 24 24 22 33 21 32 24 33 24 35 31 20 22
internal_value=0 0.156922 -0.0954956 0.0477789 0.0807106 -0.0155287 0.169402 -0.1191 -0.0807802 -0.119463 0.24277 0.302474 -0.151664 -0.108641 -0.181806 -0.199749 -0.208838 -0.226733
internal_count=489 185 304 43 98 47 51 261 162 129 87 56 108 57 99 51 64 44
shrinkage=0.1


Tree=7
num_leaves=20
num_cat=0
split_feature=9 8 2 3 5 3 2 7 6 2 5 6 3 2 2 5 8 7 5
split_gain=5.98575 1.27419 0.897379 1.19727 1.16417 0.956004 0.864076 0.678378 0.397418 0.407083 1.26811 0.793677 0.501796 0.370593 0.346129 0.175123 0.093043 0.0843208 0.023138
threshold=0.33482285997400002 0.49871979805250005 0.18233367130450001 0.40437211846550009 0.32487507421350009 0.46205000103850008 0.17894179862450002 0.48045154081600006 0.33396167137900007 0.33360526814000008 0.039457397009600007 0.17591036284500003 0.17804419408300001 0.38719638383650007 0.35378743683550001 0.6156670149775002 0.099912878187750007 0.35044836116250005 0.33786164110200007
decision_type=2 2 2 2 2 2 2 2 2 2 2 2 2 2 2 2 2 2 2
left_child=7 2 -2 4 -4 -5 -3 8 9 10 -1 16 -12 -7 -9 -8 -11 18 -10
right_child=1 6 3 5 -6 13 15 14 17 11 12 -13 -14 -15 -16 -17 -18 -19 -20
leaf_value=0.010699942385360614 -0.012290466908968489 0.0078099093463055132 0.0069688075329185639 -0.016088998699379086 0.035805442664534053 0.019044587706287426 0.038370598747075393 -0.0067727629927141469 -0.022577060288345715 -0.015667540068440733 -0.023594093067248943 0.0012209624881861889 -0.004487456182097096 0.0014097714863454253 0.011608956703677125 0.02589093459397003 -0.024133459268482996 -0.012654117161841944 -0.018230104241223691
leaf_count=34 20 22 28 21 28 22 22 21 24 21 27 23 28 26 20 23 34 20 25
internal_value=0 0.126467 0.073768 0.105236 0.213871 0.0170675 0.240517 -0.0967906 -0.117417 -0.0910398 -0.0448192 -0.143779 -0.138671 0.094924 0.0219393 0.319921 -0.20901 -0.181259 -0.203592
internal_count=489 212 145 125 56 69 67 277 236 167 89 78 55 48 41 45 55 69 49
shrinkage=0.1


Tree=8
num_leaves=20
num_cat=0
split_feature=9 1 4 5 7 7 7 9 6 5 9 2 2 3 3 5 2 9 9
split_gain=4.89911 1.2514 0.793522 0.86112 0.853335 0.73401 0.710576 0.894917 0.591468 0.383373 1.05343 0.384691 0.34916 0.273837 0.233768 0.455705 0.0870316 0.0687828 0.0272697
threshold=0.34065360432550007 0.32124060150400008 0.27871944854400005 0.56690165180750018 0.33167353930250004 0.14843304843300004 0.47420347961150006 0.31768282402250009 0.46285486083600008 0.039457397009600007 0.29467610800650007 0.39837356159450005 0.33360526814000008 0.23615934627200003 0.17804419408300001 0.26235664404250009 0.25877865475850009 0.32403290897250003 0.31084144294750005
decision_type=2 2 2 2 2 2 2 2 2 2 2 2 2 2 2 2 2 2 2
left_child=6 5 -3 4 -4 -2 9 -8 -7 10 12 14 -1 -13 18 -16 -17 -18 -11
right_child=1 2 3 -5 -6 8 7 -9 -10 11 -12 13 -14 -15 15 16 17 -19 -20
leaf_value=-0.002558078029127091 -0.014112106771947542 0.03260678832127703 -0.0090568440199240811 0.026395307523994077 0.016694832769872589 0.017620937888139551 -0.0086048963623644014 0.019304048557639841 -0.0036937574879996292 -0.018867413909815382 0.015513963110953016 0.0042170634004036088 -0.018559673059379153 -0.012330972438022081 -0.00087444867006612813 -0.021495937814254625 -0.017536024891376862 -0.00966808445257074 -0.023963604940712237
leaf_count=25 20 31 22 34 31 30 27 20 23 21 20 20 30 20 25 24 25 20 21
internal_value=0 0.125025 0.18869 0.139739 0.0600546 0.0221136 -0.0801332 0.0327125 0.0837116 -0.101264 -0.0413951 -0.126776 -0.112862 -0.0405695 -0.152131 -0.124418 -0.166328 -0.140392 -0.214155
internal_count=489 191 118 87 53 73 298 47 53 251 75 176 55 40 136 94 69 45 42
shrinkage=0.1


Tree=9
num_leaves=19
num_cat=0
split_feature=9 1 8 2 8 9 9 3 9 7 7 6 2 2 6 1 9 5
split_gain=3.98865 1.0246 1.71855 1.40516 0.77286 1.11954 0.892715 0.724581 0.779086 0.531556 0.689073 0.427688 0.40309 0.380842 0.247317 0.0682598 0.0183216 0.00457243
threshold=0.33288741284400003 0.4093000314625001 0.34275214613300004 0.20528980465600002 0.49111531488100008 0.38924606514150001 0.34214389128850003 0.25032679738550007 0.25912652106900008 0.45535571982250006 0.092004977132100027 0.17591036284500003 0.35378743683550001 0.24491573598700003 0.0012406214583350003 0.36891270040000007 0.31876638112600003 0.37073558756000008
decision_type=2 2 2 2 2 2 2 2 2 2 2 2 2 2 2 2 2 2
left_child=7 3 -3 -2 5 6 -5 8 14 10 -10 -12 13 -4 -1 16 17 -9
right_child=1 2 12 4 -6 -7 -8 15 9 -11 11 -13 -14 -15 -16 -17 -18 -19
leaf_value=-0.006310270437538395 -0.015724467241490035 -0.0055930240184324919 0.029626286116492179 -0.0010882560858083462 0.025672942134658705 -0.013302607846298928 0.023023780033346708 -0.01651259648073608 0.013540662803361752 0.015930045633465728 -0.018174167030913135 -0.0005147323787545021 0.036141625108445055 0.010581434995085095 -0.018036490041400177 -0.010412821719099548 -0.018626576623535975 -0.01437427296302129
leaf_count=35 28 23 21 28 23 24 34 20 20 20 24 32 25 21 37 21 33 20
internal_value=0 0.0970278 0.179918 0.0425743 0.0939039 0.0503575 0.121345 -0.0840661 -0.044729 0.0142461 -0.0239261 -0.0808306 0.260881 0.201039 -0.123362 -0.154371 -0.168824 -0.154434
internal_count=489 227 90 137 109 86 62 262 168 96 76 56 67 42 72 94 73 40
shrinkage=0.1


Tree=10
num_leaves=19
num_cat=0
split_feature=9 8 2 6 6 0 3 9 3 9 6 9 3 0 2 5 5 3
split_gain=3.2308 0.851015 0.696902 0.681916 0.875708 0.644235 0.617782 1.15824 0.58691 0.694765 0.299443 0.564604 0.553602 0.241752 0.219343 0.0615158 0.0226976 0.0153851
threshold=0.33288741284400003 0.49871979805250005 0.18233367130450001 0.65385804039150008 0.46285486083600008 0.33277222838800008 0.40437211846550009 0.35306230384050002 0.25032679738550007 0.32207454645400008 0.2821770916250001 0.25912652106900008 0.084381290328800027 0.49898373983750005 0.32657825912800004 0.24169313053650002 0.33786164110200007 0.44836348333750004
decision_type=2 2 2 2 2 2 2 2 2 2 2 2 2 2 2 2 2 2
left_child=8 2 -2 4 6 -3 7 -4 9 10 11 14 -13 -7 -1 -10 -17 -18
right_child=1 5 3 -5 -6 13 -8 -9 15 -11 -12 12 -14 -15 -16 16 17 -19
leaf_value=-0.005118727895761086 -0.012276944984861669 0.0028733112346129297 0.0044541445406037607 0.024350543385007129 -0.0097305466939590357 0.031952469865675896 -0.0015740742360374142 0.034496241044729273 -0.0091237607751566557 0.011726543730396185 -0.016599968412518026 -0.0060599047351862683 0.014316583731272571 0.017830662474272362 -0.016738214430223615 -0.018040155888202125 -0.01261302405687123 -0.016076320066241698
leaf_count=33 21 20 33 20 32 22 31 21 21 24 25 30 24 27 32 21 29 23
internal_value=0 0.087325 0.0468626 0.0728646 0.0436952 0.179978 0.0967778 0.161372 -0.0756594 -0.0402561 -0.0665097 -0.0456084 0.0299631 0.241711 -0.108391 -0.138934 -0.152654 -0.141449
internal_count=489 227 158 137 117 69 85 54 262 168 144 119 54 49 65 94 73 52
shrinkage=0.1


Tree=11
num_leaves=19
num_cat=0
split_feature=9 1 4 8 5 7 7 2 6 3 3 0 9 3 4 3 0 4
split_gain=2.62915 0.850774 0.584967 0.573919 0.57239 0.726455 0.562977 0.471852 0.408543 0.367509 0.571465 0.493638 0.25468 0.373567 0.131348 0.107329 0.090154 0.0385975
threshold=0.34065360432550007 0.32124060150400008 0.27871944854400005 0.37624711579050002 0.56690165180750018 0.33167353930250004 0.14843304843300004 0.24210789265000002 0.46285486083600008 0.2521450982120001 0.17022410352800002 0.45007440256550008 0.31876638112600003 0.042460177757650007 0.32312500823150009 0.47740040858050004 0.31600135448900007 0.33398135080750008
decision_type=2 2 2 2 2 2 2 2 2 2 2 2 2 2 2 2 2 2
left_child=3 6 -3 9 5 -4 -2 -5 -8 10 11 12 13 14 -1 16 17 -11
right_child=1 2 4 7 -6 -7 8 -9 -10 15 -12 -13 -14 -15 -16 -17 -18 -19
leaf_value=-0.015937126314754996 -0.013622176030608651 0.026203483877791509 -0.010188638503002879 -0.0051417802295354031 0.02033256918687476 0.013571568660543149 0.013755682464773688 0.016080939972116643 -0.0039589649251337879 -0.014363374171960108 0.0069811929041595899 0.0062628131051284033 -0.019828839312470023 0.0039839040709123618 -0.006937019438055061 -0.006122158596249796 -0.018377342348953218 -0.0083004118603671219
leaf_count=34 20 31 22 22 34 31 30 20 23 21 33 21 23 20 31 20 32 21
internal_value=0 0.0915892 0.144083 -0.0587032 0.102055 0.0370884 0.00673572 0.0496428 0.0606819 -0.0764787 -0.0476171 -0.0776571 -0.104935 -0.0796743 -0.116448 -0.126219 -0.143786 -0.113319
internal_count=489 191 118 298 87 53 73 42 53 256 162 129 108 85 65 94 74 42
shrinkage=0.1


Tree=12
num_leaves=21
num_cat=0
split_feature=9 2 8 4 0 7 5 1 3 9 7 7 1 9 9 6 3 8 9 3
split_gain=2.1848 0.716681 0.729485 0.538432 0.813534 0.785727 0.505027 0.443101 0.416855 0.50191 0.455706 0.582438 0.461265 0.380933 0.244672 0.216955 0.123653 0.0471632 0.0177744 0.0169838
threshold=0.33288741284400003 0.17894179862450002 0.49871979805250005 0.23703404663400005 0.23857886904750006 0.19538034030900006 0.4465163968905001 0.40210203818400009 0.29606741573050005 0.25912652106900008 0.45535571982250006 0.089736194973250014 0.23367003367000003 0.34565249078350008 0.31671233467100007 0.0012406214583350003 0.75887801475550021 0.29505494505500002 0.31876638112600003 0.042460177757650007
decision_type=2 2 2 2 2 2 2 2 2 2 2 2 2 2 2 2 2 2 2 2
left_child=8 7 3 -3 -5 -6 13 -2 9 15 11 -11 -13 -7 -14 -1 -4 -10 -19 -17
right_child=1 2 16 4 5 6 -8 -9 17 10 -12 12 14 -15 -16 19 -18 18 -20 -21
leaf_value=-0.0039032763185733853 -0.014932026901112113 -0.0071129375563999623 0.026296290082748509 -0.0092219393584421164 0.030574940451606213 0.005031624014650145 -0.0020551102221002845 0.0058658311645065414 -0.0093897577212137973 0.012645467931709703 0.014409907227902219 -0.018667384921612025 0.0062125497168099373 0.023473924872387319 -0.008538515451176152 -0.012565433590547289 0.015979262392945483 -0.01238311059937452 -0.016318241998328393 -0.016541288365471259
leaf_count=35 21 25 21 20 20 21 29 20 31 20 20 22 23 24 22 22 26 22 24 21
internal_value=0 0.0718107 0.0981914 0.0617753 0.0909211 0.129887 0.0823568 -0.0478673 -0.0622177 -0.036484 0.00798751 -0.0233025 -0.0680061 0.148675 -0.00999082 -0.0974899 0.20589 -0.124045 -0.144362 -0.145071
internal_count=489 227 186 139 114 94 74 41 262 185 107 87 67 45 45 78 47 77 46 43
shrinkage=0.1


Tree=13
num_leaves=18
num_cat=0
split_feature=9 7 8 1 1 3 1 3 2 6 6 2 6 6 8 3 5
split_gain=1.76969 0.595581 1.02569 0.759229 0.931005 0.961968 0.604189 0.478127 0.42031 0.357318 0.372071 0.395058 0.552267 0.293655 0.143515 0.167945 0.0365275
threshold=0.33288741284400003 0.31533929355000007 0.34519400763050007 0.4093000314625001 0.20729920948950004 0.3855393476545001 0.270448878241 0.43128017718750006 0.34699623587200007 0.27795429208450001 0.17591036284500003 0.33360526814000008 0.002613602104555001 0.017887432310050005 0.35479174541700004 0.23963131000650004 0.37073558756000008
decision_type=2 2 2 2 2 2 2 2 2 2 2 2 2 2 2 2 2
left_child=9 2 8 4 -3 -6 -4 -5 -2 10 11 12 -1 -13 15 -11 -17
right_child=1 3 6 7 5 -7 -8 -9 -10 14 -12 13 -14 -15 -16 16 -18
leaf_value=0.011562439856978237 -0.0017280863347499877 0.020667235602079795 -0.0033410904309316035 0.02993036162004413 -0.020699577192955867 0.007257512878738534 0.019251730220225437 0.011807369354960347 -0.021758190270635334 -0.0014496832330218566 0.0061586313453443862 -0.017010722541543111 -0.0072529015853860269 -0.0038620397798253331 -0.018082919352992163 -0.014371644690439538 -0.0089615761706467872
leaf_count=26 22 23 20 24 20 32 29 37 20 23 36 35 39 33 20 26 24
internal_value=0 0.0646297 0.00201062 0.106529 0.039146 -0.0349521 0.100302 0.189377 -0.112662 -0.0559959 -0.0286007 -0.0530122 0.00273235 -0.106297 -0.105779 -0.0852169 -0.117748
internal_count=489 227 91 136 75 52 49 61 42 262 169 133 65 68 93 73 50
shrinkage=0.1


Tree=14
num_leaves=19
num_cat=0
split_feature=9 2 2 0 4 6 8 4 0 1 1 1 3 9 4 5 3 5
split_gain=1.43345 0.586122 0.621173 0.656821 0.813438 0.664951 0.543449 0.495842 0.334331 0.803134 0.310504 0.251657 0.294654 0.862875 0.27202 0.09718 0.0594792 0.0153963
threshold=0.33288741284400003 0.17894179862450002 0.24815277934950003 0.232038873989 0.33338651350750004 0.32456606365950003 0.39933554817300004 0.38933499325650006 0.40584227656900002 0.36891270040000007 0.40210203818400009 0.30044802867400006 0.2521450982120001 0.31114833602800002 0.31120244766350008 0.16189290161900002 0.26847469967250004 0.31807073466950003
decision_type=2 2 2 2 2 2 2 2 2 2 2 2 2 2 2 2 2 2
left_child=8 10 -3 -4 5 -5 7 -6 11 -10 -2 12 13 14 -1 -13 -17 -14
right_child=1 2 3 4 6 -7 -8 -9 9 -11 -12 15 17 -15 -16 16 -18 -19
leaf_value=-0.014003462691049602 -0.01349899427059071 0.022226198569551305 -0.0087156754426128344 0.013672015498161544 0.019055105955229783 -0.0093073137176600713 0.024193085593875525 -0.0024740586183015075 -0.0079181279071513979 0.0172497961224869 0.0039110779600006031 -0.0065563598826410916 -0.012386819656493556 0.016992262613799963 -0.00055897694694873859 -0.018140326636140441 -0.01114558512429707 -0.0087765710701365254
leaf_count=27 21 27 26 20 20 34 36 23 32 21 20 28 21 21 34 20 31 27
internal_value=0 0.0581667 0.0820237 0.0582097 0.0866272 -0.00796451 0.151285 0.0753951 -0.0503963 0.0205407 -0.0500628 -0.0683851 -0.0413348 -0.0049099 -0.0650981 -0.112898 -0.138886 -0.103561
internal_count=489 227 186 159 133 54 79 43 262 53 41 209 130 82 61 79 51 48
shrinkage=0.1


Tree=15
num_leaves=20
num_cat=0
split_feature=9 0 8 7 8 4 8 8 8 8 5 5 8 3 8 4 3 4 9
split_gain=1.17776 0.757581 0.662012 1.15605 0.4408 0.433729 0.348794 0.628179 0.338925 0.266475 0.23932 0.277142 0.371339 0.385717 0.57895 0.220971 0.213386 0.146088 0.0381629
threshold=0.35306230384050002 0.42099150863700002 0.37624711579050002 0.38836171368600009 0.34764736728000006 0.3589742122615 0.51705040530200008 0.37939568557900005 0.47137180823350006 0.0454103863935 0.00062011712831850014 0.46852895976200004 0.32244148880400009 0.23461758374100003 0.20968082857700002 0.32312500823150009 0.34766367541050008 0.30220160663700008 0.32013944326900007
decision_type=2 2 2 2 2 2 2 2 2 2 2 2 2 2 2 2 2 2 2
left_child=2 6 4 -4 9 8 7 -2 -3 -1 -11 12 13 14 15 -12 18 -16 -15
right_child=1 5 3 -5 -6 -7 -8 -9 -10 10 11 -13 -14 16 17 -17 -18 -19 -20
leaf_value=0.0067958774969077013 0.0050953003871485637 0.030531101905272924 -0.0064590617654933617 0.02213388198584371 -0.017907652004177151 0.0046046917368139113 0.010641046958283287 -0.01685559022888743 0.013065925494818765 -0.015424481599397679 -0.015063380026595576 -0.012914957323396562 0.0070653208765819155 -0.011820686181552641 0.0023363727747040719 -0.00069120180891754917 -0.0033491611013960775 0.013996964724245706 -0.017924310366426558
leaf_count=21 32 20 31 26 25 26 24 22 25 20 23 30 33 21 22 20 27 21 20
internal_value=0 0.0741345 -0.0324883 0.0658333 -0.0522917 0.148872 0.00610407 -0.0384765 0.208282 -0.0400063 -0.0495728 -0.0399256 -0.0256116 -0.0462398 -0.00173783 -0.0837865 -0.102522 0.0803108 -0.147981
internal_count=489 149 340 57 283 71 78 54 45 258 237 217 187 154 86 43 68 43 41
shrinkage=0.1


Tree=16
num_leaves=17
num_cat=0
split_feature=9 7 1 2 5 2 8 6 9 4 4 8 4 9 0 3
split_gain=1.02643 0.615932 0.476781 0.582728 0.488031 0.451226 0.769188 0.384929 0.416264 0.351421 0.226891 0.315913 0.252156 0.133495 0.198302 0.125285
threshold=0.32207454645400008 0.47420347961150006 0.25053418803400007 0.31948706842400004 0.56690165180750018 0.41409699763500002 0.49111531488100008 0.37476619325350008 0.33862748497950007 0.36081746883800009 0.15831144212650003 0.072252747252750008 0.30542117928100004 0.26703253117900011 0.34349340366700004 0.2521450982120001
decision_type=2 2 2 2 2 2 2 2 2 2 2 2 2 2 2 2
left_child=10 2 3 -2 7 6 -3 8 -4 -9 -1 -12 -13 -14 15 -15
right_child=1 5 4 -5 -6 -7 -8 9 -10 -11 11 12 13 14 -16 -17
leaf_value=0.0015817225411163568 -0.016727977829303898 -0.006800891917957244 -0.0013273161218846754 0.0028435185276868714 0.016793674659634744 0.022733644300207159 0.016453415626360931 -0.01229852336833044 0.014931871435761454 0.0040601090977853893 0.004186510424792244 -0.015929904745054145 -0.0010793929970875213 -0.018084759570147272 -0.0011376692151675999 -0.0080139688851530669
leaf_count=38 29 25 32 32 25 24 33 29 31 24 22 36 34 21 24 30
internal_value=0 0.038925 0.00925359 -0.0646096 0.0412086 0.112018 0.0643001 0.0138965 0.0667324 -0.0489084 -0.0539254 -0.069795 -0.0867365 -0.0627709 -0.0863337 -0.121608
internal_count=489 284 202 61 141 82 58 116 63 53 205 167 145 109 75 51
shrinkage=0.1


Tree=17
num_leaves=17
num_cat=0
split_feature=9 7 1 2 9 8 3 9 6 0 6 1 7 3 8 5
split_gain=0.831411 0.498905 0.386192 0.47201 0.432577 0.433414 0.52834 0.461808 0.374322 0.421489 0.209081 0.216013 0.329244 0.325711 0.5667 0.0886251
threshold=0.32207454645400008 0.47420347961150006 0.25053418803400007 0.31948706842400004 0.32967229043400009 0.33366666666650002 0.49914121034100006 0.34620022766300007 0.30142679868850009 0.48918404863900006 0.27795429208450001 0.21537533249900001 0.062532051282050014 0.0044362487846250015 0.2400396825395 0.33786164110200007
decision_type=2 2 2 2 2 2 2 2 2 2 2 2 2 2 2 2
left_child=10 2 3 -2 -4 -6 7 -7 -3 -10 11 12 -1 -13 -15 -12
right_child=1 8 4 -5 5 6 -8 -9 9 -11 15 13 -14 14 -16 -17
leaf_value=0.002696686269364478 -0.015055179935899384 0.020902878843420361 -0.0074183324459478825 0.0025591667657221366 -0.0020649872836908099 0.016074870133025495 0.022110237234707453 -0.00397366236055829 -0.0013844934662794266 0.015719985838532232 -0.013224024093689698 -0.0089792989936366505 -0.01290541827106393 0.015641111827050781 -0.0042348794484353344 -0.0057141768479969613
leaf_count=21 29 23 28 32 39 20 27 27 34 25 33 25 38 26 32 30
internal_value=0 0.0350325 0.00832823 -0.0581487 0.0370877 0.0646593 0.10962 0.0455763 0.100816 0.0586317 -0.0485328 -0.0272609 -0.0735213 0.00562293 0.0467505 -0.0964791
internal_count=489 284 202 61 141 113 74 47 82 59 205 142 59 83 58 63
shrinkage=0.1


Tree=18
num_leaves=18
num_cat=0
split_feature=9 4 7 0 4 4 4 8 8 3 4 8 4 5 6 6 6
split_gain=0.673443 0.45907 0.642778 0.447558 1.13197 0.425696 0.887221 0.374566 0.288681 0.274351 0.176915 0.231337 0.199591 0.15263 0.109015 0.246793 0.201597
threshold=0.32207454645400008 0.52573079922850008 0.47420347961150006 0.36446930950800011 0.33466399735300006 0.33466399735300006 0.30220160663700008 0.39358373946600006 0.33081154124350004 0.62146686159850006 0.15831144212650003 0.072252747252750008 0.30542117928100004 0.34870862975600009 0.16513361173500005 0.29609013440850007 0.0070404780223650007
decision_type=2 2 2 2 2 2 2 2 2 2 2 2 2 2 2 2 2
left_child=10 2 3 5 7 6 -2 -5 -7 13 -1 -12 -13 -4 16 -16 -14
right_child=1 -3 9 4 -6 8 -8 -9 -10 -11 11 12 14 -15 15 -17 -18
leaf_value=0.0017905033705419328 -0.0073783352600025253 -0.0081295761094179152 0.0017840982494368885 -0.011882455159980619 0.021660055170358045 -0.0015690445016182137 0.016329879915773178 0.0068295112524853815 -0.017996279329329998 0.021728050319879698 0.0037858595789081058 -0.013674810776504865 -0.0016424139315508758 0.013403849044958026 0.0068559216542120509 -0.0068070412648696954 -0.01438274558127706
leaf_count=38 38 32 20 23 32 20 27 20 23 23 22 36 23 26 20 39 27
internal_value=0 0.0315293 0.0458562 0.0148443 0.0741887 -0.0263672 0.0246969 -0.0317921 -0.103557 0.128105 -0.0436796 -0.0576928 -0.0721903 0.0835178 -0.0508684 -0.0217553 -0.0852219
internal_count=489 284 252 183 75 108 65 43 43 69 205 167 145 46 109 59 50
shrinkage=0.1


Tree=19
num_leaves=21
num_cat=0
split_feature=7 9 6 6 6 7 3 4 0 5 4 6 8 6 8 1 5 6 3 1
split_gain=0.594094 0.52808 0.399595 0.675765 0.814524 0.422598 1.03426 0.490608 0.179617 0.434576 0.211384 0.189211 0.245556 0.266102 0.210632 0.173336 0.169985 0.113981 0.0878342 0.0836794
threshold=0.88509671614950014 0.33482285997400002 0.89757397496650004 0.64192849476350011 0.46285486083600008 0.31986528142600007 0.3760266079045001 0.33398135080750008 0.37333388820450003 0.082793628759900026 0.30915538362350009 0.34224460477800006 0.31423915551450005 0.00032355476502250009 0.21476997578700002 0.42730246587050008 0.26870260179700006 0.13166489207550003 0.25032679738550007 0.21537533249900001
decision_type=2 2 2 2 2 2 2 2 2 2 2 2 2 2 2 2 2 2 2 2
left_child=1 8 3 4 5 6 -3 -7 11 -10 -11 12 13 -1 19 -6 -14 -16 -13 -15
right_child=-2 2 -4 -5 15 7 -8 -9 9 10 -12 18 16 14 17 -17 -18 -19 -20 -21
leaf_value=-0.0141665387250188 0.016878911433799732 0.014570482292331488 -0.0076389056452020798 0.021853947326493324 -0.016087942735671139 0.004806197167618936 -0.01449229099341667 0.023173685717190584 0.012427809884203979 -0.012339679638328842 0.0021993700370098652 -0.014977997587222389 0.010125337040056838 -0.0020479383252253874 -0.012682056802243838 -0.0029222353983258506 -0.0029124839060006122 -0.0022513273600686689 -0.0069194564793609251 0.0069901471788458092
leaf_count=27 20 25 29 21 20 33 24 26 22 20 20 21 20 21 22 20 20 20 38 20
internal_value=0 -0.00719783 0.032059 0.0506684 0.0268489 0.071997 0.00335655 0.129003 -0.03588 0.011388 -0.0507015 -0.049902 -0.0310317 -0.0554302 -0.0273778 -0.0950509 0.0360643 -0.0771504 -0.0978775 0.0236088
internal_count=489 469 198 169 148 108 49 59 271 62 40 209 150 110 83 40 40 42 59 41
shrinkage=0.1



feature importances:
Column_9=55
Column_3=51
Column_8=45
Column_6=37
Column_2=35
Column_7=33
Column_4=29
Column_1=28
Column_5=26
Column_0=24

pandas_categorical:null
