tree
version=v2
num_class=1
num_tree_per_iteration=1
label_index=0
max_feature_idx=7
objective=regression
feature_names=Column_0 Column_1 Column_2 Column_3 Column_4 Column_5 Column_6 Column_7
feature_infos=[0:1] [0:1] [0:1] [0:1] [0:0.990536277603] [0:1] [0:1] [0:1]
tree_sizes=1146 1271 1246 1105 1260 1114 1029 1195 1033 1191 1109 1274 1195 1188 1198 1118 1278 1117 1204 1124

Tree=0
num_leaves=14
num_cat=0
split_feature=6 5 0 7 6 0 7 7 2 7 0 0 0
split_gain=17.6963 5.31892 1.9207 1.24945 1.12963 0.666667 0.610809 0.601862 0.285011 0.123276 0.121385 0.0371212 0.03
threshold=0.87171945701350018 0.32326007326 0.22677320310450003 0.39927024821150009 0.019419306184050002 0.42718264780200005 0.37163978494650002 0.22864313350950002 0.35584924616450003 0.23227694574700003 0.049385382059800011 0.78490678985750018 0.012420302395550002
decision_type=2 2 2 2 2 2 2 2 2 2 2 2 2
left_child=1 2 6 5 7 -3 9 -4 -9 12 -11 -2 -1
right_child=11 3 4 -5 -6 -7 -8 8 -10 10 -12 -13 -14
leaf_value=0.28333333184321718 0.41833333586653071 0.32777777761220928 0.31666666616996125 0.38833333497246103 0.29940476089361168 0.3611111119389534 0.31515151460965474 0.35833333407839135 0.33505747131575109 0.30583333251376943 0.28985507116801495 0.42708333612730104 0.29083333206673462
leaf_count=30 20 27 27 20 28 27 33 20 29 20 23 24 20
internal_value=0 -0.0800439 -0.155072 0.153153 -0.0544872 0.0740741 -0.238095 0.00877193 0.0748299 -0.27957 -0.24031 0.598485 -0.313333
internal_count=348 304 230 74 104 54 126 76 49 93 43 44 50
shrinkage=1


Tree=1
num_leaves=15
num_cat=0
split_feature=6 5 0 7 7 4 2 7 1 5 7 0 4 7
split_gain=12.7856 3.89569 1.76961 0.859865 0.69235 0.646056 0.773434 0.942478 0.347297 0.115593 0.158021 0.194746 0.0425001 0.0274093
threshold=0.87171945701350018 0.40982142857150006 0.22677320310450003 0.34137086657800003 0.43309438901850006 0.39932922312600011 0.34705684939250009 0.29521524123050008 0.32503319111250001 1.0000000180025095e-35 0.23227694574700003 0.044634261939400004 0.66473541908100009 0.10442760604850002
decision_type=2 2 2 2 2 2 2 2 2 2 2 2 2 2
left_child=1 2 4 -3 9 6 8 -8 -4 10 13 -12 -2 -1
right_child=12 3 5 -5 -6 -7 7 -9 -10 -11 11 -13 -14 -15
leaf_value=-0.035449999496340749 0.080562499351799488 8.3333775401115423e-05 -0.011181547790765762 0.038686937778382689 -0.0087904036045074463 0.012593088211382136 -0.0032179293036460875 -0.048716123189244946 0.016772321462631225 -0.045982393920421603 -0.016014773547649384 -0.036696780153683252 0.071200001835823062 -0.042968749254941936
leaf_count=20 24 20 20 37 27 34 20 21 20 20 20 21 20 24
internal_value=0 -0.0680373 -0.122418 0.167612 -0.201423 -0.0317343 -0.0802948 -0.176813 0.0186359 -0.238148 -0.222053 -0.177387 0.508712 -0.263674
internal_count=348 304 247 57 132 115 81 41 40 105 85 41 44 44
shrinkage=0.15


Tree=2
num_leaves=15
num_cat=0
split_feature=6 5 3 3 7 2 1 6 2 7 3 4 5 7
split_gain=9.2376 2.90151 1.0025 1.68314 0.95765 0.936954 0.600858 0.966422 0.6749 0.84321 0.212705 0.116088 0.037457 0.00714662
threshold=0.87171945701350018 0.32326007326 0.40644381684900005 0.32234952664500005 0.43309438901850006 0.20805866133600004 0.21225684688400004 0.10435571687850002 0.47420966143250004 0.22864313350950002 0.071128841607550009 0.2662922547235001 0.99315290307650017 0.21688139864100001
decision_type=2 2 2 2 2 2 2 2 2 2 2 2 2 2
left_child=1 4 3 -3 6 -6 10 8 9 -8 -1 13 -2 -12
right_child=12 2 -4 -5 5 -7 7 -9 -10 -11 11 -13 -14 -15
leaf_value=-0.019930911511182786 0.060066531524062154 0.0074748660711681132 -0.011527324765920638 0.062314349189400667 -0.018334951783929552 0.02702971927821636 -0.018162135585494663 -0.041868299032960611 -0.027083946829256803 0.01974415038862536 -0.03809400793164968 -0.026326604293925419 0.068856015801429749 -0.042103982493281358
leaf_count=30 20 34 20 20 21 20 23 21 23 31 20 21 24 20
internal_value=0 -0.0578317 0.114404 0.185239 -0.113247 0.0252944 -0.143301 -0.0889677 -0.0371075 0.0239925 -0.201813 -0.235718 0.432405 -0.267327
internal_count=348 304 74 54 230 41 189 98 77 54 91 61 44 40
shrinkage=0.15


Tree=3
num_leaves=13
num_cat=0
split_feature=5 6 0 7 3 3 7 1 7 2 2 7
split_gain=6.79376 1.49751 1.30803 0.954341 0.684771 0.616363 0.487509 0.489688 0.680399 0.443837 0.199015 0.0198217
threshold=0.47047930283200007 0.87171945701350018 0.31701163188550002 0.37757979550000004 0.34962523924950006 0.071128841607550009 0.41790666347650002 0.52773863269700005 0.29415008409400006 0.20805866133600004 0.025885091412300002 0.33827909652250004
decision_type=2 2 2 2 2 2 2 2 2 2 2 2
left_child=2 3 4 -2 5 -1 7 8 -4 -6 -7 -12
right_child=1 -3 6 -5 9 10 -8 -9 -10 -11 11 -13
leaf_value=-0.011055534676863597 0.003283227831125259 0.060817743965557641 0.018464159918949008 0.044414553791284561 -0.01996807711927787 -0.021999980615718024 0.022849542573094368 -0.023004459270409172 -0.01386855575773451 0.0089047725498676289 -0.036996188014745711 -0.042980691902339462
leaf_count=39 30 35 32 22 23 21 20 21 27 25 33 20
internal_value=0 0.245535 -0.0771392 0.1379 -0.132932 -0.175437 0.0126866 -0.0222243 0.0244522 -0.0328676 -0.229053 -0.261697
internal_count=348 87 261 52 161 113 100 80 59 48 74 53
shrinkage=0.15


Tree=4
num_leaves=15
num_cat=0
split_feature=6 5 3 3 7 7 4 1 4 1 3 4 7 4
split_gain=5.02671 1.61416 0.7607 1.13832 0.693264 0.398941 0.372869 0.861843 0.515421 0.434865 0.220902 0.0482198 0.0427527 0.00455234
threshold=0.87171945701350018 0.32326007326 0.40644381684900005 0.32234952664500005 0.48266045548650005 0.12704408618200005 0.42163742690050005 0.45561918396550005 0.35513019821200004 0.22601271980450002 0.12221790890250002 0.14443742098600001 0.45542685542700007 0.20621963844850003
decision_type=2 2 2 2 2 2 2 2 2 2 2 2 2 2
left_child=1 4 3 -3 5 11 7 8 9 10 -7 -1 -2 -12
right_child=12 2 -4 -5 -6 6 -8 -9 -10 -11 13 -13 -14 -15
leaf_value=-0.023771781474351883 0.052304203678732335 0.0054133445462759798 -0.012128715813159942 0.05051232285797596 0.010459365179905524 -0.013362306989729405 -0.030936468924794878 0.018536201970917838 0.0076551061123609539 -0.006231933373671312 -0.03093587163497101 -0.03418784961104393 0.042943125750337326 -0.034023476285593851
leaf_count=20 23 34 20 20 26 20 21 21 20 39 22 20 21 21
internal_value=0 -0.0427237 0.0857411 0.147444 -0.0840558 -0.103656 -0.0818161 -0.0635437 -0.0957525 -0.124534 -0.175908 -0.193199 0.318909 -0.216292
internal_count=348 304 74 54 230 204 164 143 122 102 63 40 44 43
shrinkage=0.15


Tree=5
num_leaves=13
num_cat=0
split_feature=5 7 2 1 4 2 1 4 2 1 4 0
split_gain=4.23095 1.56655 1.12081 0.641526 0.517776 0.315642 0.649368 0.688926 0.319998 0.300443 0.289517 0.112233
threshold=0.67048346056000019 0.36145271328550005 0.42437022042300004 0.10259973839150001 0.31896648005700007 0.030143409477700004 0.49380546684450005 0.31558504011700006 0.27482932897150009 0.34478263600950004 0.60826939471450014 0.0012583694869950002
decision_type=2 2 2 2 2 2 2 2 2 2 2 2
left_child=1 5 3 -3 -5 11 7 8 -7 -9 -2 -1
right_child=10 2 -4 4 -6 6 -8 9 -10 -11 -12 -13
leaf_value=-0.016045740991830825 0.030501938197347849 0.017383729763652968 0.030202174953051976 -0.030558611239705769 0.0020186858008737151 -0.0050858155373604066 -0.031063202588722621 0.01830366004544955 -0.026013533834900175 -0.0044997747700947976 0.053682989220727569 -0.030552191361784935
leaf_count=20 27 23 35 21 23 31 29 26 35 26 22 30
internal_value=0 -0.0442797 0.0563138 -0.0194503 -0.0901971 -0.0963637 -0.0730189 -0.0400697 -0.107892 0.046013 0.272732 -0.164997
internal_count=348 299 102 67 44 197 147 118 66 52 49 50
shrinkage=0.15


Tree=6
num_leaves=12
num_cat=0
split_feature=5 3 7 0 5 7 7 4 0 7 4
split_gain=3.16231 1.12394 0.98388 0.975419 0.594156 1.05603 0.4257 0.22352 0.469079 0.162225 0.0486179
threshold=0.47047930283200007 0.59278812974500006 0.3313985646810001 0.44485387134450005 1.0000000180025095e-35 0.37163978494650002 0.32883426699600005 0.24344789704950001 0.14143481120350004 0.24361058858600002 0.11966686148450002
decision_type=2 2 2 2 2 2 2 2 2 2 2
left_child=1 4 -2 -4 5 7 -6 8 10 -9 -1
right_child=2 -3 3 -5 6 -7 -8 9 -10 -11 -12
leaf_value=-0.020570114387997562 -0.0003085110783576965 0.017224114727886285 0.012802372586268644 0.050930429498354593 -0.011873618008628968 0.014654873095844921 -0.036537286837119605 -0.029926940917968749 0.0099148620258678079 -0.013686679399782612 -0.010886981002986429
leaf_count=28 25 34 26 36 31 38 32 25 22 31 20
internal_value=0 -0.0547332 0.165413 0.232942 -0.08013 -0.0484208 -0.162675 -0.0924887 -0.0548167 -0.139579 -0.110237
internal_count=348 261 87 62 227 164 63 126 70 56 48
shrinkage=0.15


Tree=7
num_leaves=14
num_cat=0
split_feature=6 7 3 0 2 2 2 0 4 1 0 4 3
split_gain=2.48397 1.03645 0.812316 0.560821 0.646783 0.358155 0.711718 0.330501 0.264087 0.364705 0.190885 0.0499658 0.0276909
threshold=0.64420118949950012 0.43309438901850006 0.36684397163150001 0.22677320310450003 0.27482932897150009 0.42786829640150004 0.47420966143250004 0.46828589663600007 0.22198130589100004 0.050755834856350011 0.34554444310300009 0.097504368719950024 0.27539138943250008
decision_type=2 2 2 2 2 2 2 2 2 2 2 2 2
left_child=1 3 -3 8 -5 10 -7 -2 9 11 -6 -1 -10
right_child=7 2 -4 4 5 6 -8 -9 12 -11 -12 -13 -14
leaf_value=-0.025700659789144993 0.043763607703149313 -0.003971840727787751 0.034727282368618509 0.015439288155175744 -0.0097274314774119346 0.021516192108392715 -0.014144319668412208 0.020046807367068067 -0.023195243626832961 0.0026515559703111651 -0.029507608818156377 -0.015224667425666536 -0.030752527993172407
leaf_count=20 20 26 23 32 23 20 34 39 24 25 21 21 20
internal_value=0 -0.0379155 0.0946204 -0.0649749 -0.0205085 -0.0608145 -0.00624482 0.187243 -0.117526 -0.0775194 -0.127786 -0.135566 -0.177536
internal_count=348 289 49 240 130 98 54 59 110 66 44 41 44
shrinkage=0.15


Tree=8
num_leaves=12
num_cat=0
split_feature=5 3 2 5 3 4 2 3 4 4 3
split_gain=1.85531 0.645671 0.474229 0.43242 0.290992 0.84478 0.367616 0.602485 0.524493 0.273737 0.268528
threshold=0.47047930283200007 0.59278812974500006 0.42437022042300004 1.0000000180025095e-35 0.075616104078350024 0.13618181818200001 0.090651186148900012 0.27062251578200008 0.34372738784350004 0.4245555526380001 0.32234952664500005
decision_type=2 2 2 2 2 2 2 2 2 2 2
left_child=1 3 -2 4 5 -1 -6 -8 -9 -4 -5
right_child=2 -3 9 10 6 -7 7 8 -10 -11 -12
leaf_value=-0.018182793259620664 0.006427312465874772 0.012986972347340163 0.01525527611374855 -0.027423022931011825 -0.021083527316267673 0.021616230745400703 -0.020171596887039726 0.020959309736887612 -0.011089593004435299 0.038066151969391719 -0.0072570695076137779
leaf_count=21 38 34 20 39 39 28 29 27 20 29 24
internal_value=0 -0.0419366 0.126687 -0.0611858 -0.0341345 0.0303967 -0.0616304 -0.0211287 0.0488099 0.191704 -0.131605
internal_count=348 261 87 227 164 49 115 76 47 49 63
shrinkage=0.15


Tree=9
num_leaves=14
num_cat=0
split_feature=6 7 3 0 4 4 4 4 0 4 3 7 3
split_gain=1.43028 0.657365 0.489748 0.332855 0.460828 1.15911 0.362011 0.357094 0.293101 0.270737 0.0576254 0.0572178 0.0416884
threshold=0.64420118949950012 0.43309438901850006 0.36684397163150001 0.27494973336850009 0.30880957902050005 0.34689137027850009 0.24033898305100002 0.39932922312600011 0.46828589663600007 0.12896925403250004 0.13136155679250003 0.28967811119300008 0.32507642671250009
decision_type=2 2 2 2 2 2 2 2 2 2 2 2 2
left_child=1 3 -3 6 12 -6 9 -7 -2 10 -1 -8 -5
right_child=8 2 -4 4 5 7 11 -9 -10 -11 -12 -13 -14
leaf_value=-0.008541013486683369 0.03607461355626583 -0.0025888822399652922 0.027459786702757297 -0.0099633978679776192 0.036082391738891599 -0.02144927659205028 -0.016443945254598344 0.0032926278667790546 0.013740000873804092 0.004818604215979576 -0.01966592769138515 -0.026584643305790037 -0.019648384060710667
leaf_count=22 20 26 23 20 20 21 21 35 39 30 20 31 20
internal_value=0 -0.0287803 0.0767706 -0.0503303 -0.0118265 0.0338996 -0.08635 -0.0399039 0.142074 -0.0404317 -0.0922573 -0.149929 -0.0987059
internal_count=348 289 49 240 116 76 124 56 59 72 42 52 40
shrinkage=0.15


Tree=10
num_leaves=13
num_cat=0
split_feature=4 4 1 6 1 4 2 0 3 6 1 0
split_gain=1.36024 0.671584 1.1094 0.664554 0.703685 0.569353 0.841291 0.558455 0.33757 0.386365 0.41319 0.252448
threshold=0.32068184957950002 0.14443742098600001 0.20207362836450002 0.30086206896550005 0.3477268203465001 0.5204240204245002 0.45501789500100004 0.44089519756900003 0.39358428030300002 0.019419306184050002 0.15105230431050004 0.054202098967700008
decision_type=2 2 2 2 2 2 2 2 2 2 2 2
left_child=1 2 11 4 -2 6 -5 -6 9 10 -3 -1
right_child=3 8 -4 5 7 -7 -8 -9 -10 -11 -12 -13
leaf_value=-0.0009895935216370751 0.01960459673204101 -0.016481035530567168 0.032500406708568332 0.044655718630360018 -0.030208223392255602 0.0049263914752947649 0.0051960242539644238 0.0023731553349001654 -0.031481886327266694 -0.023451908763187628 0.011073202965781091 -0.022227897047996523
leaf_count=34 26 25 20 31 20 38 20 29 25 36 24 20
internal_value=0 -0.0581805 0.0154778 0.0670661 -0.00227764 0.125502 0.194542 -0.0728358 -0.107732 -0.0776892 -0.0199005 -0.0590375
internal_count=348 184 74 164 75 89 51 49 110 85 49 54
shrinkage=0.15


Tree=11
num_leaves=15
num_cat=0
split_feature=4 4 5 1 7 4 3 4 4 3 3 3 0 2
split_gain=0.982771 0.518081 0.5625 0.506984 0.595769 0.485219 0.916867 0.320066 0.399181 0.243894 0.307452 0.177956 0.175708 0.0360096
threshold=0.32068184957950002 0.33990220937650012 0.9479166666665001 0.39159165513350008 0.31114168548400006 0.14443742098600001 0.35738231915349999 0.41103500761050005 0.52526862138050012 0.39358428030300002 0.31400499513300001 0.16096116238000005 0.25972075243750009 0.077340733590700025
decision_type=2 2 2 2 2 2 2 2 2 2 2 2 2 2
left_child=5 -2 3 4 -3 6 11 -5 -9 10 12 -1 13 -7
right_child=1 2 -4 7 -6 9 -8 8 -10 -11 -12 -13 -14 -15
leaf_value=-0.0019495543325319885 0.02997002391652627 0.031772753074765202 0.023473828732967373 -0.024127321638807188 -0.0021239055320620534 -0.004387519117444753 0.027643013034354555 0.01304543731649491 -0.015529146316376597 -0.026759603440761566 0.0063580429181456562 -0.019986356562003493 -0.025102840783074495 -0.013280921507560248
leaf_count=32 22 20 30 20 28 20 22 22 22 25 20 20 24 21
internal_value=0 0.0570062 0.0348832 0.00230939 0.079998 -0.0494534 0.0131562 -0.0559571 -0.00827903 -0.0915726 -0.0660358 -0.0592452 -0.0993967 -0.0596178
internal_count=348 164 142 112 48 184 74 64 44 110 85 52 65 41
shrinkage=0.15


Tree=12
num_leaves=14
num_cat=0
split_feature=6 2 2 2 1 4 3 3 3 7 7 7 7
split_gain=0.843924 0.379016 0.846578 0.467074 0.423545 0.379277 0.377819 1.39331 0.651465 0.240381 0.0995918 0.116357 0.069603
threshold=0.36038961038950007 0.20805866133600004 0.27482932897150009 0.44141203392100004 0.40661082695100009 0.29353536422000004 0.24174664040950003 0.33991010430400009 0.47648470141150007 0.29521524123050008 0.28413622036950009 0.17723603851800004 0.31337470148650004
decision_type=2 2 2 2 2 2 2 2 2 2 2 2 2
left_child=1 5 -3 9 -5 10 -2 -8 -9 -4 11 -1 -6
right_child=6 2 3 4 12 -7 7 8 -10 -11 -12 -13 -14
leaf_value=-0.017497102350794842 0.029903340998238749 0.02940213171299547 -0.0033185238891746851 0.022076537513307161 0.0021506969012658706 0.0040395499528225126 -0.026713793948292732 0.040286114173276079 0.0064899743957953018 -0.023612856218623444 -0.021534146250862824 -0.0025170373264700174 -0.0097811803221702579
leaf_count=28 21 20 24 21 22 29 20 21 33 29 38 20 22
internal_value=0 -0.0295665 0.00576627 -0.0264791 0.030332 -0.0719658 0.0809735 0.0473785 0.130886 -0.0961531 -0.105315 -0.0750361 -0.0254349
internal_count=348 253 138 118 65 115 95 74 54 53 86 48 44
shrinkage=0.15


Tree=13
num_leaves=14
num_cat=0
split_feature=7 6 3 3 1 1 3 1 6 4 7 7 1
split_gain=0.646764 0.785738 0.349475 0.862331 0.562843 0.538498 0.776239 0.3549 0.337069 0.301432 0.267165 0.140159 0.111053
threshold=0.12704408618200005 0.64420118949950012 0.42026743265950012 0.33991010430400009 0.23856502839250002 0.46264718087000006 0.20391411220000003 0.37700744384750001 0.14835164835150003 0.5204240204245002 0.34137086657800003 0.25651930136400009 0.12135316165300002
decision_type=2 2 2 2 2 2 2 2 2 2 2 2 2
left_child=12 2 3 5 -5 6 10 -4 -8 -3 11 -2 -1
right_child=1 9 7 4 -6 -7 8 -9 -10 -11 -12 -13 -14
leaf_value=-0.010037261690944434 0.0058655994571745395 0.033438649560723982 0.0010973031832171337 0.0016704695066437124 0.035430769801139829 0.014725944828242063 -0.011276848847046493 -0.022383802011609076 -0.034843741077929737 0.0098413426172116718 0.017684186635805028 -0.011680040907646927 -0.025033334555919284
leaf_count=25 20 21 28 20 25 30 36 30 22 29 21 21 20
internal_value=0 0.017132 -0.00550626 0.0147633 0.136175 -0.0216601 -0.0516183 -0.073654 -0.134773 0.131681 0.0261719 -0.0208079 -0.111348
internal_count=348 303 253 195 45 150 120 58 58 50 62 41 45
shrinkage=0.15


Tree=14
num_leaves=14
num_cat=0
split_feature=7 2 2 1 6 7 5 3 0 3 2 7 1
split_gain=0.467287 0.601211 0.55752 0.617899 0.417331 0.248828 0.24879 0.330535 0.28093 0.194405 0.166812 0.161366 0.0802357
threshold=0.12704408618200005 0.80065310547250002 0.47141528942950006 0.46264718087000006 0.33908045977000006 0.36659974028000009 0.23406722994000004 0.34349088612900008 0.14143481120350004 0.071128841607550009 0.56358893088500006 0.34022174315250009 0.12135316165300002
decision_type=2 2 2 2 2 2 2 2 2 2 2 2 2
left_child=12 2 3 4 6 -6 7 9 -9 -2 -4 -11 -1
right_child=1 -3 10 -5 5 -7 -8 8 -10 11 -12 -13 -14
leaf_value=-0.0085316727999597778 0.0053632007539272308 0.020673473966973169 -0.02625095682218671 0.020377139762245318 0.024225621297955514 0.0019711202440353538 -0.0194422654976899 -0.0034927945118397473 0.021648674486204979 -0.0054538734612594314 -0.0068775792047381405 -0.020970809777034444 -0.021278334287926557
leaf_count=25 20 35 20 37 20 26 22 20 20 38 20 25 20
internal_value=0 0.0145622 -0.00153534 0.0175687 -0.00534395 0.0776466 -0.031672 -0.0141537 0.0605196 -0.0501408 -0.110428 -0.0774093 -0.0946457
internal_count=348 303 268 228 191 46 145 123 40 83 40 63 45
shrinkage=0.15


Tree=15
num_leaves=13
num_cat=0
split_feature=7 5 1 1 1 3 6 5 1 4 3 2
split_gain=0.682665 0.246158 0.333018 0.500771 0.616753 0.28827 0.321623 0.359997 0.255876 0.18088 0.145571 0.0562401
threshold=0.5294014511170001 0.85282651072150018 0.58725207933450008 0.45561918396550005 0.39159165513350008 0.52382964122100006 0.33908045977000006 0.15258620689650002 0.18686309056250003 0.4029823604290001 0.28785858576650003 0.034351017212450007
decision_type=2 2 2 2 2 2 2 2 2 2 2 2
left_child=1 2 3 4 5 6 7 8 10 -2 11 -1
right_child=9 -3 -4 -5 -6 -7 -8 -9 -10 -11 -12 -13
leaf_value=-0.00085422206248040309 0.026438441074320248 0.01051278395148424 -0.019960620588269726 0.012870487030044101 -0.02795515452325344 0.014156093476340174 0.011528221323438313 -0.026244392863009124 0.0060789028182625772 0.0075547971725463863 -0.019201100584241033 -0.0098943507019430398
leaf_count=32 21 26 29 38 25 20 23 20 36 25 23 30
internal_value=0 -0.0229336 -0.0316963 -0.019794 -0.0389935 -0.0189698 -0.0327922 -0.0506779 -0.030135 0.107837 -0.060062 -0.0348565
internal_count=348 302 276 247 209 184 164 141 121 46 85 62
shrinkage=0.15


Tree=16
num_leaves=15
num_cat=0
split_feature=7 5 4 7 2 2 2 0 1 7 4 1 1 2
split_gain=0.556745 0.254067 0.882971 0.346266 0.399647 0.3541 0.417426 0.39789 0.311372 0.20286 0.170586 0.686732 0.145784 0.0333376
threshold=0.68115942029000009 0.85282651072150018 0.52526862138050012 0.39927024821150009 0.20805866133600004 0.35967214135450004 0.45501789500100004 0.2864489150090001 0.47029823959250006 0.26444250302000011 0.22198130589100004 0.047945070920599998 0.15105230431050004 0.00087224441450300006
decision_type=2 2 2 2 2 2 2 2 2 2 2 2 2 2
left_child=1 2 3 5 -5 7 -7 10 -8 -9 11 13 -12 -1
right_child=-2 -3 -4 4 -6 6 8 9 -10 -11 12 -13 -14 -15
leaf_value=-0.0061728955296400405 0.022955116895692688 0.010454315197421238 -0.033260380104184147 -0.0071883731335401534 0.019683356828648937 -0.028647178423125294 0.0059649090681757238 0.002411542274057865 -0.017589563941178114 0.023775870746467264 -0.0026233103696722535 0.022644823709768908 -0.020318080730397592 -0.014528386167843233
leaf_count=21 21 32 21 20 33 24 28 20 23 20 20 21 22 22
internal_value=0 -0.0149368 -0.0241173 -0.00897132 0.0636205 -0.0263802 -0.0822289 0.00230914 -0.0310513 0.0872914 -0.0297596 0.00273812 -0.07928 -0.069652
internal_count=348 327 295 274 53 221 75 146 51 40 106 64 42 43
shrinkage=0.15


Tree=17
num_leaves=13
num_cat=0
split_feature=7 5 4 3 3 7 3 4 1 1 4 4
split_gain=0.402248 0.188737 0.311398 0.257554 0.445291 0.361725 0.345462 0.288315 0.578539 0.369681 0.31631 0.304199
threshold=0.68115942029000009 0.67048346056000019 0.5204240204245002 0.4124142126030001 0.59278812974500006 0.36659974028000009 0.32707868016200009 0.14443742098600001 0.029638012978250004 0.27169289263650004 0.27839745048950004 0.33990220937650012
decision_type=2 2 2 2 2 2 2 2 2 2 2 2
left_child=1 2 3 5 -5 7 -7 8 -1 10 -9 -11
right_child=-2 -3 -4 4 -6 6 -8 9 -10 11 -12 -13
leaf_value=-0.0073533270965396823 0.019511849672666618 0.0081844545825309045 -0.021251625576987863 -0.021475118763212647 0.0044402504483094579 0.002104531758044946 0.026817441042512654 -0.0081137375621539026 0.026049571707844731 -0.0057937961833720861 0.016774838184937833 -0.0274884397110257
leaf_count=28 21 37 20 35 26 35 20 27 20 33 20 26
internal_value=0 -0.0126963 -0.0212777 -0.0123592 -0.0695282 0.00432653 0.0739403 -0.0205355 0.0437636 -0.0496521 0.0165143 -0.102361
internal_count=348 327 290 270 61 209 55 154 48 106 47 59
shrinkage=0.15


Tree=18
num_leaves=14
num_cat=0
split_feature=7 0 1 2 1 0 6 7 7 0 7 4 3
split_gain=0.305744 0.184798 0.676934 0.816891 0.341277 0.431282 0.21091 0.17761 0.182337 0.174783 0.128696 0.0468764 0.0710553
threshold=0.5294014511170001 0.56321044546850008 0.45561918396550005 0.47141528942950006 0.40661082695100009 0.40295557353750006 0.36038961038950007 0.37514094912400003 0.33744095086200004 0.24829385586500005 0.6419595200885001 0.12896925403250004 0.20391411220000003
decision_type=2 2 2 2 2 2 2 2 2 2 2 2 2
left_child=1 2 4 -4 5 6 7 8 9 11 -2 -1 -13
right_child=10 -3 3 -5 -6 -7 -8 -9 -10 -11 -12 12 -14
leaf_value=-0.0078707611304707822 0.019918072242289784 -0.012035671699988214 0.030558132007718085 -0.0080152918185506551 -0.022719442545037185 0.017183407128058291 0.0093330648494884365 -0.018337516236799554 0.0080368006734975739 -0.017412004130892455 0.0039132573713476842 -0.0059746496986759741 0.0062502341705840073
leaf_count=32 20 38 30 21 21 22 20 26 21 28 26 23 20
internal_value=0 -0.0150366 -0.00565163 0.097833 -0.0304297 -0.0171916 -0.0342413 -0.0471029 -0.0313462 -0.048661 0.0724792 -0.0234913 -0.00192438
internal_count=348 302 264 51 213 192 170 150 124 103 46 75 43
shrinkage=0.15


Tree=19
num_leaves=13
num_cat=0
split_feature=7 2 2 2 2 3 1 0 7 4 1 3
split_gain=0.268465 0.161255 0.299721 0.23464 0.306849 0.67025 0.496813 0.251526 0.389642 0.234881 0.248156 0.138687
threshold=0.68115942029000009 0.011273127967800002 0.04059431603340001 0.090651186148900012 0.27482932897150009 0.61980831092150013 0.15105230431050004 0.21311884090300001 0.22109175891350005 0.39717577678300003 0.4102672478305 0.26795079613550005
decision_type=2 2 2 2 2 2 2 2 2 2 2 2
left_child=1 11 -3 -4 6 7 -5 -6 -9 10 -10 -1
right_child=-2 2 3 4 5 -7 -8 8 9 -11 -12 -13
leaf_value=-0.0027025300031527878 0.015998083486088683 0.015951174218207596 -0.01677220357648496 -0.0078871342968195677 0.0073058001676817299 0.022166982293128967 0.019200762429346256 -0.02787850722670555 -0.0028372494722990428 0.0032802500475484588 -0.021725229036608906 -0.018596213909664323
leaf_count=30 21 24 21 25 23 20 39 22 34 39 29 21
internal_value=0 -0.00998686 -0.000441043 -0.0106108 -0.00141042 -0.023973 0.0574637 -0.0473407 -0.0651557 -0.0391221 -0.0768781 -0.0616466
internal_count=348 327 276 252 231 167 64 147 124 102 63 51
shrinkage=0.15



feature importances:
Column_7=50
Column_4=41
Column_3=39
Column_1=33
Column_2=32
Column_0=25
Column_5=18
Column_6=17

pandas_categorical:null
