tree
version=v2
num_class=1
num_tree_per_iteration=1
label_index=0
max_feature_idx=5
objective=regression
feature_names=Column_0 Column_1 Column_2 Column_3 Column_4 Column_5
feature_infos=[0:1] [0:1] [0:1] [0:1] [0:0.99985439013699995] [0:1]
tree_sizes=777 791 958 881 958 959 885 882 883 885 962 886 878 885 958 949 948 805 955 961

Tree=0
num_leaves=9
num_cat=0
split_feature=3 2 2 3 5 4 5 2
split_gain=20.3755 1.3056 0.772621 0.640134 0.845574 0.602083 0.136364 0.10688
threshold=0.72474747474750012 0.36679867454100001 0.55569827738300004 0.11651583710450002 0.25123274161750003 0.36813921692950008 0.30968910733850002 0.18145652904750001
decision_type=2 2 2 2 2 2 2 2
left_child=1 5 -2 4 -3 6 7 -1
right_child=2 3 -4 -5 -6 -7 -8 -9
leaf_value=0.31666666616996125 0.36225490282271422 0.32760416649592417 0.35151515205701189 0.32318840549475902 0.33974358993463027 0.32833333318432173 0.32291666635622579 0.32072072034483556
leaf_count=29 34 32 33 23 26 30 32 37
internal_value=0 -0.161085 0.472637 -0.0617284 -0.00574713 -0.223958 -0.261905 -0.287879
internal_count=276 209 67 81 58 128 98 66
shrinkage=1


Tree=1
num_leaves=9
num_cat=0
split_feature=3 2 2 3 5 4 5 2
split_gain=18.3889 1.17831 0.69729 0.577721 0.76313 0.54338 0.123068 0.0964588
threshold=0.72474747474750012 0.36679867454100001 0.55569827738300004 0.11651583710450002 0.25123274161750003 0.36813921692950008 0.30968910733850002 0.18145652904750001
decision_type=2 2 2 2 2 2 2 2
left_child=1 5 -2 4 -3 6 7 -1
right_child=2 3 -4 -5 -6 -7 -8 -9
leaf_value=-0.015833333134651184 0.02747548941303702 -0.0054427087306976318 0.01727272660443277 -0.0096376807793327 0.0060897431694544278 -0.0047500003874301911 -0.0098958330228924758 -0.011981982556549279
leaf_count=29 34 32 33 23 26 30 32 37
internal_value=0 -0.15303 0.449005 -0.058642 -0.00545978 -0.21276 -0.24881 -0.273485
internal_count=276 209 67 81 58 128 98 66
shrinkage=0.05


Tree=2
num_leaves=11
num_cat=0
split_feature=3 1 0 5 4 0 0 5 5 0
split_gain=16.596 0.946109 0.598004 0.878223 0.430088 0.344322 0.351272 0.150593 0.340378 0.0873325
threshold=0.72474747474750012 0.4444085833280001 0.35941453967100007 0.17837426596000003 0.66767068273100005 0.091468253968250021 0.023590941078650004 0.070719602977650023 0.33946835660550007 0.64610788113650008
decision_type=2 2 2 2 2 2 2 2 2 2
left_child=1 2 5 -4 -2 6 -1 -7 -9 -5
right_child=4 -3 3 9 -6 7 -8 8 -10 -11
leaf_value=-0.011350930668413639 0.025158209034374785 0.0018576068282127383 0.0041436580568552017 -0.011024897769093515 0.017138156387954951 -0.015647120028734206 -0.0027038123944531315 -0.0076904682863143184 -0.016056897416710854 -0.0063523046672344209
leaf_count=24 35 25 20 20 32 26 23 31 20 20
internal_value=0 -0.145379 -0.170179 -0.0882236 0.426555 -0.209835 -0.142387 -0.251005 -0.219428 -0.173772
internal_count=276 209 184 60 67 124 47 77 51 40
shrinkage=0.05


Tree=3
num_leaves=10
num_cat=0
split_feature=3 2 2 3 5 4 5 4 2
split_gain=14.9779 1.02544 0.61312 0.529996 0.694084 0.478754 0.115724 0.0881029 0.0312152
threshold=0.72474747474750012 0.36679867454100001 0.55569827738300004 0.11651583710450002 0.25123274161750003 0.36813921692950008 0.30968910733850002 0.22160320846050002 0.18704140461200003
decision_type=2 2 2 2 2 2 2 2 2
left_child=1 5 -2 4 -3 6 7 8 -1
right_child=2 3 -4 -5 -6 -7 -8 -9 -10
leaf_value=-0.012481889193472656 0.024973540402510586 -0.0048862229567021133 0.015406364202499391 -0.0089254764759022272 0.0061121451166959917 -0.0041647546986738849 -0.0089158787857741128 -0.0098093224316835401 -0.015086866656075355
leaf_count=23 34 32 33 23 26 30 32 20 23
internal_value=0 -0.13811 0.405227 -0.0500566 0.000881599 -0.193831 -0.227669 -0.251596 -0.275688
internal_count=276 209 67 81 58 128 98 66 46
shrinkage=0.05


Tree=4
num_leaves=11
num_cat=0
split_feature=3 2 1 2 3 5 2 2 0 5
split_gain=13.5175 0.925463 0.729652 0.553341 0.478322 0.62641 0.20178 0.383351 0.0767806 0.0313396
threshold=0.72474747474750012 0.36679867454100001 0.081168831168850028 0.55569827738300004 0.11651583710450002 0.25123274161750003 0.24682825984300003 0.18145652904750001 0.12785431959350002 0.14336275816100003
decision_type=2 2 2 2 2 2 2 2 2 2
left_child=1 2 6 -2 5 -3 7 8 -1 -8
right_child=3 4 -4 -5 -6 -7 9 -9 -10 -11
leaf_value=-0.014155029356479646 0.023724864686236663 -0.0046419114340096714 -0.00043454527854919439 0.014636045694351197 -0.0084792029598484871 0.0058065376602686371 -0.011976240575313568 -0.0038728980914406151 -0.0098262731518064233 -0.01465616592516502
leaf_count=20 34 32 20 33 23 26 20 23 21 24
internal_value=0 -0.131204 -0.184139 0.384966 -0.0475538 0.000837522 -0.21663 -0.18079 -0.238757 -0.26876
internal_count=276 209 128 67 81 58 108 64 41 44
shrinkage=0.05


Tree=5
num_leaves=11
num_cat=0
split_feature=3 4 4 5 0 5 0 1 5 4
split_gain=7.77572 1.01307 0.883462 0.753879 0.753284 0.43763 0.201599 0.200598 0.114314 0.105361
threshold=0.76388888888900008 0.30183419521650007 0.66767068273100005 0.36145956607500007 0.27138888888900009 0.33347851335650008 0.25783166578050004 0.081168831168850028 0.092305543918450014 0.078085525672650008
decision_type=2 2 2 2 2 2 2 2 2 2
left_child=1 5 -2 4 -3 6 9 -5 -8 -1
right_child=2 3 -4 7 -6 -7 8 -9 -10 -11
leaf_value=-0.0092632079869508759 0.020879955987135573 0.010037249258973382 0.0092621525956524745 -0.0083571122752295595 -0.0032019728705996557 -0.0021567373172096584 -0.004598482251167298 -0.0022038961832339947 -0.0098214512521570384 -0.013980520490942332
leaf_count=20 30 22 36 27 21 23 20 26 22 29
internal_value=0 -0.102639 0.290859 -0.0269511 0.0714317 -0.166376 -0.197525 -0.106771 -0.146686 -0.241102
internal_count=276 210 66 96 43 114 91 53 42 49
shrinkage=0.05


Tree=6
num_leaves=10
num_cat=0
split_feature=3 2 4 2 5 4 2 2 5
split_gain=7.01759 0.931327 0.914297 0.761543 0.680376 0.542523 0.309539 0.260506 0.000157678
threshold=0.76388888888900008 0.55569827738300004 0.30183419521650007 0.37480498427150005 0.36145956607500007 0.40330020805950006 0.36679867454100001 0.19343923806800004 0.095062776922149997
decision_type=2 2 2 2 2 2 2 2 2
left_child=2 -2 3 7 5 -4 -6 -1 -9
right_child=1 -3 4 -5 6 -7 -8 8 -10
leaf_value=-0.0077068795760472618 0.020735117367335729 0.0087173956005196836 -0.001844159546105758 -0.0021235212683677674 -0.0097885091389928545 0.0094157411158084878 -0.0019761709030717612 -0.013470403254032134 -0.013668946921825409
leaf_count=36 28 38 23 38 21 20 32 20 20
internal_value=0 0.276316 -0.0975072 -0.158058 -0.0256035 0.0678601 -0.101433 -0.215851 -0.271394
internal_count=276 66 210 114 96 43 53 76 40
shrinkage=0.05


Tree=7
num_leaves=10
num_cat=0
split_feature=3 2 2 1 2 2 3 5 5
split_gain=6.33337 0.840522 0.777326 0.66499 0.68045 0.913908 0.611329 0.493347 0.000404482
threshold=0.76388888888900008 0.55569827738300004 0.36679867454100001 0.081168831168850028 0.21990822797300003 0.16869523073250001 0.11651583710450002 0.25123274161750003 0.21958904109600003
decision_type=2 2 2 2 2 2 2 2 2
left_child=2 -2 3 4 5 -1 7 -4 -6
right_child=1 -3 6 -5 8 -7 -8 -9 -10
leaf_value=-0.010004044871996432 0.019698361307382586 0.0082815263616411311 -0.0023268265649676323 0.00071919038891792302 -0.013069033181225813 0.0034658300131559373 -0.0072104499847800638 0.0068504794328301047 -0.013361615971440361
leaf_count=34 28 38 32 22 27 20 27 27 21
internal_value=0 0.262501 -0.0926318 -0.143299 -0.17731 -0.100304 -0.0195762 0.0374592 -0.263941
internal_count=276 66 210 124 102 54 86 59 48
shrinkage=0.05


Tree=8
num_leaves=10
num_cat=0
split_feature=3 4 2 2 5 0 2 2 5
split_gain=5.71587 0.790144 0.758571 0.6253 0.622997 0.679437 0.256449 0.220642 0.000325639
threshold=0.76388888888900008 0.30183419521650007 0.55569827738300004 0.37480498427150005 0.36145956607500007 0.27138888888900009 0.36679867454100001 0.19343923806800004 0.095062776922149997
decision_type=2 2 2 2 2 2 2 2 2
left_child=1 3 -2 7 5 -3 -6 -1 -9
right_child=2 4 -4 -5 6 -7 -8 8 -10
leaf_value=-0.0069931558850738736 0.018713443566645897 0.0095545257357033814 0.0078674500317950005 -0.0019775534930982089 -0.0089792453816958853 -0.003019018258367266 -0.0018683627247810366 -0.012246095165610314 -0.012531419098377228
leaf_count=36 28 22 38 38 21 21 32 20 20
internal_value=0 -0.0880002 0.249376 -0.14429 -0.0211566 0.0682792 -0.0937176 -0.196659 -0.247775
internal_count=276 210 66 114 96 43 53 76 40
shrinkage=0.05


Tree=9
num_leaves=10
num_cat=0
split_feature=3 2 2 1 2 2 3 2 5
split_gain=5.15857 0.684611 0.64144 0.58056 0.587839 0.805654 0.553103 0.452654 0.000660676
threshold=0.76388888888900008 0.55569827738300004 0.36679867454100001 0.081168831168850028 0.21990822797300003 0.16869523073250001 0.11651583710450002 0.55569827738300004 0.21958904109600003
decision_type=2 2 2 2 2 2 2 2 2
left_child=2 -2 3 4 5 -1 7 -4 -6
right_child=1 -3 6 -5 8 -7 -8 -9 -10
leaf_value=-0.0091756046475733027 0.017777771396296365 0.0074740772576708542 -0.0014049748448949112 0.00088534389029849662 -0.011932639391333969 0.0034713716059923171 -0.0067892817435441198 0.0077420054447083254 -0.012306572106622515
leaf_count=34 28 38 38 22 27 20 27 21 21
internal_value=0 0.236907 -0.0836002 -0.129627 -0.161404 -0.0898308 -0.0172366 0.0370146 -0.241925
internal_count=276 66 210 124 102 54 86 59 48
shrinkage=0.05


Tree=10
num_leaves=11
num_cat=0
split_feature=3 2 4 3 2 0 0 0 4 2
split_gain=6.36904 1.0765 0.380524 0.773689 0.435733 0.803972 0.39168 0.229264 0.129383 0.0846736
threshold=0.76388888888900008 0.55569827738300004 0.22160320846050002 1.0000000180025095e-35 0.23233745421250002 0.21616359830650003 0.35941453967100007 0.33504736644850003 0.76545659331150007 0.19343923806800004
decision_type=2 2 2 2 2 2 2 2 2 2
left_child=2 -2 6 4 -4 -6 9 -5 -3 -1
right_child=1 8 3 7 5 -7 -8 -9 -10 -11
leaf_value=-0.0075205860516199697 0.019081574678421021 0.0039341222494840627 0.0062476777657866486 -0.012080543793060563 0.0054965992271900181 -0.0072078712736115312 -0.0024795784442513077 -0.0046838681027293206 0.0096214479953050623 -0.011265155714419155
leaf_count=26 32 20 20 22 20 33 27 20 20 36
internal_value=0 0.244923 -0.101025 -0.0630302 -0.000814853 -0.0482746 -0.150119 -0.171166 0.135556 -0.193897
internal_count=276 72 204 115 73 53 89 42 40 62
shrinkage=0.05


Tree=11
num_leaves=10
num_cat=0
split_feature=3 2 4 3 4 0 0 4 4
split_gain=5.74806 0.971544 0.343423 0.705534 0.412167 0.353491 0.16419 0.116768 0.082761
threshold=0.76388888888900008 0.55569827738300004 0.22160320846050002 0.060661764705900005 0.38108280254800003 0.35941453967100007 0.22228997289950003 0.76545659331150007 0.11813953488350001
decision_type=2 2 2 2 2 2 2 2 2
left_child=2 -2 5 4 6 8 -4 -3 -1
right_child=1 7 3 -5 -6 -7 -8 -9 -10
leaf_value=-0.0076576424555646052 0.018127495516091587 0.0037374171614646917 -0.00048005764301006608 -0.0086801920186828918 0.0043008707712093993 -0.0023555996517340347 -0.0063490860502828251 0.0091403759270906448 -0.011359679899536648
leaf_count=36 32 20 26 37 30 27 22 20 26
internal_value=0 0.232677 -0.0959736 -0.0598787 -0.00593212 -0.142613 -0.0634006 0.128778 -0.184202
internal_count=276 72 204 115 78 89 48 40 62
shrinkage=0.05


Tree=12
num_leaves=10
num_cat=0
split_feature=3 2 5 4 5 2 5 5 4
split_gain=5.18762 0.876818 0.402406 0.310002 0.877365 0.612875 0.452248 0.33591 0.22732
threshold=0.76388888888900008 0.55569827738300004 0.69565686031700014 0.42888601296200007 0.38684735616900007 0.16398809523850003 0.41185466252700004 0.14336275816100003 0.22160320846050002
decision_type=2 2 2 2 2 2 2 2 2
left_child=3 -2 -3 5 -5 -1 7 8 -7
right_child=1 2 -4 4 -6 6 -8 -9 -10
leaf_value=-0.011135007990034003 0.017221121490001681 0.0011019390076398849 0.011131963804364205 0.0069106849282979978 -0.0071394821107387541 -0.0053223536398849993 0.0022893016847471397 -0.009042843490054733 0.001159717178060895
leaf_count=38 32 20 20 20 25 38 24 38 21
internal_value=0 0.221043 0.122339 -0.0911749 -0.0178993 -0.111913 -0.0771207 -0.107531 -0.0603035
internal_count=276 72 40 204 45 159 121 97 59
shrinkage=0.05


Tree=13
num_leaves=10
num_cat=0
split_feature=1 4 1 2 2 2 2 0 4
split_gain=3.19932 0.839621 0.764567 0.638213 0.504079 0.251624 0.312915 0.230838 0.00710668
threshold=0.96737400530500006 0.42888601296200007 0.25543478260850006 0.17496160002450004 0.55569827738300004 0.25440894638000006 0.36679867454100001 0.35941453967100007 0.13721552878200002
decision_type=2 2 2 2 2 2 2 2 2
left_child=1 3 -3 8 -2 -5 -7 -8 -1
right_child=4 2 -4 5 -6 6 7 -9 -10
leaf_value=-0.0099519162997603414 0.015685570550461613 0.006458980134791798 -0.0044500023126602178 0.0009362849372404593 0.0060996734537184238 -0.0082505717447825845 -0.0050479479382435485 0.0016099514196748319 -0.01128483396023512
leaf_count=20 24 36 29 27 32 35 30 23 20
internal_value=0 -0.0635602 0.0318379 -0.103566 0.204158 -0.0657217 -0.0916317 -0.0431734 -0.212368
internal_count=276 220 65 155 56 115 88 53 40
shrinkage=0.05


Tree=14
num_leaves=11
num_cat=0
split_feature=3 2 5 3 2 2 2 2 2 5
split_gain=4.40923 0.7695 0.364395 0.283009 0.643351 0.341709 0.497382 0.491367 0.690077 0.0195651
threshold=0.76388888888900008 0.55569827738300004 0.69565686031700014 0.11651583710450002 0.52433561808600004 0.39622229354650002 0.32912883060950004 0.25440894638000006 0.12779752501300004 0.12639553429000003
decision_type=2 2 2 2 2 2 2 2 2 2
left_child=3 -2 -3 4 5 6 7 8 -1 -10
right_child=1 2 -4 -5 -6 -7 -8 -9 9 -11
leaf_value=-0.008557054809024257 0.015977870812639596 0.00080313630402088169 0.010347707495093346 -0.0080857860610673311 0.0040899407267570497 -0.010188319177731225 0.0032547308640046555 -0.011108663320541383 0.0002760045975446701 0.0024876268953084946
leaf_count=31 32 20 20 38 25 23 22 25 20 20
internal_value=0 0.203975 0.111508 -0.0838678 -0.0660472 -0.092261 -0.0705269 -0.101607 -0.0591538 0.0276363
internal_count=276 72 40 204 166 141 118 96 71 40
shrinkage=0.05


Tree=15
num_leaves=11
num_cat=0
split_feature=3 0 2 2 2 5 2 2 5 5
split_gain=3.74646 1.0393 0.403099 0.36642 0.642077 0.521548 0.423384 0.233738 0.022366 0.00600029
threshold=0.3396226415095 0.53302568224850011 0.69861371878250011 0.36679867454100001 0.25440894638000006 0.25123274161750003 0.16398809523850003 0.355606937028 0.13215824579500002 0.16058634848800005
decision_type=2 2 2 2 2 2 2 2 2 2
left_child=3 7 -3 4 6 -5 -1 -2 -8 -6
right_child=1 2 -4 5 9 -7 8 -9 -10 -11
leaf_value=-0.0064636542216727618 0.010889861211180688 0.00075562304871923782 0.0095662790040175125 -0.0044163454827424644 -0.0098634340614080426 0.0048242499335454068 -0.00027605600655078888 0.018534107170999053 0.0020885802805423737 -0.011088208854198457
leaf_count=38 20 34 21 37 20 26 20 20 20 20
internal_value=0 0.171592 0.0823938 -0.0736327 -0.106509 -0.0120553 -0.0536842 0.29424 0.0181252 -0.209516
internal_count=276 95 55 181 118 63 78 40 40 40
shrinkage=0.05


Tree=16
num_leaves=11
num_cat=0
split_feature=3 4 4 5 2 2 5 2 5 2
split_gain=3.38118 0.935685 0.541124 0.531702 0.508106 0.699852 0.443049 0.21806 0.209125 0.11068
threshold=0.3396226415095 0.45683553734400006 0.30183419521650007 0.16058634848800005 0.51047315608700006 0.71683008078800003 0.30968910733850002 0.355606937028 0.011749556423000003 0.33276384126400005
decision_type=2 2 2 2 2 2 2 2 2 2
left_child=2 -2 6 -4 -3 -6 8 -5 -1 -10
right_child=1 4 3 7 5 -7 -8 -9 9 -11
leaf_value=-0.0046211048534938268 0.016685489378869534 0.010507312363811902 0.0066015555745079406 -0.00567765921868127 -0.0046765177732422244 0.0080845299092206085 -0.00035678102024670305 0.0011087862402200698 -0.0074499926865100865 -0.012312630360776728
leaf_count=35 24 28 21 29 21 22 29 20 25 22
internal_value=0 0.163012 -0.069951 -0.00109821 0.105312 0.0370478 -0.113372 -0.0581536 -0.150943 -0.194522
internal_count=276 95 181 70 71 43 111 49 82 47
shrinkage=0.05


Tree=17
num_leaves=9
num_cat=0
split_feature=3 0 4 0 5 5 5 0
split_gain=3.05152 0.892589 0.488365 0.829921 0.399851 0.310536 0.188735 0.0591395
threshold=0.3396226415095 0.46810445796950007 0.30183419521650007 0.22228997289950003 0.30968910733850002 0.76952755926950012 0.011749556423000003 0.26714237510250011
decision_type=2 2 2 2 2 2 2 2
left_child=2 -2 4 -4 6 -3 -1 -8
right_child=1 5 3 -5 -6 -7 7 -9
leaf_value=-0.0043900496831962036 0.014088735218558994 0.00032241560261825038 0.0060543145864240585 -0.0049060326356154225 -0.00033894188959023052 0.0075205813973180718 -0.0072663155694802604 -0.010833795168078864
leaf_count=35 35 29 31 39 29 31 21 26
internal_value=0 0.154862 -0.0664535 -0.00104329 -0.107703 0.0808294 -0.143396 -0.184796
internal_count=276 95 181 70 111 60 82 47
shrinkage=0.05


Tree=18
num_leaves=11
num_cat=0
split_feature=3 2 2 1 2 2 5 2 5 5
split_gain=2.754 0.807972 0.621145 0.333728 0.333648 0.564059 0.416289 0.360342 0.0206901 0.00749743
threshold=0.3396226415095 0.55569827738300004 0.71683008078800003 0.68576868158000004 0.36679867454100001 0.25440894638000006 0.25123274161750003 0.16398809523850003 0.13215824579500002 0.16058634848800005
decision_type=2 2 2 2 2 2 2 2 2 2
left_child=4 3 -3 -2 5 7 -6 -1 -9 -7
right_child=1 2 -4 -5 6 9 -8 8 -10 -11
leaf_value=-0.0057362762132757593 0.0071762479517770844 -0.0038256396140371055 0.0080681255330210151 0.015304712631872722 -0.0036256649204202602 -0.0088679246231913571 0.0046299642095199 -7.4315667152404795e-05 0.0022000035643577574 -0.010236996561288833
leaf_count=38 23 21 23 28 37 20 26 20 20 20
internal_value=0 0.147119 0.0478311 0.232779 -0.0631308 -0.0945022 -0.0043716 -0.044991 0.0212569 -0.191049
internal_count=276 95 44 51 181 118 63 78 40 40
shrinkage=0.05


Tree=19
num_leaves=11
num_cat=0
split_feature=3 4 4 0 5 5 5 5 0 5
split_gain=2.48548 0.788769 0.432446 0.400112 0.413003 0.321856 0.381574 0.157887 0.138845 0.130545
threshold=0.3396226415095 0.45683553734400006 0.38108280254800003 0.53302568224850011 0.76952755926950012 0.30968910733850002 0.47552827667450009 0.043660344661600008 0.26714237510250011 0.0032775281407000007
decision_type=2 2 2 2 2 2 2 2 2 2
left_child=2 -2 5 -3 -5 7 -7 9 -9 -1
right_child=1 3 -4 4 -6 6 -8 8 -10 -11
leaf_value=-0.005939067617572587 0.014824362689008316 0.0099409563297575172 0.0019928811703409468 -0.0028607955202460292 0.0063218704462051399 0.0032607024678817163 -0.0058010511455081765 -0.0050471559477349125 -0.010321010907108968 -0.00068815264850854876
leaf_count=29 24 22 35 24 25 26 21 24 26 20
internal_value=0 0.139763 -0.0599743 0.0867856 0.0364848 -0.0839066 -0.0157633 -0.116257 -0.155791 -0.0759167
internal_count=276 95 181 71 49 146 47 99 50 49
shrinkage=0.05



feature importances:
Column_2=60
Column_5=44
Column_3=28
Column_4=26
Column_0=20
Column_1=8

pandas_categorical:null
