tree
version=v2
num_class=1
num_tree_per_iteration=1
label_index=0
max_feature_idx=5
objective=regression
feature_names=Column_0 Column_1 Column_2 Column_3 Column_4 Column_5
feature_infos=[0:1] [0:1] [0:1] [0:1] [0:0.99985439013699995] [0:1]
tree_sizes=778 802 879 800 803 886

Tree=0
num_leaves=9
num_cat=0
split_feature=3 2 2 2 2 0 4 2
split_gain=11.8237 1.3618 0.746884 0.819197 0.964696 0.86137 0.436364 0.18172
threshold=0.86607142857150021 0.13216740439300004 0.56413179651350009 0.24925755248350004 0.36360513634200003 0.3577293715385001 0.33274440518250004 0.30187219423600004
decision_type=2 2 2 2 2 2 2 2
left_child=1 -1 3 6 7 -6 -3 -5
right_child=-2 2 -4 4 5 -7 -8 -9
leaf_value=0.31839080415237908 0.36060606141885121 0.33030303021272023 0.33916666684051355 0.32536231860302495 0.32528735608205028 0.33782051295424115 0.33939393957455949 0.31960784272820342
leaf_count=29 33 33 20 23 29 26 22 34
internal_value=0 -0.0972222 -0.0659537 -0.0878244 -0.136905 -0.0424242 0.0121212 -0.22807
internal_count=249 216 187 167 112 55 55 57
shrinkage=1


Tree=1
num_leaves=9
num_cat=0
split_feature=3 2 2 2 2 0 4 2
split_gain=10.6709 1.22902 0.674063 0.739325 0.870638 0.777386 0.393818 0.164003
threshold=0.86607142857150021 0.13216740439300004 0.56413179651350009 0.24925755248350004 0.36360513634200003 0.3577293715385001 0.33274440518250004 0.30187219423600004
decision_type=2 2 2 2 2 2 2 2
left_child=1 -1 3 6 7 -6 -3 -5
right_child=-2 2 -4 4 5 -7 -8 -9
leaf_value=-0.014195402840088155 0.025909090222734396 -0.0028787881135940553 0.0055416671186685569 -0.0075724640618199893 -0.0076436774484042458 0.0042628205166413231 0.0057575762271881107 -0.013039216223885031
leaf_count=29 33 33 20 23 29 26 22 34
internal_value=0 -0.0923611 -0.062656 -0.0834331 -0.13006 -0.040303 0.0115152 -0.216667
internal_count=249 216 187 167 112 55 55 57
shrinkage=0.05


Tree=2
num_leaves=10
num_cat=0
split_feature=3 4 5 0 0 5 1 4 5
split_gain=9.63048 0.889287 1.39944 0.937637 0.857072 0.58093 0.503775 0.247227 0.209009
threshold=0.86607142857150021 0.34196558274650007 0.10237466738205002 0.033923392120250008 0.39865086328250005 0.38852908207750009 0.01422840784965 0.23524458700900003 0.11260740071400001
decision_type=2 2 2 2 2 2 2 2 2
left_child=1 3 -3 -1 -4 6 7 8 -5
right_child=-2 2 4 5 -6 -7 -8 -9 -10
leaf_value=-0.015677462766567864 0.024613636912721577 0.010658789561553436 -0.010515865021281774 -0.0055033296798214773 0.002618768422499947 0.0027021618826048718 -0.01354236088693142 -0.0091612518511035232 0.00062902849167585379
leaf_count=24 33 22 27 33 23 21 20 22 24
internal_value=0 -0.0877431 0.00299908 -0.133114 -0.0894787 -0.0970271 -0.129072 -0.0931799 -0.0584257
internal_count=249 216 72 144 50 120 99 79 57
shrinkage=0.05


Tree=3
num_leaves=9
num_cat=0
split_feature=3 2 2 2 2 0 4 2
split_gain=8.69151 1.05874 0.585723 0.650667 0.763909 0.655479 0.334225 0.152161
threshold=0.86607142857150021 0.13216740439300004 0.56413179651350009 0.24925755248350004 0.36360513634200003 0.3577293715385001 0.33274440518250004 0.30187219423600004
decision_type=2 2 2 2 2 2 2 2
left_child=1 -1 3 6 7 -6 -3 -5
right_child=-2 2 -4 4 5 -7 -8 -9
leaf_value=-0.013056917128891782 0.023382955789566041 -0.0024864442420728279 0.005296821519732476 -0.0068600484858388489 -0.006909372066629344 0.0040237720196063705 0.00546970238739794 -0.012125751332325095
leaf_count=29 33 33 20 23 29 26 22 34
internal_value=0 -0.0833559 -0.0557854 -0.0751532 -0.118895 -0.0348195 0.0139203 -0.20002
internal_count=249 216 187 167 112 55 55 57
shrinkage=0.05


Tree=4
num_leaves=9
num_cat=0
split_feature=3 2 2 2 2 0 5 5
split_gain=7.84409 0.95551 0.528615 0.587227 0.689428 0.59157 0.326845 0.140328
threshold=0.86607142857150021 0.13216740439300004 0.56413179651350009 0.24925755248350004 0.36360513634200003 0.3577293715385001 0.10237466738205002 0.11756808592250002
decision_type=2 2 2 2 2 2 2 2
left_child=1 -1 3 6 7 -6 -3 -5
right_child=-2 2 -4 4 5 -7 -8 -9
leaf_value=-0.012404070897348997 0.022213807702064516 0.0057601398974657068 0.0050319802016019826 -0.0065918562933802612 -0.0065639035455111799 0.0038225836478746854 -0.0022524588022913255 -0.011616644805127925
leaf_count=29 33 20 20 24 29 26 35 33
internal_value=0 -0.0791881 -0.0529961 -0.0713956 -0.11295 -0.0330786 0.0132243 -0.190019
internal_count=249 216 187 167 112 55 55 57
shrinkage=0.05


Tree=5
num_leaves=10
num_cat=0
split_feature=3 0 4 0 0 0 0 4 4
split_gain=7.35729 0.706793 0.480464 0.427289 0.389347 0.300601 0.21697 0.364877 0.207611
threshold=0.76388888888900008 0.3577293715385001 0.35661781851450008 0.18158430426450003 0.083225108225100014 0.014693185322250002 0.49829541569350005 0.34196558274650007 0.20899289948500002
decision_type=2 2 2 2 2 2 2 2 2
left_child=1 2 3 4 5 -1 -3 -8 -5
right_child=-2 6 -4 8 -6 -7 7 -9 -10
leaf_value=-0.011518210247159004 0.019779067721806074 0.0038397997021675113 -0.00077082370266769867 -7.0086345076560974e-05 -0.014952837102688278 -0.002953115176586878 -0.0066732650711422876 0.0027632319927215578 -0.0069047353267669689
leaf_count=20 38 25 33 20 26 21 21 20 25
internal_value=0 -0.0824161 -0.121464 -0.15271 -0.203329 -0.142624 0.00337002 -0.0414019 -0.0773423
internal_count=249 211 145 112 67 41 66 41 45
shrinkage=0.05



feature importances:
Column_2=19
Column_0=11
Column_4=8
Column_3=6
Column_5=5
Column_1=1

pandas_categorical:null
