tree
version=v2
num_class=1
num_tree_per_iteration=1
label_index=0
max_feature_idx=10
objective=regression
feature_names=Column_0 Column_1 Column_2 Column_3 Column_4 Column_5 Column_6 Column_7 Column_8 Column_9 Column_10
feature_infos=[0:1] [0:1] [-13.448183182799999:14.448183182799999] [0:1] [0.0032178035420399997:0.95020154030199999] [0:1] [0:1] [0:1] [0:1] [0.0297307358623:0.87502660366899998] 1:0:5:3:2:-1
tree_sizes=1146 1328 1406 1334 1477 1334 1407 1412 1339 1423 1416 1419 1507 1422 1505 1425 1500 1347 1358 1429

Tree=0
num_leaves=14
num_cat=0
split_feature=9 8 0 7 7 1 0 6 9 0 1 6 2
split_gain=23.6082 4.31898 1.95397 1.83992 1.47997 1.38626 1.21528 0.638373 1.07368 1.23526 0.387879 0.240987 0.0324561
threshold=0.33327874262450008 0.43769793884000002 0.32991214514650008 0.31533929355000007 0.48848817390950011 0.27269991856850001 0.37323184103050006 0.33360258481400001 0.2976091065075 0.31908373907700005 0.41623947653600007 0.12895384441750005 0.26489373056700005
decision_type=2 2 2 2 2 2 2 2 2 2 2 2 2
left_child=4 3 -3 5 7 -2 -5 8 11 -10 -4 12 -1
right_child=1 2 10 6 -6 -7 -8 -9 9 -11 -12 -13 -14
leaf_value=0.32276765289247578 0.33205336759329385 0.37161380892222284 0.39554543392367375 0.36498987700217844 0.35012059529171813 0.36392150088604225 0.39276765602171965 0.31776765266895834 0.32829396892899504 0.35569868884736638 0.41170705080777048 0.33205336759329385 0.31776765266895834
leaf_count=20 21 26 27 36 34 39 28 50 38 29 33 21 37
internal_value=0 0.242163 0.414367 0.122731 -0.222071 -0.00307517 0.240675 -0.255639 -0.222041 -0.129195 0.513592 -0.301793 -0.335531
internal_count=439 210 86 124 229 60 64 195 145 67 60 78 57
shrinkage=1


Tree=1
num_leaves=16
num_cat=0
split_feature=9 7 7 8 0 5 4 1 6 6 9 2 5 4 0
split_gain=19.3658 2.70787 2.16864 2.00581 1.37186 1.39486 0.853951 0.881271 1.2334 1.19315 0.73844 0.400338 0.356159 0.269581 0.00475756
threshold=0.33818253323800007 0.31533929355000007 0.54563139471500011 0.35115954664300003 0.48757817307850004 0.42608445520450006 0.31001008447800005 0.11324786324800001 0.28609926557650006 0.17146117023100005 0.2976091065075 0.34778463670300003 0.040873148457550003 0.35641709594550003 0.31623549525550004
decision_type=2 2 2 2 2 2 2 2 2 2 2 2 2 2 2
left_child=2 3 6 -2 5 -3 12 -8 9 10 -9 -10 -1 -6 -14
right_child=1 4 -4 -5 13 -7 7 8 11 -11 -12 -13 14 -15 -16
leaf_value=-0.020220941606476028 -0.0094548939183362584 0.040615808846517797 0.0076829784266597778 0.025029131820909822 0.055507536562892826 0.012152754613715393 -0.032296671730506273 -0.02706962253257069 -0.032511017762840599 0.015643756324704827 -0.0010522590486048515 -0.013844407258099423 -0.032524173552796694 0.039787629243547153 -0.034367609536165133
leaf_count=32 31 33 30 37 24 36 27 20 27 22 24 20 28 20 28
internal_value=0 0.250759 -0.17592 0.0930847 0.345642 0.257655 -0.209176 -0.160656 -0.121873 -0.0337097 -0.128783 -0.245678 -0.286368 0.483621 -0.334459
internal_count=439 181 258 68 113 69 228 140 113 66 44 47 88 44 56
shrinkage=0.1


Tree=2
num_leaves=17
num_cat=0
split_feature=9 8 1 0 8 0 9 6 7 8 1 2 7 4 3 4
split_gain=15.8447 3.29009 1.51142 1.45391 1.41205 1.03481 1.03411 0.864151 0.751741 0.592867 0.270951 0.25826 0.0745638 0.0976036 0.14309 0.000809488
threshold=0.33062984860150008 0.43769793884000002 0.32291572822800002 0.32991214514650008 0.32560636646800006 0.37323184103050006 0.2976091065075 0.41671291226700008 0.27951388888900003 0.36579630727100004 0.41623947653600007 0.47212976081200003 0.40081128747800004 0.33327723549850002 0.23461758374100003 0.24011803842250001
decision_type=2 2 2 2 2 2 2 2 2 2 2 2 2 2 2 2
left_child=5 2 8 -3 -4 9 -7 -6 -2 11 -5 12 13 15 -15 -1
right_child=1 3 4 10 7 6 -8 -9 -10 -11 -12 -13 -14 14 -16 -17
leaf_value=-0.029478472552872781 -0.014951810022028984 0.01434008305625397 0.0024825564685171889 0.035221817510541417 0.043699911110490527 -0.022638851145488779 0.0046966668798061485 0.015278212357732834 0.0072564287926363113 -0.0076201434362665604 0.048729551474287279 -0.017048598654228 -0.033157256172031427 -0.018195718321140378 -0.029392772783302282 -0.030332017396867528
leaf_count=25 27 26 31 27 23 25 31 20 35 21 33 28 21 25 21 20
internal_value=0 0.187829 0.0910219 0.340919 0.187516 -0.192157 -0.0750669 0.304805 -0.024149 -0.232884 0.426511 -0.256386 -0.277861 -0.265466 -0.233074 -0.298578
internal_count=439 222 136 86 74 217 56 43 62 161 60 140 112 91 46 45
shrinkage=0.1


Tree=3
num_leaves=16
num_cat=0
split_feature=9 1 7 8 3 8 4 6 6 4 0 0 5 2 9
split_gain=12.9459 2.06984 1.68763 1.29543 1.04981 0.889462 0.660403 0.692962 1.24289 0.636106 0.415323 0.299911 0.299778 0.274071 0.016132
threshold=0.33818253323800007 0.32267853855750006 0.54563139471500011 0.48778472795900002 0.40256526621500005 0.35115954664300003 0.31001008447800005 0.28609926557650006 0.13166489207550003 0.43278407078300013 0.18683322241950004 0.42398810332000009 0.040873148457550003 0.34778463670300003 0.31310980047550002
decision_type=2 2 2 2 2 2 2 2 2 2 2 2 2 2 2
left_child=2 3 6 4 -2 -3 12 8 10 11 -8 -7 -1 -9 -14
right_child=1 5 -4 -5 -6 9 7 13 -10 -11 -12 -13 14 -15 -16
leaf_value=-0.016384401509678383 0.015246080089302061 0.016167254723909431 0.007912978548501608 0.026947544544153573 -0.013722728037607624 0.032276562039204863 -0.027806956288322148 -0.027507297698178439 0.0090138492337939503 0.021144454851060784 -0.0096461369395118655 0.047983278904942556 -0.026993312295787119 -0.013287129937050125 -0.030407503581158866
leaf_count=32 22 34 30 24 29 20 20 33 30 21 34 31 31 23 25
internal_value=0 0.205024 -0.143834 0.0778928 -0.0122638 0.294975 -0.173172 -0.130503 -0.0730586 0.357923 -0.163724 0.418238 -0.241055 -0.216669 -0.285175
internal_count=439 181 258 75 51 106 228 140 84 72 54 51 88 56 56
shrinkage=0.1


Tree=4
num_leaves=18
num_cat=0
split_feature=9 7 8 1 8 6 2 0 0 9 6 8 2 7 4 3 0
split_gain=10.7107 2.18675 1.49581 1.95068 1.47606 1.87753 1.39702 1.1298 0.792334 0.809883 0.549393 0.481699 0.185378 0.09175 0.0716566 0.107353 0.00160519
threshold=0.33062984860150008 0.31533929355000007 0.35115954664300003 0.27269991856850001 0.5051088212635001 0.3002866211925001 0.34835569549750006 0.34294729375400007 0.37323184103050006 0.2976091065075 0.73061287477800019 0.36579630727100004 0.47212976081200003 0.40081128747800004 0.33327723549850002 0.23461758374100003 0.23350676542750004
decision_type=2 2 2 2 2 2 2 2 2 2 2 2 2 2 2 2 2
left_child=8 2 6 -4 5 -3 -2 -7 11 -10 -6 12 13 14 16 -16 -1
right_child=1 4 3 -5 10 7 -8 -9 9 -11 -12 -13 -14 -15 15 -17 -18
leaf_value=-0.024228430930203656 0.009248181180025709 0.037542642053438186 -0.0059506181769165114 0.037200409050969233 0.046529649252779866 -0.0093816396557094128 -0.026069473739506903 0.018201141466081892 -0.018944525285728649 0.0052464977207882877 0.024829231274563535 -0.0052394660527002139 -0.01420327744190808 -0.02925849536659348 -0.014722438495195483 -0.02442098438231765 -0.025430376536106709
leaf_count=25 21 27 20 22 28 27 24 33 25 31 20 21 28 21 25 21 20
internal_value=0 0.15443 0.0307978 0.166523 0.234104 0.156435 -0.095879 0.0578889 -0.157988 -0.0555307 0.374878 -0.193625 -0.21481 -0.233004 -0.219255 -0.1915 -0.247626
internal_count=439 222 87 42 135 87 45 60 217 56 48 161 140 112 91 46 45
shrinkage=0.1


Tree=5
num_leaves=16
num_cat=0
split_feature=9 1 7 0 4 4 8 4 5 1 6 9 4 5 9
split_gain=8.69844 1.4351 1.27526 0.966546 0.798106 0.552462 0.627455 0.529264 0.571663 0.757586 0.530391 0.9472 0.405795 0.247947 0.031145
threshold=0.33818253323800007 0.32267853855750006 0.54563139471500011 0.23350676542750004 0.34277815907900006 0.27879682215100005 0.33366666666650002 0.31001008447800005 0.43666794674850001 0.11324786324800001 0.28609926557650006 0.31310980047550002 0.43278407078300013 0.040873148457550003 0.31310980047550002
decision_type=2 2 2 2 2 2 2 2 2 2 2 2 2 2 2
left_child=2 3 7 -2 -5 -3 -7 13 9 -9 11 -11 -8 -1 -15
right_child=1 5 -4 4 -6 6 12 8 -10 10 -12 -13 -14 14 -16
leaf_value=-0.013395447669855468 -0.010849410975456528 0.036644698287274458 0.0075917673248812635 0.001848808400011629 0.026644719759296168 0.0047682615335026607 0.031892895014809325 -0.023255071452583934 -0.023900995645056482 -0.0079164658176372315 -0.013594275403309989 0.018207372154081358 0.014888386326272124 -0.022312109312547491 -0.027056026742697158
leaf_count=32 23 27 30 27 25 20 36 24 26 35 32 23 23 31 25
internal_value=0 0.168058 -0.117901 0.0621999 0.137699 0.242957 0.200752 -0.143404 -0.105205 -0.0746882 -0.0325915 0.0244299 0.25264 -0.204174 -0.244299
internal_count=439 181 258 75 52 106 79 228 140 114 90 58 59 88 56
shrinkage=0.1


Tree=6
num_leaves=17
num_cat=0
split_feature=9 7 8 1 2 8 6 6 0 9 6 8 2 7 0 0
split_gain=7.25075 1.58636 1.12957 1.41085 1.14896 1.07336 1.46048 0.904901 0.628597 0.629502 0.451198 0.381649 0.133563 0.0999543 0.0753334 0.094138
threshold=0.33062984860150008 0.31533929355000007 0.35115954664300003 0.29115648853000003 0.34835569549750006 0.5051088212635001 0.3002866211925001 0.49940397519300012 0.37323184103050006 0.2976091065075 0.73061287477800019 0.36579630727100004 0.47212976081200003 0.41756465517250002 0.24978305770900003 0.11955020215650002
decision_type=2 2 2 2 2 2 2 2 2 2 2 2 2 2 2 2
left_child=8 2 4 -4 -2 6 -3 -8 11 -10 -7 12 13 14 15 -1
right_child=1 5 3 -5 -6 10 7 -9 9 -11 -12 -13 -14 -15 -16 -17
leaf_value=-0.021172909415448256 0.0082500107041783427 0.032183398068476463 -0.0035046007667761062 0.033193122941153085 -0.023779058810756482 0.039690752493132996 -0.006930879222948899 0.017754361408379205 -0.015679330463399446 0.0056482644211362423 0.020025015026703698 -0.0036019984992075298 -0.011881305560829678 -0.02601036453262514 -0.021947692223428596 -0.012869931369737422
leaf_count=22 21 27 22 20 24 28 33 27 25 31 20 21 28 20 34 36
internal_value=0 0.127061 0.0217602 0.139705 -0.0883216 0.194922 0.12869 0.0417748 -0.129989 -0.0387298 0.314967 -0.161731 -0.180588 -0.196031 -0.182103 -0.160193
internal_count=439 222 87 42 45 135 87 60 217 56 48 161 140 112 92 58
shrinkage=0.1


Tree=7
num_leaves=17
num_cat=0
split_feature=9 7 0 1 8 9 6 1 6 6 3 2 0 2 1 9
split_gain=5.87697 1.29035 1.05621 1.05234 1.11233 0.626967 1.01951 0.860972 0.607471 1.04175 0.539239 0.578894 0.482944 0.20335 0.058063 0.0298185
threshold=0.33327874262450008 0.31533929355000007 0.34294729375400007 0.27269991856850001 0.35115954664300003 0.25839683086550003 0.28209493270050007 0.37173520923550007 0.46285486083600008 0.69999352037850004 0.2521892992755001 0.33451407686800005 0.24254228917150003 0.35378743683550001 0.17708333333350004 0.31370634725200003
decision_type=2 2 2 2 2 2 2 2 2 2 2 2 2 2 2 2
left_child=5 3 12 -2 -5 14 7 10 -4 -10 11 -7 -3 15 -1 -8
right_child=1 2 8 4 -6 6 13 -9 9 -11 -12 -13 -14 -15 -16 -17
leaf_value=-0.015955437626439559 -0.011131486155737202 0.017911592934656575 0.034937236958531813 -0.00074667849502361853 0.029908337591712731 0.010254433841821059 -0.018710680300937012 0.01502808491430806 0.00093024270132545665 0.032819871454875589 -0.019894852176096454 -0.010582326510285234 -0.0020480636398536836 -0.0094747612866404405 -0.022054415061672536 -0.023922576172338388
leaf_count=27 34 22 37 29 20 24 21 24 20 21 22 30 27 21 37 23
internal_value=0 0.120824 0.184193 0.0238605 0.117656 -0.110799 -0.0782115 -0.0148376 0.256474 0.17264 -0.0669803 -0.0132154 0.0691341 -0.17571 -0.194814 -0.214351
internal_count=439 210 127 83 49 229 165 100 78 41 76 54 49 65 64 44
shrinkage=0.1


Tree=8
num_leaves=16
num_cat=0
split_feature=9 8 0 0 5 3 9 9 7 2 0 7 2 8 6
split_gain=4.81155 1.13826 1.48751 1.07327 1.26564 1.0033 0.504289 0.700516 0.484732 0.305454 0.256862 0.596728 0.171624 0.125054 0.0373304
threshold=0.33062984860150008 0.40283009650750007 0.30958966049800002 0.30340129303450009 0.32521973541150007 0.28256101105750003 0.40053046618050009 0.50446056224750013 0.48848817390950011 0.41361442708150004 0.37323184103050006 0.26761568110250006 0.39837356159450005 0.21095036168600004 0.26782908661400007
decision_type=2 2 2 2 2 2 2 2 2 2 2 2 2 2 2
left_child=8 3 -3 4 -2 -5 -4 -8 10 -7 12 -12 13 -1 -15
right_child=1 2 6 5 -6 9 7 -9 -10 -11 11 -13 -14 14 -16
leaf_value=-0.011260529924340989 -0.0023406060317816661 -0.001461722749260972 0.035240550765005998 0.013588665899194536 0.031275388319423614 -0.018674214359785057 0.0076736756239462155 0.032229908929572275 0.00077496442235953228 -0.0026101013661936124 0.0062740754029265346 -0.017292774861807879 -0.0088538374698655456 -0.021160554355439502 -0.016668497757627517
leaf_count=30 21 29 30 22 24 29 26 21 32 20 21 22 38 37 37
internal_value=0 0.103506 0.178412 0.0350563 0.155879 -0.0415216 0.251112 0.186456 -0.10589 -0.121174 -0.125547 -0.0578338 -0.146052 -0.167066 -0.189145
internal_count=439 222 106 116 45 71 77 47 217 49 185 43 142 104 74
shrinkage=0.1


Tree=9
num_leaves=17
num_cat=0
split_feature=9 7 1 8 2 0 9 9 7 0 6 9 0 2 3 1
split_gain=3.89736 0.969998 1.31632 0.563074 0.705845 0.535428 0.5822 0.451702 0.782904 0.400529 0.373554 0.404854 0.579499 0.0537215 0.00846998 0.00794155
threshold=0.33062984860150008 0.55707074934750012 0.31913018429050005 0.40283009650750007 0.32842134784350002 0.18683322241950004 0.34392491635500005 0.25839683086550003 0.48848817390950011 0.48998992379850009 0.28209493270050007 0.31669260006950006 0.26019258920050004 0.30588000137350008 0.30744008028200004 0.18195605963800002
decision_type=2 2 2 2 2 2 2 2 2 2 2 2 2 2 2 2
left_child=7 2 5 4 -4 -2 -7 13 10 -3 11 12 -9 -1 -12 -15
right_child=1 9 3 -5 -6 6 -8 8 -10 -11 14 -13 -14 15 -16 -17
leaf_value=-0.012716183353035483 -0.018669144714908964 0.011632964720536028 0.021826767253281181 0.023517019432949076 -0.001242365375461327 -0.012272064286834673 0.0092928247529064281 -0.011901546774827639 0.010004985543663086 0.028132933364818619 -0.017997193198270582 -0.016004840552878982 0.0087131616281444068 -0.017396185557984094 -0.015353895290336768 -0.02018050998718306
leaf_count=23 20 28 21 34 36 21 31 25 24 31 22 25 30 21 27 20
internal_value=0 0.093155 0.0533863 0.13332 0.0725679 -0.0476415 0.00583927 -0.0953014 -0.0657934 0.203024 -0.0966479 -0.0545331 -0.0065716 -0.165844 -0.165407 -0.187544
internal_count=439 222 163 91 57 72 52 217 153 59 129 80 55 64 49 41
shrinkage=0.1


Tree=10
num_leaves=17
num_cat=0
split_feature=9 4 0 4 5 8 7 4 8 4 5 1 6 6 5 0
split_gain=3.16748 1.116 0.908038 0.853941 0.80286 0.666922 0.629424 0.439615 0.476677 0.42559 0.408139 0.475811 0.331566 0.729046 0.207712 0.0746826
threshold=0.33818253323800007 0.57580506774800011 0.36045412920400005 0.31352426038300002 0.54849173059800016 0.33366666666650002 0.54563139471500011 0.36062999289800007 0.5051088212635001 0.31001008447800005 0.43666794674850001 0.11324786324800001 0.28609926557650006 0.15508655384800005 0.040873148457550003 0.31623549525550004
decision_type=2 2 2 2 2 2 2 2 2 2 2 2 2 2 2 2
left_child=6 2 3 -2 -5 -4 9 8 -7 14 11 -11 13 -13 -1 -16
right_child=1 -3 5 4 -6 7 -8 -9 -10 10 -12 12 -14 -15 15 -17
leaf_value=-0.0079287497576884872 -0.0093044587590188788 -0.010968220871484318 0.0039118815051299551 0.0012438574022629468 0.028124588998028464 0.0094294004926492817 0.0065019347245782811 0.036305505713767026 0.0300595765534264 -0.01541307886436202 -0.016786878204379418 -0.0031914896562211625 -0.0077377598954403368 0.02039615661496157 -0.014376447111655831 -0.021680194090011623
leaf_count=32 27 22 20 25 20 24 30 22 21 24 26 38 32 20 28 28
internal_value=0 0.101413 0.130622 0.0475511 0.131908 0.19937 -0.0711466 0.247206 0.190568 -0.0890632 -0.0548096 -0.0290242 0.00433758 0.0494218 -0.143557 -0.180283
internal_count=439 181 159 72 45 87 258 67 45 228 140 114 90 58 88 56
shrinkage=0.1


Tree=11
num_leaves=17
num_cat=0
split_feature=9 4 8 4 0 0 0 0 3 8 3 2 0 4 8 0
split_gain=2.63744 0.750826 0.958266 1.05269 1.08123 0.656585 0.872238 0.851712 0.48765 0.358302 0.708016 0.510482 0.543382 0.153432 0.132 0.0331428
threshold=0.33062984860150008 0.57580506774800011 0.39716163512950003 0.36062999289800007 0.34294729375400007 0.30340129303450009 0.36045412920400005 0.17781416889200005 0.33178206667550009 0.19201228878650003 0.25100247306100004 0.39151143761450008 0.34294729375400007 0.32623897607100005 0.32746805566850007 0.27798163335300002
decision_type=2 2 2 2 2 2 2 2 2 2 2 2 2 2 2 2
left_child=9 2 5 4 -4 7 -7 -2 -8 13 11 12 -11 -1 15 -12
right_child=1 -3 3 -5 -6 6 8 -9 -10 10 14 -13 -14 -15 -16 -17
leaf_value=-0.01810029715213779 -0.0019578644179979623 -0.009871398533725444 -0.0068656587133654745 0.032858040185264038 0.020111217630344125 -0.019274310648464903 0.016644695798228613 0.026555256738050172 -0.0044979818835553798 -0.011013898535201478 -0.013592341638348764 0.014911008885666857 0.007747462278050881 -0.0084419141272098364 -0.0071477040223435154 -0.019280370984679024
leaf_count=38 20 22 24 29 39 22 20 22 24 38 21 20 26 29 25 20
internal_value=0 0.0766324 0.0959205 0.170918 0.0983431 0.0320339 -0.0301655 0.129776 0.0511233 -0.0783982 -0.0512409 0.00965786 -0.033921 -0.139198 -0.128748 -0.16367
internal_count=439 222 200 92 63 108 66 42 44 217 150 84 64 67 66 41
shrinkage=0.1


Tree=12
num_leaves=18
num_cat=0
split_feature=9 7 3 7 6 0 7 8 9 7 9 6 0 2 5 7 5
split_gain=2.13633 0.647646 0.77367 0.917833 0.668113 0.786656 0.651599 0.460927 0.323763 0.535786 0.284587 0.399812 0.369101 0.272778 0.132142 0.0644131 0.0198878
threshold=0.33062984860150008 0.31533929355000007 0.33392330383450003 0.17357798300350005 0.3002866211925001 0.48998992379850009 0.39174209587200004 0.42818068146250005 0.25839683086550003 0.48848817390950011 0.32274275740450004 0.28209493270050007 0.37323184103050006 0.35774212276850009 0.28102515124350003 0.06186224489795001 0.017217073723950007
decision_type=2 2 2 2 2 2 2 2 2 2 2 2 2 2 2 2 2
left_child=8 2 -2 -4 14 6 -6 -8 15 10 11 12 13 -10 -3 -1 -17
right_child=1 4 3 -5 5 -7 7 -9 9 -11 -12 -13 -14 -15 -16 16 -18
leaf_value=-0.0084884565701495926 0.013857505730225653 0.02782204214963379 0.0051291121002899412 -0.019906081445495393 0.014885272307474495 0.01914098882840105 -0.017033506912763244 0.0039420933118774482 -0.012787168307216832 0.0091618992511714372 -0.016239258116296024 -0.012991750826583831 0.010565134092103991 0.0031811788034614734 0.016326737200122132 -0.017346286693498698 -0.013043930540427236
leaf_count=21 28 20 32 27 20 33 22 20 23 24 27 37 22 20 20 22 21
internal_value=0 0.0689692 0.00168707 -0.0632767 0.112329 0.0666803 0.000291961 -0.0704513 -0.0705583 -0.0455763 -0.071101 -0.0469356 0.000300255 -0.0536003 0.220744 -0.130281 -0.152451
internal_count=439 222 87 59 135 95 62 42 217 153 129 102 65 43 40 64 43
shrinkage=0.1


Tree=13
num_leaves=17
num_cat=0
split_feature=9 3 9 5 8 6 7 8 3 1 5 5 8 3 9 9
split_gain=1.75249 0.746109 0.806296 0.491584 0.481189 0.733547 0.411324 0.511668 0.368991 0.223429 0.301866 0.437097 0.205893 0.345867 0.0494882 0.0283954
threshold=0.33818253323800007 0.39873360537250008 0.35520840256500003 0.32901770798550006 0.32746805566850007 0.32112293455400004 0.27951388888900003 0.57586311326450013 0.17673749155650001 0.12594954472450001 0.43113777822550009 0.25964284367300006 0.21095036168600004 0.130466037911 0.24982936632600003 0.24982936632600003
decision_type=2 2 2 2 2 2 2 2 2 2 2 2 2 2 2 2
left_child=4 3 -3 -2 9 8 -4 -8 -6 15 11 12 14 -14 -11 -1
right_child=1 2 6 -5 5 -7 7 -9 -10 10 -12 -13 13 -15 -16 -17
leaf_value=-0.011602375537710756 0.0061308948119118021 -0.012542740270559169 -0.0019477309483696657 0.024602966946933577 0.00073128412015166044 -0.011001677859471098 0.0035388417192770347 0.021456616592257463 0.01866085706145848 -0.0094907437747827703 -0.017385465407899991 0.0060890366659818807 0.005103661258076546 -0.012255002232850983 -0.01652552998103991 -0.016571445831878841
leaf_count=23 25 26 32 34 24 29 34 30 22 20 20 31 24 22 20 23
internal_value=0 0.0754339 0.0307853 0.167758 -0.0529207 0.0145388 0.0730929 0.119378 0.093063 -0.080568 -0.0603209 -0.0409135 -0.0776102 -0.0319831 -0.130081 -0.140869
internal_count=439 181 122 59 258 75 96 64 46 183 137 117 86 46 40 46
shrinkage=0.1


Tree=14
num_leaves=18
num_cat=0
split_feature=9 7 1 9 1 3 5 1 2 3 8 8 8 5 7 6 7
split_gain=1.46863 0.768393 0.641739 0.548195 0.586944 0.53998 0.709512 0.321238 0.287925 0.200133 0.173974 0.501912 0.236287 0.154525 0.150826 0.101551 0.091275
threshold=0.32207454645400008 0.55707074934750012 0.32291572822800002 0.33818253323800007 0.4397077583345001 0.40227308673800005 0.32521973541150007 0.29305667408150005 0.33959879549550004 0.53042338096700015 0.19201228878650003 0.25934381408050006 0.33313998453200006 0.18574653081350001 0.26761568110250006 0.26023559679000002 0.055703309692700008
decision_type=2 2 2 2 2 2 2 2 2 2 2 2 2 2 2 2 2
left_child=10 2 5 -4 -5 6 -2 -3 -7 -9 14 -12 15 -14 16 -13 -1
right_child=1 7 3 4 -6 8 -8 9 -10 -11 11 12 13 -15 -16 -17 -18
leaf_value=-0.012399147076892061 -0.0066157600524389733 0.024916209800782938 -0.0041694156162250919 0.021877330145127792 0.0035335271466183111 -0.020922725437920172 0.01770007659047956 0.016558628705095106 -0.0049633065978185315 0.0029105252935341512 0.0056110048735729745 -0.018231892174460865 0.0029885490311466006 -0.0094422574258187005 -0.017828074955952199 -0.0085836687659273849 -0.0029597703276327508
leaf_count=20 30 20 29 33 37 20 20 21 26 22 34 24 20 20 22 20 21
internal_value=0 0.0484455 0.017426 0.0739171 0.121813 -0.0408304 0.0311057 0.144458 -0.119022 0.0957588 -0.0690549 -0.0464016 -0.0878944 -0.0322685 -0.111485 -0.138463 -0.0756434
internal_count=439 258 195 99 70 96 50 63 46 43 181 118 84 40 63 44 41
shrinkage=0.1


Tree=15
num_leaves=17
num_cat=0
split_feature=9 4 8 7 4 0 9 2 0 3 8 5 2 4 0 2
split_gain=1.22039 0.749042 0.746081 0.674377 0.64944 0.52131 0.53969 0.240541 0.314724 0.482474 0.293035 0.478064 0.205755 0.203486 0.2533 0.0579926
threshold=0.35520840256500003 0.55413858130100013 0.36579630727100004 0.38836171368600009 0.36502183811900007 0.36543516206950005 0.45003842420950008 0.35660064501600003 0.36543516206950005 0.28480125700700004 0.28880139982500003 0.29610210108850005 0.47212976081200003 0.33327723549850002 0.24978305770900003 0.23314167443200004
decision_type=2 2 2 2 2 2 2 2 2 2 2 2 2 2 2 2
left_child=2 4 7 -4 5 -2 -7 8 13 -10 11 12 -9 15 -15 -1
right_child=1 -3 3 -5 -6 6 -8 10 9 -11 -12 -13 -14 14 -16 -17
leaf_value=-0.014586620080813521 -0.0017882340526921762 -0.0096729730765964528 -0.0032611118214238388 0.01835624663676302 0.025176484054435087 0.023710784898629784 0.0021569456339562633 -0.018210188632858618 0.012713647765926924 -0.0079455872505245686 -0.01772924226118985 0.0056560723022531303 -0.0058771361180809311 0.0065679522766435398 -0.0083296752025138598 -0.007725722630811711
leaf_count=22 37 20 31 27 26 26 21 24 26 20 30 24 31 21 25 28
internal_value=0 0.0812877 -0.0341987 0.0680214 0.113655 0.0709061 0.140803 -0.0578193 -0.030697 0.0373137 -0.093153 -0.0612013 -0.112588 -0.0632855 -0.0152858 -0.107445
internal_count=439 130 309 58 110 84 47 251 142 46 109 79 55 96 46 50
shrinkage=0.1


Tree=16
num_leaves=18
num_cat=0
split_feature=9 7 1 3 3 9 6 8 1 2 4 6 9 0 3 6 9
split_gain=1.04371 0.546223 0.481631 0.475132 0.434565 0.624207 0.4094 0.337504 0.253814 0.237314 0.187522 0.172148 0.328611 0.995721 0.276399 0.124079 0.0962996
threshold=0.32207454645400008 0.55707074934750012 0.32291572822800002 0.69609332543350011 0.40227308673800005 0.34183026922100007 0.38505701809250004 0.34275214613300004 0.29305667408150005 0.33959879549550004 0.33338651350750004 0.28209493270050007 0.2976091065075 0.33356061578400004 0.094836585561700021 0.00059454633620050011 0.31019638106550007
decision_type=2 2 2 2 2 2 2 2 2 2 2 2 2 2 2 2 2
left_child=11 2 4 6 5 -2 7 -4 -3 -6 -10 12 14 -14 15 -1 -13
right_child=1 8 3 -5 9 -7 -8 -9 10 -11 -12 16 13 -15 -16 -17 -18
leaf_value=-0.0054815305536400662 -0.0066328629555131979 0.021486035086006442 0.00050212025742735916 0.019714017577110561 -0.018782153819235467 0.01600527808503795 -0.0056921198683435054 0.017827007372402438 0.014609484840574134 -0.0042931485557910687 0.0013983573972934094 -0.0070494367336304733 -0.012412101178051546 0.018765027674937231 0.00062534847297293639 -0.015065411809210012 -0.015643979765926946
leaf_count=22 29 20 23 21 20 21 33 22 21 26 22 32 20 21 29 35 22
internal_value=0 0.0408401 0.0146867 0.063626 -0.035782 0.0287516 0.0276799 0.0897206 0.121791 -0.105927 0.078503 -0.058214 -0.0381043 0.0355667 -0.0732265 -0.113664 -0.105509
internal_count=439 258 195 99 96 50 78 45 63 46 43 181 127 41 86 57 54
shrinkage=0.1


Tree=17
num_leaves=16
num_cat=0
split_feature=9 4 8 1 8 4 2 7 8 6 9 1 8 1 9
split_gain=0.845403 0.475535 0.755541 0.403275 0.661706 0.617196 0.464236 0.708243 0.342445 0.13944 0.286924 0.283872 0.191999 0.0923477 0.0780027
threshold=0.32207454645400008 0.57580506774800011 0.57586311326450013 0.32291572822800002 0.32560636646800006 0.298890599471 0.37946542759400009 0.39174209587200004 0.30684824434800007 0.28209493270050007 0.25839683086550003 0.33248864956150004 0.25154320987650008 0.18195605963800002 0.31019638106550007
decision_type=2 2 2 2 2 2 2 2 2 2 2 2 2 2 2
left_child=9 2 3 5 -5 -2 7 -6 -7 10 13 12 -12 -1 -11
right_child=1 -3 -4 4 6 8 -8 -9 -10 14 11 -13 -14 -15 -16
leaf_value=-0.0045018838718814229 -0.013500835284137504 -0.0097299177407709405 0.017756453230022493 -0.0038238028986553505 0.019930374993836503 0.01327786371461131 0.023974371810372246 -0.006363737074845232 -0.0021819598709731016 -0.006344493082677375 0.0042018737897556091 0.010153203676620991 -0.008365323795582514 -0.012795441338763048 -0.014079581865956699
leaf_count=25 32 24 39 37 20 23 24 21 38 32 20 22 31 29 22
internal_value=0 0.0367561 0.0505053 0.0250935 0.068517 -0.0225323 0.129285 0.0646266 0.0364715 -0.0523926 -0.0342939 0.0065867 -0.0343701 -0.0895583 -0.0949583
internal_count=439 258 234 195 102 93 65 41 61 181 127 73 51 54 54
shrinkage=0.1


Tree=18
num_leaves=16
num_cat=0
split_feature=9 8 2 4 4 2 8 2 8 5 4 3 0 8 2
split_gain=0.711544 0.527967 0.532789 0.490428 0.493313 0.401473 0.633284 0.22976 0.293609 0.357058 0.283483 0.315249 0.246017 0.183692 0.147241
threshold=0.35520840256500003 0.36579630727100004 0.33451407686800005 0.55413858130100013 0.36502183811900007 0.31826654943150007 0.57586311326450013 0.35660064501600003 0.28880139982500003 0.29610210108850005 0.33418553688800007 0.030030420546800007 0.30109955050850007 0.31173079447100005 0.47212976081200003
decision_type=2 2 2 2 2 2 2 2 2 2 2 2 2 2 2
left_child=1 7 -3 4 5 6 -2 10 9 14 11 -1 -12 -13 -9
right_child=3 2 -4 -5 -6 -7 -8 8 -10 -11 12 13 -14 -15 -16
leaf_value=0.0035674913601547332 -0.011024184689286121 -0.0020648200591714422 0.017395340444823208 -0.0081975510447852441 0.020862906823041101 0.012891952261329593 0.012453283871759232 -0.015174728312882579 -0.016473797407852566 0.0053239526865226918 -0.0018948132266257173 -0.014109183633878249 0.011496305296871337 -0.0026684033717625016 -0.0047417252280027057
leaf_count=26 27 34 24 20 26 37 20 24 30 24 34 36 23 23 31
internal_value=0 -0.0261133 0.0598766 0.0620692 0.0882591 0.0510018 -0.0103377 -0.0459834 -0.0805161 -0.0485332 -0.0194759 -0.0560646 0.0350862 -0.0964922 -0.0929431
internal_count=439 309 58 130 110 84 47 251 109 79 142 85 57 59 55
shrinkage=0.1


Tree=19
num_leaves=17
num_cat=0
split_feature=9 7 2 2 2 4 2 1 1 6 4 7 9 0 0 7
split_gain=0.589532 0.359219 0.369065 0.602672 0.377343 0.522647 0.490807 0.227206 0.227044 0.25085 0.153099 0.139001 0.153556 0.617797 0.18098 0.138474
threshold=0.32207454645400008 0.55707074934750012 0.17831602108150002 0.24181056172650003 0.52726509438550007 0.34439415347800001 0.35774212276850009 0.29305667408150005 0.29781236770750003 0.35884606403200003 0.33338651350750004 0.41545743947300007 0.2976091065075 0.33356061578400004 0.30565598326050009 0.16869918699200001
decision_type=2 2 2 2 2 2 2 2 2 2 2 2 2 2 2 2
left_child=11 2 -2 -4 5 8 -7 -3 -5 -10 -9 12 14 -14 15 -1
right_child=1 7 3 4 -6 6 -8 10 9 -11 -12 -13 13 -15 -16 -17
leaf_value=-0.0057528584691620317 -0.010143046583246272 0.018439717753823363 0.018091194804423425 -0.014752584977734854 0.011814465658458057 0.015041304024344906 -0.0042084279309208142 0.011645844503926897 0.0040698145839220372 -0.011243248786676653 -0.0002912714782140285 -0.0097509744240998515 -0.0072722304877609932 0.014668609402747945 -0.011823009403889516 0.0044815593508118279
leaf_count=39 26 20 22 27 24 27 26 21 23 20 22 38 33 21 30 20
internal_value=0 0.0306938 0.00948468 0.0265486 0.00344655 -0.0189336 0.0559804 0.0963411 -0.0756541 -0.0305254 0.0553848 -0.0437514 -0.029466 0.0126032 -0.0549911 -0.0228356
internal_count=439 258 195 169 147 123 53 63 70 43 43 181 143 54 89 59
shrinkage=0.1



feature importances:
Column_9=48
Column_0=41
Column_8=41
Column_7=33
Column_2=30
Column_4=29
Column_6=29
Column_1=27
Column_3=19
Column_5=18

pandas_categorical:null
