tree
version=v2
num_class=1
num_tree_per_iteration=1
label_index=0
max_feature_idx=14
objective=regression
feature_names=Column_0 Column_1 Column_2 Column_3 Column_4 Column_5 Column_6 Column_7 Column_8 Column_9 Column_10 Column_11 Column_12 Column_13 Column_14
feature_infos=[0:1] [0:1] [0:0.98684075499300006] [-6.1971126834800003:14.448183182799999] [0:1] [0.00147238948238:0.97809380385299993] [0:1] [0:1] [0:1] [0:1] [0:1] [0.029609307693500002:0.87826037461500006] [0:1] [0:1] 1:0:5:3:2:-1
tree_sizes=2133 2498 2522 2519 2513 2520 2524 2511 2519 2528 2517 2529 2532 2542 2545 2528 2519 2534 2545 2540 2543 2532 2542 2551 2551 2564 2557 2558 2561 2554 2552

Tree=0
num_leaves=27
num_cat=0
split_feature=12 2 11 11 1 8 6 0 4 12 9 11 4 2 5 6 3 9 10 0 3 11 4 10 0 0
split_gain=53.125 21.149 5.97204 5.88264 3.3086 2.37037 2.29364 2.16667 1.69697 1.27622 1.27562 1.24253 1.2139 0.915788 0.77905 0.623875 0.56358 0.491759 0.29317 0.409071 0.266327 0.155056 0.125926 0.0884037 0.0267442 3.55271e-15
threshold=0.70638945233250017 0.39342280392050005 0.33063345728950005 0.35163592798400006 0.33321013294500007 0.37518272162000005 0.45097608436350006 0.42650765739200008 0.33823619903250007 0.31553362238650007 0.33356610800750003 0.3417726085865001 0.27448271183900003 0.24863488917200002 0.29395572042650003 0.21308399112950002 0.37839180929100008 0.42707102181150008 0.32690166975900009 0.28818924954850006 0.34897879273200011 0.40115471744250003 0.41602564102600009 0.070197044335000028 0.15723445557250001 0.60367063492100015
decision_type=2 2 2 2 2 2 2 2 2 2 2 2 2 2 2 2 2 2 2 2 2 2 2 2 2 2
left_child=1 2 13 5 9 8 10 -5 -3 14 -6 -2 -7 18 -4 16 -15 -13 23 24 -17 -19 -16 -1 -20 -23
right_child=11 3 4 7 6 12 -8 -9 -10 -11 -12 17 -14 15 22 20 -18 21 19 -21 -22 25 -24 -25 -26 -27
leaf_value=0.32043558704539188 0.35182379343359826 0.33591470252450734 0.3291614557712606 0.34593801254781736 0.33696365357345837 0.33669840158406844 0.32523288434268915 0.36260467921448403 0.31773288434268915 0.335590027199832 0.35221564296337882 0.35911219468751676 0.35173288434268912 0.33325012572199947 0.32273288434268915 0.31773288434268915 0.32249478910459389 0.36273288434268913 0.31773288434268915 0.3266614557712606 0.32523288434268915 0.36773288434268914 0.31773288434268915 0.31773288434268915 0.32023288434268915 0.36773288434268914
leaf_count=37 22 33 35 39 26 29 20 39 21 28 29 29 25 29 20 29 21 20 23 28 20 44 34 166 20 25
internal_value=0 -0.105428 -0.201712 0.18705 -0.058414 0.0359147 0.105544 0.396314 -0.112233 -0.163515 0.210999 0.565544 0.184063 -0.275474 -0.222096 -0.193042 -0.114456 0.606222 -0.305259 -0.249949 -0.273231 0.643072 -0.297419 -0.324603 -0.3112 0.665544
internal_count=891 751 565 186 192 108 75 78 54 117 55 140 54 373 89 99 50 118 274 71 49 89 54 203 43 69
shrinkage=1


Tree=1
num_leaves=31
num_cat=0
split_feature=13 2 11 11 12 0 13 8 1 5 11 8 8 2 7 6 9 2 1 10 8 12 10 0 10 3 1 11 5 8
split_gain=48.4496 16.0917 6.47371 5.49984 3.11448 2.08799 2.06698 1.8146 1.79192 1.80692 1.33426 1.25249 1.2699 1.1182 0.865327 0.821846 1.08786 0.812966 0.797485 0.52045 0.413263 0.26199 0.255495 0.342009 0.0797843 0.0343092 0.0273229 0.001421 0.000526862 1.05194e-05
threshold=0.58571428571450002 0.39342280392050005 0.35163592798400006 0.33063345728950005 0.30216450216450003 0.49990064954650004 0.8452380952380002 0.33657237149000002 0.33321013294500007 0.32592025743650005 0.3417726085865001 0.40289462081150001 0.11005218353700001 0.24863488917200002 0.18504812351350003 0.21308399112950002 0.27670135700450005 0.62987891785150008 0.086924440722550025 0.35918911527400005 0.36460206318150007 0.049233252623050006 0.32690166975900009 0.28818924954850006 0.070197044335000028 0.58555046551050005 0.28503311686650007 0.40115471744250003 0.33325556074000001 0.682655885781
decision_type=2 2 2 2 2 2 2 2 2 2 2 2 2 2 2 2 2 2 2 2 2 2 2 2 2 2 2 2 2 2
left_child=1 3 11 13 8 7 -2 -4 18 -10 -6 12 -3 22 -13 16 -15 20 -5 28 -8 -17 24 26 -1 27 -24 -19 -20 -29
right_child=6 2 5 4 10 -7 17 -9 9 -11 -12 14 -14 15 -16 21 -18 25 19 -21 -22 -23 23 -25 -26 -27 -28 29 -30 -31
leaf_value=-0.013319076476870357 0.012677906394004824 0.0034372191131114963 0.02239655601978302 -0.001986984553791228 0.00038939591335213704 0.029973869301654677 0.017535034418106079 0.0035301410234891452 0.013002215102314949 -0.0057419899851083762 0.017420417912628338 0.013052093386650086 -0.012939935511556165 -0.0099333360791206363 -0.00066974014043807983 -0.016041816411347228 0.0048056589705603465 0.032125652208924292 -0.016324144527316092 -0.0066315420326732467 0.027465777437795293 -0.008603121116757392 -0.013430393934249879 -0.0077557670659032371 -0.015886643528938295 0.02944897383451462 -0.01595729647771172 0.031664637923240667 -0.015982797856514269 0.031613355875015257
leaf_count=37 25 20 25 21 23 27 20 26 20 36 23 20 29 31 27 29 21 24 20 21 22 20 20 29 166 20 23 20 26 20
internal_value=0 -0.105336 0.160625 -0.187099 -0.048428 0.374613 0.516219 0.255568 -0.120791 0.0190474 0.178098 -0.0132406 -0.125108 -0.257171 0.103387 -0.167186 -0.079621 0.568334 -0.209778 -0.263074 0.454737 -0.260112 -0.29022 -0.23904 -0.308373 0.625132 -0.29564 0.63643 -0.322624 0.63278
internal_count=891 740 174 566 190 78 151 51 144 56 46 96 49 376 47 101 52 126 88 67 42 49 275 72 203 84 43 64 46 40
shrinkage=0.05


Tree=2
num_leaves=31
num_cat=0
split_feature=13 2 11 11 12 0 13 8 1 5 11 8 8 2 1 6 9 2 1 10 12 10 0 3 10 4 11 5 11 0
split_gain=43.7258 14.5228 5.84252 4.96361 2.81082 1.88441 1.86545 1.63768 1.61721 1.63074 1.20417 1.13037 1.14608 1.00918 0.821667 0.741716 0.981794 0.738719 0.71973 0.469706 0.236446 0.230585 0.308664 0.138387 0.0720053 0.0274029 0.00223063 0.00047549 8.75436e-05 1.77636e-15
threshold=0.58571428571450002 0.39342280392050005 0.35163592798400006 0.33063345728950005 0.30216450216450003 0.49990064954650004 0.8452380952380002 0.33657237149000002 0.33321013294500007 0.32592025743650005 0.3417726085865001 0.40289462081150001 0.11005218353700001 0.24863488917200002 0.4476286215075001 0.21308399112950002 0.27670135700450005 0.5651592842815002 0.086924440722550025 0.35918911527400005 0.049233252623050006 0.32690166975900009 0.28818924954850006 0.59063006524750017 0.070197044335000028 0.17490914500300001 0.36568912569799999 0.33325556074000001 0.45594014689000001 0.39260990469950008
decision_type=2 2 2 2 2 2 2 2 2 2 2 2 2 2 2 2 2 2 2 2 2 2 2 2 2 2 2 2 2 2
left_child=1 3 11 13 8 7 -2 -4 18 -10 -6 12 -3 21 -13 16 -15 -8 -5 27 -17 24 25 26 -1 -23 -19 -20 -28 -26
right_child=6 2 5 4 10 -7 17 -9 9 -11 -12 14 -14 15 -16 20 -18 23 19 -21 -22 22 -24 -25 29 -27 28 -29 -30 -31
leaf_value=-0.012653122721491633 0.012044011235237122 0.0032653591036796571 0.021276728034019473 -0.0018876352480479649 0.00036992605613625571 0.028475176073886735 0.020568843863227153 0.0033536344193495237 0.012352104261517526 -0.0054548900160524584 0.016549397357132123 -0.00077899385381627968 -0.012292938807914997 -0.0094366694650342402 0.012592190131545068 -0.015239725647301512 0.004565375759488061 0.030735889822244646 -0.015507936626672745 -0.0062999650835990906 -0.0081729657948017131 -0.012689317390322686 -0.0073679780137949971 0.025591537058353427 -0.015092311799526215 -0.015219915884992351 0.030198719054460529 -0.015183658439379473 0.030066148169112929 -0.015092311799526215
leaf_count=37 25 20 25 21 23 27 33 26 20 36 23 27 29 31 20 29 21 20 20 21 20 20 29 20 143 23 20 26 33 23
internal_value=0 -0.10007 0.152594 -0.177744 -0.0460066 0.355883 0.490408 0.242789 -0.114751 0.018095 0.169193 -0.0125786 -0.118852 -0.244313 0.0982174 -0.158827 -0.0756399 0.539917 -0.199289 -0.24992 -0.247107 -0.275709 -0.227088 0.585528 -0.292955 -0.280858 0.605719 -0.306493 0.602323 -0.301846
internal_count=891 740 174 566 190 78 151 51 144 56 46 96 49 376 47 101 52 126 88 67 49 275 72 93 203 43 73 46 53 166
shrinkage=0.05


Tree=3
num_leaves=31
num_cat=0
split_feature=12 2 11 11 2 5 6 8 0 4 4 0 7 11 4 2 6 10 5 4 10 5 6 7 10 4 2 10 10 0
split_gain=39.8741 15.4836 4.37321 4.35872 2.9505 3.20036 2.4743 1.79321 1.70722 1.48476 1.09944 1.01615 1.03193 0.890298 1.39096 0.54295 0.367329 0.475099 0.473933 0.246591 0.229741 0.395482 0.0503466 0.124958 0.0388773 0.0339832 0.00289879 0.00100591 0.00104804 1.77636e-15
threshold=0.70638945233250017 0.39342280392050005 0.32784813688650005 0.35163592798400006 0.24186864097250002 0.32802343844350007 0.33036048582750005 0.37518272162000005 0.42650765739200008 0.33823619903250007 0.27448271183900003 0.20058678063050003 0.33322635857900001 0.40618017943350004 0.40072559366750005 0.24863488917200002 0.37930497783100009 0.22176684881600003 0.31930075047700007 0.26751601748300008 0.34844134536550003 0.34740440636100006 0.29939897969000001 0.32876804971750007 0.29468984962400008 0.50022165303900012 0.7395137979880001 0.070197044335000028 0.31736011477800002 0.33683067177100007
decision_type=2 2 2 2 2 2 2 2 2 2 2 2 2 2 2 2 2 2 2 2 2 2 2 2 2 2 2 2 2 2
left_child=1 2 15 7 11 -6 -7 9 -5 -3 -9 24 19 14 -2 20 17 -17 -19 -13 22 -22 27 -24 -4 -15 -27 -1 29 -29
right_child=13 3 4 8 5 6 -8 10 -10 -11 -12 12 -14 25 -16 16 -18 18 -20 -21 21 -23 23 -25 -26 26 -28 28 -30 -31
leaf_value=-0.014723169803619386 0.027224754180227007 0.0016122146537809663 -0.012766780704259873 0.0095552072693140082 0.016114308888261968 0.010073221881281246 -0.010996984533573452 0.0012598257126479313 0.024349622275584785 -0.015394784013430278 0.015567961335182191 -0.0058370106667280201 0.0012966434295113023 0.026561824306845668 0.012801734916865827 -0.013070457914601203 -0.014689324441410245 0.00063774902373552327 -0.0092988540728886921 -0.013285705387592318 -0.0049096673727035524 -0.014853035286068917 -0.0095503530651330961 -0.014504676801817759 -0.015780988400397097 0.029419630088589412 0.028669175505638123 -0.014337696135044098 -0.0147308998554945 -0.014337696135044098
leaf_count=29 35 33 20 39 33 22 38 29 39 21 25 20 37 20 32 23 21 24 24 25 20 20 20 35 23 22 31 90 20 21
internal_value=0 -0.0913378 -0.173723 0.158918 -0.0627255 0.07215 -0.0654248 0.0288234 0.339048 -0.100032 0.157679 -0.163073 -0.0977822 0.489962 0.406723 -0.243456 -0.177601 -0.143236 -0.0866111 -0.199503 -0.267216 -0.197627 -0.280162 -0.254062 -0.287581 0.56636 0.579614 -0.289134 -0.287955 -0.286754
internal_count=891 751 565 186 218 93 60 108 78 54 54 125 82 140 67 347 92 71 48 45 255 40 215 55 43 73 53 160 131 111
shrinkage=0.05


Tree=4
num_leaves=31
num_cat=0
split_feature=13 2 11 11 12 0 13 8 5 2 5 7 11 8 2 2 6 9 9 1 11 3 10 0 10 0 7 11 11 6
split_gain=36.2335 11.6958 4.77247 4.03334 2.35236 1.59614 1.54041 1.47418 1.4065 4.34912 1.14382 1.87469 1.06286 0.955602 0.814666 0.622048 0.61906 0.841199 0.603642 0.367082 0.345567 0.229277 0.189552 0.271875 0.0650412 0.0322097 0.0283496 0.00601512 0.000175408 4.00443e-05
threshold=0.58571428571450002 0.39342280392050005 0.35163592798400006 0.33063345728950005 0.30216450216450003 0.49990064954650004 0.8452380952380002 0.33657237149000002 0.31794868518550007 0.24186864097250002 0.31599242321750004 0.21443644590950001 0.3417726085865001 0.40289462081150001 0.24863488917200002 0.62987891785150008 0.21308399112950002 0.27670135700450005 0.41621004566250003 0.41365077926750005 0.3417726085865001 0.34897879273200011 0.32690166975900009 0.28818924954850006 0.070197044335000028 0.61337449409350009 0.28117818457250005 0.40115471744250003 0.32266145031600008 0.29939897969000001
decision_type=2 2 2 2 2 2 2 2 2 2 2 2 2 2 2 2 2 2 2 2 2 2 2 2 2 2 2 2 2 2
left_child=1 3 10 14 8 7 -2 -4 9 -5 13 -12 -6 -3 22 19 17 -16 20 -8 -10 -18 24 26 -1 27 -24 -17 29 -26
right_child=6 2 5 4 12 -7 15 -9 18 -11 11 -13 -14 -15 16 25 21 -19 -20 -21 -22 -23 23 -25 28 -27 -28 -29 -30 -31
leaf_value=-0.011336876451969147 0.010983571410179138 -0.013537203358567279 0.019433987617492678 -0.0091625755946887176 0.00014081234517304795 0.025799222345705388 0.014927725990613303 0.0024290769146038936 -0.0071720049381256111 0.019643091410398484 0.01595640154111953 -0.0038061904055731637 0.015341382052587428 0.00072503915677467985 -0.008634234195755373 0.028289367717046005 -0.014072850449331875 0.0043265291622706821 -0.0021600992164828559 0.024276551817144668 -0.01470250292466237 -0.0071140514314174648 -0.013966989063698313 -0.006505288954438835 -0.013620450956012132 0.02563206829406597 -0.011393048986792565 0.027258122255725249 -0.013790168010053181 -0.013681272831228046
leaf_count=37 25 23 25 38 23 27 21 26 25 20 21 28 23 24 31 26 29 21 22 21 39 20 23 29 109 27 20 31 21 36
internal_value=0 -0.0910938 0.135648 -0.160799 -0.0420469 0.319381 0.44642 0.215296 -0.104936 0.0154083 -0.0136341 0.0932698 0.154822 -0.125087 -0.220807 0.49141 -0.144 -0.0680016 -0.186098 0.392043 -0.235218 -0.22465 -0.249016 -0.204932 -0.264652 0.541093 -0.255396 0.55457 -0.273102 -0.272711
internal_count=891 740 174 566 190 78 151 51 144 58 96 49 46 47 376 126 101 52 86 42 64 49 275 72 203 84 43 57 166 145
shrinkage=0.05


Tree=5
num_leaves=31
num_cat=0
split_feature=12 2 11 11 2 5 6 8 0 4 4 0 7 4 11 4 2 6 10 5 4 10 5 6 3 2 2 10 10 11
split_gain=32.8466 12.5735 3.57018 3.56617 2.37674 2.65548 2.18802 1.50173 1.44406 1.33428 1.00419 0.924074 0.89275 1.82394 0.754699 1.25253 0.432354 0.305542 0.415757 0.410411 0.243543 0.195059 0.357409 0.0443303 0.122682 0.0372049 0.00458801 0.00159328 0.00147027 1.77892e-08
threshold=0.70638945233250017 0.39342280392050005 0.32784813688650005 0.35163592798400006 0.24186864097250002 0.32802343844350007 0.33036048582750005 0.37518272162000005 0.42650765739200008 0.33823619903250007 0.27448271183900003 0.16606467148300003 0.33322635857900001 0.44667646412100009 0.40618017943350004 0.40072559366750005 0.24863488917200002 0.37930497783100009 0.22176684881600003 0.31930075047700007 0.26751601748300008 0.34844134536550003 0.34740440636100006 0.29939897969000001 0.3155493693280001 0.82924298387600015 0.61647574477850009 0.070197044335000028 0.31736011477800002 0.30397731114200005
decision_type=2 2 2 2 2 2 2 2 2 2 2 2 2 2 2 2 2 2 2 2 2 2 2 2 2 2 2 2 2 2
left_child=1 2 16 7 11 -6 -7 9 -5 -3 -9 -4 20 -14 15 -2 21 18 -18 -20 -13 23 -23 27 -25 26 -16 -1 29 -29
right_child=14 3 4 8 5 6 -8 10 -10 -11 -12 12 13 -15 25 -17 17 -19 19 -21 -22 22 -24 24 -26 -27 -28 28 -30 -31
leaf_value=-0.013420167565345765 0.024939683377742768 0.0016208803563406975 -0.014523694190112027 0.0084742198005700719 0.014602666370796435 0.0094930451024662372 -0.01032076764263605 0.00081236084987377295 0.022080683746399026 -0.014501296125707172 0.014486696779727937 -0.005140263065695763 0.011529930084943772 -0.0091157890532327732 0.02724407599085853 0.011253154091537 -0.012029238757879838 -0.01336719606603895 0.00077001495907704041 -0.0084767328575253483 -0.012312291613940535 -0.0041350235790014274 -0.013587657064199449 -0.0083154118806123747 -0.013224410329546247 0.024437857827832622 0.026198904854910717 -0.012939788401126862 -0.013405205234885215 -0.012938172263758525
leaf_count=29 35 33 33 39 33 22 38 29 39 21 25 20 20 23 21 32 23 21 24 24 29 20 20 20 35 31 21 90 20 21
internal_value=0 -0.0828992 -0.15714 0.142616 -0.0568498 0.0642034 -0.0611141 0.0249422 0.305549 -0.0929771 0.142861 -0.146913 -0.0954188 0.00973742 0.444695 0.368057 -0.220146 -0.161379 -0.130038 -0.0770672 -0.187699 -0.241348 -0.177227 -0.253278 -0.228786 0.515035 0.53443 -0.261696 -0.260212 -0.25879
internal_count=891 751 565 186 218 93 60 108 78 54 54 125 92 43 140 67 347 92 71 48 49 255 40 215 55 73 42 160 131 111
shrinkage=0.05


Tree=6
num_leaves=31
num_cat=0
split_feature=13 2 11 11 1 13 0 0 4 5 6 4 12 2 1 0 2 7 10 0 10 0 8 10 11 5 7 0 11 6
split_gain=30.0953 9.04695 4.11042 3.2683 2.03881 1.48639 1.35327 1.45393 0.978784 1.11558 0.940608 1.10624 0.859324 0.656634 0.624033 0.547211 0.519856 0.355743 0.350265 0.349343 0.159843 0.237036 0.139989 0.0605097 0.0414598 0.0347923 0.0292706 0.00714158 0.000697527 0.000210403
threshold=0.55304237018150004 0.39342280392050005 0.35163592798400006 0.33063345728950005 0.33321013294500007 0.8452380952380002 0.49990064954650004 0.37160542249 0.41023733770850007 0.31599242321750004 0.45603380462500004 0.33444444444450006 0.31553362238650007 0.24863488917200002 0.086924440722550025 0.35149001163850002 0.62987891785150008 0.46764411968450004 0.35918911527400005 0.21107174063300002 0.32690166975900009 0.28818924954850006 0.26067638068600008 0.070197044335000028 0.40227926390800001 0.33815389548850006 0.54542446381700016 0.24215543214900001 0.32266145031600008 0.29939897969000001
decision_type=2 2 2 2 2 2 2 2 2 2 2 2 2 2 2 2 2 2 2 2 2 2 2 2 2 2 2 2 2 2
left_child=1 3 8 13 12 -2 7 -4 9 -3 11 -6 14 20 -5 19 17 -7 27 -15 23 25 -21 -1 -18 -22 -26 -16 29 -25
right_child=5 2 6 4 10 16 -8 -9 -10 -11 -12 -13 -14 15 18 -17 24 -19 -20 22 21 -23 -24 28 26 -27 -28 -29 -30 -31
leaf_value=-0.010129624041351114 0.0098180781150686344 -0.0041947690149148308 0.017810411350085185 -0.00094060763007118597 0.002212534248828888 0.022657428085803986 0.023375550464347559 0.00092274510860443121 -0.01073787638119289 0.0082962255586277369 -0.0041995673662140257 0.017175210870447613 0.0013377872606118522 -0.0038466012850403783 -0.012638237132974293 -0.0016871371583358663 0.025958425913538252 0.013443678549744868 -0.005468011399110159 -0.0087268950790166857 -0.013041561345259349 -0.0057251148182770302 -0.014390888313452402 -0.012292024294991013 0.022233732789754868 -0.010163387053069614 0.024720125105874291 -0.013884237926939262 -0.012634964677549543 -0.012431441288855342
leaf_count=37 29 39 26 21 30 20 27 25 21 33 21 21 30 20 23 37 35 22 21 20 21 29 24 109 20 21 29 23 21 36
internal_value=0 -0.0843407 0.117189 -0.145335 -0.0384842 0.400482 0.286482 0.190643 -0.0247991 0.0306054 0.094129 0.167473 -0.119401 -0.199472 -0.169227 -0.13055 0.447462 0.356624 -0.216372 -0.186516 -0.224878 -0.184037 -0.236327 -0.239162 0.492882 -0.232049 0.474105 -0.265225 -0.247313 -0.246533
internal_count=891 736 171 565 190 155 78 51 93 72 72 51 118 375 88 101 126 42 67 64 274 71 44 203 84 42 49 46 166 145
shrinkage=0.05


Tree=7
num_leaves=31
num_cat=0
split_feature=13 11 2 9 5 6 2 13 7 12 1 5 7 12 1 3 1 2 8 5 0 10 1 1 5 2 2 11 6 10
split_gain=27.161 8.17327 3.95448 3.09341 2.17701 2.34524 1.54573 1.34147 1.28679 1.23761 1.13895 1.30012 1.32811 1.07287 0.772527 0.646356 0.556471 0.46917 0.322345 0.185505 0.164209 0.144259 0.221532 0.320232 0.0586998 0.111391 0.0477463 0.0374174 0.0268124 0.00255436
threshold=0.55304237018150004 0.33063345728950005 0.24186864097250002 0.4917804304695001 0.30755135387500004 0.34168576001250001 0.24863488917200002 0.8452380952380002 0.49996526153150006 0.21186767097500001 0.49962121212100002 0.28924162879750009 0.31342961398050007 0.25543478260850006 0.34417409388000003 0.32192117573700002 0.36007579510800009 0.62987891785150008 0.36460206318150007 0.33815389548850006 0.20788936366400004 0.32690166975900009 0.25401601869400009 0.34351943346550007 0.18489189230250005 0.115262695944 0.39205716295700005 0.40227926390800001 0.63019924134600014 0.070197044335000028
decision_type=2 2 2 2 2 2 2 2 2 2 2 2 2 2 2 2 2 2 2 2 2 2 2 2 2 2 2 2 2 2
left_child=1 6 13 4 9 -6 21 -2 16 -4 11 26 15 14 20 -13 -7 18 -9 -14 -3 24 -23 -24 25 -1 -8 -19 -29 -26
right_child=7 2 3 -5 5 8 10 17 -10 -11 -12 12 19 -15 -16 -17 -18 27 -20 -21 -22 22 23 -25 29 -27 -28 28 -30 -31
leaf_value=-0.011832637262755429 0.0093271742606985172 -0.013055895052609907 0.018786172671564697 0.019562115379281948 0.0092234917176075484 -0.016312081593534221 -0.012196276265950431 0.012345498204231262 0.0041329014514173779 0.0030595325949517166 0.004469411845864921 -0.0041002118790691554 -0.0065052328631281858 0.005028636567294598 0.00080942675471305846 0.0073522922183786119 -0.0054285281027356786 0.02466050433261054 0.021116093613884668 -0.013315246291458608 -0.0080914100632071499 -0.012650203984230758 -0.0028743369877338408 -0.011145560037006032 -0.012313719900945824 -0.0069822268187999725 -0.015609831959009172 0.021111615821719172 0.023491312306502771 -0.011752292129855891
leaf_count=29 29 31 29 37 39 23 21 20 21 22 29 22 20 20 20 28 24 35 22 20 36 24 25 22 24 20 20 20 29 130
internal_value=0 -0.0801236 0.0462046 0.130969 0.0700194 -0.0110197 -0.168029 0.380458 -0.123139 0.240043 -0.0899319 -0.129629 -0.0623889 -0.108273 -0.156284 0.0462638 -0.21509 0.425089 0.338792 -0.198205 -0.207768 -0.213634 -0.174835 -0.134919 -0.227204 -0.197058 -0.277229 0.468238 0.4504 -0.236796
internal_count=891 736 302 195 158 107 434 155 68 51 160 131 90 107 87 50 47 126 42 40 67 274 71 47 203 49 41 84 49 154
shrinkage=0.05


Tree=8
num_leaves=31
num_cat=0
split_feature=12 2 9 11 2 3 1 6 5 6 11 6 3 1 11 4 1 1 2 9 5 6 0 10 2 3 2 10 10 6
split_gain=24.8516 9.4059 3.00148 2.60286 1.91038 1.72983 1.61623 2.04009 1.07131 1.02743 1.10434 0.889096 0.823988 0.71771 0.598147 1.12328 0.411881 0.429246 0.311393 0.436655 0.198151 0.257979 0.179508 0.093816 0.0460315 0.0325147 0.0126108 0.00646745 0.00314131 5.1174e-05
threshold=0.70638945233250017 0.39342280392050005 0.40785821577800002 0.32784813688650005 0.12116998666100001 0.41750595948950003 0.33321013294500007 0.45097608436350006 0.33227845724400007 0.34168576001250001 0.32339898258750005 0.49192103612600008 0.44895596302100005 0.4185746674125001 0.40618017943350004 0.40072559366750005 0.13952254641950004 0.25896196993750004 0.19876255031800003 0.31931609371700004 0.28924162879750009 0.31463554276200006 0.23254835522650003 0.34844134536550003 0.82924298387600015 0.010610561994740001 0.63510228081600006 0.32586693213900003 0.070197044335000028 0.29939897969000001
decision_type=2 2 2 2 2 2 2 2 2 2 2 2 2 2 2 2 2 2 2 2 2 2 2 2 2 2 2 2 2 2
left_child=1 3 5 18 22 9 12 8 -8 10 -3 -4 16 -7 15 -2 -6 -18 23 20 -20 -22 -5 25 26 -1 -16 28 -27 -30
right_child=14 2 11 4 6 13 7 -9 -10 -11 -12 -13 -14 -15 24 -17 17 -19 19 -21 21 -23 -24 -25 -26 27 -28 -29 29 -31
leaf_value=-0.0095845509817202891 0.022119304835796355 -0.0062263558740201204 0.010042854096438434 -0.01290227808058262 -0.00084239080548286448 0.0034453311562538148 0.018853984967522001 -0.00801598772406578 0.004611706974044923 -0.0095377659657970085 0.0085600622264402262 0.022107849384729678 0.0046010429039597513 0.01684038382023573 0.024376120282845064 0.009158216696232558 -0.013965080946683884 -0.0046995915472507477 -0.012840574851323819 -0.0030429473636966005 -0.005150276381108496 -0.011929397576529048 -0.006932548806071282 -0.0083014970438347931 0.021009928132257157 -0.011691283318214118 0.022641358226537706 -0.012221999131143094 -0.011103125975320214 -0.011183261429822004
leaf_count=30 35 23 37 34 20 20 23 20 31 32 28 26 20 20 22 32 25 25 29 38 36 23 20 36 31 32 20 20 76 27
internal_value=0 -0.0721078 0.122943 -0.136319 -0.0506869 0.0320295 0.0030294 0.112509 0.213557 -0.0502971 0.0378336 0.300441 -0.0869875 0.202857 0.386807 0.318579 -0.138133 -0.186647 -0.190117 -0.150444 -0.189128 -0.15586 -0.213825 -0.212736 0.449427 -0.221825 0.471001 -0.227658 -0.225171 -0.222483
internal_count=891 751 186 565 218 123 164 74 54 83 51 63 90 40 140 67 70 50 347 126 88 59 54 221 73 185 42 155 135 103
shrinkage=0.05


Tree=9
num_leaves=31
num_cat=0
split_feature=13 2 11 12 11 1 5 0 8 13 4 5 3 1 4 2 7 1 1 0 6 0 5 12 2 2 11 3 2 10
split_gain=22.5232 6.72728 3.269 2.58204 1.80587 1.49684 1.61012 1.09744 1.25613 1.07437 0.828912 0.982123 0.656339 0.654517 0.492667 0.407021 0.326041 0.236899 0.699844 0.439658 0.212354 0.119953 0.119026 0.0976562 0.0563835 0.0562306 0.0462447 0.0333278 0.0266347 0.0152241
threshold=0.55304237018150004 0.39342280392050005 0.35163592798400006 0.60434782608700011 0.32784813688650005 0.33321013294500007 0.32592025743650005 0.49990064954650004 0.33657237149000002 0.8452380952380002 0.41023733770850007 0.31599242321750004 0.49955864264000011 0.020551801801800003 0.33033136234250005 0.62987891785150008 0.46764411968450004 0.24288302407950005 0.28194053054100005 0.41983488733500002 0.41108709932300008 0.16265272558550004 0.48857869265050002 0.075498575498600021 0.25122251148300007 0.098369599248450026 0.40227926390800001 0.010610561994740001 0.85184117530050008 0.31475155279500006
decision_type=2 2 2 2 2 2 2 2 2 2 2 2 2 2 2 2 2 2 2 2 2 2 2 2 2 2 2 2 2 2
left_child=1 3 10 4 17 12 -7 8 -4 -2 11 -3 13 -6 -8 16 -11 22 -19 21 23 -20 24 -15 27 -23 -17 -1 -28 -27
right_child=9 2 7 -5 5 6 14 -9 -10 15 -12 -13 -14 20 -16 26 -18 18 19 -21 -22 25 -24 -25 -26 29 28 -29 -30 -31
leaf_value=-0.0088451337814331055 0.0086459096135764295 -0.0041125637598526787 0.016276805162429808 0.011366573423147203 -7.94590637087822e-05 0.012465706238379845 -0.0087070570815177186 0.020740829739305709 0.00057982578873634345 0.019921403080224994 -0.010030760403190342 0.0076074970716779877 0.0013148308477618478 -0.010329227495406356 0.0013488974293758131 0.02271749990327018 0.011100674420595169 0.00011449133356412252 -0.0072473819988469294 -0.0033384911440036916 -0.0071194938219645443 -0.0092219320627359245 -0.0068926594441845309 -0.014839775789351689 -0.013078840136528014 -0.011317940372973682 0.018934157118201258 -0.010880252487451128 0.021305957590711529 -0.012822578513416753
leaf_count=25 29 39 25 20 20 26 21 27 26 20 21 33 22 28 29 35 22 24 24 27 34 26 21 21 25 40 20 103 29 29
internal_value=0 -0.0729631 0.10082 -0.125559 -0.138509 -0.0632041 0.0474679 0.251794 0.165488 0.346457 -0.025804 0.0251826 -0.130493 -0.163982 -0.0574921 0.386399 0.30602 -0.182511 -0.155961 -0.181975 -0.203112 -0.208114 -0.20845 -0.245246 -0.218139 -0.224072 0.426588 -0.209655 0.406758 -0.239006
internal_count=891 736 171 565 545 201 76 78 51 155 93 72 125 103 50 126 42 344 170 146 83 119 174 49 153 95 84 128 49 69
shrinkage=0.05


Tree=10
num_leaves=31
num_cat=0
split_feature=12 2 9 11 2 3 6 9 10 6 11 9 6 1 3 11 4 8 12 10 2 1 1 11 3 5 2 2 5 0
split_gain=20.4072 7.64206 2.59326 2.10901 1.65607 1.5224 1.31356 2.0424 1.03441 0.894565 0.969485 0.794253 0.75112 0.644356 0.57127 0.530394 1.00247 0.427649 0.280378 0.243501 0.363009 0.183501 0.109807 0.0866711 0.0574893 0.108435 0.052913 0.0521734 0.0282579 0.0276734
threshold=0.70638945233250017 0.39342280392050005 0.40785821577800002 0.32784813688650005 0.12116998666100001 0.41750595948950003 0.43747169254200008 0.33356610800750003 0.26713615023500009 0.34168576001250001 0.32339898258750005 0.31238382899650002 0.49192103612600008 0.4185746674125001 0.29555047896050007 0.40618017943350004 0.40072559366750005 0.28116987179500003 0.37715517241400004 0.3295277633630001 0.19876255031800003 0.23379162227250003 0.28194053054100005 0.32266145031600008 0.1461251084355 0.27425774264700004 0.63510228081600006 0.28881565082500005 0.40292938047700005 0.40680216859100005
decision_type=2 2 2 2 2 2 2 2 2 2 2 2 2 2 2 2 2 2 2 2 2 2 2 2 2 2 2 2 2 2
left_child=1 3 5 18 21 9 7 8 -6 10 -3 -8 -4 -7 -9 16 -2 -13 19 23 22 -5 -21 24 25 -1 -17 29 -28 -26
right_child=15 2 12 4 6 13 11 14 -10 -11 -12 17 -14 -15 -16 26 -18 -19 -20 20 -22 -23 -24 -25 27 -27 28 -29 -30 -31
leaf_value=-0.0056817846372723586 0.020161469025271283 -0.0060578496559806497 0.0091963112757012643 -0.0075764731927351519 0.003793323625411306 0.0029651614278554915 0.002547855377197266 0.0049890338310173586 -0.0099229968532367988 -0.0091164565877988931 0.0077963871349181453 -0.0043732244893908501 0.020285692639075793 0.015657248608767989 0.015984659807549585 0.022523774883963846 0.0079171597026288509 -0.014589229368028186 -0.0029825075751259214 -0.0066938293928449806 -0.0025320654339862593 -0.013555355689355307 -0.01145255317290624 -0.0066644413485413504 -0.010331738945536727 -0.010578815438426458 0.020535413488265007 -0.012372988616598064 0.018124791607260705 -0.0083723511724244984
leaf_count=20 35 23 37 33 28 20 20 21 27 32 28 20 26 20 27 22 32 21 21 22 33 21 27 21 127 26 31 29 20 21
internal_value=0 -0.0653427 0.110471 -0.123221 -0.0461394 0.0259658 0.00387396 0.0727471 -0.0588029 -0.0512671 0.030968 -0.11242 0.275458 0.186224 0.223481 0.350517 0.286269 -0.192116 -0.171647 -0.178862 -0.131717 -0.198032 -0.18632 -0.194705 -0.200489 -0.168993 0.409484 -0.208674 0.391801 -0.201074
internal_count=891 751 186 565 218 123 164 103 55 83 51 61 63 40 48 140 67 41 347 326 82 54 49 244 223 46 73 177 51 148
shrinkage=0.05


Tree=11
num_leaves=31
num_cat=0
split_feature=13 2 9 11 6 1 5 5 6 12 13 8 8 12 3 0 11 3 3 9 8 8 4 0 6 6 10 9 11 1
split_gain=18.6663 5.44871 4.16148 2.45806 1.25232 1.33299 1.35183 1.23411 2.45083 1.12356 0.892678 0.6666 0.542744 0.486135 0.368435 0.332549 0.262021 0.237948 0.228087 0.23379 0.15429 0.386014 0.169346 0.0985988 0.0589148 0.0922544 0.0337491 0.0239905 0.0249119 0.0228431
threshold=0.55304237018150004 0.24186864097250002 0.44869497467850006 0.34243018635500005 0.20932430283850004 0.45579790396500003 0.28924162879750009 0.32366889993150005 0.34562005886100006 0.31553362238650007 0.97767857142850012 0.35554437784000004 0.33336000693650009 0.44097222222200005 0.34496692924500005 0.30593399996250009 0.35042608474550008 0.36564970076300002 -0.047167009919799996 0.46345958312149999 0.29358796179050006 0.34946633810600009 0.041701616432900011 0.42810872253550009 0.47855644371550005 0.8919015183050002 0.33242753623150006 0.24181957877600002 0.33122256119100002 0.34502671807350005
decision_type=2 2 2 2 2 2 2 2 2 2 2 2 2 2 2 2 2 2 2 2 2 2 2 2 2 2 2 2 2 2
left_child=1 9 3 4 5 6 -3 -5 -9 18 15 -10 -4 17 -8 -2 -12 26 -1 20 23 -22 -23 27 -18 -26 -6 29 -29 -20
right_child=10 2 12 7 13 -7 14 8 11 -11 16 -13 -14 -15 -16 -17 24 -19 19 -21 21 22 -24 -25 25 -27 -28 28 -30 -31
leaf_value=-0.0035082751642102786 0.0051805143803358086 -0.013517880750199161 0.0069065395256747378 0.012211749883922372 -0.0113137244113854 0.009505336225032808 0.0062692477554082875 0.013550187523166338 -0.00047326968474821615 0.0020925634407571387 0.013151028603315355 -0.013085766024887563 0.016637967526912691 -0.0025314777261681029 -0.0031074236401102762 0.013622105015175684 0.021046500073538889 -0.0067960039774576826 -0.010023176458244231 -0.0034247436374425888 -0.0024086868390440943 -0.0054922233894467362 -0.010951920172997884 -0.0064399498328566555 0.015757116526365283 0.020112764354675048 -0.013965338007325218 -0.010185107854860169 -0.012232219978519109 -0.0081751335039734838
leaf_count=23 20 24 23 37 28 25 20 24 22 28 20 20 38 27 22 28 36 30 102 20 28 20 49 20 20 31 21 42 23 20
internal_value=0 -0.0664229 0.0212712 -0.0271432 -0.092595 -0.00654376 -0.0810326 0.0980412 0.016084 -0.150843 0.315402 -0.129584 0.259375 -0.166469 0.0271532 0.202096 0.36623 -0.20606 -0.166392 -0.173223 -0.180113 -0.147202 -0.187388 -0.195534 0.389957 0.368093 -0.249003 -0.202672 -0.218189 -0.194404
internal_count=891 736 361 300 197 91 66 103 66 375 155 42 61 106 42 48 107 79 347 324 304 97 69 207 87 51 49 187 65 122
shrinkage=0.05


Tree=12
num_leaves=31
num_cat=0
split_feature=12 2 9 0 6 11 13 9 8 2 4 4 4 6 12 3 10 10 10 11 6 4 0 10 9 11 11 6 10 11
split_gain=16.8578 6.24899 4.09974 1.24448 1.18895 1.23463 1.16024 0.909179 0.781426 0.63903 0.472201 0.890242 0.460317 1.10893 0.442847 0.406275 0.336328 0.273383 0.26972 0.416628 0.727326 0.765626 0.137506 0.0826679 0.0684686 0.0682439 0.283066 0.0500962 0.00740661 0.00168577
threshold=0.70638945233250017 0.24863488917200002 0.38595974229300006 0.41173156450750009 0.34013232514200004 0.34299616372000002 0.45993589743550006 0.490117959534 0.32292570750350003 0.48721360230650007 0.56949806949850013 0.37808863484600003 0.066878912614650024 0.20932430283850004 0.31553362238650007 0.36022808656350008 0.26272648835200002 0.27681992337200007 0.44491129785250011 0.33063345728950005 0.16073028133100001 0.41387467118000004 0.42248049369450008 0.46913109756100008 0.57153194128600004 0.24670248284100002 0.19489375187000002 0.48522304093150009 0.32849969256000006 0.32212395300950003
decision_type=2 2 2 2 2 2 2 2 2 2 2 2 2 2 2 2 2 2 2 2 2 2 2 2 2 2 2 2 2 2
left_child=1 14 3 4 5 12 7 -4 17 -8 11 23 -3 -14 18 -10 -6 -5 19 22 -21 -22 25 -2 -12 26 -1 -18 29 -27
right_child=10 2 6 8 16 -7 9 -9 15 -11 24 -13 13 -15 -16 -17 27 -19 -20 20 21 -23 -24 -25 -26 28 -28 -29 -30 -31
leaf_value=-0.0094209770834635179 0.02078780859708786 -0.0087302887439727785 -0.00018599907703259412 0.0024387606460115185 -0.0043262720480561258 0.0097897406844865715 0.022339895757890884 0.011294101987566267 0.0032396512275392358 0.010145965895869516 0.021386745053788889 0.0078640424107250424 0.0069705639034509659 -0.0075590930365282919 -0.0011526574882177207 0.013086065948009491 -0.010534054429634759 -0.0051896627681950729 -0.012622606355164732 -0.012228212753931683 0.004963056800457148 -0.0067595696697632483 -0.0051943964457937652 0.0162961612145106 0.017930337865101665 -0.00929808346240708 -0.0025933847948908808 -0.01391178472411065 -0.010267186549402053 -0.0098060936853289621
leaf_count=63 20 30 34 23 20 21 21 35 22 22 23 38 24 29 26 20 23 24 28 21 26 30 28 21 38 89 20 21 31 20
internal_value=0 -0.059389 0.0334228 -0.0361609 -0.0868096 -0.0208162 0.193093 0.112745 0.0594457 0.322023 0.31858 0.267547 -0.0756214 -0.0195925 -0.149042 0.158568 -0.194049 -0.0291321 -0.158244 -0.150202 -0.0858546 -0.0263384 -0.169942 0.369744 0.384671 -0.178235 -0.155515 -0.242923 -0.191705 -0.187826
internal_count=891 751 369 257 168 104 112 69 89 43 140 79 83 53 382 42 64 47 356 328 77 56 251 41 61 223 83 44 140 109
shrinkage=0.05


Tree=13
num_leaves=31
num_cat=0
split_feature=13 11 2 9 6 5 12 12 0 2 1 2 1 5 7 8 9 2 2 0 3 10 5 2 11 6 8 10 2 10
split_gain=15.4288 4.61077 2.5612 2.18689 1.52677 1.65134 1.31206 0.822313 0.812368 0.80081 0.679356 0.678243 0.777813 0.878393 0.894566 0.755327 0.513683 0.490784 0.173895 0.321793 0.122774 0.117267 0.295905 0.0701832 0.0425711 0.03853 0.119981 0.00370768 0.00252709 0.00201034
threshold=0.55304237018150004 0.32784813688650005 0.24186864097250002 0.4917804304695001 0.19869770359450004 0.30755135387500004 0.38548951048950003 0.25543478260850006 0.37525699077400004 0.44178327176400006 0.34872196858400001 0.24863488917200002 0.49962121212100002 0.28924162879750009 0.31342961398050007 0.24994588744600002 0.39971056439950009 0.39874620057450005 0.13103110642900001 0.20788936366400004 0.27537517157550001 0.34844134536550003 0.33873725800300003 0.39205716295700005 0.37778226694400002 0.29939897969000001 0.17813566236450001 0.31736011477800002 0.86877655621000016 0.06316489361700002
decision_type=2 2 2 2 2 2 2 2 2 2 2 2 2 2 2 2 2 2 2 2 2 2 2 2 2 2 2 2 2 2
left_child=1 11 7 4 -4 -6 17 10 -8 -2 18 21 13 23 15 -15 -11 -7 19 -3 -18 25 -23 -13 -22 27 -27 29 -26 -1
right_child=9 2 3 -5 5 6 8 -9 -10 16 -12 12 -14 14 -16 -17 20 -19 -20 -21 24 22 -24 -25 28 26 -28 -29 -30 -31
leaf_value=-0.0093271319396220718 0.0068461129891461345 -0.010210030836363633 0.011003915736308465 0.015632413406121103 0.0093397301932175956 -0.013026832640171052 -0.0037681487699349724 0.0042959150088870014 0.010312209650874139 0.0096446942687034611 0.0012065924393634001 -0.0095728959356035509 0.003755517303943634 0.0080833048249284428 -0.0086802182878766756 -0.0045966225473777107 0.014968060304721196 -0.0034340209948519867 -0.011029089199645179 -0.0016225909069180488 0.020610259066928517 -0.0013800978288054466 -0.0099810471758246429 -0.01371150128543377 0.018329165813823541 -0.004515789662088667 -0.0093226247850586395 -0.0096581752598285681 0.017610871315002441 -0.0088399070069978113
leaf_count=26 29 24 39 38 33 30 21 23 20 25 24 21 27 24 35 23 30 24 35 20 22 20 20 20 24 21 34 20 25 114
internal_value=0 -0.0603884 0.0271626 0.0961256 0.0468569 -0.00592146 -0.0728649 -0.0850391 0.0620064 0.286748 -0.123214 -0.131942 -0.0785857 -0.112324 -0.0525684 0.0375647 0.321231 -0.175267 -0.167977 -0.126133 0.352998 -0.163329 -0.113611 -0.231835 0.375661 -0.172579 -0.149746 -0.180427 0.359254 -0.178608
internal_count=891 736 331 205 167 128 95 126 41 155 103 405 150 123 82 47 126 54 79 44 101 255 40 41 71 215 55 160 49 140
shrinkage=0.05


Tree=14
num_leaves=31
num_cat=0
split_feature=13 11 2 9 6 5 12 12 0 13 1 2 1 5 7 8 2 10 2 2 0 10 5 2 11 5 7 10 10 11
split_gain=13.9245 4.16122 2.31148 1.97367 1.37791 1.49033 1.18413 0.742137 0.733162 0.730777 0.613119 0.612114 0.701976 0.79275 0.807346 0.681682 0.442933 0.297467 0.221266 0.15694 0.290418 0.105834 0.267055 0.0633404 0.0360097 0.0349422 0.0290895 0.00796778 0.00130818 0.00100114
threshold=0.55304237018150004 0.32784813688650005 0.24186864097250002 0.4917804304695001 0.19869770359450004 0.30755135387500004 0.38548951048950003 0.25543478260850006 0.37525699077400004 0.97767857142850012 0.34872196858400001 0.24863488917200002 0.49962121212100002 0.28924162879750009 0.31342961398050007 0.24994588744600002 0.39874620057450005 0.42146381578950004 0.62987891785150008 0.13103110642900001 0.20788936366400004 0.34844134536550003 0.33873725800300003 0.39205716295700005 0.40115471744250003 0.49475265773300009 0.00058903884410800003 0.31909827760900006 0.06316489361700002 0.4965843922155001
decision_type=2 2 2 2 2 2 2 2 2 2 2 2 2 2 2 2 2 2 2 2 2 2 2 2 2 2 2 2 2 2
left_child=1 11 7 4 -4 -6 16 10 -8 17 19 21 13 23 15 -15 -7 -2 -11 20 -3 25 -23 -13 -20 26 -1 28 -28 -26
right_child=9 2 3 -5 5 6 8 -9 -10 18 -12 12 -14 14 -16 -17 -18 -19 24 -21 -22 22 -24 -25 29 -27 27 -29 -30 -31
leaf_value=-0.0071396499469473561 0.0040314924858865292 -0.0096995293162763126 0.010453720008715606 0.014850792876983944 0.0088727433121565617 -0.012375491112470627 -0.0035797415035111568 0.0040811191434445586 0.0097965993359684957 0.012726865833004317 0.0011462628841400148 -0.0090942510536738807 0.0035677410386226794 0.007679139698545139 -0.0082462073649678912 -0.0043667915722598203 -0.0032623198504249254 0.011965970639829283 0.019165706051432571 -0.010477634604488101 -0.0015414616838097573 -0.0013110931217670441 -0.0094819947704672808 -0.013025926128029825 0.017029732316732406 -0.0062071364745497704 -0.0088893284710745025 -0.0095799539915540008 -0.008482549625581929 0.01656655770327364
leaf_count=37 21 24 39 38 33 30 21 23 20 36 24 21 27 24 35 23 24 27 23 35 20 20 20 20 20 20 24 22 112 28
internal_value=0 -0.057369 0.0258044 0.0913193 0.0445141 -0.00562539 -0.0692217 -0.0807872 0.0589061 0.27241 -0.117053 -0.125345 -0.0746564 -0.106708 -0.04994 0.0356864 -0.166504 0.169893 0.318399 -0.159579 -0.119826 -0.155162 -0.107931 -0.220243 0.35078 -0.16395 -0.168032 -0.173943 -0.171087 0.335191
internal_count=891 736 331 205 167 128 95 126 41 155 103 405 150 123 82 47 54 48 107 79 44 255 40 41 71 215 195 158 136 48
shrinkage=0.05


Tree=15
num_leaves=31
num_cat=0
split_feature=12 2 2 11 10 11 2 4 2 1 5 5 0 0 11 7 7 7 2 1 1 0 1 13 9 5 2 2 0 3
split_gain=12.7037 4.65158 1.74691 2.00878 1.46183 1.3194 1.20005 1.15565 0.838111 0.826696 1.01996 0.694429 0.622438 0.566781 0.531381 0.477023 0.397556 0.660238 0.96034 0.212896 0.548223 0.298226 0.195687 0.154896 0.125214 0.0867573 0.0739903 0.0570297 0.0517064 0.0313332
threshold=0.70638945233250017 0.39342280392050005 0.71376089049050007 0.32700983926800004 0.37221672439400005 0.32784813688650005 0.12116998666100001 0.63666344145750009 0.44884643985000006 0.33321013294500007 0.30295019683200003 0.35227349501650007 0.34019639101800003 0.44062011380300004 0.33987558687949998 0.43427807803550006 0.80886478239150017 0.19296429447700006 0.6116544159420001 0.24288302407950005 0.28194053054100005 0.41983488733500002 0.25033255124950005 0.14446227929350003 0.61803713527850013 0.49084234431200008 0.24863488917200002 0.63510228081600006 0.15723445557250001 0.010610561994740001
decision_type=2 2 2 2 2 2 2 2 2 2 2 2 2 2 2 2 2 2 2 2 2 2 2 2 2 2 2 2 2 2
left_child=1 5 3 13 8 19 22 9 -5 11 -11 14 -12 -3 -8 -6 17 -2 -19 25 -21 23 -7 28 -20 26 29 -18 -22 -1
right_child=16 2 -4 4 15 6 7 -9 -10 10 12 -13 -14 -15 -16 -17 27 18 24 20 21 -23 -24 -25 -26 -27 -28 -29 -30 -31
leaf_value=-0.0062408091189960638 0.018740685799947154 -0.009852784359827638 0.016039444009462993 0.0087582807677487537 0.01875522030251367 -0.0059436080648618585 -0.011659542061388493 -0.00955530971288681 -0.0031172537841858009 0.015222766002019248 -0.0044339867929617562 0.0042988032102584837 0.0071396728547719812 0.00071858167648315436 -0.00039868730713020668 0.0082197754220529034 0.019643909111618996 0.0015799925327301028 0.011010033115744592 0.0015123344026505949 -0.0062358491122722626 -0.0018903206619951462 -0.012176559045910836 -0.0036895445361733435 0.016419471994690276 -0.0048710499331355095 -0.010749076775930545 0.016092523359335389 -0.0090782293211668728 -0.0082432842254638681
leaf_count=24 26 32 27 24 21 34 20 25 39 21 21 29 26 21 22 22 20 25 20 24 20 27 20 20 23 20 27 26 80 105
internal_value=0 -0.051555 0.0856115 0.0456757 0.125155 -0.0967107 -0.0357429 0.00683127 0.0281352 0.0424315 0.121234 -0.0330413 0.0393693 -0.113283 -0.11522 0.2673 0.276556 0.239278 0.187455 -0.135013 -0.109884 -0.132763 -0.165042 -0.154128 0.278069 -0.159428 -0.167378 0.352732 -0.170195 -0.157415
internal_count=891 751 186 159 106 565 218 164 63 139 68 71 47 53 42 43 140 94 68 347 171 147 54 120 43 176 156 46 100 129
shrinkage=0.05


Tree=16
num_leaves=31
num_cat=0
split_feature=12 2 2 9 11 1 6 5 6 8 7 11 3 1 10 7 7 0 12 0 10 5 4 2 11 5 3 2 11 7
split_gain=11.5049 4.03556 1.62181 1.77872 1.10113 1.10445 1.5236 1.0655 0.857083 0.88011 0.888896 0.732835 0.683569 0.652966 0.644851 0.328234 0.786815 0.255265 0.206559 0.199558 0.177086 0.257281 0.441511 0.125871 0.066192 0.0568817 0.0938095 0.0698831 0.0557652 0.0291325
threshold=0.63739545997650016 0.39342280392050005 0.71376089049050007 0.27393001309900006 0.32784813688650005 0.33321013294500007 0.45603380462500004 0.32592025743650005 0.49968814811500001 0.48819149271300005 0.37691885470650005 0.3417726085865001 0.49955864264000011 1.0000000180025095e-35 0.23606811145500003 0.52002507855900004 0.35811173317200001 0.32645468319950005 0.37715517241400004 0.24215543214900001 0.3295277633630001 0.27262903297350011 0.094037859248350023 0.54958675439450011 0.32266145031600008 0.294909681255 0.1461251084355 0.26752128381300005 0.49186623674350011 0.30085476842450004
decision_type=2 2 2 2 2 2 2 2 2 2 2 2 2 2 2 2 2 2 2 2 2 2 2 2 2 2 2 2 2 2
left_child=1 4 3 14 18 12 7 -7 9 10 -5 -2 13 -6 -3 16 -13 19 20 -15 24 -22 -23 -17 25 26 -1 -27 -25 -28
right_child=11 2 -4 8 5 6 -8 -9 -10 -11 -12 15 -14 17 -16 23 -18 -19 -20 -21 21 22 -24 28 -26 27 29 -29 -30 -31
leaf_value=-0.0037726731882208871 0.0056383421520392104 -0.00032484639436006549 0.015237471737243512 0.0044255262400422777 0.0015010817419914974 0.014619063794612886 -0.0086707415905865753 0.0012570815513262877 0.014089639484882356 0.0097370462957769646 -0.008227996463360995 0.016489359941975822 0.0030979582149049511 -0.0085729387326118275 -0.012729883024638351 0.019589158309542616 0.003598245307803154 -0.012360134527639108 -0.0014654315263032914 -0.0024298964440822601 -0.0084763193438793048 0.0032435934618115429 -0.0061711121237639222 0.01679479187975327 -0.0046922562023003905 -0.007761820533660928 -0.008091550522436531 -0.010769180084268254 0.013386309519410134 -0.0058833855018019677
leaf_count=21 30 20 27 35 21 25 22 37 22 32 23 29 23 39 22 23 20 27 20 20 29 20 33 24 21 99 59 24 24 20
internal_value=0 -0.0511256 0.0786812 0.0390458 -0.093081 -0.036697 0.0526744 0.1329 0.104858 0.0616078 -0.011845 0.25256 -0.0944447 -0.128064 -0.136454 0.287509 0.224554 -0.166667 -0.127954 -0.129811 -0.134006 -0.093802 -0.0523679 0.330957 -0.147517 -0.152572 -0.134859 -0.166972 0.301811 -0.15065
internal_count=891 741 181 154 560 214 84 62 112 90 58 150 130 107 42 120 49 86 346 59 326 82 53 71 244 223 100 123 48 79
shrinkage=0.05


Tree=17
num_leaves=31
num_cat=0
split_feature=13 2 11 2 9 1 1 3 1 9 2 12 11 9 0 9 6 1 1 3 5 7 2 9 9 11 9 10 10 2
split_gain=10.4218 3.07712 2.33227 1.3415 1.07669 0.983018 0.955447 1.01019 0.701569 1.08156 0.579658 0.49035 0.458941 0.383425 1.43434 0.37928 0.234565 0.21261 0.179818 0.163496 0.243739 0.121158 0.109993 0.1825 0.10997 0.118165 0.0800488 0.0335373 0.0184896 0.00878043
threshold=0.55304237018150004 0.71376089049050007 0.32784813688650005 0.12116998666100001 0.41489207590900007 0.33321013294500007 0.086924440722550025 0.45752747434250007 0.31021905349950007 0.30039929015100003 0.44178327176400006 0.14650398061600003 0.39174145890300011 0.29885293988850004 0.38085982679850006 0.39971056439950009 0.22961896322550004 0.50136612021850013 0.23379162227250003 0.47296374159800009 0.32190837378650006 0.34391757443100007 0.28881565082500005 0.22311111111100002 0.47592295345100005 0.38584667765050001 0.25181813725600005 0.070197044335000028 0.31083279115150003 0.7787526943880001
decision_type=2 2 2 2 2 2 2 2 2 2 2 2 2 2 2 2 2 2 2 2 2 2 2 2 2 2 2 2 2 2
left_child=1 2 13 18 6 -6 -5 8 21 -10 -2 -11 -7 17 16 -12 -15 19 -4 22 -21 -8 23 27 -17 -26 -24 -1 -29 -27
right_child=10 -3 3 4 5 12 7 -9 9 11 15 -13 -14 14 -16 24 -18 -19 -20 20 -22 -23 26 -25 25 29 -28 28 -30 -31
leaf_value=-0.0054454492671149116 0.0054100423023618503 0.014412944305401583 -0.0048586687538772827 0.0098535306379199036 0.00012838804360592004 0.016888187470890225 -0.0063636860996484764 0.0059411564513164412 0.0075695260465145119 -0.0093482002367575971 0.0077365775108337413 -0.0005158560294093508 0.006554350460117514 -0.0031830143597390923 0.0050774511156810656 0.017935526072978974 -0.008927236282481597 -0.0115869714692235 -0.010902306810021401 -0.0066942332684993755 -0.00030311569571495056 -0.011801354799951827 -0.007034832872450352 -0.0033111863034336192 0.010567396808238257 0.015780631676316263 -0.011508333757519723 -0.0073107407738765076 -0.0090023331344127652 0.014497537463903427
leaf_count=21 29 26 32 20 33 21 20 34 25 30 25 33 22 27 36 20 52 20 20 35 26 21 20 38 21 20 20 84 20 40
internal_value=0 -0.0496317 -0.0620051 0.00291303 0.0323414 0.132391 -0.00920911 -0.0345195 -0.0749354 -0.024598 0.23567 -0.0944347 0.232022 -0.112606 -0.0638903 0.265009 -0.13928 -0.132332 -0.143663 -0.124801 -0.079403 -0.182977 -0.138443 -0.126911 0.292305 0.275909 -0.185432 -0.145361 -0.152721 0.298505
internal_count=891 736 710 311 259 76 183 163 129 88 155 63 43 399 115 126 79 284 52 264 61 41 203 163 101 81 40 125 104 60
shrinkage=0.05


Tree=18
num_leaves=31
num_cat=0
split_feature=12 2 11 11 1 6 5 10 5 7 11 3 3 1 10 7 7 0 12 0 10 5 5 2 3 0 10 6 11 2
split_gain=9.49189 3.3179 1.38618 0.888911 0.948345 1.36378 0.965779 0.840852 0.755679 0.903611 0.612038 0.596983 0.573231 0.546808 0.455222 0.283928 0.708689 0.237538 0.182586 0.179304 0.157376 0.231868 0.417816 0.129176 0.0578631 0.10449 0.0592251 0.0976321 0.0517568 0.0420403
threshold=0.63739545997650016 0.39342280392050005 0.35163592798400006 0.32784813688650005 0.33321013294500007 0.45603380462500004 0.32592025743650005 0.37221672439400005 0.30178352725050006 0.21443644590950001 0.3417726085865001 0.30036225377550002 0.49955864264000011 1.0000000180025095e-35 0.29953271028050005 0.52002507855900004 0.35811173317200001 0.32645468319950005 0.37715517241400004 0.24215543214900001 0.3295277633630001 0.27262903297350011 0.33873725800300003 0.54958675439450011 0.35043805449200005 0.35149001163850002 0.22612143448950003 0.068336836239100016 0.49186623674350011 0.26752128381300005
decision_type=2 2 2 2 2 2 2 2 2 2 2 2 2 2 2 2 2 2 2 2 2 2 2 2 2 2 2 2 2 2
left_child=1 3 8 18 12 6 -6 14 11 -10 -2 -3 13 -5 -4 16 -12 19 20 -15 24 -22 -23 -17 25 26 27 -1 -25 -26
right_child=10 2 7 4 5 -7 -8 -9 9 -11 15 -13 -14 17 -16 23 -18 -19 -20 -21 21 22 -24 28 29 -27 -28 -29 -30 -31
leaf_value=-0.0070724875769681396 0.00508251798649629 -0.011128201264710653 0.0092678490139189214 0.0013273633306934722 0.013836565077304842 -0.0082454145970669666 0.0011151925736182446 0.014524312930948594 0.011077916994690896 -0.0017564429435878992 0.015133129522718234 0.00011215328618332192 0.0027947116157282957 -0.0078684302476736221 -0.0010240331292152404 0.018168563298557119 0.0028987520188093188 -0.011556645096452149 -0.0011534427851438522 -0.0020454684644937516 -0.0077745001634647107 0.0032667139456385658 -0.0058097371598705653 0.015253140342732271 -0.0071170488215354559 -0.0031219933331012727 -0.0077772978506982331 -0.0027154209837317467 0.011969444528222085 -0.0096707347035408023
leaf_count=36 30 21 21 21 25 22 37 34 24 32 29 27 23 39 22 23 20 27 20 20 29 21 32 24 83 25 60 20 24 20
internal_value=0 -0.0464381 0.0712622 -0.0844805 -0.0338203 0.0489946 0.124896 0.172967 -0.00403851 0.0748799 0.229404 -0.09611 -0.0873315 -0.118118 0.0800447 0.261342 0.20279 -0.153444 -0.115814 -0.117891 -0.121503 -0.0836027 -0.0442681 0.301752 -0.134241 -0.121079 -0.133717 -0.110328 0.272226 -0.152258
internal_count=891 741 181 560 214 84 62 77 104 56 150 48 130 107 43 120 49 86 346 59 326 82 53 71 244 141 116 56 48 103
shrinkage=0.05


Tree=19
num_leaves=31
num_cat=0
split_feature=13 2 9 2 12 3 11 12 2 9 11 2 4 11 1 9 1 10 8 9 1 9 11 10 11 6 3 0 0 2
split_gain=8.63831 2.58531 1.91228 1.23445 1.02655 1.16519 0.848092 0.629019 0.504345 0.419881 0.416894 0.414084 0.402217 0.638842 0.698554 0.358473 0.589375 0.755733 0.346633 0.312877 0.155143 0.101721 0.0957661 0.0881833 0.0873105 0.132051 0.0664518 0.0353609 0.0225802 0.0144726
threshold=0.55304237018150004 0.71376089049050007 0.41489207590900007 0.24373100413600005 0.30216450216450003 0.40168965529750006 0.34243018635500005 0.48932269197600003 0.44178327176400006 0.32058846824000004 0.38543662280050006 0.4165370628115001 0.37808863484600003 0.32339898258750005 0.24825254360850005 0.22311111111100002 0.24288302407950005 0.31555239449950007 0.288736101711 0.39971056439950009 0.37296529431650011 0.47592295345100005 0.38584667765050001 0.3126827485380001 0.344154950944 0.44350517571000009 0.010610561994740001 0.34229930478350007 0.26679819862700005 0.16124670979850003
decision_type=2 2 2 2 2 2 2 2 2 2 2 2 2 2 2 2 2 2 2 2 2 2 2 2 2 2 2 2 2 2
left_child=1 2 4 -4 10 6 9 11 -2 -6 12 -5 13 15 -15 23 -17 -18 -16 -10 24 -21 -23 26 25 -14 -1 28 29 -28
right_child=8 -3 3 7 5 -7 -8 -9 19 -11 -12 -13 20 14 18 16 17 -19 -20 21 -22 22 -24 -25 -26 -27 27 -29 -30 -31
leaf_value=-0.0044728274667455306 0.0047829645461049571 0.013226376760464448 -0.0044319577076855831 -0.00061158806085586553 -0.002061830935153094 0.0084113514333060291 0.0049785931679335515 0.013739917675654092 0.0070883240103721615 -0.011723768775877746 0.0011055865724171911 0.0087939054451205527 -0.0082256714850664145 0.0055742311323511195 -0.0074710662243887786 -0.0083917797592125438 -0.006371234694961459 0.0039963170503958681 -0.00022065307506743601 0.01652921833097935 -0.011658428690355757 0.0096413924580528634 0.013564527456959088 -0.0096389557476396909 -0.0094037718450029686 -0.00297604870537053 -0.0065955665721385576 -0.0087016322864935953 -0.0051276049576699737 -0.0081700815632939332
leaf_count=31 29 26 34 25 22 33 22 24 25 23 28 22 25 29 32 38 32 39 34 20 23 21 60 27 24 23 54 26 20 20
internal_value=0 -0.0451859 -0.0565275 0.0680472 -0.0781479 0.0144193 -0.0613367 0.14308 0.21456 -0.140003 -0.096478 0.0758197 -0.103439 -0.0889581 -0.0178787 -0.112486 -0.0673231 -0.0135276 -0.0747201 0.241926 -0.161668 0.266718 0.250948 -0.140142 -0.138828 -0.114205 -0.13073 -0.141393 -0.132365 -0.140422
internal_count=891 736 710 105 605 100 67 71 155 45 505 47 477 382 95 287 109 71 66 126 95 101 81 178 72 48 151 120 94 74
shrinkage=0.05


Tree=20
num_leaves=31
num_cat=0
split_feature=13 2 9 2 12 3 11 12 13 9 11 2 4 11 1 10 5 8 10 4 2 9 1 9 9 11 4 3 2 11
split_gain=7.79607 2.33324 1.72583 1.11409 0.926457 1.05158 0.765404 0.56769 0.482897 0.378943 0.376246 0.37371 0.363001 0.576555 0.630445 0.326017 0.349729 0.312837 0.238748 0.156983 0.331799 0.153398 0.140017 0.10433 0.177433 0.0787978 0.127045 0.0662157 0.0605871 0.0229285
threshold=0.55304237018150004 0.71376089049050007 0.41489207590900007 0.24373100413600005 0.30216450216450003 0.40168965529750006 0.34243018635500005 0.48932269197600003 0.97767857142850012 0.32058846824000004 0.38543662280050006 0.4165370628115001 0.37808863484600003 0.32339898258750005 0.24825254360850005 0.34078421578400003 0.33873725800300003 0.288736101711 0.42146381578950004 0.35684970345600009 0.62987891785150008 0.31931609371700004 0.37296529431650011 0.25181813725600005 0.21675218936400001 0.344154950944 0.49998845751400006 0.010610561994740001 0.24186864097250002 0.45594014689000001
decision_type=2 2 2 2 2 2 2 2 2 2 2 2 2 2 2 2 2 2 2 2 2 2 2 2 2 2 2 2 2 2
left_child=1 2 4 -4 10 6 9 11 18 -6 12 -5 13 15 -15 21 -17 -16 -2 -10 -21 23 25 24 27 26 -14 -1 -29 -22
right_child=8 -3 3 7 5 -7 -8 -9 19 -11 -12 -13 22 14 17 16 -18 -19 -20 20 29 -23 -24 -25 -26 -27 -28 28 -30 -31
leaf_value=-0.0044589033816009758 0.0020263505123910451 0.012565057896650756 -0.0042103597346474144 -0.00058100870251655582 -0.0019587392495437105 0.0079907838142279416 0.0047296636145223274 0.013052921742200851 0.015357423766895577 -0.011137580288493116 0.0010503071493336133 0.0083542101423848755 -0.0075987406208046851 0.0052955197106147635 -0.0070975129725411538 0.0026864784148832163 -0.0062659629434347157 -0.00020962050732444319 0.0091346990455079963 0.0063076231628656394 0.014525903314352035 -0.0019756371598868144 -0.01107550721777522 -0.0088702799299278778 -0.0015141877345740797 -0.0089335832123955093 -0.0023810815997421745 -0.0064287031642519506 -0.0090131666254380655 0.012392365340800848
leaf_count=32 21 26 34 25 22 33 22 24 27 23 28 22 28 29 32 24 20 34 27 26 20 21 23 37 20 24 20 104 29 34
internal_value=0 -0.0429266 -0.0537011 0.0646448 -0.0742405 0.0136984 -0.0582699 0.135926 0.203832 -0.133003 -0.0916541 0.0720287 -0.0982673 -0.0845102 -0.0169847 -0.106862 -0.0276563 -0.0709841 0.120496 0.241216 0.218964 -0.121204 -0.153585 -0.128931 -0.119236 -0.131887 -0.108494 -0.130018 -0.139845 0.263651
internal_count=891 736 710 105 605 100 67 71 155 45 505 47 477 382 95 287 44 66 48 107 80 243 95 222 185 72 48 165 133 54
shrinkage=0.05


Tree=21
num_leaves=31
num_cat=0
split_feature=12 2 9 6 11 1 10 3 7 0 0 11 0 10 11 10 11 0 2 9 7 9 1 11 10 3 13 1 7 3
split_gain=7.03858 2.78954 1.89631 0.823559 1.48564 1.1032 0.737121 0.710956 0.993994 0.645552 0.848655 0.574985 0.485739 0.382687 0.349518 0.348442 0.621056 0.687713 0.30843 0.294163 0.284248 0.653697 0.408267 0.275046 0.185131 0.151569 0.115637 0.113058 0.243846 0.0247475
threshold=0.70638945233250017 0.24186864097250002 0.38595974229300006 0.20932430283850004 0.32339898258750005 0.41024831649800003 0.18708333333350005 0.10386042467650002 0.46311318302200005 0.41173156450750009 0.49051580177500004 0.33638458604850008 0.41774544899550009 0.49800000000000005 0.28451193217450005 0.24806955496600003 0.32862770223400001 0.23626580299100003 0.40522519158150005 0.33672075252700001 0.19296429447700006 0.40047169811300004 0.28503311686650007 0.33323811294100009 0.070197044335000028 0.32842386073150004 0.95436507936500015 0.25401601869400009 0.30786482233400009 0.51050732464350013
decision_type=2 2 2 2 2 2 2 2 2 2 2 2 2 2 2 2 2 2 2 2 2 2 2 2 2 2 2 2 2 2
left_child=1 13 3 4 5 14 -5 -4 11 18 -11 -9 -13 15 -3 23 27 -18 19 25 -2 -22 -23 24 -1 -8 -24 -17 -29 -28
right_child=20 2 7 6 -6 -7 9 8 -10 10 -12 12 -14 -15 -16 16 17 -19 -20 -21 21 22 26 -25 -26 -27 29 28 -30 -31
leaf_value=-0.0022381731141836217 0.015010294805352504 -0.002662855253687927 -0.0020105826109647752 0.0045858018876363841 0.010291986469481443 0.0077082755044102676 -0.0045074333215043656 0.0053079882547968915 0.0010705156191702812 0.0076614073477685452 -0.0065695392814549532 0.021058667153120044 0.010170906462839671 -0.010946519151329995 -0.011317140050232412 -0.0067752371118827304 -0.004853982533569689 0.0058345274123198848 -0.0120134516954422 -0.00042684158310294149 0.001008436232805252 0.0053356357539693514 0.015996927980865754 -0.010239022450916695 -0.0062884657515906821 -0.010218645130785612 0.012495428760503901 -0.00094286546111106879 -0.0074083189368247988 0.010209201648831368
leaf_count=39 26 28 20 24 37 20 21 21 31 20 22 20 21 25 20 55 27 34 25 20 20 24 21 33 102 26 29 35 25 20
internal_value=0 -0.0383749 0.0224901 -0.0240601 0.044584 -0.043158 -0.069678 0.130833 0.167616 -0.0985844 0.00414204 0.240719 0.30964 -0.0994023 -0.125376 -0.0908646 -0.059492 0.022071 -0.145481 -0.110113 0.205854 0.184335 0.219264 -0.122598 -0.103363 -0.153337 0.257853 -0.102756 -0.0727361 0.231245
internal_count=891 751 376 263 105 68 158 113 93 134 42 62 41 375 48 350 176 61 92 67 140 114 94 174 141 47 70 115 60 49
shrinkage=0.05


Tree=22
num_leaves=31
num_cat=0
split_feature=13 2 12 11 2 5 5 12 6 9 9 0 2 9 0 9 10 10 6 9 10 2 11 2 2 4 9 11 2 2
split_gain=6.47771 1.9884 1.4497 1.16021 0.697682 0.801924 0.955181 0.96305 1.29465 1.25469 0.874596 0.499828 0.408223 0.239001 0.231062 0.691525 0.314835 0.447312 0.454999 0.150798 0.124693 0.22419 0.159334 0.252505 0.136939 0.119473 0.107813 0.0880505 0.0653463 0.010066
threshold=0.55304237018150004 0.71376089049050007 0.63739545997650016 0.33063345728950005 0.12116998666100001 0.29240108733650005 0.33350430622150007 0.21186767097500001 0.35252261164500004 0.4405660115995001 0.33356610800750003 0.35433964615850005 0.44178327176400006 0.39971056439950009 0.41983488733500002 0.27393001309900006 0.37343290512300004 0.32690166975900009 0.20667445576600002 0.12266516776200002 0.072172619047650016 0.12025971968950001 0.32176174701050003 0.24186864097250002 0.30150638361600007 0.46238708820400004 0.47592295345100005 0.38584667765050001 0.21093744944900003 0.7787526943880001
decision_type=2 2 2 2 2 2 2 2 2 2 2 2 2 2 2 2 2 2 2 2 2 2 2 2 2 2 2 2 2 2
left_child=1 2 3 14 25 10 -7 9 -9 11 -6 -8 -2 -14 16 19 17 20 -19 -16 21 -1 24 -24 -22 -5 -15 -28 -18 -29
right_child=12 -3 -4 4 5 6 7 8 -10 -11 -12 -13 13 26 15 -17 28 18 -20 -21 22 -23 23 -25 -26 -27 27 29 -30 -31
leaf_value=-0.0063142527826130397 0.0039413950566587778 0.011624338305913487 0.008120093783063274 -0.0082680298984050757 -0.00076675319245883404 -0.0079198509062591346 -0.0020400649514691585 0.016448350250720979 -0.00094575823649116193 0.0083306365460157402 0.011247664780327769 -0.011910110323325448 0.0061440240144729624 0.014891975782811644 -0.0028526440262794496 0.0041493437918169165 -0.0068759395740926269 0.0050205957306467975 -0.0046337461958710965 -0.0088514772159132091 -0.0058600993068129931 0.00067353594032200901 -0.0069942625798285005 0.00095093442127108579 -0.009594727332393329 -0.0030832891352474689 0.0080061808938071844 0.012683838717639445 -0.010493977568470515 0.011310018990188839
leaf_count=24 29 26 31 25 28 38 29 20 23 20 33 23 25 20 20 28 24 23 26 22 135 22 20 20 30 20 21 20 26 40
internal_value=0 -0.039129 -0.0490755 -0.0587306 -0.00609144 0.0177086 -0.020944 0.0244753 0.14289 -0.0462449 0.114657 -0.128113 0.1858 0.21042 -0.0911914 -0.0387439 -0.101681 -0.0894367 -0.00204233 -0.119898 -0.106498 -0.0594453 -0.117056 -0.0604333 -0.130782 -0.119274 0.232088 0.215854 -0.175146 0.235359
internal_count=891 736 710 679 259 214 153 115 43 72 61 52 155 126 420 70 350 300 49 42 251 46 205 40 165 45 101 81 50 60
shrinkage=0.05


Tree=23
num_leaves=31
num_cat=0
split_feature=13 2 12 11 11 5 2 4 12 9 7 4 13 0 9 10 10 6 4 11 9 9 0 10 11 11 2 2 8 2
split_gain=5.84614 1.79453 1.30835 1.04709 0.646244 0.777207 1.02647 0.977158 0.843601 1.17568 0.664861 0.698336 0.390102 0.208533 0.624101 0.284139 0.403699 0.419054 0.205229 0.176458 0.148436 0.136096 0.12235 0.112535 0.213646 0.143799 0.227885 0.123587 0.108789 0.058975
threshold=0.55304237018150004 0.71376089049050007 0.63739545997650016 0.33063345728950005 0.33336515187800003 0.29240108733650005 0.21731652212550004 0.35594168659350006 0.21186767097500001 0.33809995340200005 0.38815487416850009 0.45417353253050002 0.97767857142850012 0.41983488733500002 0.27393001309900006 0.37343290512300004 0.32690166975900009 0.3198733670715001 0.40072559366750005 0.35473794314950008 0.78858695652150013 0.12266516776200002 0.46443050025100002 0.072172619047650016 0.22477309271050003 0.32176174701050003 0.24186864097250002 0.30150638361600007 0.54909676781200012 0.21093744944900003
decision_type=2 2 2 2 2 2 2 2 2 2 2 2 2 2 2 2 2 2 2 2 2 2 2 2 2 2 2 2 2 2
left_child=1 2 3 13 -5 6 -6 -8 10 -10 19 -12 18 15 21 16 23 -18 -2 -7 22 -15 -14 24 -1 27 -27 -25 -24 -17
right_child=12 -3 -4 4 5 8 7 -9 9 -11 11 -13 20 14 -16 29 17 -19 -20 -21 -22 -23 28 25 -26 26 -28 -29 -30 -31
leaf_value=-0.006382695704021237 0.0083497873817880951 0.011043121465123616 0.0077140891984585798 0.007711036762465602 -0.0042223636460091384 -0.013128731619905343 0.0012219129440685114 0.016186268702149394 0.011016155406832696 -0.0038178039166857215 0.0056524599529802801 -0.0058902932134898087 0.013679752821052396 -0.0027100118063390255 0.0039418762815850118 -0.0065321426217754682 0.0037429160984425711 -0.0056649036891758446 0.0018109698469440144 -0.0071448188541190965 0.0072185046970844272 -0.0084089033644307743 0.0070551447197794914 -0.0055670943304344462 0.00043880178903539974 -0.0066445494070649152 0.00090338772162795082 -0.0091149910291035974 0.012048227650423845 -0.0099692786542268912
leaf_count=22 24 26 31 23 28 22 24 20 22 34 20 38 37 20 28 24 29 20 24 28 26 22 20 135 24 20 20 30 24 26
internal_value=0 -0.0371726 -0.0466217 -0.0557941 -0.00578687 -0.0213808 0.0652292 0.160478 -0.0594047 0.0401965 -0.11105 -0.0382007 0.17651 -0.0866318 -0.0368067 -0.0965969 -0.0849648 -0.00194021 0.101608 -0.195555 0.210111 -0.113903 0.231213 -0.101173 -0.0564731 -0.111203 -0.0574116 -0.124243 0.195573 -0.166389
internal_count=891 736 710 679 259 236 72 44 164 56 108 58 155 420 70 350 300 49 48 50 107 42 81 251 46 205 40 165 44 50
shrinkage=0.05


Tree=24
num_leaves=31
num_cat=0
split_feature=13 2 9 6 4 2 9 5 11 5 3 7 6 3 7 0 6 5 2 10 10 2 4 11 3 3 9 11 0 11
split_gain=5.28271 2.06735 1.55248 0.779663 1.11416 0.83404 0.656505 0.851245 0.584093 1.00963 0.509713 0.440143 0.487578 0.43248 0.406293 0.341073 0.429454 0.507648 0.871424 0.365993 0.24141 0.210088 0.140452 0.104681 0.100508 0.0926269 0.0837206 0.0578052 0.028824 0.0216766
threshold=0.75961538461550016 0.24186864097250002 0.44869497467850006 0.20932430283850004 0.20615204210500002 0.47652011614500006 0.23103678929750004 0.32707043549650006 0.35119764750000004 0.3421514663625001 0.33218793659000007 0.18504812351350003 0.29804793612950004 0.23916140201200004 0.37691885470650005 0.14185077386900002 0.29939897969000001 0.33325556074000001 0.12661432870250003 0.29468984962400008 0.34844134536550003 0.5651592842815002 0.44667646412100009 0.33223097589900003 0.59063006524750017 0.51837224366400003 0.30223894963800008 0.40115471744250003 0.18774779944650002 0.30949906011600004
decision_type=2 2 2 2 2 2 2 2 2 2 2 2 2 2 2 2 2 2 2 2 2 2 2 2 2 2 2 2 2 2
left_child=1 15 3 4 5 6 -3 -8 11 -10 13 -5 -13 -4 -14 23 20 19 -19 -18 25 -2 -16 -1 27 26 28 -23 -17 -30
right_child=21 2 10 8 -6 -7 7 -9 9 -11 -12 12 14 -15 22 16 17 18 -20 -21 -22 24 -24 -25 -26 -27 -28 -29 29 -31
leaf_value=-0.0057788951723258715 0.0061139746051695615 -0.0091943962275981908 0.0089421131610870359 0.0024782555177807809 0.011430053093603679 0.0084411788393150677 0.0078262590379877522 -0.0064263907447457318 0.0075844575735655702 -0.0048800633754581216 0.013462319880723952 -0.012061706995186598 0.00019761083854569328 -0.00092236667871475235 -0.009212853124848118 -0.0039961018684235494 -0.00018429731806883444 -0.0044480751770047044 0.0078755079885013402 -0.0084957309895091603 -0.00057973653354026651 0.013205976090554534 -0.0040118881464004516 -0.0095494320305685217 0.007472194656729699 -0.0026029947586357592 -0.008788034104957031 0.010330632887780668 -0.005514445319771767 -0.0074621130153536804
leaf_count=79 36 25 25 20 28 22 22 20 33 32 25 23 36 20 27 22 26 26 32 27 27 29 25 24 20 20 26 44 50 20
internal_value=0 -0.0316816 0.0201327 -0.00997584 0.0546218 -0.000113278 -0.0555851 0.0207857 -0.0485367 0.0289616 0.154761 -0.08699 -0.111595 0.091158 -0.0777114 -0.0840427 -0.0657167 -0.0176235 0.0470229 -0.0883685 -0.0980704 0.187142 -0.134248 -0.133149 0.212251 -0.114989 -0.125656 0.229458 -0.111495 -0.121418
internal_count=891 762 383 313 117 89 67 42 196 65 70 131 111 45 88 379 276 111 58 53 165 129 52 103 93 138 118 73 92 70
shrinkage=0.05


Tree=25
num_leaves=31
num_cat=0
split_feature=13 2 12 11 11 1 1 3 1 9 13 4 6 6 2 0 0 9 10 10 6 3 4 11 10 10 11 2 2 2
split_gain=4.76881 1.5099 1.13048 0.883258 0.585277 0.77136 0.907501 0.692632 0.967009 0.822744 0.33253 0.291997 0.745709 0.251515 0.201919 0.186358 0.176399 0.559575 0.26479 0.349969 0.376394 0.182964 0.141551 0.294069 0.101671 0.204851 0.128053 0.201331 0.123333 0.0563576
threshold=0.55304237018150004 0.71376089049050007 0.63739545997650016 0.33063345728950005 0.33336515187800003 1.0000000180025095e-35 0.34502671807350005 0.18306355653250003 0.4458180820260001 0.35438949594900004 0.97767857142850012 0.38174966958150008 0.29804793612950004 0.36452425361300006 0.20781224996800005 0.30593399996250009 0.41983488733500002 0.29885293988850004 0.37343290512300004 0.32690166975900009 0.3198733670715001 0.34897879273200011 0.35684970345600009 0.39560052147400004 0.072172619047650016 0.043961352657000005 0.32176174701050003 0.24186864097250002 0.26752128381300005 0.21093744944900003
decision_type=2 2 2 2 2 2 2 2 2 2 2 2 2 2 2 2 2 2 2 2 2 2 2 2 2 2 2 2 2 2
left_child=1 2 3 16 -5 -6 11 -8 -9 -10 15 12 -7 -13 -15 -2 18 21 19 24 -21 -18 -12 -24 25 -1 28 -28 -26 -20
right_child=10 -3 -4 4 5 6 7 8 9 -11 22 13 -14 14 -16 -17 17 -19 29 20 -22 -23 23 -25 26 -27 27 -29 -30 -31
leaf_value=-0.0061220261667455948 0.00082692954689264305 0.010155794998774163 0.007225378025924007 0.0073717413875071906 0.0079314291815866123 -0.0084830811992287636 -0.0067464248463511471 0.0094359128686942566 -0.0085702816645304367 0.0054258394808996292 0.012652447736925549 -0.0020687729492783547 0.0050072258959213897 -0.0046850285492837434 -0.011051885230523167 0.0071462552728397515 -0.0084876443631947043 0.0045258549973368643 -0.0060342325984189911 0.0036530686221246064 -0.0052630389109253883 -0.0021265673666046219 0.0032149426266551021 0.010215762394169967 -0.0049245071172714233 0.00057663314044475555 -0.0060917397402226927 0.00100281598046422 -0.0081143253482878208 -0.0093942309658114741
leaf_count=21 20 26 31 23 22 20 20 38 21 21 27 20 21 20 33 28 20 24 24 29 20 26 20 60 125 25 20 20 40 26
internal_value=0 -0.0335732 -0.0422407 -0.0507668 -0.00483813 -0.0196783 -0.0380089 0.0315206 0.0731329 -0.0314444 0.159419 -0.0989997 -0.0314682 -0.136928 -0.172986 0.0902641 -0.0790894 -0.0332637 -0.0882546 -0.0770256 0.000276821 -0.0978451 0.190441 0.169311 -0.0921165 -0.049629 -0.10165 -0.0508892 -0.113956 -0.155629
internal_count=891 736 710 679 259 236 214 100 80 42 155 114 41 73 53 48 420 70 350 300 49 46 107 80 251 46 205 40 165 50
shrinkage=0.05


Tree=26
num_leaves=31
num_cat=0
split_feature=13 2 9 6 11 1 4 2 12 0 8 10 11 10 12 3 9 4 0 4 2 8 8 4 3 11 11 5 10 11
split_gain=4.30867 1.76858 1.33109 0.71394 0.985666 1.02713 0.692678 0.50518 0.497954 0.998823 0.725323 0.355927 0.330849 0.313847 0.337038 0.200702 0.277241 0.189679 0.254652 0.225833 0.186531 0.13463 0.28792 0.131574 0.0930806 0.0679491 0.0597719 0.0331479 0.0315697 0.0211081
threshold=0.75961538461550016 0.24186864097250002 0.44869497467850006 0.20932430283850004 0.32339898258750005 0.37808558776899998 0.17230241475749999 0.47998368062450009 0.34393939393900003 0.39260990469950008 0.36815476190450003 0.23413177670450003 0.28451193217450005 0.52586975914400014 0.31553362238650007 -0.047167009919799996 0.3972400899900001 0.28209514499800009 0.40869512368350008 0.45141705546300009 0.5651592842815002 0.29358796179050006 0.34946633810600009 0.041701616432900011 0.59063006524750017 0.33122256119100002 0.40115471744250003 0.46294781315650002 0.31736011477800002 0.32613275975250006
decision_type=2 2 2 2 2 2 2 2 2 2 2 2 2 2 2 2 2 2 2 2 2 2 2 2 2 2 2 2 2 2
left_child=1 13 3 4 5 12 -6 -4 11 10 -10 -5 -3 14 15 -1 21 -13 19 -19 -2 25 -23 -24 26 27 -22 28 -17 -25
right_child=20 2 7 8 6 -7 -8 -9 9 -11 -12 17 -14 -15 -16 16 -18 18 -20 -21 24 22 23 29 -26 -27 -28 -29 -30 -31
leaf_value=0.00065615112808617686 0.0053946499816245504 -0.0016861509132598128 0.011326534921924274 0.00089871654143700236 0.0029826570875369587 0.0076562524813672782 0.015359586887061598 0.0028278555282775092 0.0019068073880459582 0.0086153411064986835 -0.010385831374497641 -0.0093434260298426337 -0.010106136463582516 -0.0099480573460459729 0.0017549086894307819 -0.0048297078635926565 0.0014065566658973694 -0.0031425920816568228 0.00041788339614868164 -0.010025730508972298 0.012223779744115371 0.0012385520670149062 -0.0015298291854560376 -0.0053909176650146643 0.0066114263236522674 -0.0074512923684190296 0.0092999325726519939 -0.0030873811617493632 -0.0065414164318806593 -0.0075615468301943366
leaf_count=22 36 28 36 26 26 23 20 34 28 27 21 26 20 20 28 107 20 26 20 22 29 27 20 24 20 34 44 20 36 21
internal_value=0 -0.0286121 0.0193121 -0.00856717 0.0532478 -0.0206313 0.167279 0.143972 -0.0454669 0.017869 -0.0672293 -0.0855797 -0.10389 -0.0770421 -0.07025 -0.0791616 -0.0857321 -0.114222 -0.0864458 -0.125947 0.169011 -0.0936119 -0.0620283 -0.0980834 0.19267 -0.108362 0.209229 -0.0998794 -0.105213 -0.128078
internal_count=891 762 383 313 117 71 46 70 196 76 49 120 48 379 359 331 309 94 68 48 129 289 92 65 93 197 73 163 143 45
shrinkage=0.05


Tree=27
num_leaves=31
num_cat=0
split_feature=13 2 12 11 11 1 1 1 3 3 2 4 6 6 2 9 3 1 1 8 0 5 10 5 2 2 9 11 0 8
split_gain=3.90351 1.3126 0.953301 0.729771 0.523544 0.685864 0.776757 0.632665 0.880891 0.567294 0.286408 0.254809 0.659579 0.224183 0.192471 0.18336 0.153287 0.181313 0.406899 0.239377 0.225037 0.347855 0.416803 0.298416 0.213284 0.142658 0.10621 0.0767806 0.0649784 0.102992
threshold=0.55304237018150004 0.71376089049050007 0.63739545997650016 0.33063345728950005 0.33336515187800003 1.0000000180025095e-35 0.34502671807350005 0.46888356868450004 0.28183948573750006 0.30960097857350005 0.44178327176400006 0.38174966958150008 0.29804793612950004 0.36452425361300006 0.20781224996800005 0.39971056439950009 0.86470128439850014 0.59291176659600009 0.49962121212100002 0.49902749832350007 0.26679819862700005 0.28924162879750009 0.32690166975900009 0.3603762851845001 0.28303735577150008 0.24186864097250002 0.47592295345100005 0.38584667765050001 0.17740240240250002 0.12308827286650002
decision_type=2 2 2 2 2 2 2 2 2 2 2 2 2 2 2 2 2 2 2 2 2 2 2 2 2 2 2 2 2 2
left_child=1 2 3 16 -5 -6 11 8 -8 -9 -2 12 -7 -13 -15 -12 17 18 19 20 28 25 23 24 -23 -22 -17 -28 29 -1
right_child=10 -3 -4 4 5 6 7 9 -10 -11 15 13 -14 14 -16 26 -18 -19 -20 -21 21 22 -24 -25 -26 -27 27 -29 -30 -31
leaf_value=-0.0053541830328644301 0.0027315470935969522 0.0095154136132735486 0.0066517060562487577 0.0069740319381589484 0.0074780699542977601 -0.0079584163241088381 -0.0025629373996154123 0.0026140820235013964 0.010183954464666772 -0.0087406694211743085 0.0044089409410953528 -0.0018752315267920494 0.0047289317917256135 -0.00421751769259572 -0.01043362645714572 0.012454703636467458 0.0005621462882984253 -0.0084604862332344054 0.0030237786979837853 -0.0076795737330730141 -0.0033609997161797114 -0.0035546751692891124 0.0047069083256968142 -0.0067902772128582006 0.0036599966564348769 -0.0086545825190842158 0.0057839234315213706 0.0092967195436358448 -0.0060553851404360369 -0.0021804183382879605
leaf_count=61 29 26 31 23 22 20 23 22 33 22 25 20 21 20 33 20 21 20 22 39 35 20 29 25 21 20 21 60 63 44
internal_value=0 -0.0303749 -0.0384563 -0.0462858 -0.004538 -0.0185737 -0.0358586 0.0284676 0.0989725 -0.0612659 0.144232 -0.0922852 -0.0292004 -0.127716 -0.161759 0.164854 -0.0720302 -0.076413 -0.0715161 -0.07965 -0.0705817 -0.0424289 -0.0057874 -0.0496941 0.00281289 -0.105719 0.183834 0.16772 -0.0957182 -0.0804845
internal_count=891 736 710 679 259 236 214 100 56 44 155 114 41 73 53 126 420 399 379 357 318 150 95 66 41 55 101 81 168 105
shrinkage=0.05


Tree=28
num_leaves=31
num_cat=0
split_feature=13 2 9 6 11 1 3 4 3 8 2 2 1 11 11 0 6 6 10 11 10 3 12 12 7 11 3 11 11 10
split_gain=3.52916 1.50296 1.14571 0.827236 1.0644 0.912555 0.489859 0.459326 0.453666 0.778476 0.773764 0.395833 0.345188 0.712394 0.301016 0.29626 0.343436 0.472499 0.473029 0.720175 0.188894 0.173756 0.163816 0.212998 0.230914 0.116305 0.0873928 0.133566 0.0948163 0.0185947
threshold=0.75961538461550016 0.24186864097250002 0.40785821577800002 0.20932430283850004 0.32339898258750005 0.41024831649800003 0.5241994446710001 0.15868530562250002 0.26306992333450002 0.40607977548800006 0.47998368062450009 0.46656712529500005 0.42662141779800006 0.33740761991150003 0.28451193217450005 0.13893737935950004 0.29939897969000001 0.35252261164500004 0.36256314517900007 0.32862770223400001 0.34844134536550003 0.35838142133750001 0.24758044503250001 0.98587064676650016 0.53026386760300015 0.33223097589900003 0.33218793659000007 0.32784813688650005 0.31383518621950007 0.31083279115150003
decision_type=2 2 2 2 2 2 2 2 2 2 2 2 2 2 2 2 2 2 2 2 2 2 2 2 2 2 2 2 2 2
left_child=1 15 3 4 5 14 11 -6 9 -4 -10 12 13 21 -3 25 20 -18 19 -19 26 -5 -2 -24 -25 29 27 -17 -28 -1
right_child=22 2 8 6 7 -7 -8 -9 10 -11 -12 -13 -14 -15 -16 16 17 18 -20 -21 -22 -23 23 24 -26 -27 28 -29 -30 -31
leaf_value=-0.0044364063934023892 0.0040139008164405826 -0.0015276188030838968 -0.0055311077088117597 -0.0071897354654290469 0.0039918153830196552 0.0075362800842239744 0.0034257759698308431 0.014352439381182195 0.013601862092036754 0.0079569045292294544 0.0017253831960260869 -0.0090369738518230377 -0.0079929209469507146 0.0040799253091618826 -0.0094466899477300206 -0.004742707434247752 0.0062124084149088182 -0.0043344775111311016 -0.0075154322199523452 0.0064680684357881551 -0.00038001184750880514 -0.0012835738807916641 0.011768376520451379 0.0033205325128855532 0.0092202021112275691 -0.0088964099374910198 -0.0048770096555754948 -0.0093659810544479468 -0.00060400713235139855 -0.0062124874070286756
leaf_count=56 25 28 20 33 23 21 26 20 32 23 24 31 24 37 21 61 21 36 28 27 28 20 34 27 43 24 37 21 20 20
internal_value=0 -0.0258949 0.0182842 -0.014008 0.0523838 -0.0236834 -0.0578809 0.176214 0.11092 0.0336682 0.170239 -0.0805451 -0.0532992 -0.0248834 -0.0984301 -0.0705403 -0.0538018 -0.0109598 -0.0421616 0.0059037 -0.0825342 -0.0992199 0.152961 0.170432 0.138892 -0.11724 -0.0976288 -0.118534 -0.0675542 -0.0980759
internal_count=891 762 383 284 113 70 171 43 99 43 56 145 114 90 49 379 279 112 91 63 167 53 129 104 70 100 139 82 57 76
shrinkage=0.05


Tree=29
num_leaves=31
num_cat=0
split_feature=2 2 9 3 6 11 0 1 12 7 5 2 5 4 10 10 12 9 13 3 0 13 0 7 9 8 8 11 10 9
split_gain=3.2159 1.44632 1.45058 0.792043 0.79171 1.19409 0.670811 0.625263 0.593803 1.09784 0.578676 0.419486 0.548444 0.404234 0.305019 0.277707 0.319212 0.260967 0.324786 0.201669 0.198108 0.158053 0.236737 0.120638 0.128407 0.136759 0.468845 0.0501384 0.0454212 0.0228518
threshold=0.62280400907050015 0.24186864097250002 0.38595974229300006 0.33977990587900003 0.20932430283850004 0.32339898258750005 0.40523809523800008 0.31977595525400004 0.38548951048950003 0.34391757443100007 0.30755135387500004 0.43634571441050002 0.29395572042650003 0.15868530562250002 0.41553868666500005 0.50316455696200013 0.31553362238650007 0.37297694169950008 0.87083333333350021 -0.047167009919799996 0.34644510289400005 0.022916666666650005 0.42248049369450008 0.65423898931200009 0.35269436445950009 0.29358796179050006 0.43015964550450003 0.38584667765050001 0.30825791855200008 0.61803713527850013
decision_type=2 2 2 2 2 2 2 2 2 2 2 2 2 2 2 2 2 2 2 2 2 2 2 2 2 2 2 2 2 2
left_child=1 15 4 10 5 7 -5 -3 11 -10 -4 12 -6 -7 -12 16 19 -2 -19 -1 -14 22 23 24 25 28 -27 -20 -21 -29
right_child=17 2 3 6 8 13 -8 -9 9 -11 14 -13 20 -15 -16 -17 -18 18 27 21 -22 -23 -24 -25 -26 26 -28 29 -30 -31
leaf_value=0.0012757778522514162 0.012440720505335115 -0.0064128025227950681 0.0080366125266099799 0.017365657183386032 0.003396499250084162 0.0039001553541138062 0.0048721842806447643 0.0034524400172562435 0.0088993113487958915 -0.0052473450778052211 -0.0050594283186871074 -0.011072729212733416 -0.0035273767406902006 0.013710667583204451 0.0029983094893395903 -0.0084725078642368321 0.0020070100395843901 0.0014875286519527436 0.010069365291432902 -0.0041413101344561776 -0.0094455962857374776 -0.0069016862350205592 0.00089367981357821107 -0.00016582336276769639 -0.0079406365929614933 0.0038979129273105755 -0.0058560118411800696 0.005896532535552979 -0.0062864095032695803 0.0080264996079837583
leaf_count=21 22 36 29 21 20 21 22 29 24 32 23 26 31 21 24 25 29 25 22 121 26 36 29 20 21 22 28 20 31 34
internal_value=0 -0.0240428 0.0192406 0.111012 -0.021815 0.0446892 0.219473 -0.0402277 -0.0665694 0.0163102 0.0496459 -0.11163 -0.0745465 0.176108 -0.0188968 -0.0675521 -0.0604364 0.150121 0.128623 -0.0693018 -0.124538 -0.0757666 -0.0675253 -0.077717 -0.0843897 -0.0766526 -0.0312857 0.161147 -0.091576 0.144752
internal_count=891 768 385 119 266 107 43 65 159 56 76 103 77 42 47 383 358 123 101 329 57 308 272 243 223 202 50 76 152 54
shrinkage=0.05


Tree=30
num_leaves=31
num_cat=0
split_feature=12 2 9 3 7 6 4 2 5 0 2 3 11 1 11 10 10 9 8 5 11 6 0 7 7 4 6 11 9 7
split_gain=2.93009 1.34412 0.961054 0.561719 0.765764 0.55171 0.847395 0.75418 0.49658 0.454891 0.437768 0.397305 0.618187 0.375953 0.34462 0.309536 0.248211 0.375263 0.240532 0.238504 0.230277 0.478868 0.723638 0.224643 0.0854584 0.160162 0.102254 0.0617977 0.0449757 0.0350384
threshold=0.71307506053300018 0.24863488917200002 0.38595974229300006 0.10386042467650002 0.46311318302200005 0.20932430283850004 0.20615204210500002 0.47652011614500006 0.29889885968750002 0.41173156450750009 0.38435135256200009 0.33977990587900003 0.35878297335800008 0.42662141779800006 0.344154950944 0.49800000000000005 0.36617290256700002 0.44869497467850006 0.39513795986600003 0.33369048422000008 0.32784813688650005 0.33433358339550007 0.20058678063050003 0.20724031778150001 0.33071034180500003 0.26751601748300008 0.29095597440100002 0.43073619581700007 0.28798451991300006 0.0028468115976000006
decision_type=2 2 2 2 2 2 2 2 2 2 2 2 2 2 2 2 2 2 2 2 2 2 2 2 2 2 2 2 2 2
left_child=1 15 5 -4 11 6 7 8 -3 13 -11 12 -5 14 19 20 -2 -18 -19 -7 24 23 -23 -22 25 26 29 -20 -26 -1
right_child=16 2 3 4 -6 9 -8 -9 -10 10 -12 -13 -14 -15 -16 -17 17 18 27 -21 21 22 -24 -25 28 -27 -28 -29 -30 -31
leaf_value=-0.0032686977799643172 0.011231254518032075 0.0013224638277484525 -0.0028337972052395344 0.00054930806159973148 0.00013859679456800224 -0.0020123501121997833 0.010521971790686898 0.0080730002745985994 -0.0077013076096773148 -0.0046585525572299964 0.0047712736297398813 0.015258078028758369 0.012980990186333658 -0.010563491089713007 0.0021228434436995048 -0.0086789065822958956 0.00058594056301646772 0.0032317778021097188 0.011104439506712168 -0.008428765500762634 -0.0010651383686948706 -0.0050188425839656874 0.0067860724733156312 -0.0074571369481938226 -0.0044352919719106449 0.00055748946033418179 -0.00045646193437278272 0.0078040357981179215 -0.0073782270587980751 -0.0048639355510797198
leaf_count=55 25 31 20 20 32 30 23 20 30 20 32 21 20 21 23 25 27 25 23 28 27 21 34 28 37 24 20 37 20 92
internal_value=0 -0.0244442 0.0184546 0.0953601 0.128056 -0.0152288 0.0410428 -0.00705749 -0.0623091 -0.0532304 0.0228883 0.193779 0.135303 -0.092036 -0.0611236 -0.065999 0.134533 0.114423 0.147046 -0.102199 -0.0584865 -0.0204051 0.0455748 -0.0863849 -0.0753774 -0.0652366 -0.0762143 0.181384 -0.109358 -0.0853416
internal_count=891 754 371 113 93 258 104 81 61 154 52 61 40 102 81 383 137 112 85 58 358 110 55 55 248 191 167 60 57 147
shrinkage=0.05



feature importances:
Column_2=130
Column_11=121
Column_10=84
Column_0=71
Column_9=70
Column_1=66
Column_6=62
Column_5=60
Column_3=54
Column_12=49
Column_4=48
Column_7=38
Column_8=38
Column_13=35

pandas_categorical:null
