tree
version=v2
num_class=1
num_tree_per_iteration=1
label_index=0
max_feature_idx=14
objective=regression
feature_names=Column_0 Column_1 Column_2 Column_3 Column_4 Column_5 Column_6 Column_7 Column_8 Column_9 Column_10 Column_11 Column_12 Column_13 Column_14
feature_infos=[0:1] [0:1] [0:0.98690564470200004] [-13.448183182799999:14.448183182799999] [0:1] [0.00147238948238:0.99659550117500006] [0:1] [0:1] [0:1] [0:1] [0:1] [0.026432072104999999:0.87826037461500006] [0:1] [0:1] 1:0:5:3:2:-1
tree_sizes=1593 1967 1979 2055 2450 2381 2364 2366 2365 2291 2382 2232 2227 2307 2309 2386 2462 2462 2068 2295 2382 2302 2383 2307 2312 2307 2391 2385 2326 2099 2317 2325 2234 2489 2244 2336

Tree=0
num_leaves=20
num_cat=0
split_feature=13 2 11 11 1 6 6 8 5 0 2 8 2 5 0 5 8 10 11
split_gain=42.1822 15.9531 5.25012 4.19426 2.81386 1.65762 1.50011 1.30687 1.55769 1.41538 1.26085 1.225 1.12599 0.824286 0.923188 0.665005 1.00392 0.209524 0.306878
threshold=0.73214285714300009 0.39127522771150003 0.32883969474800007 0.35124270008500003 0.33308153409200003 0.48731737849800011 0.45819028257250011 0.37902906628750005 0.32266800785050004 0.38057436173750009 0.62987891785150008 0.41894606998400002 0.24817518960900001 0.44544173910450008 0.231468963173 0.33922838448650006 0.36061639817050001 0.33242753623150006 0.28478228537700007
decision_type=2 2 2 2 2 2 2 2 2 2 2 2 2 2 2 2 2 2 2
left_child=1 2 12 7 13 -5 -6 8 -3 -9 11 -2 17 14 -4 16 -14 -1 -19
right_child=10 3 4 5 6 -7 -8 9 -10 -11 -12 -13 15 -15 -16 -17 -18 18 -20
leaf_value=0.31578947340352381 0.34578947340352384 0.31995614007019046 0.32078947340352382 0.35864661626066668 0.34399460160865203 0.34178947340352384 0.32912280673685718 0.33078947340352383 0.33778947340352383 0.3484817810958315 0.3657894734035238 0.3632894734035238 0.32167182634470032 0.31745614007019052 0.33245614007019048 0.3175136113345583 0.33578947340352383 0.32319688081093123 0.31578947340352381
leaf_count=154 20 24 30 35 39 25 30 20 25 26 66 20 34 30 39 29 20 27 29
internal_value=0 -0.100267 -0.193581 0.177267 -0.0526481 0.384257 0.102373 0.0465374 -0.0671039 0.16759 0.582684 0.44259 -0.27439 -0.160693 -0.100526 -0.175783 -0.110188 -0.313362 -0.260981
internal_count=722 616 461 155 168 60 69 95 49 46 106 40 293 99 69 83 54 210 56
shrinkage=1


Tree=1
num_leaves=24
num_cat=0
split_feature=13 2 11 11 1 7 0 2 6 8 4 2 8 12 0 9 6 10 9 11 3 11 0
split_gain=38.0694 14.3977 4.74557 3.78532 3.38145 1.5223 1.18062 1.13792 1.12998 1.10556 1.01422 0.992948 0.918118 0.730339 0.689301 0.667094 0.603739 0.23811 0.16323 0.297252 0.104429 0.00026771 3.55271e-15
threshold=0.73214285714300009 0.39127522771150003 0.33143753439250007 0.35124270008500003 0.33308153409200003 0.38448893803500006 0.4062681520205001 0.62987891785150008 0.45819028257250011 0.41894606998400002 0.37779918656850003 0.24817518960900001 0.39052429052400006 0.13961038961050001 0.21560635057800001 0.32416682416650006 0.20726959246800003 0.28269230769200004 0.22435955056199999 0.28772251531950005 0.32906567097950007 0.31903205217150005 0.50822177026100002
decision_type=2 2 2 2 2 2 2 2 2 2 2 2 2 2 2 2 2 2 2 2 2 2 2
left_child=1 2 11 6 14 -5 10 9 -6 -2 -3 17 -8 16 -4 -16 -13 21 -19 -20 -21 -1 -9
right_child=7 3 4 5 8 -7 12 22 -10 -11 -12 13 -14 -15 15 -17 -18 18 19 20 -22 -23 -24
leaf_value=-0.015789473056793214 0.01271052598953247 0.0026091499801944285 -0.013333333322876379 0.028006359003484249 0.012529999460722949 0.011749414768483905 0.00094046197831630705 0.031710526347160338 -0.0010715247346804692 0.029335526227951048 -0.011580723822116853 -0.0065054697708951106 0.015909244616826378 -0.00035157061435959558 -0.011472806781530381 0.00031608238816261292 -0.016109526852766672 -0.015959226588408152 -0.0060857701301574715 -0.015869018638675864 -0.010876972973346711 -0.015983612409659797 0.031710526347160338
leaf_count=115 20 34 38 24 37 36 20 27 26 20 20 36 21 22 20 30 30 24 20 22 20 21 39
internal_value=0 -0.0952538 -0.183902 0.168404 -0.0385285 0.365044 0.0442105 0.55355 0.138333 0.420461 -0.0529272 -0.254713 0.172148 -0.164822 -0.165146 -0.0879895 -0.217419 -0.290346 -0.249162 -0.222056 -0.269837 -0.316389 0.634211
internal_count=722 616 461 155 151 60 95 106 63 40 54 310 41 88 88 50 66 222 86 62 42 136 66
shrinkage=0.05


Tree=2
num_leaves=24
num_cat=0
split_feature=13 2 11 11 1 2 6 6 8 11 1 11 9 5 11 2 5 11 10 10 10 11 0
split_gain=34.4056 12.329 4.40415 3.19057 2.29187 1.70452 1.51871 1.43882 1.37331 1.34701 1.08714 1.7745 1.03289 0.923089 0.784322 0.309475 0.352964 0.30477 0.105196 0.000612705 3.10598e-05 1.79828e-07 3.55271e-15
threshold=0.58571428571450002 0.39127522771150003 0.32811538764800002 0.35124270008500003 0.33198407472400004 0.62987891785150008 0.48731737849800011 0.45819028257250011 0.41894606998400002 0.34299616372000002 0.46281009655200006 0.32332375880800007 0.38514621085100004 0.44544173910450008 0.34165865549300006 0.24817518960900001 0.33922838448650006 0.30474585330700005 0.35143325143300003 0.31726674409600003 0.27315608919350004 0.30939929566200003 0.50822177026100002
decision_type=2 2 2 2 2 2 2 2 2 2 2 2 2 2 2 2 2 2 2 2 2 2 2
left_child=1 2 12 10 13 8 -5 9 -2 -6 11 -3 15 14 -4 18 17 -17 19 20 21 -1 -7
right_child=5 3 4 6 7 22 -8 -9 -10 -11 -12 -13 -14 -15 -16 16 -18 -19 -20 -21 -22 -23 -24
leaf_value=-0.015000000596046448 0.010218963137379399 -0.010229357307957064 -0.0099595740875777078 0.023649112924056897 0.0015427196309680032 0.030125001072883607 0.0072214496632417042 -0.0037599542643874887 0.026657056001325449 0.019673770666122439 0.010725145518779755 0.0061978805916649959 -0.0025075972080230713 -0.015396499578599577 0.00062992899782127805 -0.011784171437223753 -0.015425272643566133 -0.0034269553422927855 -0.011684230908199594 -0.015281804278492928 -0.015064958873249235 -0.014994915397394271 0.030125001072883607
leaf_count=101 27 31 34 34 21 27 24 32 24 20 25 35 23 27 36 24 25 20 27 24 21 21 39
internal_value=0 -0.0959977 -0.177599 0.153735 -0.0501294 0.496399 0.337029 0.0837134 0.359091 0.207743 0.0369109 -0.0303589 -0.253368 -0.150856 -0.0902709 -0.27114 -0.213621 -0.159709 -0.291597 -0.300961 -0.300176 -0.299983 0.6025
internal_count=722 605 456 149 170 117 58 73 51 41 91 66 286 97 70 263 69 44 194 167 143 122 66
shrinkage=0.05


Tree=3
num_leaves=25
num_cat=0
split_feature=13 2 11 11 9 6 1 0 9 2 2 8 8 0 11 8 7 2 10 11 9 2 10 11
split_gain=31.0797 11.7958 3.77292 3.71245 2.15601 3.16259 1.80767 1.29469 1.24443 1.07041 0.91216 0.896625 0.877763 0.79804 1.02671 0.655779 0.615134 0.462884 0.152487 0.264314 0.000292752 3.81598e-05 3.02752e-07 4.64966e-08
threshold=0.73214285714300009 0.39863062280800005 0.32696670922250004 0.32883969474800007 0.41102669857950008 0.40756154414700002 0.33308153409200003 0.43590982286650004 0.38269023205600006 0.24817518960900001 0.62987891785150008 0.41894606998400002 0.36061639817050001 0.231468963173 0.34165865549300006 0.32712234311750005 0.15555421589900001 0.20136166801900002 0.33242753623150006 0.28478228537700007 0.28965056722300003 0.19527762696750003 0.26202034211750008 0.30203287377750004
decision_type=2 2 2 2 2 2 2 2 2 2 2 2 2 2 2 2 2 2 2 2 2 2 2 2
left_child=1 3 7 9 5 -4 13 -3 15 18 11 -2 16 17 -15 -8 -11 -5 20 -20 21 22 23 -1
right_child=10 2 4 6 -6 -7 8 -9 -10 12 -12 -13 -14 14 -16 -17 -18 -19 19 -21 -22 -23 -24 -25
leaf_value=-0.014249999821186066 0.011564051508903503 -0.0086201933297243988 0.017391855186886258 -0.015024847437938055 0.023978732909475053 -0.0066707686944441364 -0.0067925809572140384 0.0075018151104450231 0.012782341063022616 -0.0044042475197626201 0.028618749976158143 0.026535896137356758 -0.00030046794563531876 -0.01068670799334844 0.0037281197309494019 0.0051585944538766687 -0.015056169620065979 -0.0052047533541917804 -0.007681157633110329 -0.014555696064028248 -0.014456831325184216 -0.014321631264118923 -0.014242725145249142 -0.014247266203165056
leaf_count=70 20 33 36 30 35 22 24 20 25 23 66 20 32 21 30 22 33 20 27 29 22 21 21 20
internal_value=0 -0.0860661 0.162216 -0.163192 0.283571 0.165293 -0.0462084 -0.0507283 0.0760636 -0.230713 0.500158 0.380999 -0.138129 -0.132162 -0.044148 -0.021536 -0.213625 -0.221936 -0.26951 -0.224824 -0.285759 -0.285196 -0.284963 -0.284988
internal_count=722 616 146 470 93 58 172 53 71 298 106 40 88 101 51 46 56 50 210 56 154 132 111 90
shrinkage=0.05


Tree=4
num_leaves=30
num_cat=0
split_feature=13 2 11 11 1 0 6 6 11 5 9 5 7 0 11 6 9 2 5 5 10 8 4 10 10 9 11 2 1
split_gain=28.1174 10.0446 3.60511 2.65279 1.88534 1.46281 1.31464 1.30429 1.17059 1.01984 0.913322 0.81765 0.728253 0.67957 0.915054 0.585256 0.331295 0.232975 0.30814 0.299206 0.0879411 0.0333577 0.0260995 0.00125801 2.6017e-05 3.76999e-07 3.22974e-08 6.66612e-09 1.58575e-11
threshold=0.58571428571450002 0.39127522771150003 0.32811538764800002 0.35124270008500003 0.33198407472400004 0.31822773673350002 0.45819028257250011 0.48731737849800011 0.34299616372000002 0.33549792676950002 0.38514621085100004 0.44544173910450008 0.30816033424700007 0.21560635057800001 0.34165865549300006 0.082152200017100011 0.39038154489900007 0.24817518960900001 0.33922838448650006 0.27262903297350011 0.35143325143300003 0.36815476190450003 0.53168805579050005 0.31726674409600003 0.27315608919350004 0.24181957877600002 0.30007443907150005 0.12825101819700002 0.100825974767
decision_type=2 2 2 2 2 2 2 2 2 2 2 2 2 2 2 2 2 2 2 2 2 2 2 2 2 2 2 2 2
left_child=1 2 10 9 11 -2 8 -5 -6 12 17 13 15 -4 -15 -3 -7 20 19 -19 23 -18 -23 24 25 26 27 28 -1
right_child=5 3 4 7 6 16 -8 -9 -10 -11 -12 -13 -14 14 -16 -17 21 18 -20 -21 -22 22 -24 -25 -26 -27 -28 -29 -30
leaf_value=-0.013537554070353508 0.011712541222572329 -0.0041963702440261843 -0.010581917941570283 0.021587703464662329 0.001497129173505874 0.01999979615211487 -0.0037808144930750135 0.0063638256241877874 0.018399189263582232 0.0091529975334803271 -0.0018948466233585195 -0.014214893678824107 -0.0096467281381289183 -0.0079225845280147724 0.0063691296304265663 0.0078996632993221291 0.028701206474077135 -0.011035005437831084 -0.014222506940364837 -0.0027544233947992326 -0.010525001916620466 0.024929843172430993 0.027277689966662178 -0.013935558063288531 -0.013595764055138543 -0.0135294157124701 -0.013535084304484454 -0.013536461591720582 -0.013537499308586122
leaf_count=20 25 20 25 34 21 22 32 24 20 30 23 27 21 21 24 20 21 24 25 20 27 20 29 24 21 21 22 20 39
internal_value=0 -0.0867829 -0.160437 0.138629 -0.0451092 0.448749 0.0762842 0.305763 0.194841 0.0321043 -0.228989 -0.136467 -0.0421362 -0.0794466 -0.00600674 0.0370329 0.507037 -0.245701 -0.195795 -0.145422 -0.263451 0.540679 0.526388 -0.272012 -0.270887 -0.27071 -0.270736 -0.270745 -0.27075
internal_count=722 605 456 149 170 117 73 58 41 91 286 97 61 70 45 40 92 263 69 44 194 70 49 167 143 122 101 79 59
shrinkage=0.05


Tree=5
num_leaves=29
num_cat=0
split_feature=13 2 11 11 9 6 1 6 11 0 2 2 8 3 3 3 8 7 10 11 9 0 11 2 10 11 2 1
split_gain=25.4001 9.61596 3.17836 3.00337 1.90441 2.81006 1.47143 1.19062 1.18823 1.15877 0.812609 0.781774 0.821898 0.693616 0.871258 0.910624 0.656916 0.592329 0.125644 0.235486 0.000662483 0.000424972 6.71554e-05 6.81665e-06 6.48033e-07 3.78897e-08 2.96367e-11 4.88498e-15
threshold=0.73214285714300009 0.39863062280800005 0.32696670922250004 0.32811538764800002 0.41102669857950008 0.40756154414700002 0.33198407472400004 0.45819028257250011 0.34299616372000002 0.43590982286650004 0.24817518960900001 0.62987891785150008 0.41894606998400002 0.20486626638250002 0.34809188754600007 0.49777102270550005 0.36668959688450004 0.15555421589900001 0.33242753623150006 0.28478228537700007 0.28965056722300003 0.43590982286650004 0.43559957136950006 0.19527762696750003 0.26202034211750008 0.30203287377750004 0.1111504621375 0.12787698412700002
decision_type=2 2 2 2 2 2 2 2 2 2 2 2 2 2 2 2 2 2 2 2 2 2 2 2 2 2 2 2
left_child=1 3 9 10 5 -4 13 8 -8 -3 18 12 -2 -5 -15 -16 17 -12 20 -20 23 -13 -23 24 25 26 27 -1
right_child=11 2 4 6 -6 -7 7 -9 -10 -11 16 21 -14 14 15 -17 -18 -19 19 -21 -22 22 -24 -25 -26 -27 -28 -29
leaf_value=-0.012860623449087144 0.0099248502403497703 -0.0082096793886387003 0.015932759683993127 -0.014005055007609455 0.022098045774868558 -0.0067491311918605459 0.00064016783779317693 -0.0040325334126299081 0.017479228973388671 0.0070425935834646227 -0.003322184559973804 0.026142986118793489 0.024259233623743059 0.001951247113091605 -0.014687028756508461 -0.00049590580165386204 -0.00040984933574994407 -0.013979852013289929 -0.0067875999543401929 -0.01333205263529505 -0.013159613717686048 0.025932826740401135 0.025811540961265568 -0.012889962196350097 -0.012850341910407657 -0.012858176976442337 -0.012860696092247964 -0.012860624492168427
leaf_count=20 20 33 36 22 35 22 22 33 20 20 22 20 20 35 26 20 30 32 27 28 22 21 25 20 21 20 20 30
internal_value=0 -0.0778058 0.146365 -0.147442 0.257748 0.146586 -0.0450566 0.0614919 0.173175 -0.0490821 -0.209855 0.452155 0.341841 -0.12264 -0.0798734 -0.17034 -0.126843 -0.192757 -0.243379 -0.202386 -0.258115 0.519011 0.517338 -0.257262 -0.257165 -0.257202 -0.257213 -0.257212
internal_count=722 616 146 470 93 58 178 75 42 53 292 106 40 103 81 46 84 54 208 55 153 66 46 131 111 90 70 50
shrinkage=0.05


Tree=6
num_leaves=29
num_cat=0
split_feature=13 2 11 9 0 1 0 6 9 6 11 9 5 0 9 6 9 1 3 6 2 8 8 7 10 8 9 10
split_gain=22.9681 8.19292 2.94854 2.23268 1.79648 1.54582 1.25171 1.22668 2.2025 1.07043 0.94857 0.808522 0.711505 0.592013 0.837961 0.367032 0.269308 0.18871 0.142756 0.180618 0.0554481 0.131701 0.0373073 0.0245643 0.00769189 5.81569e-06 6.31726e-07 8.42848e-08
threshold=0.58571428571450002 0.39127522771150003 0.32811538764800002 0.41102669857950008 0.44535752770600007 0.33198407472400004 0.31822773673350002 0.4135982769810001 0.30179292929300011 0.45819028257250011 0.34299616372000002 0.38514621085100004 0.44544173910450008 0.21560635057800001 0.32035189235150002 0.41826405423300006 0.39038154489900007 0.49962121212100002 0.47176739655000005 0.14629688365550003 0.27704701128250003 0.42571379639300005 0.36815476190450003 0.58157871357500013 0.33142352016750004 0.030931122449000006 0.21253079660550003 0.14379699248100006
decision_type=2 2 2 2 2 2 2 2 2 2 2 2 2 2 2 2 2 2 2 2 2 2 2 2 2 2 2 2
left_child=1 2 11 4 7 12 -2 8 -3 10 -7 17 13 -4 -15 -5 -8 18 20 -20 21 24 -18 -24 25 -1 27 -27
right_child=6 3 5 15 -6 9 16 -9 -10 -11 -12 -13 -14 14 -16 -17 22 -19 19 -21 -22 -23 23 -25 -26 26 -28 -29
leaf_value=-0.012242098649342855 0.010358178555965424 -0.0094538130837938071 -0.0096785750985145576 0.01157117985188961 0.011883049266678948 0.001390264005888076 0.018149546059695158 -0.012092113423915137 0.011111794163783391 -0.0033901474438607694 0.016605268269777301 -0.0013577997036602187 -0.013064095074379887 -0.0077105272561311727 0.0060205046534538269 0.021150216683745386 0.02625479655606406 -0.0070012542307376861 -0.011476699242161381 -0.005550475455820561 -0.014067878617959865 -0.0083515852689743045 0.022387858331203464 0.024665607203697339 -0.013085253246956403 -0.012217120511027482 -0.012204786496503015 -0.012212861613148735
leaf_count=21 25 23 25 20 35 21 22 21 30 32 20 23 27 20 25 20 21 25 36 20 34 23 20 29 36 26 21 21
internal_value=0 -0.0784349 -0.144955 0.125143 0.0509887 -0.0406561 0.405582 -0.0373022 0.0437419 0.0692647 0.176244 -0.206951 -0.12338 -0.0701892 -0.00164352 0.327214 0.4595 -0.222674 -0.231356 -0.187204 -0.244941 -0.236575 0.489832 0.474718 -0.249371 -0.244382 -0.24424 -0.244304
internal_count=722 605 456 149 109 170 117 74 53 73 41 286 97 70 45 40 92 263 238 56 182 148 70 49 125 89 68 47
shrinkage=0.05


Tree=7
num_leaves=29
num_cat=0
split_feature=13 2 11 9 3 9 6 11 0 6 11 2 8 7 9 1 8 1 3 6 2 8 10 0 11 10 11 2
split_gain=20.7585 7.83276 2.70929 2.52673 1.57831 1.56816 2.37867 1.1014 0.945431 0.8995 1.81624 0.670713 0.753601 0.66107 0.587882 0.820878 0.433373 0.429066 0.216735 0.334626 0.0631384 0.118856 0.00727782 0.00147892 0.000163567 2.44876e-05 8.12317e-07 5.198e-09
threshold=0.73214285714300009 0.39863062280800005 0.32696670922250004 0.38135456885450009 0.36095920409450005 0.41102669857950008 0.40756154414700002 0.32811538764800002 0.43590982286650004 0.48731737849800011 0.3348384044255 0.62987891785150008 0.41894606998400002 0.48173466619050004 0.33784930941150004 0.33198407472400004 0.21089280548600003 0.46281009655200006 0.47176739655000005 0.15423684667450002 0.27704701128250003 0.42571379639300005 0.33242753623150006 0.43590982286650004 0.48361711567550009 0.26858761746850007 0.29956989940450007 0.084529738578650024
decision_type=2 2 2 2 2 2 2 2 2 2 2 2 2 2 2 2 2 2 2 2 2 2 2 2 2 2 2 2
left_child=1 3 8 7 9 6 -4 17 -3 10 -5 12 -2 14 15 16 -9 18 20 -20 21 22 25 -13 -25 26 27 -1
right_child=11 2 5 4 -6 -7 -8 13 -10 -11 -12 23 -14 -15 -16 -17 -18 -19 19 -21 -22 -23 -24 24 -26 -27 -28 -29
leaf_value=-0.011606619932821818 0.0084660854190587997 -0.0076221781246589891 0.014612887096073893 -0.0089468226209282881 0.012640396844257008 0.020098944902420045 -0.0062554704194719146 0.000882318988442421 0.0061547005921602253 -0.010536517233898243 0.012361879646778108 0.02389318749308586 0.022191979661583899 -0.010861787533965606 -0.0094313283406552827 0.0070899850473954132 -0.009526493214070798 -0.0044126670679141737 -0.010979000921990421 -0.0029516643285751342 -0.013570980168879032 -0.0079340059472166984 -0.01248514677087466 0.023468442385395371 0.023279695212841036 -0.011664371760118575 -0.011594216339290142 -0.011605579299586159
leaf_count=28 20 33 36 20 22 35 22 20 20 24 20 20 20 29 21 26 20 29 37 20 36 23 33 24 22 21 20 21
internal_value=0 -0.0703383 0.131982 -0.133187 0.0217473 0.234819 0.133946 -0.167886 -0.0484671 -0.0576798 0.0341506 0.408759 0.306581 -0.0864817 -0.042897 0.00347155 -0.0864417 -0.20312 -0.217058 -0.163248 -0.233911 -0.224662 -0.237 0.470685 0.467563 -0.232342 -0.232054 -0.232123
internal_count=722 616 146 470 86 93 58 384 53 64 40 106 40 116 87 66 40 268 239 57 182 146 123 66 46 90 69 49
shrinkage=0.05


Tree=8
num_leaves=29
num_cat=0
split_feature=13 2 11 11 6 7 0 1 11 9 6 12 1 11 5 5 1 0 12 9 1 8 3 2 11 2 10 10
split_gain=18.7571 6.68119 2.40864 1.91217 1.32173 1.15411 1.07464 0.90217 1.2475 0.710152 0.93611 0.890567 0.68067 0.354838 0.25929 0.32853 0.415574 0.662834 0.298548 0.218621 0.0419131 0.0408017 0.0234437 0.0115332 0.0112193 0.00766393 0.00158956 0.000771559
threshold=0.58571428571450002 0.39127522771150003 0.34165865549300006 0.35124270008500003 0.49921810970550007 0.38448893803500006 0.31822773673350002 0.46281009655200006 0.32332375880800007 0.32804661092300008 0.12123588405350001 0.15099715099700003 0.34429268806350005 0.39809119682999999 0.30194521927300005 0.34893490663400012 0.24260048894200004 0.29102611331350009 0.058571428571450007 0.39038154489900007 0.029166666666650003 0.36815476190450003 0.29731275581450006 0.21034743732050001 0.31842232448600011 0.19651599583600002 0.28269230769200004 0.21124141876400002
decision_type=2 2 2 2 2 2 2 2 2 2 2 2 2 2 2 2 2 2 2 2 2 2 2 2 2 2 2 2
left_child=1 2 9 7 12 -5 -2 8 -3 14 -11 -12 -4 -6 20 16 -16 -18 23 -8 -1 -21 -23 27 25 26 -22 -17
right_child=6 3 4 5 13 -7 19 -9 -10 10 11 -13 -14 -15 15 18 17 -19 -20 21 24 22 -24 -25 -26 -27 -28 -29
leaf_value=-0.0094300962239503867 0.0091335866451263438 -0.0092422971321690483 0.00050488822162151335 0.021443435484948366 -0.011372705958783627 0.0070252773165702821 0.016476305235515944 0.0092149112820625306 0.0045312915103776115 0.0043823306533423345 -0.012802836837040055 -0.0010292212510931082 0.01137301802635193 -0.0019541329890489577 -0.011288917632330031 -0.011199154034256935 0.0038749436289072037 -0.0088436659602891838 -0.0048738776519894602 0.024034381267570317 -0.011162480073315759 0.020083221718668939 0.022308410036152807 -0.012733296880667861 -0.012999851740896701 -0.012509055882692339 -0.01171272886650903 -0.011600079797208311
leaf_count=20 25 31 34 23 20 35 22 25 35 22 36 29 25 20 21 30 20 21 20 21 35 20 29 22 20 20 21 20
internal_value=0 -0.070881 -0.130951 0.112958 0.00706159 0.254856 0.366521 0.022518 -0.0387624 -0.169224 -0.0906525 -0.151 0.102201 -0.133268 -0.194541 -0.167646 -0.111382 -0.0527893 -0.205562 0.41648 -0.230247 0.443809 0.428003 -0.235586 -0.238923 -0.233378 -0.227376 -0.22719
internal_count=722 605 456 149 99 58 117 91 66 357 87 65 59 40 270 154 62 41 92 92 116 70 49 72 96 76 56 50
shrinkage=0.05


Tree=9
num_leaves=28
num_cat=0
split_feature=13 2 11 9 9 6 3 11 0 6 11 7 2 8 9 1 8 1 3 6 2 8 10 0 10 11 5
split_gain=16.9653 6.39934 2.22736 2.12575 1.39758 2.11608 1.37799 0.891446 0.840399 0.779948 1.57283 0.579252 0.575336 0.691751 0.562355 0.700518 0.384604 0.375715 0.194288 0.301004 0.061798 0.106714 0.00688442 0.00279015 0.000311385 0.000235305 6.85028e-06
threshold=0.73214285714300009 0.39863062280800005 0.32696670922250004 0.38135456885450009 0.41102669857950008 0.40756154414700002 0.36095920409450005 0.32811538764800002 0.43590982286650004 0.48731737849800011 0.3348384044255 0.48173466619050004 0.62987891785150008 0.41894606998400002 0.33784930941150004 0.33198407472400004 0.21089280548600003 0.46281009655200006 0.47176739655000005 0.15423684667450002 0.2737851845030001 0.42571379639300005 0.33142352016750004 0.43590982286650004 0.24172245891650004 0.4942918311920001 0.33149733565250006
decision_type=2 2 2 2 2 2 2 2 2 2 2 2 2 2 2 2 2 2 2 2 2 2 2 2 2 2 2
left_child=1 3 8 7 5 -4 9 17 -3 10 -5 14 13 -2 15 16 -9 18 20 -20 21 22 24 -14 26 -25 -1
right_child=12 2 4 6 -6 -7 -8 11 -10 -11 -12 -13 23 -15 -16 -17 -18 -19 19 -21 -22 -23 -24 25 -26 -27 -28
leaf_value=-0.010450236598650615 0.007169465497136116 -0.0071180256930264557 0.013330863333410686 -0.0082642875611782084 0.018516755359513418 -0.0063519451428543441 0.011880723454735497 0.0011079327762126923 0.0058710679411888124 -0.0097509198511640249 0.011565193831920624 -0.010069105722780886 0.021837231814861299 0.020320046916604044 -0.0090359312083039961 0.0067473902152134823 -0.0086977316066622744 -0.0038216172364251367 -0.0099721524763751682 -0.0023587738722562791 -0.01246988249791635 -0.0070565473774205079 -0.011373770061661216 0.02123348218202591 -0.010663578851569084 0.021006451334272112 -0.01048495176213759
leaf_count=30 20 33 36 20 35 22 22 20 20 24 20 29 20 20 21 26 20 29 37 20 37 23 34 25 31 21 27
internal_value=0 -0.0635879 0.119285 -0.120395 0.212528 0.117299 0.0217144 -0.152222 -0.0443296 -0.0525012 0.0330091 -0.0789866 0.36953 0.274895 -0.0381881 0.00716248 -0.075898 -0.183921 -0.196963 -0.146016 -0.212919 -0.203611 -0.21539 0.426884 -0.210721 0.422597 -0.209334
internal_count=722 616 146 470 93 58 86 384 53 64 40 116 106 40 87 66 40 268 239 57 182 145 122 66 88 46 57
shrinkage=0.05


Tree=10
num_leaves=29
num_cat=0
split_feature=12 2 11 11 6 9 6 10 0 2 12 2 5 10 6 9 1 10 10 9 7 11 2 2 6 3 8 1
split_gain=15.3388 6.31362 2.53335 1.77475 2.46198 1.41819 1.22479 0.938498 0.898901 0.723839 0.679275 0.649517 0.688186 0.238153 0.310751 0.469202 0.549669 0.194888 0.192364 0.109751 0.0600629 0.0404227 0.0208897 0.0061469 0.00119727 0.0010697 0.000515177 0.000130951
threshold=0.67489177489200014 0.39863062280800005 0.32696670922250004 0.33905528361700005 0.49921810970550007 0.39971056439950009 0.40756154414700002 0.42568715642200006 0.23734470121700002 0.52117808725050008 0.15099715099700003 0.60938188322900011 0.3358664900015001 0.28269230769200004 0.31670892494900005 0.22435955056199999 0.24260048894200004 0.34279007377600007 0.06316489361700002 0.31380842630900002 0.62163338453650019 0.32712044330900009 0.26355228267200004 0.76730095234050022 0.39876237846500007 0.48394368129150006 0.28339593043400008 0.21530784030800001
decision_type=2 2 2 2 2 2 2 2 2 2 2 2 2 2 2 2 2 2 2 2 2 2 2 2 2 2 2 2
left_child=1 3 9 7 8 6 -4 13 -5 -3 -10 12 -2 18 15 -15 -17 -16 -1 21 -6 22 25 -13 -25 26 27 -20
right_child=11 2 5 4 20 -7 -8 -9 10 -11 -12 23 -14 14 17 16 -18 -19 19 -21 -22 -23 -24 24 -26 -27 -28 -29
leaf_value=-0.0063733623608162523 0.019547911059288756 -0.0071869385373942996 0.011410342076340237 -0.0026991056109016594 -0.012029756493866443 0.018464527983923215 -0.0037079953721591407 0.00028744000284110802 0.015379572411378226 0.0048006963729858403 0.0030660111989293782 0.021388035673986783 0.0072700635194778446 -0.011204016245901586 -0.0068964337389315336 -0.0076721087694168093 0.0024448151475396653 -0.012766353298838323 -0.0099425448838508495 -0.0068863356485962873 -0.0081547432020306603 -0.012929793037474156 -0.011920053228026346 0.020621059983968737 0.020073960423469546 -0.010490267369009201 -0.010301551856100559 -0.010104685053229333
leaf_count=38 21 34 37 22 20 37 21 34 24 20 21 22 25 20 31 25 29 26 33 20 20 20 21 20 20 21 20 20
internal_value=0 -0.0611301 0.118008 -0.118531 -0.00552791 0.216316 0.118729 -0.152306 0.111676 -0.0549415 0.192665 0.347536 0.257503 -0.168892 -0.135984 -0.0932388 -0.0447789 -0.191479 -0.191229 -0.20686 -0.201845 -0.217102 -0.209886 0.414335 0.40695 -0.203516 -0.201706 -0.200075
internal_count=722 614 149 465 107 95 58 358 67 54 45 108 46 324 131 74 54 57 193 155 40 135 115 62 40 94 73 53
shrinkage=0.05


Tree=11
num_leaves=27
num_cat=0
split_feature=13 2 11 11 1 7 9 0 10 10 8 9 5 0 4 2 5 11 8 10 9 10 8 3 1 5
split_gain=13.9487 4.92445 1.83146 1.44959 1.13256 0.987031 0.884688 0.864327 0.811278 1.08703 0.809969 0.584055 0.570535 0.494004 0.74543 0.160781 0.259178 0.262249 0.159661 0.0580857 0.0122716 0.00332809 0.00144905 0.00133396 0.000387422 4.34793e-05
threshold=0.58571428571450002 0.39127522771150003 0.32811538764800002 0.35124270008500003 0.33198407472400004 0.38448893803500006 0.38269023205600006 0.31822773673350002 0.35198226395400006 0.31171133277250002 0.32712234311750005 0.38514621085100004 0.44544173910450008 0.21560635057800001 0.35625352311150005 0.24817518960900001 0.33922838448650006 0.30474585330700005 0.41258920691200002 0.35143325143300003 0.51841720887000009 0.29352812126050004 0.36815476190450003 0.48043527402650005 0.30611111111150008 0.33325556074000001
decision_type=2 2 2 2 2 2 2 2 2 2 2 2 2 2 2 2 2 2 2 2 2 2 2 2 2 2
left_child=1 2 11 8 12 -5 10 -2 9 -3 -6 15 13 -4 -15 19 17 -17 -9 21 -20 22 23 24 25 -1
right_child=7 3 4 5 6 -7 -8 18 -10 -11 -12 -13 -14 14 -16 16 -18 -19 20 -21 -22 -23 -24 -25 -26 -27
leaf_value=-0.009438037069944236 0.0075594735145568847 -0.0013955790645036941 -0.008318997144699098 0.019058927116186723 -0.0067674076327910795 0.0057252003039632527 0.010806590020656585 0.015445865194002787 -0.0065665053060421572 0.011803060254225365 0.0062680627134713259 -0.00043722546618917718 -0.011239531691427586 -0.006747719720005989 0.0062030259668827059 -0.0078870039743681748 -0.010738464206457139 -0.00013466726988554001 0.020669344280447283 -0.0073316088981098598 0.01914047292300633 -0.01024956697145024 -0.010081960836594756 -0.0099337831937841015 -0.0097233768925070775 -0.0095272741147450039
leaf_count=39 25 39 25 23 26 35 25 36 26 26 22 23 27 20 25 24 25 20 21 27 35 37 22 28 20 21
internal_value=0 -0.0611243 -0.112696 0.0967061 -0.0304955 0.220254 0.0635917 0.31607 0.0179611 0.0776775 -0.0158563 -0.161557 -0.101303 -0.0536725 0.00894278 -0.17492 -0.133462 -0.0872643 0.360875 -0.189666 0.394276 -0.196624 -0.194242 -0.192735 -0.190656 -0.189385
internal_count=722 605 456 149 170 58 73 117 91 65 48 286 97 70 45 263 69 44 92 194 56 167 130 108 80 60
shrinkage=0.05


Tree=12
num_leaves=27
num_cat=0
split_feature=12 2 11 11 6 9 6 10 0 0 12 11 4 10 6 8 10 10 0 12 7 11 2 5 1 9
split_gain=12.6724 5.12787 2.13613 1.45021 2.16261 1.26432 1.09032 0.780653 0.757193 0.666174 0.602962 0.560148 0.914742 0.200228 0.2956 0.434354 0.183826 0.173602 0.10458 0.0917022 0.0596403 0.0429353 0.0156082 0.000828717 0.000361592 0.000110833
threshold=0.67489177489200014 0.39863062280800005 0.32696670922250004 0.33905528361700005 0.49921810970550007 0.39971056439950009 0.40756154414700002 0.42568715642200006 0.23734470121700002 0.43590982286650004 0.15099715099700003 0.38543871355900006 0.40355787836600004 0.28269230769200004 0.31670892494900005 0.20584363553100005 0.34279007377600007 0.06316489361700002 0.39148018384550004 0.15099715099700003 0.62163338453650019 0.32530396593350003 0.24278269076200001 0.38947816592850004 0.25467905257100004 0.12544964028800001
decision_type=2 2 2 2 2 2 2 2 2 2 2 2 2 2 2 2 2 2 2 2 2 2 2 2 2 2
left_child=1 3 9 7 8 6 -4 13 -5 -3 -10 12 -2 17 15 -15 -16 -1 -13 21 -6 22 23 24 25 -19
right_child=11 2 5 4 20 -7 -8 -9 10 -11 -12 18 -14 14 16 -17 -18 19 -20 -21 -22 -23 -24 -25 -26 -27
leaf_value=-0.005643044843485481 0.019106563472229502 -0.0070768536491827537 0.010365188725896785 -0.0023668860508636994 -0.011387601047754289 0.017029465815505466 -0.0038991273159072514 0.00031633701394586001 0.014365652079383532 0.0043149957344645546 0.0027643749046893347 0.022015521004796031 0.0054177195120316286 -0.0080980407765933442 -0.0062447350592382501 -0.00042545749590947078 -0.01194563562480303 -0.009129705155889194 0.017568468665465332 -0.00625444795936346 -0.0075262445583939548 -0.01195980938417571 -0.010695942796089432 -0.0094893783330917362 -0.0092948425399220509 -0.0089777504093945023
leaf_count=38 23 33 37 22 20 37 21 34 24 21 21 20 26 35 31 39 26 24 39 20 20 21 22 21 23 24
internal_value=0 -0.0555633 0.105879 -0.107294 -0.00514409 0.196152 0.10401 -0.137825 0.104703 -0.0529338 0.179034 0.315887 0.236862 -0.152952 -0.122778 -0.0810876 -0.176903 -0.173433 0.381519 -0.188283 -0.189138 -0.197645 -0.189991 -0.184269 -0.182637 -0.181075
internal_count=722 614 149 465 107 95 58 358 67 54 45 108 49 324 131 74 57 193 59 155 40 135 114 92 71 48
shrinkage=0.05


Tree=13
num_leaves=28
num_cat=0
split_feature=13 2 11 11 9 6 0 1 6 4 2 9 3 3 11 5 2 6 7 2 2 2 10 9 3 10 8
split_gain=11.5366 4.22857 1.57342 1.41914 1.08205 1.44264 1.02521 0.87234 0.804909 0.859659 0.518892 0.529414 0.438503 0.744781 0.410649 0.297716 0.656905 0.245118 0.0894721 0.213387 0.0450183 0.0282112 0.0210783 0.00500227 0.00131992 0.000562463 0.000229445
threshold=0.80357142857150021 0.39273175769250007 0.32696670922250004 0.32811538764800002 0.39971056439950009 0.40756154414700002 0.43590982286650004 0.33198407472400004 0.45819028257250011 0.33709528074200007 0.24817518960900001 0.33722826086950003 0.20486626638250002 0.34809188754600007 0.34396825010400006 0.33325556074000001 0.6503017483900001 0.29829616700650002 0.0092103374099700031 0.12825101819700002 0.029796212450500004 0.75619777925200016 0.35653753026650009 0.30604215241150007 0.48043527402650005 0.25447713463400007 0.23627819548850001
decision_type=2 2 2 2 2 2 2 2 2 2 2 2 2 2 2 2 2 2 2 2 2 2 2 2 2 2 2
left_child=1 3 6 10 5 -4 -3 12 9 -9 18 17 -5 -14 -15 21 -17 -12 19 -1 -20 -2 23 24 25 26 -22
right_child=15 2 4 7 -6 -7 -8 8 -10 -11 11 -13 13 14 -16 16 -18 -19 20 -21 22 -23 -24 -25 -26 -27 -28
leaf_value=-0.008999440777632926 0.020327960029244425 -0.0071906755160954273 0.0099561388293902091 -0.010640030218796297 0.014844434421796067 -0.0060567700050093917 0.0067105753790764585 2.1120160818099973e-06 -0.0030698968154011354 0.01448650523310616 -0.003762803207102575 0.0029295029965314 0.002801042241709573 -0.0020402185618877411 -0.011595338259054268 0.0066344403407790457 0.017601061032878031 -0.010493837155046919 -0.0068262274563312538 -0.0025580120086669926 -0.0085626076729524696 0.017733306302265685 -0.010747260827085247 -0.0097551368176937107 -0.0092095336948449791 -0.0090014647692441951 -0.008799241483211517
leaf_count=36 20 36 39 22 39 22 21 20 33 21 38 22 35 22 23 22 36 21 20 20 21 22 23 22 26 20 20
internal_value=0 -0.0506845 0.0912142 -0.0985944 0.166795 0.0836198 -0.0413832 -0.0278034 0.054852 0.148419 -0.141706 -0.0738045 -0.087769 -0.0533853 -0.138479 0.315258 0.268826 -0.123172 -0.168148 -0.133979 -0.180737 0.379377 -0.187436 -0.181631 -0.178225 -0.175682 -0.173561
internal_count=722 622 157 465 100 61 57 176 74 41 289 81 102 80 45 100 58 59 208 56 152 42 132 109 87 61 41
shrinkage=0.05


Tree=14
num_leaves=28
num_cat=0
split_feature=12 2 11 11 6 9 2 0 13 2 1 5 11 4 11 11 9 12 0 8 8 9 11 2 10 3 10
split_gain=10.4797 4.17949 1.76069 1.20878 1.84914 1.03069 0.947723 0.852627 0.665416 0.613787 0.480699 1.22118 0.458463 0.817225 0.375164 0.528886 0.234889 0.222929 0.100395 0.0780553 0.170968 0.0515053 0.0499107 0.0275396 0.00846259 0.000674926 0.000152073
threshold=0.67489177489200014 0.39863062280800005 0.32696670922250004 0.34165865549300006 0.49921810970550007 0.39971056439950009 0.46984571553050009 0.23734470121700002 0.42687074829900001 0.52117808725050008 0.44011144883500003 0.31837192182850005 0.38543871355900006 0.40355787836600004 0.33269675349750011 0.32883969474800007 0.38269023205600006 0.048809523809500009 0.39148018384550004 0.30015764018000007 0.44020961823300003 0.17905914592400002 0.11199906788700001 0.24278269076200001 0.33142352016750004 0.49777102270550005 0.23606811145500003
decision_type=2 2 2 2 2 2 2 2 2 2 2 2 2 2 2 2 2 2 2 2 2 2 2 2 2 2 2
left_child=1 3 9 8 7 6 -4 -5 10 -3 14 -12 13 -2 15 16 19 -9 -14 22 -21 -22 -1 24 25 26 -24
right_child=12 2 5 4 -6 -7 -8 17 -10 -11 11 -13 18 -15 -16 -17 -18 -19 -20 20 21 -23 23 -25 -26 -27 -28
leaf_value=-0.0062363117560744292 0.017653782924880151 -0.0065364457228604487 0.010873978038628898 -0.0030302367731928829 -0.0086177898472861239 0.015379518069125513 -0.0019164522843701497 0.013160182535648346 0.0026800634711980822 0.0045023346319794655 0.0061419674559779792 -0.01053486079687164 0.020212049037218096 0.004715154262689444 -0.012818367136963483 0.00059657753868536524 -0.002290269508957863 0.0057841825485229498 0.015854878876453791 -0.0039930507321568097 -0.0070213852077722549 -0.01060974657535553 -0.0081276944964318656 -0.010278237045838915 -0.009273349647891933 -0.0085256946831941596 -0.0082936954430558475
leaf_count=20 23 34 30 20 38 37 28 21 20 20 23 21 20 26 29 22 20 20 39 34 20 20 37 29 29 20 22
internal_value=0 -0.0505281 0.0952226 -0.097231 0.000801361 0.177179 0.0939858 0.10867 -0.123748 -0.0489602 -0.133999 -0.0363486 0.287262 0.215768 -0.148227 -0.136739 -0.14977 0.191243 0.346638 -0.158771 -0.131996 -0.176311 -0.171391 -0.178204 -0.170857 -0.165494 -0.163792
internal_count=722 614 149 465 99 95 58 61 366 54 346 44 108 49 302 273 251 41 59 231 74 40 157 137 108 79 59
shrinkage=0.05


Tree=15
num_leaves=29
num_cat=0
split_feature=13 2 11 12 3 9 0 9 6 11 1 11 4 0 1 5 2 8 4 2 3 3 0 10 8 5 0 8
split_gain=9.51898 3.41713 1.2655 1.24012 1.43353 0.949994 0.91734 0.884983 1.30608 0.526264 0.417792 0.325589 0.499027 0.319845 0.556561 0.255738 0.561905 0.114463 0.0969626 0.0755701 0.0987903 0.0344293 0.025632 0.00901668 0.00429956 0.00353435 0.00134439 0.000231203
threshold=0.80357142857150021 0.39273175769250007 0.32696670922250004 0.34393939393900003 0.3787839951150001 0.49512988934250007 0.43590982286650004 0.39971056439950009 0.40756154414700002 0.3348384044255 0.57159090909100008 0.32883969474800007 0.53947581714050019 0.30931247787250005 0.27669569370950003 0.33325556074000001 0.6503017483900001 0.42571379639300005 0.12021405895700002 0.2737851845030001 0.56549230560450015 0.059617997510750011 0.44980260937600008 0.29352812126050004 0.24696969696950002 0.33391099962150006 0.23234751359750003 0.091349206349200018
decision_type=2 2 2 2 2 2 2 2 2 2 2 2 2 2 2 2 2 2 2 2 2 2 2 2 2 2 2 2
left_child=1 3 6 5 9 10 -3 8 -4 -5 11 17 13 14 -13 22 -17 19 -19 20 21 -1 -2 24 27 -21 -25 -23
right_child=15 2 7 4 -6 -7 -8 -9 -10 -11 -12 12 -14 -15 -16 16 -18 18 -20 25 -22 23 -24 26 -26 -27 -28 -29
leaf_value=-0.0064074486494064336 0.018585166111588478 -0.0067144371362196078 0.0091991254152395795 -0.0091417096555233002 0.011984128926111304 0.0041484172145525612 0.0064351367098944533 0.013347724003669542 -0.0060370824553749782 0.0020520807376929692 0.00041759017369021544 -0.0045350277313479679 -0.010186664330271576 -0.0063499440920764001 0.0061784717847000467 0.0058711670339107519 0.016013853044973481 -0.0074770583283333553 -0.0026125440374016764 -0.010284270767284477 -0.0045426952652633194 -0.007918640485276348 0.0161119631068273 -0.0087080796435475352 -0.0086163030316432319 -0.0093754461407661444 -0.0092878180369734761 -0.0077029128317479744
leaf_count=27 20 36 39 21 23 24 21 39 22 21 23 27 26 29 22 22 36 21 20 23 24 23 22 20 24 20 20 27
internal_value=0 -0.0460396 0.0815197 -0.089108 0.0390008 -0.109926 -0.0373971 0.149302 0.074082 -0.0708963 -0.122238 -0.130747 -0.083754 -0.043761 0.0055023 0.286366 0.243333 -0.150374 -0.102082 -0.159893 -0.150163 -0.160258 0.345794 -0.167863 -0.161324 -0.197231 -0.179959 -0.156043
internal_count=722 622 157 465 65 400 57 100 61 42 376 353 104 78 49 100 58 249 41 208 165 141 42 114 74 43 40 50
shrinkage=0.05


Tree=16
num_leaves=30
num_cat=0
split_feature=12 2 11 11 6 10 2 0 13 2 1 5 13 11 11 6 12 9 3 1 1 10 9 2 2 2 10 8 3
split_gain=8.59974 3.39767 1.45263 1.01508 1.62289 0.901372 1.09781 0.750694 0.571381 0.541184 0.406295 1.08142 0.4055 0.363892 0.435921 0.285122 0.206136 0.194802 0.118789 0.0694614 0.177694 0.369066 0.0406311 0.0390362 0.015988 0.011811 0.00487112 0.00113645 0.000168178
threshold=0.67489177489200014 0.39863062280800005 0.32696670922250004 0.34165865549300006 0.49921810970550007 0.35653753026650009 0.46984571553050009 0.23734470121700002 0.42687074829900001 0.52117808725050008 0.44011144883500003 0.31837192182850005 0.89583333333350013 0.33269675349750011 0.32883969474800007 0.40756154414700002 0.048809523809500009 0.38269023205600006 0.41779215642950002 0.33308153409200003 0.24260048894200004 0.29519918284000007 0.037249614791950013 0.7365149353860001 0.19651599583600002 0.23078069951550004 0.30618686868700007 0.23627819548850001 0.38035469885100004
decision_type=2 2 2 2 2 2 2 2 2 2 2 2 2 2 2 2 2 2 2 2 2 2 2 2 2 2 2 2 2
left_child=1 3 9 8 7 6 -4 -5 10 -3 13 -12 -2 14 17 -7 -9 19 23 20 22 -22 -1 -14 -21 26 27 28 -24
right_child=12 2 5 4 -6 15 -8 16 -10 -11 11 -13 18 -15 -16 -17 -18 -19 -20 24 21 -23 25 -25 -26 -27 -28 -29 -30
leaf_value=-0.0056178553029894831 0.0082896142266690731 -0.0061051234602928165 0.011578816485901674 -0.0027912985533475876 -0.0080132029950618754 0.017795995026826859 -0.0028777903010105267 0.012484280623140789 0.002608000710606575 0.0042602533474564554 0.0058948795432629793 -0.0097986535657019844 0.018286352157592774 -0.012063196866676727 0.00057633972980759363 0.0095473240044983958 0.00539153054356575 -0.0020299253240227701 0.012617556222023502 -0.0080591472564265128 -0.0083001550287008282 0.00029818868885437649 -0.0073980362327010539 0.01532271671295166 -0.0098346469657761715 -0.009168109558522701 -0.0084864963733014605 -0.0079294446855783466 -0.0075893325358629225
leaf_count=20 32 34 24 20 38 20 29 21 20 20 23 21 20 29 22 22 20 20 31 32 26 24 27 25 21 20 21 20 20
internal_value=0 -0.0457722 0.0856413 -0.0878811 0.0019541 0.160084 0.073372 0.103008 -0.112181 -0.0453219 -0.12168 -0.0319043 0.260223 -0.13476 -0.123447 0.269505 0.180488 -0.135277 0.299984 -0.143474 -0.134012 -0.083459 -0.153759 0.332798 -0.175253 -0.161426 -0.156441 -0.152275 -0.149589
internal_count=722 614 149 465 99 95 53 61 366 54 346 44 108 302 273 42 41 251 76 231 178 50 128 45 53 108 88 67 47
shrinkage=0.05


Tree=17
num_leaves=30
num_cat=0
split_feature=2 11 1 10 6 2 3 7 9 7 3 2 9 12 5 6 2 7 1 10 2 2 10 9 10 1 8 2 9
split_gain=7.83965 3.24026 1.58373 1.25787 1.24057 1.40251 0.988949 0.801701 0.691531 1.15258 1.29266 0.613109 0.496036 0.481492 0.405522 0.399643 0.511259 0.32014 0.292208 0.244899 0.138408 0.0739433 0.0695761 0.0217437 0.0167159 0.00962825 0.00339104 0.000904537 0.000271151
threshold=0.56273962875350014 0.33143753439250007 0.33308153409200003 0.38569078947400004 0.48501850360600002 0.33996371610600001 0.38035469885100004 0.43907283577799999 0.22435955056199999 0.010766674879200001 0.40215265384000004 0.70756616305500009 0.33722826086950003 0.60769230769250016 0.33922838448650006 0.19154219449150003 0.24817518960900001 0.45778762192300004 0.156330128205 0.048809523809500009 0.30150638361600007 0.35595488762700006 0.42776886035300005 0.66860465116300005 0.34279007377600007 0.37009803921550005 0.26919829579400006 0.12516479783050002 0.12544964028800001
decision_type=2 2 2 2 2 2 2 2 2 2 2 2 2 2 2 2 2 2 2 2 2 2 2 2 2 2 2 2 2
left_child=1 8 4 6 5 14 12 -5 19 -10 15 13 -4 -2 -3 16 -11 21 -6 -1 25 24 -13 -24 -17 26 27 28 -21
right_child=11 2 3 7 18 -7 -8 -9 9 10 -12 22 -14 -15 -16 17 -18 -19 -20 20 -22 -23 23 -25 -26 -27 -28 -29 -30
leaf_value=-0.0027241926301609389 0.0021073887745539348 -0.0086380930698436234 0.0027962993085384369 0.019084076176990164 -0.0038706092163920403 0.0093701510769980297 0.0090011189824768488 0.0068345438250724012 0.0081279295310378082 -0.0083091822266578678 0.0040321858227252965 0.01722942787408829 -0.0078655485684672993 0.012814441819985709 0.0010968317836523055 -0.0083925084890546023 0.0028609407090005421 -0.0028397231921553617 -0.011909450504642267 -0.0072233372988800212 -0.011615079144636791 -0.012555589489638806 0.012763049701849619 0.014988356958264891 -0.010186647959053517 -0.0085136701464653027 -0.0079485927793112674 -0.0074857699374357867 -0.0069803198630159552
leaf_count=22 21 23 20 22 20 35 28 34 20 20 35 25 24 21 20 37 21 20 26 24 27 20 21 23 20 25 22 24 22
internal_value=0 -0.0444141 0.0425053 0.120533 -0.0380391 0.0387733 0.0331067 0.232937 -0.105427 -0.0647234 -0.0909988 0.244478 -0.0603851 0.149218 -0.0822044 -0.134531 -0.051758 -0.169518 -0.168286 -0.152751 -0.167764 -0.198797 0.302461 0.278526 -0.180441 -0.152871 -0.148142 -0.144739 -0.142142
internal_count=722 611 252 128 124 78 72 56 359 193 173 111 44 42 43 138 41 97 46 166 144 77 69 44 57 117 92 70 46
shrinkage=0.05


Tree=18
num_leaves=25
num_cat=0
split_feature=12 2 11 2 9 6 9 2 11 2 7 13 11 4 11 4 8 8 4 0 10 1 2 11
split_gain=7.15507 2.81381 1.20793 0.864934 0.839736 1.96033 0.782231 0.810625 0.546877 0.507344 0.50184 0.363207 0.342412 0.714144 0.33664 0.168271 0.416375 0.152122 0.131014 0.100186 0.0774496 0.035429 0.0267843 0.0251872
threshold=0.67489177489200014 0.39863062280800005 0.32696670922250004 0.12173905560300001 0.36402958600700003 0.37965077082199999 0.39971056439950009 0.46984571553050009 0.34165865549300006 0.14438268897450005 0.14683119927200003 0.27521008403350006 0.38543871355900006 0.40355787836600004 0.32833958142100006 0.20715298885500003 0.30446904981800005 0.30015764018000007 0.0021802201830800005 0.39148018384550004 0.33242753623150006 0.098639202327700015 0.239874339159 0.30474585330700005
decision_type=2 2 2 2 2 2 2 2 2 2 2 2 2 2 2 2 2 2 2 2 2 2 2 2
left_child=1 3 10 17 8 -6 7 -4 9 -5 -3 14 13 -2 15 18 -17 20 -11 -14 21 -1 -20 -23
right_child=12 2 6 4 5 -7 -8 -9 -10 11 -12 -13 19 -15 -16 16 -18 -19 22 -21 -22 23 -24 -25
leaf_value=-0.0057399418067049096 0.015196600685948912 0.0025655321776866915 0.0093729860087235772 0.0019573922390523162 0.0098981652886439599 -0.0060590226105169251 0.012966668404437401 -0.0024561880954674315 0.0015146817031659579 -0.0039182331751693384 -0.0070812807919887399 -0.00047803678764746742 0.017310937419533729 0.003101475565479352 -0.011824339734656471 -0.0075293162980904953 0.0020666657760739326 -0.0042422646709850851 -0.0072749661505222317 0.01295831016240976 -0.010191087673107785 -0.0071766532565418041 -0.0094909215966860472 -0.0093687861226499081
leaf_count=27 23 28 30 23 39 38 37 28 38 22 26 26 20 26 28 26 20 35 25 39 30 38 30 20
internal_value=0 -0.0417509 0.0778395 -0.0800713 -0.0503098 0.0404638 0.145723 0.073247 -0.0796777 -0.100572 -0.0415846 -0.118728 0.237362 0.175576 -0.137525 -0.114997 -0.067143 -0.142571 -0.143585 0.288676 -0.160139 -0.144722 -0.169673 -0.158651
internal_count=722 614 149 465 315 77 95 58 238 200 54 177 108 49 151 123 46 150 77 59 115 85 55 58
shrinkage=0.05


Tree=19
num_leaves=28
num_cat=0
split_feature=13 2 0 5 4 12 3 9 2 1 11 8 10 0 3 9 10 4 4 8 4 0 5 2 11 2 8
split_gain=6.52802 2.33768 1.03889 1.1276 1.2443 0.945621 1.20927 0.740324 0.591615 0.540863 0.401045 0.331653 0.569099 1.16618 0.397202 0.199143 0.198457 0.162427 0.293483 0.337402 0.143327 0.196627 0.1224 0.0720281 0.0423083 0.00763133 0.00106438
threshold=0.89583333333350013 0.39273175769250007 0.4430246991720001 0.31425895765450007 0.46692753458500008 0.34393939393900003 0.3787839951150001 0.49512988934250007 0.46202141201050001 0.46394927536250002 0.3348384044255 0.29490515147500007 0.27315608919350004 0.29491679848900004 0.29996449329400005 0.18795611955550004 0.38625112511250009 0.47682615871400003 0.26531217017150005 0.15297156632250003 0.014078453981500002 0.2703646750075 0.42991298834050012 0.6503017483900001 0.31540320266350003 0.19651599583600002 0.066037037037050009
decision_type=2 2 2 2 2 2 2 2 2 2 2 2 2 2 2 2 2 2 2 2 2 2 2 2 2 2 2
left_child=1 5 3 8 -5 7 10 11 -3 -4 -7 17 15 -14 -15 -13 -2 18 20 -20 21 26 23 -18 25 -22 -1
right_child=16 2 9 4 -6 6 -8 -9 -10 -11 -12 12 13 14 -16 -17 22 -19 19 -21 24 -23 -24 -25 -26 -27 -28
leaf_value=-0.0071027058809995658 0.0080116382435612057 -1.4845021069049836e-05 0.0041359165852720087 0.010181231253050468 -0.0050570333997408548 -0.0080059701310736791 0.011142508782770323 0.0039384548241893453 -0.012030760589100067 0.013583975870694435 0.0017657684428351269 -0.0037135686853836322 0.0064251446298190535 -0.00060022246092557904 -0.010140951381375392 -0.0093536359751049212 0.016947655230760576 -0.0094708681873538914 0.00093833686163028091 -0.0074457049369812019 -0.0070685247412404497 -0.00097607463598251346 0.0099877741560339944 0.013166162415462382 -0.0099609486013650904 -0.0082807733491063115 -0.0066313973749461382
leaf_count=25 23 20 33 37 21 21 23 24 21 28 21 29 35 20 24 34 20 34 30 20 37 20 20 34 25 20 23
internal_value=0 -0.03746 0.0668002 0.00354848 0.0932786 -0.0733345 0.0385334 -0.091513 -0.123387 0.169455 -0.062402 -0.102382 -0.0642569 -0.00772335 -0.116085 -0.135148 0.241366 -0.125518 -0.114655 -0.0483056 -0.136771 -0.102827 0.266583 0.291334 -0.164921 -0.149878 -0.137537
internal_count=722 625 160 99 58 465 65 400 41 61 42 376 142 79 44 63 97 234 200 50 150 68 74 54 82 57 48
shrinkage=0.05


Tree=20
num_leaves=29
num_cat=0
split_feature=2 11 6 10 3 9 0 0 12 2 2 3 8 0 1 12 1 5 10 7 9 2 1 10 11 11 4 1
split_gain=5.97977 2.52702 1.28935 1.64383 1.19317 1.09766 1.30698 1.12849 0.688479 0.498434 0.440562 0.645989 0.770844 0.546999 0.476555 0.35393 0.343773 0.258029 0.0810149 0.0693517 0.163477 0.0438614 0.0256578 0.0235959 0.00624164 0.00441 0.00140897 0.000336034
threshold=0.56273962875350014 0.32883969474800007 0.50111987654250012 0.23057626806600004 0.082359676874700014 0.39971056439950009 0.40741028279650005 0.2703646750075 0.67489177489200014 0.70756616305500009 0.24817518960900001 0.32657825912800004 0.48054078274650008 0.35197975729800007 0.27819993245550007 0.60769230769250016 0.33970176154050008 0.34586482454350004 0.38625112511250009 0.0092103374099700031 0.13551578060200004 0.029796212450500004 0.68683510638300016 0.35653753026650009 0.31568444136000007 0.2810233253635 0.052678069413650004 0.21530784030800001
decision_type=2 2 2 2 2 2 2 2 2 2 2 2 2 2 2 2 2 2 2 2 2 2 2 2 2 2 2 2
left_child=1 10 3 -3 -5 6 7 -6 17 15 19 13 14 -12 -13 -2 -7 -4 -11 20 -1 -21 -20 24 25 26 -23 -27
right_child=9 2 8 4 5 16 -8 -9 -10 18 11 12 -14 -15 -16 -17 -18 -19 22 21 -22 23 -24 -25 -26 27 -28 -29
leaf_value=-0.0067269758321344859 0.0017914530067216783 -0.0067668322113252459 -0.0027156775986606429 -0.0053519517892882942 0.0078289156407117845 0.0096390365312496833 0.013108225911855698 -0.0051434955706721863 0.0039756482094526297 0.015971607267856597 -0.009818690040936837 0.0017410641191182314 0.009127821661531926 -0.00034430649876594544 -0.0084420013800263396 0.010971273588282723 0.018292057920585979 -0.0097498771036043774 0.013145491814818874 -0.0045839474163949494 -0.0010889657214283944 -0.0066562502221627672 0.010817595012485982 -0.0085145762345443174 -0.0074786903709173208 -0.0063638682290911679 -0.007228827103972435 -0.0060806898400187492
leaf_count=36 21 31 22 21 30 24 30 38 20 20 39 27 20 25 20 21 22 32 29 20 20 22 20 24 25 20 21 22
internal_value=0 -0.0387895 0.0334839 0.075945 0.11564 0.148114 0.0882982 0.0115925 -0.0789805 0.213517 -0.0960149 -0.0505056 0.0181269 -0.122355 -0.0518431 0.127627 0.275549 -0.137682 0.265798 -0.124404 -0.094268 -0.135363 0.243907 -0.141882 -0.135684 -0.131599 -0.138718 -0.124311
internal_count=722 611 270 196 165 144 98 68 74 111 341 131 67 64 47 42 46 54 69 210 56 154 49 134 110 85 43 42
shrinkage=0.05


Tree=21
num_leaves=28
num_cat=0
split_feature=2 11 6 10 3 9 0 0 12 2 9 7 3 6 12 1 5 10 2 2 10 1 10 8 8 2 5
split_gain=5.39675 2.28063 1.16364 1.48356 1.07683 0.990637 1.17955 1.01846 0.621353 0.449837 0.402912 1.08027 0.946829 0.496785 0.319422 0.310255 0.232871 0.193918 0.135707 0.097573 0.0731159 0.0231562 0.014049 0.00668933 0.00653971 0.00303933 0.000534056
threshold=0.56273962875350014 0.32883969474800007 0.50111987654250012 0.23057626806600004 0.082359676874700014 0.39971056439950009 0.40741028279650005 0.2703646750075 0.67489177489200014 0.70756616305500009 0.22435955056199999 0.013007961604800002 0.40215265384000004 0.19154219449150003 0.60769230769250016 0.33970176154050008 0.34586482454350004 0.048809523809500009 0.30150638361600007 0.36938633773500001 0.38625112511250009 0.68683510638300016 0.28062500000000007 0.36180344478250009 0.29863886113850008 0.11809744269650001 0.27025503978450011
decision_type=2 2 2 2 2 2 2 2 2 2 2 2 2 2 2 2 2 2 2 2 2 2 2 2 2 2 2
left_child=1 10 3 -3 -5 6 7 -6 16 14 17 -12 13 -13 -2 -7 -4 -1 23 22 -11 -22 -15 25 -24 26 -19
right_child=9 2 8 4 5 15 -8 -9 -10 20 11 12 -14 19 -16 -17 -18 18 -20 -21 21 -23 24 -25 -26 -27 -28
leaf_value=-0.0020034331659024413 0.0017018800690060572 -0.00642849045895761 -0.0025798938829790464 -0.0050843542530423121 0.0074374699592590328 0.0091570847046871986 0.012452814678351085 -0.0048863207039080174 0.003776865936815739 0.015173026919364931 0.0080263087153434748 -0.0016348047516284846 0.003094874344327871 -0.0064532719383185557 0.010422709868067787 0.017377455058422957 -0.0092623831587843597 -0.0061240663938224322 -0.010312749101565434 -0.011401241769393285 0.012488217163702539 0.010276715308427812 -0.0074317498051601916 -0.0071399926394224173 -0.0086679946258664126 -0.0065021163970232013 -0.0058062751132708333
leaf_count=22 21 31 22 21 30 24 30 38 20 20 20 39 34 22 21 22 32 20 26 21 29 20 23 20 20 35 39
internal_value=0 -0.0368501 0.0318097 0.0721477 0.109858 0.140709 0.0838833 0.0110129 -0.0750315 0.202841 -0.0912141 -0.0585133 -0.0860654 -0.126311 0.121246 0.261771 -0.130798 -0.127347 -0.141062 -0.168765 0.252508 0.231711 -0.149619 -0.126193 -0.160135 -0.12266 -0.11828
internal_count=722 611 270 196 165 144 98 68 74 111 341 179 159 125 42 46 54 162 140 86 69 49 65 114 43 94 59
shrinkage=0.05


Tree=22
num_leaves=29
num_cat=0
split_feature=12 2 11 2 12 2 12 3 9 2 1 5 7 7 5 7 11 1 0 10 4 4 11 5 7 7 1 8
split_gain=4.94818 1.8676 0.897582 0.719214 1.01216 0.697625 0.619314 0.7911 0.62795 0.605668 0.5755 0.418112 0.321349 0.836545 0.259679 0.19995 0.48739 0.253993 0.153461 0.131712 0.128836 0.0936775 0.0822833 0.0506471 0.0476724 0.0323044 0.00415977 0.00121891
threshold=0.67489177489200014 0.39863062280800005 0.32696670922250004 0.46984571553050009 0.021980676328500003 0.12173905560300001 0.34393939393900003 0.35659043835750004 0.49512988934250007 0.14438268897450005 0.49962121212100002 0.30660600422250006 0.7537768822805001 0.34244599761100009 0.34991053837800007 0.27579062401400006 0.32915086110050007 0.15313569872400004 0.34148827931850007 0.37431318681300002 0.44366908123350007 0.17649213635900005 0.31568444136000007 0.3358664900015001 0.45964768686950003 0.25704266495950007 0.2739211768625 0.12780118986550001
decision_type=2 2 2 2 2 2 2 2 2 2 2 2 2 2 2 2 2 2 2 2 2 2 2 2 2 2 2 2
left_child=1 5 11 14 -5 19 8 -8 9 -7 15 -3 13 -2 -4 16 21 -17 24 20 22 23 25 -11 -19 26 27 -1
right_child=12 2 3 4 -6 6 7 -9 -10 10 -12 -13 -14 -15 -16 17 -18 18 -20 -21 -22 -23 -24 -25 -26 -27 -28 -29
leaf_value=-0.0055890393668207635 0.013562351772013835 -0.0060967981558421565 0.014696981216018852 0.008238573595881463 -0.0057028603294621352 0.0039090621129920086 -0.002126556858420372 0.010526648305711293 0.0055824802443385129 -0.0076622843837890866 0.002686214938759804 0.0027267661988735203 0.013647641140866924 0.0026980077294079035 0.0068249572813510895 -0.0020077516883611683 0.0029593162948176976 -0.0081185720195727697 -0.011547887563705445 -0.0097756325666393563 -0.0018168256245553495 -0.0026535333506762983 -0.0090804941020905978 -0.004567530136555433 -0.0050083029507236049 -0.0037619496136903764 -0.0066518258489668379 -0.0060964265838265421
leaf_count=29 34 29 22 30 23 24 30 21 20 39 25 25 37 37 20 20 21 28 25 21 20 20 20 20 22 20 20 20
internal_value=0 -0.0347202 0.0627096 0.121226 0.0437703 -0.0659396 -0.0392111 0.0616717 -0.0586998 -0.0726628 -0.0891186 -0.0402363 0.197391 0.158013 0.218968 -0.107432 -0.0762209 -0.140285 -0.166987 -0.122069 -0.110114 -0.112215 -0.123651 -0.132264 -0.135001 -0.110626 -0.120883 -0.115923
internal_count=722 614 149 95 53 465 315 51 264 244 220 54 108 71 42 195 100 95 75 150 129 79 109 59 50 89 69 49
shrinkage=0.05


Tree=23
num_leaves=28
num_cat=0
split_feature=2 11 6 10 3 9 0 0 12 2 2 3 8 0 1 3 5 5 10 7 2 2 5 10 8 3 10
split_gain=4.53694 1.85392 1.03512 1.28892 0.947249 0.885916 1.02185 0.939897 0.516957 0.383991 0.377088 0.544603 0.67657 0.460996 0.409568 0.298018 0.293781 0.20585 0.0777626 0.0584701 0.152041 0.0393739 0.0211273 0.0206161 0.00556138 0.00362605 0.00481467
threshold=0.56273962875350014 0.32883969474800007 0.50111987654250012 0.23057626806600004 0.082359676874700014 0.39971056439950009 0.40741028279650005 0.2703646750075 0.67489177489200014 0.70756616305500009 0.24817518960900001 0.32657825912800004 0.48054078274650008 0.35197975729800007 0.27819993245550007 0.31145256670600002 0.33325556074000001 0.34586482454350004 0.42776886035300005 0.0092103374099700031 0.12825101819700002 0.029796212450500004 0.33549792676950002 0.35653753026650009 0.36465887261050006 0.48043527402650005 0.23057626806600004
decision_type=2 2 2 2 2 2 2 2 2 2 2 2 2 2 2 2 2 2 2 2 2 2 2 2 2 2 2
left_child=1 10 3 -3 -5 6 7 -6 17 15 19 13 14 -12 -13 -2 -7 -4 -11 20 -1 -21 -20 24 25 26 -23
right_child=9 2 8 4 5 16 -8 -9 -10 18 11 12 -14 -15 -16 -17 -18 -19 22 21 -22 23 -24 -25 -26 -27 -28
leaf_value=-0.0060116703829003713 0.0097415422399838771 -0.0060462968003365302 -0.0024527405811981722 -0.00485485043554079 0.0070500909040371587 0.0082408049832219665 0.011512209251523018 -0.0047888310920251049 0.003234342709183693 0.01382035544514656 -0.0087310367478774156 0.0018554467569898677 0.0088182403147220624 -3.3301919698715214e-05 -0.0075848341919481756 0.001317969887029557 0.016232393034126446 -0.0087355809169821445 0.0091280725970864299 -0.0038870244659483435 -0.00057443870231509207 -0.0051678845358471724 0.011328453353295725 -0.0075930610609551271 -0.0067298117466270931 -0.0063660116866230965 -0.0060126299692972287
leaf_count=36 21 31 22 21 30 23 30 38 20 25 39 27 20 25 20 21 23 32 20 20 20 31 24 24 20 22 37
internal_value=0 -0.0337873 0.0281169 0.0661622 0.101312 0.130247 0.0765089 0.00868445 -0.0726519 0.185983 -0.0828024 -0.0406989 0.022318 -0.10667 -0.0432339 0.110595 0.244732 -0.123518 0.23187 -0.109067 -0.081396 -0.119129 0.206566 -0.125307 -0.119513 -0.116161 -0.112551
internal_count=722 611 270 196 165 144 98 68 74 111 341 131 67 64 47 42 46 54 69 210 56 154 44 134 110 90 68
shrinkage=0.05


Tree=24
num_leaves=28
num_cat=0
split_feature=13 2 11 6 10 3 11 8 9 6 3 1 8 2 2 2 9 2 11 2 1 1 3 6 9 5 3
split_gain=4.13706 1.40821 1.05046 0.794438 1.05704 0.870799 0.775613 0.645423 0.621915 0.647211 1.087 0.471044 0.446931 0.469768 0.341726 0.215396 0.445734 0.150002 0.106186 0.0713424 0.0866929 0.200297 0.0367754 0.0329535 0.0304285 0.00178481 0.000588154
threshold=0.58571428571450002 0.55913302918100005 0.32811538764800002 0.50111987654250012 0.23057626806600004 0.16398944939100005 0.37764670603700007 0.37433226495750005 0.39971056439950009 0.34168576001250001 0.34510688672100004 0.49962121212100002 0.41258920691200002 0.6392741098000001 0.42035518557650003 0.31932681748800007 0.29855161966900007 0.56910975019400012 0.10278296593000001 0.26355228267200004 0.24526543447750002 0.29369756587500007 0.43429987191900005 0.15423684667450002 0.30748797637050007 0.39443482357950005 0.32657825912800004
decision_type=2 2 2 2 2 2 2 2 2 2 2 2 2 2 2 2 2 2 2 2 2 2 2 2 2 2 2
left_child=1 2 11 4 -4 -6 8 -5 9 10 -7 14 13 -2 15 18 -17 -14 -1 20 24 -22 -19 -23 25 26 -20
right_child=12 -3 3 7 5 6 -8 -9 -10 -11 -12 -13 17 -15 -16 16 -18 22 19 -21 21 23 -24 -25 -26 -27 -28
leaf_value=-0.0015648722648620606 0.00053299588185769535 0.0080704297976834424 -0.0067427677537004157 -0.00037468835485704021 -0.0052343547965089483 0.012886880846186119 0.012339127628967682 -0.011150920887788136 0.010497124764052304 -0.0040825439031635016 -0.0028307991610331974 0.0012981373713248307 0.014557643099264665 0.010643294118344785 -0.01061293498977371 -0.0052484421432018279 0.004249351844191551 0.0107415020731943 -0.0051564251923042793 -0.0080595437437295924 0.00059818061068654064 -0.0039523377871284121 0.007934290505945683 -0.0064037503995772078 -0.0076747202314436441 -0.0058731879715038385 -0.0054801129218604834
leaf_count=21 27 35 30 33 24 22 29 24 22 35 22 36 22 20 23 30 21 28 23 21 20 26 20 29 20 23 36
internal_value=0 -0.0332884 -0.0452434 0.00491468 0.0368705 0.0703236 0.102633 -0.098241 0.0612439 0.0198341 0.100561 -0.0819854 0.172132 0.096705 -0.0952486 -0.0852811 -0.0267517 0.222776 -0.0989113 -0.106082 -0.0995441 -0.0737349 0.191437 -0.104898 -0.118521 -0.109992 -0.107079
internal_count=722 605 570 241 184 154 130 57 101 79 44 329 117 47 293 270 51 70 219 198 177 75 48 55 102 82 59
shrinkage=0.05


Tree=25
num_leaves=28
num_cat=0
split_feature=12 2 11 6 2 10 2 2 11 13 12 3 1 8 3 7 7 1 1 2 2 7 9 11 8 2 9
split_gain=3.78569 1.43246 1.09377 1.01167 0.806788 0.690326 0.741988 0.661085 0.834469 0.911999 0.659328 0.387678 0.369909 0.636747 0.31476 0.264295 0.748455 0.261422 0.615264 0.367678 0.210206 0.0890515 0.106407 0.0705516 0.0472965 0.0307354 0.000987606
threshold=0.67489177489200014 0.70756616305500009 0.32883969474800007 0.50111987654250012 0.12173905560300001 0.35653753026650009 0.36178458784500006 0.44597943907200005 0.34055287572950005 1.0000000180025095e-35 0.15099715099700003 0.3633075021285001 0.49962121212100002 0.28339593043400008 0.35341596875000009 0.7537768822805001 0.34244599761100009 0.33308153409200003 0.24260048894200004 0.26034035923900006 0.36527083594500004 0.0020683602683900003 0.33471894809600006 0.30939929566200003 0.30547734674200006 0.19527762696750003 0.14064838953850003
decision_type=2 2 2 2 2 2 2 2 2 2 2 2 2 2 2 2 2 2 2 2 2 2 2 2 2 2 2
left_child=1 2 12 4 -4 7 -7 8 9 -6 -10 -5 17 -14 -8 16 -2 18 21 -20 24 -1 23 25 -19 26 -23
right_child=15 -3 3 11 5 6 14 -9 10 -11 -12 -13 13 -15 -16 -17 -18 20 19 -21 -22 22 -24 -25 -26 -27 -28
leaf_value=-0.0029945870063134601 0.012202442086794798 0.011643021516501904 -0.0069087395001025433 -0.0022291168067100887 -0.009697174131870271 0.00054251691326498983 0.015887370173420227 -0.0067399262704632493 0.014513910114765168 0.0054024857282638549 0.001970397613265298 -0.010869382936507464 -0.0052424632520838219 0.0070843746513128275 0.0071228772401809694 0.012059032413605099 0.0019260282854776127 -0.0041931445790188661 -0.0034387089312076569 0.0039272928403483497 -0.011295031867921353 -0.0054005099317202205 -0.0086266859675999032 -0.0024318756349384785 -0.0071119188938451846 -0.0074514042027294643 -0.0049826488860191843
leaf_count=35 34 20 21 37 20 24 21 22 20 20 22 20 22 20 20 37 37 35 32 36 20 26 27 20 23 20 31
internal_value=0 -0.0303691 -0.039232 0.0116291 0.0466825 0.069653 0.150496 0.0191259 0.0604227 -0.0429469 0.15887 -0.105216 -0.0754357 0.0125492 0.23224 0.172654 0.136943 -0.0875517 -0.0703901 0.00921878 -0.137496 -0.104437 -0.11701 -0.101555 -0.107012 -0.1153 -0.103465
internal_count=722 614 594 247 190 169 65 104 82 40 42 57 347 42 41 108 71 305 227 68 78 159 124 97 58 77 57
shrinkage=0.05


Tree=26
num_leaves=29
num_cat=0
split_feature=12 2 11 6 2 11 7 9 9 5 8 3 1 2 1 1 10 7 7 2 0 7 9 11 2 2 1 11
split_gain=3.41658 1.29279 0.987374 0.890562 0.706566 0.665194 0.729923 0.665801 0.477175 0.766499 0.601877 0.349879 0.340481 0.610533 0.25758 0.694134 0.461811 0.239814 0.804933 0.197994 0.11679 0.0806933 0.101063 0.0636728 0.0407391 0.0277387 0.0262642 0.000898879
threshold=0.67489177489200014 0.70756616305500009 0.32811538764800002 0.50111987654250012 0.12173905560300001 0.35803394381400006 0.34768725874350009 0.39971056439950009 0.3473294187030001 0.26332266732050008 0.22266004957500002 0.3633075021285001 0.49962121212100002 0.27235137544850008 0.32021787078350006 0.24260048894200004 0.29519918284000007 0.29679459807650005 0.58157871357500013 0.36938633773500001 0.54554570040750006 0.0020683602683900003 0.33471894809600006 0.30939929566200003 0.22144476774200003 0.19527762696750003 0.3737585762445001 0.2810233253635
decision_type=2 2 2 2 2 2 2 2 2 2 2 2 2 2 2 2 2 2 2 2 2 2 2 2 2 2 2 2
left_child=1 2 12 4 -4 7 -7 8 9 -6 -11 -5 14 -14 15 21 -17 -2 -19 24 -20 -1 23 25 26 27 -16 -23
right_child=17 -3 3 11 5 6 -8 -9 -10 10 -12 -13 13 -15 19 16 -18 18 20 -21 -22 22 -24 -25 -26 -27 -28 -29
leaf_value=-0.0028448576373713359 0.012000166947642964 0.011060870364308358 -0.0065633025375150507 -0.0021176609135157352 -0.0068522503430193116 0.014946337860255017 0.0033309668302536014 0.0090011958565030786 -0.0076988385431468499 0.011094184555113316 0.00010185465216636658 -0.010325913857668638 -0.0054322837186711178 0.0066244568143572135 -0.0054292354446191064 -0.0027794447181553675 0.0063974971668078352 0.00031501181423664097 0.013221717408547799 -0.010879302639514208 0.0082890493484834831 -0.0050605709589010969 -0.0083341661267555683 -0.002310281842947006 -0.0070844280160963537 -0.0070788340084254747 -0.0030191656760871414 -0.0046445240825414664
leaf_count=35 30 20 21 37 22 21 38 21 20 20 33 20 21 21 26 29 26 30 24 20 24 37 26 20 20 20 20 20
internal_value=0 -0.0288506 -0.0372704 0.0100626 0.0420576 0.0628564 0.149305 0.0188868 -0.0167329 0.0198654 0.0849981 -0.099955 -0.0723885 0.0119217 -0.0842314 -0.0655813 0.0311749 0.164021 0.134797 -0.130423 0.215108 -0.0992623 -0.111317 -0.0964771 -0.10401 -0.109535 -0.0876276 -0.0982918
internal_count=722 614 594 253 196 175 59 116 95 75 53 57 341 42 299 213 55 108 78 86 48 158 123 97 66 77 46 57
shrinkage=0.05


Tree=27
num_leaves=29
num_cat=0
split_feature=13 2 0 11 6 8 1 12 3 9 8 9 4 5 8 0 0 1 3 2 11 9 10 1 2 4 2 7
split_gain=3.10633 1.06204 0.621091 0.881994 0.910459 1.05513 0.913201 0.530834 1.1251 0.446795 0.347526 0.289042 0.35851 0.382666 0.718049 0.221936 0.384881 0.171394 0.164624 0.254663 0.12693 0.160812 0.106838 0.0471748 0.0496185 0.0287664 0.00662184 0.00446247
threshold=0.89583333333350013 0.39863062280800005 0.65383625647450005 0.32332375880800007 0.40345408073850003 0.31855017741500008 0.35863868912800007 0.34393939393900003 0.3787839951150001 0.49512988934250007 0.32977130476700006 0.40843306119549999 0.20715298885500003 0.33127551267750005 0.30446904981800005 0.30420764654250004 0.23734470121700002 0.443544759334 0.26873928354000004 0.66810752762050007 0.23959323645950004 0.14426807760150004 0.28496240601500006 0.24526543447750002 0.2520615391810001 0.014078453981500002 0.12516479783050002 0.58389967637500007
decision_type=2 2 2 2 2 2 2 2 2 2 2 2 2 2 2 2 2 2 2 2 2 2 2 2 2 2 2 2
left_child=1 7 3 -3 5 -5 -6 9 10 11 -9 12 17 14 -14 16 22 20 -2 -20 21 26 -15 25 -25 -22 -1 -21
right_child=18 2 -4 4 6 -7 -8 8 -10 -11 -12 -13 13 15 -16 -17 -18 -19 19 27 23 -23 -24 24 -26 -27 -28 -29
leaf_value=-0.004535385774714607 0.011006203438672755 -0.0052705613179848745 0.01030356234737805 0.00025839653043519884 -0.0090023419331936617 0.015327072086242531 0.0050162935199645851 -0.0075809834694320517 0.010324005875736475 0.0034622136503458024 0.001411445261467071 -0.0092736297242698214 -0.0025785521190199588 -0.001989822369068861 0.0088870945301922893 -0.0064746244500080751 0.0039882792958191469 -0.00025622291490435601 0.0022838140527407331 0.0096114416047930733 -0.0038326062439453037 0.00026655238121747971 -0.0069379202648997308 -0.005852611968293786 -0.0091025205733983421 -0.0061611746023926472 -0.0056584629629339491 0.0085552137345075614
leaf_count=35 36 39 21 21 21 26 26 22 24 24 21 21 36 24 22 36 21 20 21 20 21 20 20 24 23 36 21 20
internal_value=0 -0.0258405 0.0462503 0.0210155 0.0734691 0.171885 -0.024947 -0.0494116 0.0330253 -0.0630831 -0.0637866 -0.0714406 -0.0647702 -0.0293281 0.0354097 -0.0665043 -0.0316185 -0.0929467 0.166498 0.13485 -0.102705 -0.0716408 -0.0847792 -0.125405 -0.14886 -0.106066 -0.0991308 0.181667
internal_count=722 625 154 133 94 47 47 471 67 404 43 380 359 159 58 101 65 200 97 61 180 76 44 104 47 57 56 40
shrinkage=0.05


Tree=28
num_leaves=28
num_cat=0
split_feature=2 12 3 9 6 2 9 9 4 10 4 1 11 4 9 2 3 1 5 9 4 2 10 1 10 9 7
split_gain=2.82631 1.16344 0.801752 0.696479 0.529357 0.878591 0.785708 0.425307 0.482427 0.904808 0.494146 0.297384 0.276874 0.470791 0.265487 0.24732 0.248753 0.242274 0.230437 0.144693 0.195782 0.0757666 0.0717491 0.0239362 0.00400458 0.00246592 0.00132171
threshold=0.56273962875350014 0.34393939393900003 0.50616989735550011 0.48888182299950006 0.39876237846500007 0.27975592968850005 0.40843306119549999 0.41703869047650005 0.20715298885500003 0.36402157164850008 0.47682615871400003 0.443544759334 0.32396269711650005 0.34455481972050006 0.33784930941150004 0.70756616305500009 0.31145256670600002 0.21403856864350004 0.31012366983050005 0.22435955056199999 0.046245424386050005 0.30150638361600007 0.38625112511250009 0.60191261455700007 0.27459677419350009 0.075650874946650015 0.032548717602450004
decision_type=2 2 2 2 2 2 2 2 2 2 2 2 2 2 2 2 2 2 2 2 2 2 2 2 2 2 2
left_child=1 3 4 7 5 -3 -6 8 11 10 12 14 18 -14 19 16 -2 -12 -10 21 -21 24 -17 -24 25 -1 -27
right_child=15 2 -4 -5 6 -7 -8 -9 9 -11 17 -13 13 -15 -16 22 -18 -19 -20 20 -22 -23 23 -25 -26 26 -28
leaf_value=-0.0047123639164744205 0.0081624268421104981 -0.0042629397474229338 0.010999565633634727 0.0046046494855545459 -0.00845209410680192 0.0086267354587713889 0.0033929494076541493 -0.010159038491547109 0.00093135698275132622 0.0076199206075182671 -0.0018933040834963324 0.00045200779006398964 -0.0020064120564390634 0.0068371604300207561 -0.0097856427282094968 0.011704614832997322 0.00046651966515041536 -0.0088674296935399369 -0.0057161210803315047 0.001249795857196053 -0.0050127309102278488 -0.0077195858272413424 0.009148377428452174 0.0069265904751690949 -0.0052122620120644576 -0.0044334431365132335 -0.0038586142659187321
leaf_count=37 21 20 24 32 28 39 28 20 22 27 20 29 34 27 25 20 21 33 32 24 26 24 27 22 20 20 20
internal_value=0 -0.0266675 0.0537435 -0.0503478 0.0190483 0.0851471 -0.0505914 -0.0607072 -0.0539227 -0.0175173 -0.0448252 -0.085474 -0.00800708 0.0381591 -0.0994583 0.146791 0.0862895 -0.124714 -0.0601578 -0.0853859 -0.0401344 -0.104085 0.183618 0.163017 -0.0916379 -0.0883633 -0.0829206
internal_count=722 611 139 472 115 59 56 440 420 195 168 225 115 61 196 111 42 53 54 171 50 121 69 49 97 77 40
shrinkage=0.05


Tree=29
num_leaves=25
num_cat=0
split_feature=12 2 13 3 3 6 11 8 0 4 8 5 11 6 6 7 7 1 10 1 10 8 10 4
split_gain=2.59138 1.00699 0.689697 0.794672 0.946787 1.11177 0.937817 0.752092 0.656237 0.505512 0.414426 0.705683 0.226184 0.566978 0.561146 0.218632 0.605742 0.0561632 0.080681 0.119562 0.00778382 0.00298564 0.0017974 0.000935508
threshold=0.67489177489200014 0.24817518960900001 0.5422619047620002 0.14110042579350004 0.25137187205000006 0.50111987654250012 0.35662230915650012 0.37080817627250007 0.35197975729800007 0.39376564645100004 0.28465647057000004 0.32266800785050004 0.32883969474800007 0.22402466598150003 0.44415968134950007 0.7537768822805001 0.34244599761100009 0.39653234020900002 0.33242753623150006 0.22794708165400004 0.28269230769200004 0.24696969696950002 0.091326105087600015 0.0012113829202350004
decision_type=2 2 2 2 2 2 2 2 2 2 2 2 2 2 2 2 2 2 2 2 2 2 2 2
left_child=1 12 3 -3 8 6 7 10 -5 -9 11 -6 17 -14 -15 16 -2 18 20 -20 21 22 -1 -24
right_child=15 2 -4 4 5 -7 -8 9 -10 -11 -12 -13 13 14 -16 -17 -18 -19 19 -21 -22 -23 23 -25
leaf_value=-0.0045313193908204201 0.010336091237909654 -0.0071230661975485946 0.0076741193188354373 0.0013848552852869034 -0.0063803678378462798 -0.0095280941832682192 0.0083651242511613034 0.0074439605644771034 0.014040016666764306 -0.0025208232551813129 -0.0082856740442014513 0.0047618048058615794 -0.0079825385109238006 0.0065045495517551902 -0.0028238925200543908 0.010258649108377663 0.0010911835206521524 -0.0061584240756928921 -0.0043156933755828788 0.00082645065151155006 -0.0054202220402657991 -0.0047096202738190953 -0.0042548466296423049 -0.0038197270780801779
leaf_count=23 34 35 32 20 30 29 35 35 21 20 31 27 23 28 38 37 37 32 26 20 20 38 21 30
internal_value=0 -0.0251261 0.0143296 -0.00140504 0.0185021 -0.00899627 0.0205846 -0.0153253 0.157335 0.0764081 -0.0726587 -0.0220499 -0.0666931 -0.0244447 0.0226726 0.142846 0.110366 -0.0845983 -0.0776644 -0.0415996 -0.0902324 -0.0869874 -0.0832876 -0.0799779
internal_count=722 614 315 283 248 207 178 143 41 55 88 57 299 89 66 108 71 210 178 46 132 112 74 51
shrinkage=0.05


Tree=30
num_leaves=28
num_cat=0
split_feature=12 2 3 1 8 6 11 1 1 11 4 2 0 7 7 11 6 0 0 2 1 10 11 8 10 7 3
split_gain=2.34491 0.954405 0.91375 0.96077 1.19537 0.869365 1.29431 0.645218 1.08025 0.674915 0.363116 0.289562 0.264148 0.236721 0.6358 0.204131 0.511698 0.523652 1.59337 0.0926705 0.0506873 0.0728146 0.112164 0.00716087 0.00647027 0.00136121 0.00149116
threshold=0.79166666666700014 0.24817518960900001 0.14110042579350004 0.49962121212100002 0.35554437784000004 0.50718304146150006 0.32189965165450007 0.24877299996800004 0.32310121501150008 0.35124270008500003 0.41365248575600005 0.35042407966450001 0.45968591005350001 0.29679459807650005 0.58157871357500013 0.32883969474800007 0.22402466598150003 0.30593399996250009 0.20050418504400003 0.7365149353860001 0.39653234020900002 0.33242753623150006 0.28478228537700007 0.24696969696950002 0.23413177670450003 0.013007961604800002 0.35547469634650009
decision_type=2 2 2 2 2 2 2 2 2 2 2 2 2 2 2 2 2 2 2 2 2 2 2 2 2 2 2
left_child=1 15 12 5 -5 6 11 -8 -9 10 -10 -4 -3 -2 -15 20 -17 18 -18 -16 21 23 -23 25 -25 -1 -27
right_child=13 2 3 4 -6 -7 7 8 9 -11 -12 -13 -14 14 19 16 17 -19 -20 -21 -22 22 -24 24 -26 26 -28
leaf_value=-0.0042531147017143668 0.011279597864128077 -0.0096974173722707713 -0.0005838050623424351 -0.0010625272989273071 0.013169410224590037 -0.0076644827115039038 0.010532016679644585 -0.0062356707568352043 0.0066368616186082367 0.012478894367814065 -0.0028909368440508845 -0.0071206599784394108 -0.00184055432677269 -0.00017642248421907426 0.011975325904786588 -0.0075834115400262503 -0.0044596600191046795 -0.0052215143530206249 0.014649182930588723 0.007366964810838302 -0.005850502842804417 0.00018946035550190853 -0.0047910513728857042 -0.0042736422013619855 -0.0054260539689234329 -0.0035934606300933023 -0.0041435420682484451
leaf_count=32 26 23 32 25 36 30 33 26 20 24 20 36 20 28 20 23 24 22 20 24 32 26 20 29 21 28 22
internal_value=0 -0.0225847 0.0149271 0.0356324 0.146733 0.00496661 0.0298236 0.0910311 0.0471743 0.117004 0.0374592 -0.0808899 -0.120861 0.143805 0.114271 -0.0633584 -0.0232225 0.0215389 0.0845236 0.189233 -0.0803684 -0.0737812 -0.0395196 -0.0857208 -0.0951531 -0.0799694 -0.0767099
internal_count=722 624 325 282 61 221 191 123 90 64 40 68 43 98 72 299 89 66 44 44 210 178 46 132 50 82 50
shrinkage=0.05


Tree=31
num_leaves=28
num_cat=0
split_feature=2 12 9 9 8 11 6 1 3 11 10 6 2 9 2 2 11 3 2 9 2 10 1 10 2 10 4
split_gain=2.1562 0.851909 0.504279 0.535405 0.531784 0.811121 0.862999 0.867895 0.512808 0.482096 0.357671 0.336968 0.273483 0.255786 0.695128 0.269692 0.235381 0.204758 0.393926 0.15386 0.0995049 0.0765556 0.0625699 0.197648 0.00996401 0.00971685 0.000467821
threshold=0.56273962875350014 0.46824731090800004 0.48888182299950006 0.41703869047650005 0.32712234311750005 0.2810233253635 0.45819028257250011 0.37286113251150005 0.34307446311900003 0.33744720626750008 0.41325250836150001 0.35383447918850008 0.43567259776550005 0.32804661092300008 0.21034743732050001 0.34162858812550007 0.33166674210000008 0.25137187205000006 0.71956244245000012 0.36799729731250003 0.22260077205650003 0.42776886035300005 0.31083060656200007 0.32690166975900009 0.12516479783050002 0.30104166666650006 0.0012113829202350004
decision_type=2 2 2 2 2 2 2 2 2 2 2 2 2 2 2 2 2 2 2 2 2 2 2 2 2 2 2
left_child=1 2 3 4 12 20 7 8 -7 11 19 -3 13 15 -15 16 22 -2 -19 -11 -6 -20 23 24 26 -24 -1
right_child=17 9 -4 -5 5 6 -8 -9 -10 10 -12 -13 -14 14 -16 -17 -18 18 21 -21 -22 -23 25 -25 -26 -27 -28
leaf_value=-0.003859683051705361 0.0097848657518625273 0.003098126593977213 0.0039449219450806133 -0.0097240874543786052 -0.0033417299897833307 -0.0021841920965484213 -0.0048342290893197068 0.012640651057545955 0.0073050948713595677 0.0054937658458948137 0.0097608858453375955 -0.006080223508179188 -0.0089711946994066229 -0.0064204375057116811 0.0050519701213605946 -0.0089286854744634846 0.0010666872149911421 0.0005316019803285599 0.010186410658061505 -0.00070824906229972851 -0.008214665353298187 0.0061653328096044476 -0.0046849148115143185 0.0013553595915436747 -0.0047663263221447531 -0.0060690740566878097 -0.003564536455890228
leaf_count=25 32 20 33 24 22 35 30 26 24 20 28 20 20 23 31 22 29 30 20 20 20 29 32 20 37 21 29
internal_value=0 -0.0232925 -0.0405948 -0.0489848 -0.0411553 0.00569353 0.0491314 0.100596 0.0335171 0.0572913 0.108534 -0.029821 -0.0666061 -0.0582182 0.00331149 -0.0736721 -0.0617144 0.128214 0.100879 0.0478552 -0.113244 0.156132 -0.0763998 -0.0629028 -0.0826852 -0.104667 -0.0740236
internal_count=722 611 503 470 446 157 115 85 59 108 68 40 289 269 54 215 193 111 79 40 42 49 164 111 91 53 54
shrinkage=0.05


Tree=32
num_leaves=27
num_cat=0
split_feature=2 12 3 9 6 2 9 9 4 10 4 4 2 1 7 0 7 5 11 7 11 2 9 5 5 2
split_gain=1.94597 0.769228 0.671325 0.534232 0.450224 0.732296 0.605141 0.345039 0.368673 0.726103 0.4142 0.229006 0.579073 0.216266 0.21542 0.316021 0.299327 0.190592 0.189427 0.219148 0.182194 0.155484 0.134241 0.0360935 0.0282728 0.0227303
threshold=0.56273962875350014 0.34393939393900003 0.50616989735550011 0.48888182299950006 0.39876237846500007 0.27975592968850005 0.40843306119549999 0.41703869047650005 0.20715298885500003 0.36402157164850008 0.47682615871400003 0.012668304456650003 0.27235137544850008 0.21530784030800001 0.34244599761100009 0.32958031534850007 0.25704266495950007 0.16920152091250004 0.35803394381400006 0.58389967637500007 0.30608215782550002 0.29138298761900006 0.249122385714 0.20936146228600003 0.33095432061750002 0.21034743732050001
decision_type=2 2 2 2 2 2 2 2 2 2 2 2 2 2 2 2 2 2 2 2 2 2 2 2 2 2
left_child=1 3 4 7 5 -3 -6 8 11 10 14 12 23 -12 16 -16 -10 -2 -19 -20 22 -22 25 -1 -25 -13
right_child=17 2 -4 -5 6 -7 -8 -9 9 -11 13 20 -14 -15 15 -17 -18 18 19 -21 21 -23 -24 24 -26 -27
leaf_value=-0.0055043073681493608 0.0016707245074212554 -0.0041553391888737674 0.0097690789339443043 0.0041684265946969395 -0.0078334157621221881 0.007612370718748142 0.002561816732798304 -0.0089391269721090794 0.00098363597256441926 0.0069847069818664486 -0.0015635089150496891 -0.0037968697411746815 0.0051544728567418851 -0.008093579456908629 0.0056862875626518816 -0.0023675768857910522 -0.0058421038669244996 0.010397009744212546 0.0022255864260452137 0.008198914654991207 -0.0051822295412421232 -0.010654075164347888 0.00016980125568807127 -0.0016854362748563289 -0.0040818721463438123 -0.0059879426285624508
leaf_count=24 20 20 24 32 28 39 28 20 36 27 21 29 23 32 29 21 29 29 28 34 37 20 20 20 32 20
internal_value=0 -0.0221279 0.0432559 -0.0413829 0.011508 0.0724663 -0.052716 -0.0504557 -0.0443449 -0.0125198 -0.0369828 -0.0719267 -0.0359352 -0.110124 -0.00327424 0.0460733 -0.0412339 0.121803 0.141229 0.110026 -0.100206 -0.142044 -0.0656441 -0.0780084 -0.0632033 -0.0938237
internal_count=722 611 139 472 115 59 56 440 420 195 168 225 99 53 115 50 65 111 91 62 126 57 69 76 52 49
shrinkage=0.05


Tree=33
num_leaves=30
num_cat=0
split_feature=13 2 2 7 11 10 4 8 11 5 10 8 9 4 10 2 5 9 5 0 2 4 11 0 5 7 3 10 11
split_gain=1.78852 0.637949 0.441274 0.538294 0.921967 0.558864 0.716623 0.702455 0.742772 0.522238 0.44004 0.393311 0.804406 0.341904 0.300541 0.258343 0.226071 0.183379 0.141884 0.233543 0.117614 0.114895 0.157946 0.0700142 0.0690525 0.0654922 0.0357533 0.0207012 0.0012026
threshold=0.89583333333350013 0.12173905560300001 0.55913302918100005 0.46877221819450005 0.35803394381400006 0.30825791855200008 0.014078453981500002 0.30446904981800005 0.33425288448200002 0.33325556074000001 0.079062500000000022 0.51172020188550016 0.38892399769550007 0.39480556584550003 0.33534136546150006 0.39511427765950008 0.33261052006600006 0.30748797637050007 0.36381226151700008 0.53279015973100019 0.26355228267200004 0.47560547814950005 0.32226250774400006 0.53533823201600017 0.36178639541800001 0.23460783165700003 0.45395109819600005 0.27172479923300003 0.27003361832900008
decision_type=2 2 2 2 2 2 2 2 2 2 2 2 2 2 2 2 2 2 2 2 2 2 2 2 2 2 2 2 2
left_child=1 21 3 4 5 10 -7 14 16 -4 -3 12 24 -6 -8 17 -9 20 23 -20 25 22 26 -2 -5 -12 27 28 -1
right_child=18 2 9 11 13 6 7 8 -10 -11 15 -13 -14 -15 -16 -17 -18 -19 19 -21 -22 -23 -24 -25 -26 -27 -28 -29 -30
leaf_value=-0.0032927598804235458 0.0093225707752364034 0.0028715326317719052 -0.00077363491058349612 -0.0080296950592171588 0.002994535118341446 0.010413162242621184 0.0010388637138974098 0.0032581870816648009 0.010133886696011932 0.010652630105614663 -0.0044122168421745307 -0.0093123502369659647 0.004621221504077829 0.012129129655659199 -0.006414397541237505 -0.0089887348935008046 -0.0041696007319149521 0.0008026102790609003 0.00021517049521207812 0.0077647099005324505 -0.0069302401505410673 -0.000309354504570365 -0.0083498900756239901 0.0056707154959440235 -0.0042649455240060547 -0.00057349934242665766 -0.0018120903606441887 -0.0050786220526788384 -0.0037813820037990811
leaf_count=34 35 28 20 21 21 20 21 20 27 20 25 24 29 20 38 22 21 24 20 21 26 20 21 21 29 20 22 32 20
internal_value=0 -0.0196076 -0.00173274 -0.010955 0.00858672 -0.0111301 0.0323196 0.00461198 0.0738874 0.09879 -0.0551791 -0.0741336 -0.0400738 0.149009 -0.0752308 -0.0821284 -0.0109258 -0.0595156 0.126338 0.0816402 -0.0850596 -0.0767112 -0.0876451 0.159063 -0.116923 -0.0541224 -0.0722154 -0.081418 -0.0694746
internal_count=722 625 476 436 333 292 147 127 68 40 145 103 79 41 59 117 41 95 97 41 71 149 129 56 50 45 108 86 54
shrinkage=0.05


Tree=34
num_leaves=27
num_cat=0
split_feature=12 2 2 7 11 4 10 10 9 6 5 1 1 8 1 0 10 7 7 7 10 8 11 8 1 3
split_gain=1.63818 0.685281 0.478048 0.408679 0.895716 0.617315 0.446627 0.511611 0.496014 0.728215 0.436935 0.374377 0.67102 0.510813 0.328898 0.258759 0.237132 0.209957 0.168246 0.560529 0.147948 0.123174 0.105438 0.0984113 0.0333805 0.0141514
threshold=0.67489177489200014 0.70756616305500009 0.12173905560300001 0.47271854710000005 0.35803394381400006 0.39480556584550003 0.29352812126050004 0.079062500000000022 0.22435955056199999 0.20726959246800003 0.33815389548850006 0.29653001057750006 0.34112318840600003 0.37902906628750005 0.34872196858400001 0.35197975729800007 0.21124141876400002 0.20312856563850004 0.29679459807650005 0.58157871357500013 0.37431318681300002 0.54404028258250015 0.31842232448600011 0.30015764018000007 0.32568026866100003 0.29416437294750003
decision_type=2 2 2 2 2 2 2 2 2 2 2 2 2 2 2 2 2 2 2 2 2 2 2 2 2 2
left_child=1 2 20 4 6 -6 7 -4 -8 15 -5 -11 -13 -14 -12 -10 22 -18 -2 -20 23 -21 -9 24 25 -1
right_child=18 -3 3 10 5 -7 8 16 9 11 14 12 13 -15 -16 -17 17 -19 19 21 -22 -23 -24 -25 -26 -27
leaf_value=-0.0024978859530341243 0.0088608933364351591 0.0081044205091893671 0.0029251432791352274 -0.0075365000355400551 0.00049564047228722343 0.012124117463827133 -0.0059557945721528749 -0.0049394461326301101 0.003912428622557358 -0.0042693338977793848 -0.0041526227017804505 0.009731044657528401 -0.0070183184175264274 0.0033792122922561788 0.00339572004697941 0.011770497225224972 0.00026481271488592028 -0.0054628231446258724 -0.00090657359610001259 0.010802684128284454 -0.0076376817233505707 0.0056651244871318346 -0.010073602860793472 -0.00065675182568450136 -0.0053123236794410085 -0.003937421400884265
leaf_count=31 30 20 30 38 21 25 22 20 22 36 31 20 21 27 27 20 32 32 30 20 21 28 20 31 29 38
internal_value=0 -0.0199774 -0.0261076 -0.0096185 0.00631627 0.136309 -0.013484 -0.0565437 0.0208613 0.0419537 -0.0673821 -0.00292713 0.0407279 -0.0233941 -0.0127748 0.153087 -0.0897303 -0.0519801 0.113575 0.0890974 -0.0749153 0.156115 -0.15013 -0.0622439 -0.0777783 -0.0658135
internal_count=722 614 594 444 348 46 302 134 168 146 96 104 68 48 58 42 104 64 108 78 150 48 40 129 98 69
shrinkage=0.05


Tree=35
num_leaves=28
num_cat=0
split_feature=12 2 11 3 3 0 4 12 1 6 10 4 10 5 9 7 7 3 4 12 10 10 2 9 5 7 7
split_gain=1.48262 0.636368 0.497237 0.503838 0.517052 0.47966 0.463375 0.590155 0.52747 0.421257 0.845763 0.716989 0.490681 0.475142 0.283259 0.191307 0.477669 0.188168 0.507559 0.180906 0.130269 0.129207 0.0903069 0.0330958 0.0203455 0.0137776 0.00111584
threshold=0.79166666666700014 0.70756616305500009 0.32375191281800003 0.17783463065100005 0.21850866991750004 0.37522785324500008 0.064964724168850005 0.46824731090800004 0.36758131447550008 0.45483699016450002 0.33242753623150006 0.34324183539400005 0.28269230769200004 0.33325556074000001 0.36402958600700003 0.29679459807650005 0.58157871357500013 0.47176739655000005 0.088148665415050023 0.10084745762700002 0.35653753026650009 0.31550343249400009 0.7365149353860001 0.26009279304400007 0.34016072856650004 0.0013322661496750002 0.14077742535450002
decision_type=2 2 2 2 2 2 2 2 2 2 2 2 2 2 2 2 2 2 2 2 2 2 2 2 2 2 2
left_child=1 2 14 5 -5 -4 -6 9 -9 11 -11 13 -13 -8 17 -2 -17 19 -19 20 21 23 -18 24 25 -1 -27
right_child=15 -3 3 4 6 -7 7 8 -10 10 -12 12 -14 -15 -16 16 22 18 -20 -21 -22 -23 -24 -25 -26 26 -28
leaf_value=-0.0047232815286233319 0.0093935828942518975 0.0076582778245210649 -0.00021736255979963712 0.0084710312414575713 0.0077167373429983853 -0.010355620197951795 -0.0099856421883617128 -0.0002953014270003353 0.0098062023520469679 0.0016275532185458222 -0.010430484713817184 -0.0022352278605103494 0.0075822976870196209 0.0005290118808096106 0.0015444541867408489 -0.00071538771901811875 0.010120002143085003 -0.0045718832753407655 0.0042515877301671674 -0.0075972556554037953 -0.0069212342443113976 -9.0686116805847958e-05 0.0055707907925049462 -0.00529396091790303 -0.0020770600772109528 -0.0033983547078526538 -0.0028877005632966758
leaf_count=21 26 21 28 22 20 20 21 28 24 26 33 20 35 22 36 28 20 39 28 29 22 34 24 23 29 23 20
internal_value=0 -0.0179584 -0.0239179 0.00503715 0.0229884 -0.0888327 0.00892063 -0.0049946 0.0873386 -0.0355763 -0.102335 0.00461544 0.0802458 -0.092121 -0.0523967 0.114347 0.0877967 -0.0635844 -0.0176893 -0.0788828 -0.0665641 -0.0560246 0.152772 -0.071914 -0.0635139 -0.0734703 -0.0632168
internal_count=722 624 603 299 251 48 229 209 52 157 59 98 55 43 304 98 72 268 67 201 172 150 44 116 93 64 43
shrinkage=0.05



feature importances:
Column_2=147
Column_11=119
Column_10=88
Column_9=87
Column_1=76
Column_8=65
Column_6=62
Column_0=61
Column_3=57
Column_7=51
Column_5=50
Column_4=38
Column_12=37
Column_13=23

pandas_categorical:null
