tree
version=v2
num_class=1
num_tree_per_iteration=1
label_index=0
max_feature_idx=9
objective=regression
feature_names=Column_0 Column_1 Column_2 Column_3 Column_4 Column_5 Column_6 Column_7 Column_8 Column_9
feature_infos=[0:1] [0:1] [0:1] [0:1] [0:1] [0:1] [0:1] [0:1] [0:1] 1:0:5:3:2:-1
tree_sizes=1389 1332 1495 1339 1341 1415 1419 1505 1416 1417 1426 1514 1502 1427 1426 1584 1592 1434 1348 1271

Tree=0
num_leaves=17
num_cat=0
split_feature=8 8 5 2 0 6 0 4 3 2 7 6 3 3 5 0
split_gain=27.4581 3.06226 2.41671 1.15837 0.826543 0.654726 0.552521 0.525986 0.486529 0.472988 0.384376 0.318069 0.306708 0.196325 0.0379518 8.88178e-16
threshold=0.49384119978400004 0.93386627907000008 0.54404028258250015 0.31038129282100008 0.39627755975300005 0.38187727921350006 0.4328403078400001 0.33761210919900003 0.33187647322950004 0.37668037887500005 0.14109848484850002 0.31960570395850008 0.27583905415750004 0.34909372794850008 0.28794961231700006 0.20026228509350005
decision_type=2 2 2 2 2 2 2 2 2 2 2 2 2 2 2 2
left_child=2 4 3 5 -2 6 11 -4 -5 -10 -11 12 14 -3 15 -1
right_child=1 13 7 8 -6 -7 -8 -9 9 10 -12 -13 -14 -15 -16 -17
leaf_value=0.29999999900658925 0.35135135188833011 0.38500000153978664 0.3521739136049713 0.31428571371805097 0.37619047746771855 0.32727272709210714 0.32380952352569214 0.32999999990065892 0.34090909113486606 0.31794871749022069 0.33500000004967051 0.31666666616996125 0.31499999945362406 0.39729729920357193 0.30499999915560083 0.29999999900658925
leaf_count=38 37 20 23 35 21 22 21 20 22 39 20 24 20 37 20 25
internal_value=0 0.431884 -0.135765 -0.168998 0.270115 -0.221569 -0.245496 0.0852713 -0.091954 -0.0493827 -0.0960452 -0.270341 -0.294498 0.596491 -0.321285 -0.333333
internal_count=444 115 329 286 58 170 148 43 116 81 59 127 103 57 83 63
shrinkage=1


Tree=1
num_leaves=16
num_cat=0
split_feature=8 7 6 5 0 2 2 0 6 3 0 6 3 0 5
split_gain=22.2411 2.61446 2.1826 1.22987 1.19065 0.850142 1.03561 0.789062 0.752995 1.07691 0.75147 0.374522 0.26227 0.0252609 0.00314207
threshold=0.49384119978400004 0.62352941176450016 0.39976218787150003 0.39052429052400006 0.39627755975300005 0.35053785290650002 0.42679329937700006 0.4328403078400001 0.2845414922290001 0.32014467491350002 0.32380003792250006 0.60695659356200016 0.23596528295350003 0.17107446827050002 0.31127485135650007
decision_type=2 2 2 2 2 2 2 2 2 2 2 2 2 2 2
left_child=2 4 5 -4 -2 7 -7 8 12 -10 -8 -3 13 -1 -15
right_child=1 11 3 -5 -6 6 10 -9 9 -11 -12 -13 -14 14 -16
leaf_value=-0.027201393969131238 0.011455483734607697 0.045090882380803429 -0.0086623501777648923 0.022704773545265199 0.042204761505126955 0.010857210859008459 -0.0032758301304232694 -0.00489506321027875 -0.00062874071300029761 -0.028328830957412721 -0.025670860450843287 0.060764248717215752 -0.016681493669748308 -0.030128152405514436 -0.031707764863967897
leaf_count=33 34 30 25 25 20 23 31 32 32 25 29 31 20 34 20
internal_value=0 0.388696 -0.122188 0.0702121 0.228441 -0.156669 -0.0718421 -0.19259 -0.220618 -0.127779 -0.141001 0.53056 -0.270074 -0.293811 -0.307132
internal_count=444 115 329 50 54 279 83 196 164 57 60 61 107 87 54
shrinkage=0.1


Tree=2
num_leaves=18
num_cat=0
split_feature=8 7 6 5 0 5 8 6 4 4 4 4 3 3 0 8 3
split_gain=18.0153 2.11772 1.76791 0.996195 0.988439 0.720522 0.673303 0.972939 1.42385 1.15964 0.865803 0.407775 0.343456 0.222643 0.0879619 0.0292068 0.00151019
threshold=0.49384119978400004 0.62352941176450016 0.39976218787150003 0.39052429052400006 0.36093403577300004 0.63035971769550014 0.060385216033350009 0.27503469901850003 0.32022141547250005 0.21997127994500001 0.37337201692550004 0.43728046883600008 0.62542376024900015 0.23596528295350003 0.34440757591450005 0.25284090909100004 0.049273275439850002
decision_type=2 2 2 2 2 2 2 2 2 2 2 2 2 2 2 2 2
left_child=2 4 5 -4 -2 6 7 9 -9 14 -11 -10 -3 -8 16 -15 -1
right_child=1 12 3 -5 -6 -7 13 8 11 10 -12 -13 -14 15 -16 -17 -18
leaf_value=-0.02741448061806815 0.0079979740340134203 0.040122777322928113 -0.0077961150407791146 0.020434296488761904 0.035131292104721067 0.0032688866962086068 -0.016475236286287723 0.013682625314285017 -0.025404032766819004 0.010070329010486604 -0.018101520339647927 -0.0060702823102474213 0.055132034517103627 -0.026077954825900852 -0.020066300332546236 -0.031352042584192184 -0.028503781855106353
leaf_count=35 29 30 25 25 25 22 23 29 20 20 24 24 31 21 20 21 20
internal_value=0 0.349826 -0.10997 0.0631909 0.205597 -0.141002 -0.15587 -0.126089 -0.0352015 -0.181844 -0.0529613 -0.148584 0.477504 -0.24384 -0.257454 -0.28715 -0.278106
internal_count=444 115 329 50 54 279 257 192 73 119 44 44 61 65 75 42 55
shrinkage=0.1


Tree=3
num_leaves=16
num_cat=0
split_feature=8 8 6 5 1 6 4 3 3 1 6 6 0 0 5
split_gain=14.5924 1.81909 1.432 0.806918 0.699315 0.80598 1.39898 0.524154 0.514307 0.404949 0.375615 0.222042 0.205697 0.0440746 0.0273078
threshold=0.49384119978400004 0.93386627907000008 0.39976218787150003 0.39052429052400006 0.40121951219500007 0.29299523878250006 0.32022141547250005 0.39158193717600004 0.40707864394100007 0.59487179487200004 0.063581237738550012 0.34560092570800005 0.17107446827050002 0.42609837717750004 0.34384716323250014
decision_type=2 2 2 2 2 2 2 2 2 2 2 2 2 2 2
left_child=2 7 4 -4 5 8 -7 -2 10 -3 -1 -8 -12 14 -14
right_child=1 9 3 -5 -6 6 11 -9 -10 -11 12 -13 13 -15 -16
leaf_value=-0.011018289426962535 0.029202468638066893 0.032706897556781765 -0.007016504049301148 0.018390866041183472 0.0012192056048661471 0.0076639776167116667 -0.024631969690322875 0.010144317534662063 -0.0050747091571489971 0.050368149618844726 -0.016438980297795659 -0.010683826179731459 -0.023291249926152984 -0.030335124880075455 -0.027718317644162611
leaf_count=30 27 20 25 25 32 38 25 31 24 37 29 21 38 20 22
internal_value=0 0.314843 -0.0989726 0.0568718 -0.126902 -0.144922 -0.0653486 0.190162 -0.185929 0.441712 -0.20927 -0.182643 -0.236542 -0.262697 -0.249145
internal_count=444 115 329 50 279 247 84 58 163 57 139 46 109 80 60
shrinkage=0.1


Tree=4
num_leaves=16
num_cat=0
split_feature=8 7 5 1 0 1 6 4 4 4 4 5 7 6 6
split_gain=11.8198 1.48081 1.24829 1.26071 0.793108 0.645711 0.88132 0.835184 0.832393 0.771494 0.556223 0.266416 0.151945 0.0306589 0.00330095
threshold=0.49384119978400004 0.62352941176450016 0.54404028258250015 0.40121951219500007 0.36093403577300004 0.026225377920300001 0.29299523878250006 0.32237506767800006 0.21342579687050003 0.39710896969850007 0.33761210919900003 0.55274024024000012 0.15833333333350003 0.063581237738550012 0.18820037353250005
decision_type=2 2 2 2 2 2 2 2 2 2 2 2 2 2 2
left_child=2 4 3 5 -2 6 8 -8 13 -10 -4 -3 -7 -1 -15
right_child=1 11 10 -5 -6 12 7 -9 9 -11 -12 -13 -14 14 -16
leaf_value=-0.019319633170962334 0.0050230219446379572 0.032511295714685993 0.017584001240522965 0.0056653396863686409 0.029327937602996831 -0.027574022883369076 0.01069124460220337 -0.011900570036636459 0.0080238619311289363 -0.018169858598190806 -0.0052183504402637491 0.04573045591513316 -0.017824224856766789 -0.023275327170267701 -0.024888840743473598
leaf_count=20 29 31 23 38 25 31 30 36 22 23 20 30 33 32 21
internal_value=0 0.283359 -0.0890754 -0.11296 0.162753 -0.138949 -0.108855 -0.0163156 -0.160614 -0.0536404 0.0697826 0.390125 -0.225468 -0.226557 -0.239146
internal_count=444 115 329 286 54 248 184 66 118 45 43 61 64 73 53
shrinkage=0.1


Tree=5
num_leaves=17
num_cat=0
split_feature=7 6 4 7 5 0 3 4 3 6 2 5 5 2 0 6
split_gain=10.5265 2.44869 1.37191 1.40259 1.14121 0.5845 0.580769 0.451807 1.00381 0.758959 0.439581 0.261003 0.146202 0.285448 0.144276 0.0151533
threshold=0.62352941176450016 0.39976218787150003 0.48477328046450002 0.18639683505800003 0.62108108108100013 0.36288265454150004 0.33187647322950004 0.32022141547250005 0.14893427552250002 0.29299523878250006 0.06138678659115001 0.55274024024000012 0.34384716323250014 0.36405466193000008 0.16229649097800003 0.21063818221350003
decision_type=2 2 2 2 2 2 2 2 2 2 2 2 2 2 2 2
left_child=1 4 3 -3 5 7 10 8 14 -10 -7 -2 13 -9 -1 -16
right_child=11 2 -4 -5 -6 6 -8 12 9 -11 -12 -13 -14 -15 15 -17
leaf_value=-0.014325823588296772 0.029610477342750088 0.0042961541948647337 -0.012203154251689004 0.038719181120395664 0.0089507206678390502 -0.0020355490595102312 0.0047020650679065338 -0.025139072211459279 -0.012117257313086438 0.013442804132189071 -0.021925816297531129 0.04228545129299164 -0.027524582562702044 -0.011177566537150631 -0.021427532014521689 -0.02523075915873051
leaf_count=32 33 29 21 20 25 20 31 32 26 21 25 32 28 27 22 20
internal_value=0 -0.0770646 0.0918151 0.183464 -0.115322 -0.133353 -0.0583016 -0.160775 -0.121256 -0.00696804 -0.130857 0.358505 -0.215739 -0.187499 -0.193844 -0.232386
internal_count=444 379 70 49 309 284 76 208 121 47 45 65 87 59 74 42
shrinkage=0.1


Tree=6
num_leaves=17
num_cat=0
split_feature=8 8 2 5 1 4 5 4 0 4 3 2 2 1 2 3
split_gain=9.36134 1.5861 1.40287 1.19355 0.596873 0.557498 0.352232 0.488031 0.362564 0.385682 1.32183 0.169044 0.221945 0.105466 0.0495536 0.0446338
threshold=0.47338935574200003 0.93386627907000008 0.33918559055050007 0.48153190138350005 0.49928435114500003 0.38560530125850007 0.055250305250350011 0.19967960976350002 0.37589060710200006 0.24155583491800001 0.078199659882400019 0.31954860797050005 0.42927263916500003 0.59487179487200004 0.18224360918200003 0.010316173430860004
decision_type=2 2 2 2 2 2 2 2 2 2 2 2 2 2 2 2
left_child=3 2 -2 4 6 -5 7 -1 9 10 15 -11 -13 -3 -10 -8
right_child=1 13 -4 5 -6 -7 8 -9 14 11 -12 12 -14 -15 -16 -17
leaf_value=-0.016851788709561031 0.031733344088901175 0.028761380016803742 0.00015205740928649905 0.0119395405985415 0.0038724280148744587 -0.0082225314031044647 -0.021230357601529078 0.00077106993306766858 -0.027559567513791003 -0.023115710302805292 0.013264754712581634 -0.0063800417631864545 -0.021099445578597845 0.03773283856479745 -0.020847731083631516 -0.01471050970611118
leaf_count=30 22 20 39 32 20 24 21 33 22 39 20 20 21 38 22 21
internal_value=0 0.227995 0.11542 -0.0998326 -0.127483 0.0329865 -0.140833 -0.0762077 -0.162722 -0.138145 -0.0789457 -0.184025 -0.139192 0.346392 -0.242036 -0.179704
internal_count=444 119 61 325 269 56 249 63 186 142 62 80 41 58 44 42
shrinkage=0.1


Tree=7
num_leaves=18
num_cat=0
split_feature=8 6 8 2 5 1 6 0 7 8 6 4 4 4 0 4 0
split_gain=7.58269 1.34351 1.29972 1.40574 0.630275 0.576898 0.498532 0.419757 0.321055 0.293989 0.251583 0.369654 0.38863 0.0698507 0.0323304 0.0308458 0.000628923
threshold=0.47338935574200003 0.47770794751600004 0.96546525323900012 0.46077439035100004 0.48601550622150008 0.45461799484850002 0.27237846358050005 0.34200354105250003 0.21378418329650004 0.026078774028750001 0.22759089433500004 0.35203608219300003 0.15223065970600005 0.26184534043250002 0.53304883818000015 0.050909347780350007 0.12339743589750002
decision_type=2 2 2 2 2 2 2 2 2 2 2 2 2 2 2 2 2
left_child=1 4 3 7 5 8 -6 -2 9 10 13 12 -12 15 -4 16 -1
right_child=2 -3 14 -5 6 -7 -8 -9 -10 -11 11 -13 -14 -15 -16 -17 -18
leaf_value=-0.018321607038378717 0.012920776009559633 0.012818634796601076 0.029888854347742522 -0.0080758791416883479 -0.011225201402391707 0.0034880328178405768 0.0098726216082771628 0.032729387879371644 -0.022893548839622076 -0.0036836900538013829 -0.012459082156419755 -0.017823864680689736 0.0060824331641197204 -0.022705092156926791 0.034875792952684254 -0.013115269094705582 -0.017528560087084772
leaf_count=20 23 26 26 24 21 20 24 20 36 31 26 37 20 24 26 20 20
internal_value=0 -0.0898494 0.205195 0.113126 -0.108809 -0.128134 0.000269709 0.221341 -0.142067 -0.126273 -0.142874 -0.103828 -0.0439755 -0.181456 0.323823 -0.163218 -0.179251
internal_count=444 325 119 67 299 254 45 43 234 198 167 83 46 84 52 60 40
shrinkage=0.1


Tree=8
num_leaves=17
num_cat=0
split_feature=7 6 4 7 5 0 5 5 1 6 2 4 4 6 6 4
split_gain=5.95319 1.43778 1.02954 1.042 0.667939 0.429786 0.474947 0.439358 0.377946 0.468405 0.316963 0.56982 0.790496 0.255235 0.424116 0.0141478
threshold=0.62352941176450016 0.39976218787150003 0.48477328046450002 0.18639683505800003 0.62108108108100013 0.36288265454150004 0.19308695426800002 0.32772998200650005 0.25198412698400002 0.34470824168750003 0.38351352643750009 0.12682694828250005 0.32237506767800006 0.48155525327100002 0.6444314667015002 0.019855624153750005
decision_type=2 2 2 2 2 2 2 2 2 2 2 2 2 2 2 2
left_child=1 4 3 -3 5 8 -7 -8 9 10 11 15 -13 -2 -15 -1
right_child=13 2 -4 -5 -6 6 7 -9 -10 -11 -12 12 -14 14 -16 -17
leaf_value=-0.016247407404276042 0.035751743614673613 0.0030049443244934086 -0.011349330487705414 0.03267502933740616 0.0069739563465118408 0.0083600681761036751 -0.020087052739801863 -0.001472063921391964 -0.021591191638160395 0.0028319214997084246 -0.022304476245685861 0.0084178388118743893 -0.014212427672111628 0.01185872346162796 0.031769929113595378 -0.019518726989626884
leaf_count=39 22 29 21 20 25 23 21 32 37 23 27 29 33 20 23 20
internal_value=0 -0.0576484 0.0717583 0.151152 -0.0869638 -0.100758 -0.0364017 -0.0884781 -0.124273 -0.104445 -0.125077 -0.103216 -0.036273 0.269911 0.225089 -0.173563
internal_count=444 379 70 49 309 284 76 53 208 171 148 121 62 65 43 59
shrinkage=0.1


Tree=9
num_leaves=17
num_cat=0
split_feature=8 6 8 2 8 7 0 3 0 4 6 2 3 2 3 6
split_gain=5.2629 0.983128 0.863554 1.10066 0.450484 1.23194 0.484619 0.327348 0.311536 0.253161 0.917432 0.918025 0.13781 0.12296 0.0370916 0.0292328
threshold=0.47338935574200003 0.47770794751600004 0.96546525323900012 0.46077439035100004 0.14410299003300003 0.081401766004400009 0.4328403078400001 0.36581953341850004 0.34200354105250003 0.35203608219300003 0.22759089433500004 0.10944965837100003 0.088261570568100009 0.42927263916500003 0.88737527328200005 0.091484574344700018
decision_type=2 2 2 2 2 2 2 2 2 2 2 2 2 2 2 2
left_child=1 4 3 8 5 6 9 -6 -2 10 12 -12 15 -11 -4 -1
right_child=2 -3 14 -5 7 -7 -8 -9 -10 13 11 -13 -14 -15 -16 -17
leaf_value=-0.015347506006558737 0.011253327779147936 0.011190912356743446 0.02890087263658643 -0.0075408935546875007 -0.010957230627536774 0.013852720022201538 0.00048472422819871168 -0.026229914277791977 0.028318459987640383 -0.013396370794091906 -0.01319511752575636 0.016099139983239381 -0.022983717471361159 -0.022689640894532206 0.023411158472299576 -0.01066513570646445
leaf_count=30 23 26 32 24 36 25 39 23 20 35 20 23 20 24 20 24
internal_value=0 -0.0746053 0.171199 0.0961514 -0.0908239 -0.0715786 -0.0960095 -0.16911 0.191906 -0.118358 -0.0914261 0.024739 -0.158927 -0.171767 0.267894 -0.132665
internal_count=444 325 119 67 299 240 215 59 43 176 117 43 74 59 52 54
shrinkage=0.1


Tree=10
num_leaves=17
num_cat=0
split_feature=7 6 0 0 6 6 0 3 6 8 0 5 5 3 5 5
split_gain=4.07689 0.952824 0.864534 0.767524 0.650798 0.787665 0.409235 0.403568 0.299392 0.733316 0.628434 0.537518 0.523416 0.36432 0.0318409 0.00982353
threshold=0.45643939393900007 0.47172741390350004 0.4328403078400001 0.5649536107455001 0.38416428255800006 0.47770794751600004 0.37310266550950005 0.63660251158500014 0.22759089433500004 0.25284090909100004 0.32099121125550006 0.30027628240250004 0.10057170699850003 0.23249148322850002 0.28794961231700006 0.092272851669400011
decision_type=2 2 2 2 2 2 2 2 2 2 2 2 2 2 2 2
left_child=1 2 8 -4 6 -6 -2 -7 13 10 11 12 -10 14 15 -1
right_child=4 -3 3 -5 5 7 -8 -9 9 -11 -12 -13 -14 -15 -16 -17
leaf_value=-0.013203274151858161 0.0010484688557111301 0.012047586809186375 0.016100932273172563 -0.0077190201108654341 0.040262375839731912 0.0071250982227779565 0.019579902155832812 0.026973492652177813 0.0074435911748720251 -0.018812799950440728 -0.013317124868432681 0.014176382770140966 -0.014131595973264089 -0.0022371842925037657 -0.018931993953883647 -0.015758194884768241
leaf_count=34 26 34 31 24 22 21 22 20 23 30 30 30 22 28 20 27
internal_value=0 -0.0381523 -0.0561903 0.0570677 0.183143 0.249979 0.0954204 0.168072 -0.0817198 -0.0502444 -0.010849 0.0380799 -0.0310428 -0.120703 -0.154694 -0.143341
internal_count=444 333 299 55 111 63 48 41 244 135 105 75 45 109 81 61
shrinkage=0.1


Tree=11
num_leaves=18
num_cat=0
split_feature=7 0 3 3 5 2 3 4 4 0 2 1 2 5 5 4 0
split_gain=3.30228 0.657568 1.02702 0.560144 0.53732 0.382296 0.493138 0.585426 0.373933 0.80947 0.285538 0.255377 0.291563 0.245186 0.295972 0.121801 0.116576
threshold=0.45643939393900007 0.4328403078400001 0.029585866183099999 0.64954367712900007 0.28535751810600002 0.33458942646650008 0.34909372794850008 0.57504614356100003 0.31328435557750006 0.36093403577300004 0.48842133119900005 1.0000000180025095e-35 0.0050678720956500011 0.27328869047650006 0.062532051282050014 0.00088614477087600003 0.30663286416250007
decision_type=2 2 2 2 2 2 2 2 2 2 2 2 2 2 2 2 2
left_child=1 5 -3 8 -4 11 -7 10 -2 -10 -8 12 15 14 -14 -1 -13
right_child=3 2 4 -5 -6 6 7 -9 9 -11 -12 16 13 -15 -16 -17 -18
leaf_value=-0.0077735234390605579 0.020749827993638587 0.024354647919535639 -0.015145607367157938 0.029012721169877936 0.0061603196736039791 0.012536140565167775 -0.0032232149289204526 0.0094125160149165568 -0.007376042143865065 0.018061504538716942 -0.018349242396652699 -0.010313009699949853 0.0012013930082321166 0.0047300015800985805 -0.013768355255680426 -0.018556131757795812 -0.020330473674195156
leaf_count=22 33 20 20 27 29 22 26 21 22 29 24 26 25 29 28 20 21
internal_value=0 -0.0343371 0.0525841 0.164829 -0.0253598 -0.0570551 -0.00545457 -0.0459891 0.124554 0.0708845 -0.104837 -0.0851186 -0.0613266 -0.0266231 -0.0670715 -0.129081 -0.147889
internal_count=444 333 69 111 49 264 93 71 84 51 50 171 124 82 53 42 47
shrinkage=0.1


Tree=12
num_leaves=18
num_cat=0
split_feature=7 6 6 6 4 1 6 3 6 4 3 5 5 2 6 5 3
split_gain=2.67485 0.69075 0.477575 0.670703 0.504432 0.326225 0.464601 1.12509 0.330104 0.285765 0.257162 0.22075 0.425416 0.187765 0.184936 0.164564 0.0216398
threshold=0.45643939393900007 0.47172741390350004 0.38416428255800006 0.47172741390350004 0.35437590975250005 0.40121951219500007 0.32471374045800006 0.36581953341850004 0.072567637172000002 0.034197526251850005 0.63660251158500014 0.30027628240250004 0.39588212161750008 0.17159530604300002 0.24063222757750005 0.055250305250350011 0.052831407263500003
decision_type=2 2 2 2 2 2 2 2 2 2 2 2 2 2 2 2 2
left_child=1 5 4 -4 -2 6 8 13 9 -1 -5 14 -13 -8 15 -10 -17
right_child=2 -3 3 10 -6 -7 7 -9 11 -11 -12 12 -14 -15 -16 16 -18
leaf_value=-0.0082846487787636841 0.016360764260645266 0.01041589949060889 0.035151866575082145 0.0058033614673397762 -0.0043039985355876739 0.0056499408291918896 0.0052053366743382958 -0.012578536548158704 -0.0026657717674970628 0.0082312610372900965 0.02147094212472439 0.0053883102468468931 -0.012262242949671216 0.018577834928319568 -0.019306275949758644 -0.011488072183870135 -0.016084216311573984
leaf_count=22 27 34 21 22 21 28 21 34 20 20 20 22 36 21 34 21 20
internal_value=0 -0.0309034 0.148346 0.2056 0.0731993 -0.0462616 -0.056879 0.00944426 -0.0827281 -0.0041993 0.132641 -0.104285 -0.0556721 0.118916 -0.133964 -0.101024 -0.137301
internal_count=444 333 111 63 48 299 271 76 195 42 42 153 58 42 95 61 41
shrinkage=0.1


Tree=13
num_leaves=17
num_cat=0
split_feature=7 5 0 0 3 1 8 0 0 5 2 3 2 0 3 5
split_gain=2.16662 0.533655 0.427809 0.841411 0.417632 0.396387 0.34852 0.342421 0.548043 0.242311 0.273246 0.279949 0.170836 0.203933 0.130866 0.11638
threshold=0.45643939393900007 0.45318652656100006 0.30558777383400004 0.36991733562150003 0.45413537516250008 0.40121951219500007 0.30683122847300009 0.4328403078400001 0.22047068254850002 0.062532051282050014 0.29512440449750005 0.38715123222250009 0.25756958474550001 0.14334748761500002 0.17521955160400002 0.26568104722350006
decision_type=2 2 2 2 2 2 2 2 2 2 2 2 2 2 2 2
left_child=1 5 -2 -4 -5 6 9 8 -3 12 14 -12 13 -1 15 -11
right_child=2 7 3 4 -6 -7 -8 -9 -10 10 11 -13 -14 -15 -16 -17
leaf_value=-0.0062975665797357977 0.02430129928721322 0.011709540337324143 -0.006970109316435727 0.0080994223103378754 0.024548315950508777 0.0079400033436038287 0.0056102276496265251 0.013456198466675624 -0.010499440491199495 -0.013752012741234568 0.0028157586764012065 -0.011902495163182418 -0.009791655449763589 0.0065163734610433934 -0.018216373608447613 -0.004520122706890106
leaf_count=23 27 20 22 33 29 22 23 28 25 36 28 24 23 27 32 22
internal_value=0 -0.027813 0.133511 0.0983142 0.157933 -0.0490251 -0.0608963 0.0477368 -0.00628782 -0.0734125 -0.0974829 -0.0397728 -0.0265904 0.00621961 -0.130827 -0.102503
internal_count=444 333 111 84 62 260 238 73 45 215 142 52 73 50 90 58
shrinkage=0.1


Tree=14
num_leaves=17
num_cat=0
split_feature=7 6 0 0 3 6 6 0 8 6 4 6 4 3 5 4
split_gain=1.75497 0.514367 0.504388 0.627969 0.354768 0.410755 0.531399 0.381586 0.235674 0.536874 0.816458 0.48622 0.382535 0.269801 0.0585617 0.013856
threshold=0.45643939393900007 0.47172741390350004 0.4328403078400001 0.5649536107455001 0.64954367712900007 0.38416428255800006 0.48774853801200008 0.37310266550950005 0.25284090909100004 0.22759089433500004 0.35203608219300003 0.31960570395850008 0.49925195328450006 0.34429527444900004 0.28334113060400007 0.022883933473900001
decision_type=2 2 2 2 2 2 2 2 2 2 2 2 2 2 2 2
left_child=1 2 8 -4 5 7 -7 -2 9 13 11 -11 -12 14 15 -1
right_child=4 -3 3 -5 -6 6 -8 -9 -10 10 12 -13 -14 -15 -16 -17
leaf_value=-0.0091573607395677003 -0.0068018402094426368 0.0091517827966633974 0.014224230618246139 -0.007321643767257531 0.021987693370492372 0.027082413293066477 0.0043064112216234206 0.012084651142358779 -0.013502286495093038 0.0011500266691048941 -0.016233839919524536 0.020722519809549506 0.00078477603197097789 0.00086595084518194211 -0.01662527723681359 -0.012105910194416841
leaf_count=34 23 34 31 24 27 21 20 20 34 30 28 22 25 20 21 30
internal_value=0 -0.0250317 -0.0382849 0.0482239 0.12016 0.0881083 0.159722 0.0198257 -0.0577848 -0.0452796 0.00528268 0.094307 -0.0820619 -0.0958418 -0.12043 -0.105395
internal_count=444 333 299 55 111 84 41 43 244 210 105 52 53 105 85 64
shrinkage=0.1


Tree=15
num_leaves=19
num_cat=0
split_feature=3 6 0 3 6 0 5 0 4 0 7 4 2 5 1 6 2 3
split_gain=1.65871 0.853992 0.756977 0.693091 0.745982 0.678037 0.633065 0.92356 0.560097 0.477439 0.421336 0.348732 0.419883 0.309645 0.131954 0.1312 0.034268 0.0355197
threshold=0.33634940224350002 0.37316840488300002 0.165792214322 0.23596528295350003 0.30467366126150003 0.22047068254850002 0.20942982456100001 0.43023391812850004 0.51331007350750013 0.41189971099950001 0.49095101781150002 0.12682694828250005 0.16833169560000003 0.33326566398350005 0.087719298245600014 0.30034280117550005 0.040051310586650006 0.0042726510220050008
decision_type=2 2 2 2 2 2 2 2 2 2 2 2 2 2 2 2 2 2
left_child=1 3 -2 4 11 -4 -7 10 -9 -3 14 13 -13 16 -8 -5 17 -1
right_child=2 9 5 15 -6 6 7 8 -10 -11 -12 12 -14 -15 -16 -17 -18 -19
leaf_value=-0.010403607057576831 -0.0081020846730098135 0.017161957280976432 0.024240625184029342 -0.01497041603239874 0.0095290476026443343 0.019010821332534154 -0.0049294532409736094 0.024336613062769175 0.0016777981072664261 -0.0034847154592474307 0.0053391021158960134 0.0075029387908137363 -0.012308661388233305 -0.023299553919406163 -0.016011611778627744 -0.025793687963769553 -0.012502738833427431 -0.0045807948708534241
leaf_count=22 32 21 24 24 26 30 21 24 20 24 27 23 20 21 22 21 22 20
internal_value=0 -0.0629052 0.0599425 -0.0910379 -0.0591361 0.0867926 0.060857 0.0268435 0.140372 0.061504 -0.0445169 -0.090504 -0.0171176 -0.127629 -0.105994 -0.200213 -0.0930555 -0.0763084
internal_count=444 244 200 199 154 168 144 114 44 45 70 128 43 85 43 45 64 42
shrinkage=0.1


Tree=16
num_leaves=19
num_cat=0
split_feature=3 6 3 1 7 0 0 3 6 3 0 5 4 2 5 6 5 2
split_gain=1.34355 0.691734 0.632029 1.18653 0.740073 0.619981 0.912125 0.561404 0.604245 0.393554 0.386726 0.339412 0.282473 0.340105 0.250812 0.106272 0.0329399 0.0499839
threshold=0.33634940224350002 0.37316840488300002 0.49585422290800008 0.92471736896199996 0.39354838709700007 0.39627755975300005 0.31035652700450006 0.23596528295350003 0.30467366126150003 0.73476142539000022 0.41189971099950001 0.29503044163800002 0.12682694828250005 0.16833169560000003 0.33326566398350005 0.30034280117550005 0.030776515151500004 0.020470131609550007
decision_type=2 2 2 2 2 2 2 2 2 2 2 2 2 2 2 2 2 2
left_child=1 7 5 4 9 6 11 8 12 -4 -3 -2 14 -14 16 -9 -1 -18
right_child=2 10 3 -5 -6 -7 -8 15 -10 -11 -12 -13 13 -15 -16 -17 17 -19
leaf_value=-0.011621354484841938 0.0072934010199138108 0.01544576177284831 -0.024661461934447289 0.016384740342055597 0.0078788984728896099 0.024788819521665575 -0.0067731693635384241 -0.013473374241342149 0.0085761426733090337 -0.0065517551203568784 -0.0031362440437078479 0.025495893768966202 0.0067526453701050385 -0.011077794777229429 -0.020969598314591817 -0.023214318851629893 -0.0031333699077367785 -0.0099688746682975605
leaf_count=21 21 21 20 31 23 25 30 24 26 30 24 20 23 20 21 21 20 23
internal_value=0 -0.0566146 0.0539482 -6.15651e-05 -0.0696667 0.112459 0.0647724 -0.0819341 -0.0532225 -0.137956 0.0553536 0.161727 -0.0814536 -0.0154058 -0.114866 -0.180191 -0.08375 -0.0678957
internal_count=444 244 200 104 73 96 71 199 154 50 45 41 128 43 85 45 64 43
shrinkage=0.1


Tree=17
num_leaves=17
num_cat=0
split_feature=3 0 6 0 5 6 0 5 3 6 0 5 6 4 6 2
split_gain=1.08828 0.560939 0.560304 0.551022 0.543373 0.810537 0.525337 0.569906 0.454737 0.489439 0.321067 0.232853 0.329191 0.396402 0.0860806 0.0273235
threshold=0.33634940224350002 0.165792214322 0.37316840488300002 0.22047068254850002 0.20942982456100001 0.51951258362550012 0.39627755975300005 0.38444218733800001 0.23596528295350003 0.30467366126150003 0.49153089312949999 0.41000057224400005 0.24063222757750005 0.13129097914350002 0.30034280117550005 0.020470131609550007
decision_type=2 2 2 2 2 2 2 2 2 2 2 2 2 2 2 2
left_child=2 -2 8 -3 -5 6 7 -6 9 11 -4 12 13 15 -10 -1
right_child=1 3 10 4 5 -7 -8 -9 14 -11 -12 -13 -14 -15 -16 -17
leaf_value=-0.0050777899739997724 -0.0072791807586327197 0.021194983987758556 0.012536864012479783 0.01680318554242452 0.00043212284262363727 0.01611334601866788 0.0061486064536230914 -0.020937369763851167 -0.012126036888609332 0.0077185283486659708 -0.004461977705359459 -0.016209476177270213 -0.016811982626677491 0.0083250639184067662 -0.020892887296421189 -0.0094063094407320028
leaf_count=35 32 24 25 30 26 29 35 24 24 26 20 24 20 24 21 25
internal_value=0 0.0485534 -0.0509532 0.0716668 0.0482863 0.0167743 -0.0324777 -0.0982523 -0.0737407 -0.0479003 0.0498182 -0.0733083 -0.0528191 -0.0253665 -0.162172 -0.0688134
internal_count=444 200 244 168 144 114 85 50 199 154 45 128 104 84 45 60
shrinkage=0.1


Tree=18
num_leaves=16
num_cat=0
split_feature=8 4 4 4 3 3 0 0 5 3 4 4 2 0 6
split_gain=0.887356 0.590406 0.501695 0.460636 0.65936 0.623059 0.586218 0.745894 0.437113 0.258736 0.229053 0.774933 0.187578 0.247642 0.158924
threshold=0.75998463901700009 0.74351816198200005 0.34268325475400002 0.51331007350750013 0.33634940224350002 0.49585422290800008 0.39627755975300005 0.31035652700450006 0.070332415811150004 0.87610903462100009 0.20327109739050001 0.31547177509100005 0.020470131609550007 0.3572086564095 0.20032626427400005
decision_type=2 2 2 2 2 2 2 2 2 2 2 2 2 2 2
left_child=1 3 -2 4 8 6 7 -6 14 -4 12 -12 -10 -14 -1
right_child=2 -3 9 -5 5 -7 -8 -9 10 -11 11 -13 13 -15 -16
leaf_value=-0.001974691856991161 -0.0023345290869474411 0.012521713793277742 0.025124300085008145 -0.014446521632592468 0.013240749140580496 -0.0077327395704659546 0.022081640783859338 -0.0094067916847192321 -0.0061091017495426871 0.0092316706797906344 0.0081624940534432734 -0.013215332340974457 -0.0094676901361551782 -0.023537448878315364 0.0093222369253635404
leaf_count=33 20 25 20 34 33 33 23 26 36 21 30 39 29 22 20
internal_value=0 -0.0233585 0.106502 -0.0337339 -0.022114 0.0387013 0.0853958 0.0326048 -0.0555769 0.169842 -0.0822332 -0.0392063 -0.116358 -0.15537 0.022883
internal_count=444 383 61 358 324 115 82 59 209 41 156 69 87 51 53
shrinkage=0.1


Tree=19
num_leaves=15
num_cat=0
split_feature=6 6 2 7 5 6 2 4 2 3 4 4 5 2
split_gain=0.735941 0.644515 0.775288 0.533912 0.517293 0.234521 0.553399 0.69306 0.439581 0.348626 0.220088 0.475884 0.133267 0.231901
threshold=0.4585751823675 0.71339464578400014 0.60579494326950012 0.46263483497500008 0.36034794682150001 0.35510500019649999 0.36405466193000008 0.33419166494400004 0.49968177812600006 0.37614681588350007 0.35203608219300003 0.19967960976350002 0.31461660614950004 0.020470131609550007
decision_type=2 2 2 2 2 2 2 2 2 2 2 2 2 2
left_child=3 2 -2 5 -5 6 10 -8 -9 -7 11 12 13 -1
right_child=1 -3 -4 4 -6 9 7 8 -10 -11 -12 -13 -14 -15
leaf_value=0.00032603444629593901 0.023969298984968301 -0.0040176899855335554 5.2414818302444797e-05 0.014775465650018305 -0.0032053011702373626 -0.0025166792368205887 -0.0099586644520362217 0.021632841018878898 0.0013618675991892816 -0.019944455542347649 -0.012756997151803728 0.0055081026800172898 -0.01291170206386596 -0.010650689871265339
leaf_count=38 33 30 23 32 32 24 21 23 20 22 37 38 32 39
internal_value=0 0.0781002 0.141463 -0.02492 0.0578508 -0.0429381 -0.0307743 0.049322 0.122045 -0.108517 -0.0586339 -0.0412826 -0.0748773 -0.0523361
internal_count=444 86 56 358 64 294 248 64 43 46 184 147 109 77
shrinkage=0.1



feature importances:
Column_6=57
Column_0=50
Column_4=44
Column_5=44
Column_3=43
Column_2=31
Column_8=21
Column_7=19
Column_1=13

pandas_categorical:null
