tree
version=v2
num_class=1
num_tree_per_iteration=1
label_index=0
max_feature_idx=7
objective=regression
feature_names=Column_0 Column_1 Column_2 Column_3 Column_4 Column_5 Column_6 Column_7
feature_infos=[0:1] [0:1] [0:1] [0:1] [0:0.990536277603] [0:1] [0:1] [0:1]
tree_sizes=1070 1092 1264 1104 1263 1267 1194 1352 1268 1190 1187 1269 1267 1191 1271 1349 1268 1271 1276 1281

Tree=0
num_leaves=13
num_cat=0
split_feature=6 5 7 0 7 2 2 3 2 4 6 5
split_gain=19.6452 4.70036 2.88987 1.89535 1.8006 1.18878 0.836044 1.51231 0.480114 0.143092 0.140635 0.132275
threshold=0.85248868778300013 0.46490147783250008 0.56583227993850016 0.22677320310450003 0.37688833137950006 0.26583891424300005 0.44141203392100004 0.27224949990900005 0.20805866133600004 0.21394143654450001 0.05131578947370001 0.9843666811870001
decision_type=2 2 2 2 2 2 2 2 2 2 2 2
left_child=1 2 3 8 -3 -5 10 -8 9 -1 -7 -2
right_child=11 4 -4 5 -6 6 7 -9 -10 -11 -12 -13
leaf_value=0.29999999900658925 0.38571428727535972 0.33571428578524359 0.3521739136049713 0.34062500021730857 0.37500000124176341 0.30384615296736739 0.31153846088892373 0.34761904804479504 0.31666666616996125 0.307894736083976 0.31499999945362406 0.39629629817273881
leaf_count=58 21 28 23 32 20 26 26 21 36 38 20 27
internal_value=0 -0.101626 -0.15119 -0.181582 0.1875 -0.0933333 -0.150538 -0.0567376 -0.265152 -0.302083 -0.246377 0.583333
internal_count=376 328 280 257 48 125 93 47 132 96 46 48
shrinkage=1


Tree=1
num_leaves=13
num_cat=0
split_feature=6 5 7 0 7 2 2 1 2 4 6 1
split_gain=15.9126 3.80729 2.3408 1.53523 1.45848 0.962909 0.677195 1.307 0.388892 0.115905 0.113915 0.111388
threshold=0.85248868778300013 0.46490147783250008 0.56583227993850016 0.22677320310450003 0.37688833137950006 0.26583891424300005 0.44141203392100004 0.52103043305500008 0.20805866133600004 0.21394143654450001 0.05131578947370001 0.53332951311450005
decision_type=2 2 2 2 2 2 2 2 2 2 2 2
left_child=1 2 3 8 -3 -5 10 -8 9 -1 -7 -2
right_child=11 4 -4 5 -6 6 7 -9 -10 -11 -12 -13
leaf_value=-0.030000001192092896 0.047263105755502528 0.0021428576537540983 0.016956520598867666 0.0065625011920928955 0.037500000000000006 -0.026538461332137771 0.010536995887756348 -0.022882950305938721 -0.014999999602635703 -0.022894736575452906 -0.016499999761581421 0.056931215066176204
leaf_count=58 22 28 23 32 20 26 25 22 36 38 20 26
internal_value=0 -0.0914634 -0.136071 -0.163424 0.16875 -0.084 -0.135484 -0.0510638 -0.238636 -0.271875 -0.221739 0.525
internal_count=376 328 280 257 48 125 93 47 132 96 46 48
shrinkage=0.1


Tree=2
num_leaves=15
num_cat=0
split_feature=6 5 7 3 1 2 4 6 3 2 7 5 4 2
split_gain=12.8892 3.08391 1.89604 1.65324 1.14132 0.875257 0.697686 0.536398 0.568668 0.24569 0.143438 0.104626 0.00940892 0.0014624
threshold=0.85248868778300013 0.46490147783250008 0.56583227993850016 0.39794931074200002 0.18686309056250003 0.26583891424300005 0.29857507618800005 0.015628815628800002 0.27224949990900005 0.20805866133600004 0.29493717655600005 0.9843666811870001 0.19590107113300001 0.016172416521900001
decision_type=2 2 2 2 2 2 2 2 2 2 2 2 2 2
left_child=1 2 4 -3 6 10 9 8 -7 12 -6 -2 13 -1
right_child=11 3 -4 -5 5 7 -8 -9 -10 -11 -12 -13 -14 -15
leaf_value=-0.027000001072883608 0.041956161601202829 0.03087244810802596 0.015260869782903922 -0.0067714294791221628 0.0089313439347527245 -0.020294237272305924 -0.0049198567867279053 -0.022915682502281973 0.00022312147276742119 -0.016108343817970969 -0.0026230162098294218 0.051367430333737973 -0.029909225730668933 -0.028052557598460804
leaf_count=33 21 28 23 20 22 22 20 39 35 22 21 27 21 22
internal_value=0 -0.0823171 -0.122464 0.151875 -0.147082 -0.0856812 -0.219409 -0.138789 -0.0769586 -0.254146 0.0328852 0.4725 -0.281086 -0.27421
internal_count=376 328 280 48 257 139 118 96 57 98 43 48 76 55
shrinkage=0.1


Tree=3
num_leaves=13
num_cat=0
split_feature=6 5 7 3 0 2 3 1 2 0 7 1
split_gain=10.4403 2.49797 1.60887 1.33912 1.16703 0.737005 0.581389 0.21529 0.197949 0.10078 0.0889574 0.0879862
threshold=0.85248868778300013 0.46490147783250008 0.48795368158900004 0.39794931074200002 0.22677320310450003 0.26583891424300005 0.32622341813450006 0.20207362836450002 0.46065577737200009 0.045576728918150004 0.15078345567450005 0.53332951311450005
decision_type=2 2 2 2 2 2 2 2 2 2 2 2
left_child=1 2 4 -3 7 -6 8 9 -7 10 -1 -2
right_child=11 3 -4 -5 5 6 -8 -9 -10 -11 -12 -13
leaf_value=-0.024894303990447005 0.037870617481795231 0.027785204883132665 0.010860398908456166 -0.0060942861437797554 0.0063854368403553968 -0.012203220564585466 -0.0020928025245666505 -0.013214553240686655 -0.02466572940349579 -0.026688654720783234 -0.016888460048607418 0.046463323097962604
leaf_count=23 22 28 30 20 32 26 39 32 25 38 35 26
internal_value=0 -0.0740854 -0.110218 0.136688 -0.136476 -0.0664928 -0.112838 -0.20318 -0.183123 -0.226858 -0.200632 0.42525
internal_count=376 328 280 48 250 122 90 128 51 96 58 48
shrinkage=0.1


Tree=4
num_leaves=15
num_cat=0
split_feature=6 6 7 1 4 3 2 2 3 2 5 1 3 4
split_gain=8.52868 1.85666 1.45761 1.08715 1.09286 0.956327 0.517586 0.760409 0.857832 0.171512 0.0827571 0.0592119 0.0764213 0.0164526
threshold=0.36038961038950007 0.85248868778300013 0.48795368158900004 0.18686309056250003 0.15384615384600003 0.32438185384750007 0.26583891424300005 0.44141203392100004 0.24301264178150003 0.25636702559100005 0.9843666811870001 0.017271187442700005 0.14417155425250003 0.19590107113300001
decision_type=2 2 2 2 2 2 2 2 2 2 2 2 2 2
left_child=2 5 3 9 -5 -2 -6 -8 -9 11 -3 12 -1 -13
right_child=1 10 -4 4 6 -7 7 8 -10 -11 -12 13 -14 -15
leaf_value=-0.023215460376097605 -0.0048373989760875707 0.033564305731228421 0.011212599277496339 0.014415083328882854 3.17348276867586e-05 0.022612011979023617 -0.025033138378670342 -0.019324863604877309 0.0082956780764189639 -0.011583271026611329 0.041934428833149101 -0.022658264189958574 -0.01530221603486849 -0.026714439764618875
leaf_count=26 22 21 29 21 34 30 38 23 22 20 27 20 23 20
internal_value=0 0.240902 -0.0999615 -0.124862 -0.0659008 0.109988 -0.103602 -0.146172 -0.0582149 -0.199511 0.382725 -0.218315 -0.195011 -0.246864
internal_count=376 100 276 247 138 52 117 83 45 109 48 89 49 40
shrinkage=0.1


Tree=5
num_leaves=15
num_cat=0
split_feature=5 7 4 3 3 7 3 1 3 7 0 1 2 7
split_gain=5.68668 1.67559 1.50829 1.20348 1.19157 0.580166 0.985784 0.776855 1.13093 0.535776 0.421984 0.23299 0.295069 0.170944
threshold=0.67048346056000019 0.42283997105700005 0.39932922312600011 0.38988432321250005 0.37458333333350008 0.22827487260600002 0.39794931074200002 0.18686309056250003 0.32183305184650007 0.50597818905700009 0.042692646720150003 0.26626382921800007 0.022453209361250004 0.33744095086200004
decision_type=2 2 2 2 2 2 2 2 2 2 2 2 2 2
left_child=1 2 5 -3 -4 11 7 10 13 -2 -7 12 -1 -9
right_child=9 3 4 -5 -6 6 -8 8 -10 -11 -12 -13 -14 -15
leaf_value=-0.021245400501149043 0.022013292158091512 -0.0023623237715047953 -0.0051557833794504404 0.026218171704273957 0.025959297865629196 -0.0042679998685013166 -0.025720258229053938 -0.014042229875922203 0.019607909500598909 0.043036377565427261 -0.023640207104060965 -0.025740963268664575 -0.0053420665860176089 -0.00096769027411937715
leaf_count=28 27 34 32 26 20 22 26 20 25 22 23 31 20 20
internal_value=0 -0.0507791 -0.0847127 0.100226 0.0681156 -0.121676 -0.0820844 -0.0406929 0.0292307 0.314522 -0.141694 -0.189833 -0.14619 -0.0750496
internal_count=376 327 267 60 52 215 136 110 65 49 45 79 48 40
shrinkage=0.1


Tree=6
num_leaves=14
num_cat=0
split_feature=6 6 7 3 7 0 2 3 2 2 4 2 4
split_gain=6.10282 1.32596 0.776507 0.676004 0.447022 0.461838 0.808503 0.474274 0.213677 0.212235 0.339205 0.135437 0.105145
threshold=0.85248868778300013 0.31326426630450005 0.42673755580250011 0.32438185384750007 0.38090703367150008 0.22677320310450003 0.26583891424300005 0.32183305184650007 0.20805866133600004 0.048968911334900007 0.17684288905400003 0.47420966143250004 0.13564705882350003
decision_type=2 2 2 2 2 2 2 2 2 2 2 2 2
left_child=1 2 4 -3 5 9 -7 -8 -4 12 -11 -2 -1
right_child=11 3 8 -5 -6 6 7 -9 -10 10 -12 -13 -14
leaf_value=-0.01404627419330857 0.028385708808898926 -0.0028600665275007489 -0.0030347262322902684 0.017390270136735022 -0.024877216666936874 0.010409817099571228 -0.018242242123399463 -0.0021079445355816893 0.011407899430819921 -0.0077665860205888759 -0.02409197760479791 0.039143825796517456 -0.0045672805905342109
leaf_count=22 25 32 20 34 20 27 35 38 21 20 35 22 25
internal_value=0 -0.0510089 -0.0828114 0.0757193 -0.106163 -0.0920429 -0.0437515 -0.0984357 0.0436272 -0.139387 -0.181555 0.334214 -0.0900426
internal_count=376 329 263 66 222 202 100 73 41 102 55 47 47
shrinkage=0.1


Tree=7
num_leaves=16
num_cat=0
split_feature=6 6 0 7 7 7 0 0 3 3 2 2 2 1 4
split_gain=4.94328 1.07403 0.651869 0.628971 0.362088 0.452731 0.325483 0.312101 0.290291 0.278191 0.173078 0.146492 0.357082 0.119242 0.0653834
threshold=0.85248868778300013 0.31326426630450005 0.46445032464950003 0.42673755580250011 0.38090703367150008 0.33827909652250004 0.32194266533200006 0.40975603798200005 0.37458333333350008 0.35738231915349999 0.20805866133600004 0.054525501712900007 0.24621206068200002 0.53332951311450005 0.14437474706600004
decision_type=2 2 2 2 2 2 2 2 2 2 2 2 2 2 2
left_child=1 3 6 4 5 7 -3 8 11 -9 -5 14 -13 -2 -1
right_child=13 2 -4 10 -6 -7 -8 9 -10 -11 -12 12 -14 -15 -16
leaf_value=-0.0098738250012199089 0.024934018435685532 0.0055829381400888623 -0.006773987995541614 -0.0027312541007995608 -0.022389495447278026 0.0028350376313732517 0.022988068205969676 -0.011556297398748853 -0.023902856558561326 0.0042039298141996065 0.010267110027018049 -0.022829501961286254 -0.0074500150150722923 0.035010157028834026 -0.0021320682018995288
leaf_count=24 23 22 23 20 20 31 21 21 20 24 21 26 36 24 20
internal_value=0 -0.045908 0.0681473 -0.0745302 -0.0955464 -0.0828386 0.140831 -0.102996 -0.128527 -0.0315084 0.0392644 -0.107677 -0.138995 0.300793 -0.0635484
internal_count=376 329 66 263 222 202 43 171 126 45 41 106 62 47 44
shrinkage=0.1


Tree=8
num_leaves=15
num_cat=0
split_feature=6 3 3 0 1 0 1 3 4 4 0 1 3 0
split_gain=4.00406 1.00989 1.11881 1.44949 0.733279 0.451492 1.15344 1.30992 0.679598 0.258762 0.113856 0.0965861 0.0879692 0.0765462
threshold=0.85248868778300013 0.33991010430400009 0.41618980121950006 0.40477883658050007 0.39301665221100007 0.4754390347300001 0.42714042771850008 0.07323082010580001 0.13564705882350003 0.31841883493100004 0.040275439842500003 0.53332951311450005 0.18115978623500004 0.13372989101000002
decision_type=2 2 2 2 2 2 2 2 2 2 2 2 2 2
left_child=1 5 3 -3 13 6 7 8 -1 10 -9 -2 -12 -4
right_child=11 2 4 -5 -6 -7 -8 9 -10 -11 12 -13 -14 -15
leaf_value=-0.009107860709939684 0.022440616980842924 -0.00053002781101635528 -0.00012603025883436205 0.033770658617669889 -0.015889163947466648 -0.019329538289457562 0.014456394249978272 -0.013363311101089827 0.01507895325238888 -0.0086868969394880199 -0.017769826079408326 0.031509141499797506 -0.026331814751029015 0.0086230409145355222
leaf_count=21 23 28 20 22 33 32 23 22 26 34 24 24 24 20
internal_value=0 -0.0413172 0.030383 0.145623 -0.0485482 -0.0841285 -0.0640518 -0.0958277 0.0427208 -0.158441 -0.193205 0.270714 -0.220508 0.0424851
internal_count=376 329 123 50 73 206 174 151 47 104 70 47 48 40
shrinkage=0.1


Tree=9
num_leaves=14
num_cat=0
split_feature=6 3 7 3 0 0 0 0 7 2 7 3 2
split_gain=3.24329 0.818013 1.01886 0.897129 0.555905 0.365708 0.523466 0.720113 0.478823 0.329768 0.301418 0.188392 0.0796128
threshold=0.85248868778300013 0.33991010430400009 0.4081075411065001 0.41618980121950006 0.32194266533200006 0.4754390347300001 0.28731937071850006 0.042692646720150003 0.23105924296900002 0.29755863458400006 0.30917215023850003 0.11494628339100001 0.47420966143250004
decision_type=2 2 2 2 2 2 2 2 2 2 2 2 2
left_child=1 5 3 4 -3 6 7 8 -1 -5 -8 -9 -2
right_child=12 2 -4 9 -6 -7 10 11 -10 -11 -12 -13 -14
leaf_value=-0.0114028109658149 0.020503359436988833 -0.0018755927061041195 0.020754164040088657 -0.0009414703718253546 0.020403185061046058 -0.017396584339439868 -0.0064290612936019897 -0.010942167497199515 0.0056636860115187515 -0.017068610247224569 0.0088758238380955128 -0.022807343490421773 0.028751555897972805
leaf_count=31 25 24 25 21 21 32 22 23 35 32 31 32 22
internal_value=0 -0.0371855 0.0273447 -0.0186239 0.0852117 -0.0757157 -0.0576467 -0.0939474 -0.023524 -0.106786 0.0252285 -0.178455 0.243642
internal_count=376 329 123 98 45 206 174 121 66 53 53 55 47
shrinkage=0.1


Tree=10
num_leaves=14
num_cat=0
split_feature=5 5 1 2 0 0 6 4 6 0 0 1 1
split_gain=4.02609 0.743794 0.838644 1.50065 0.710811 0.822006 0.637079 0.40204 0.284492 0.262134 0.239852 0.440659 0.0215048
threshold=0.46490147783250008 0.15258620689650002 0.18686309056250003 0.27482932897150009 0.32578671827600009 0.49401940495300006 0.85248868778300013 0.34563789466050004 0.49748858447500005 0.33336348287500001 0.12950286643300005 0.0039824486097200006 0.7785230192885001
decision_type=2 2 2 2 2 2 2 2 2 2 2 2 2
left_child=1 2 7 -4 -5 -6 8 10 -2 -3 11 -1 -8
right_child=6 9 3 4 5 -7 12 -9 -10 -11 -12 -13 -14
leaf_value=-0.016382481253299958 0.019308127530596474 -0.02366545549952067 0.022172356545925143 -0.019325313242998993 0.013489029506842297 -0.0095517821144312631 0.029173993070920307 0.0039395871758461003 0.0042278379201889042 -0.0086439217839922224 -0.020552721457636876 -0.0012513139138096258 0.024734087213873865
leaf_count=39 22 26 30 22 30 32 24 20 29 21 23 38 20
internal_value=0 -0.0547396 -0.031682 0.0297393 -0.0388266 0.01597 0.183394 -0.0900323 0.107331 -0.169537 -0.115918 -0.0891515 0.271559
internal_count=376 281 234 114 84 62 95 120 51 47 100 77 44
shrinkage=0.1


Tree=11
num_leaves=15
num_cat=0
split_feature=5 5 7 1 2 7 5 1 1 7 0 1 3 2
split_gain=3.26114 0.602473 0.874469 1.10532 1.38504 0.547472 0.393786 0.355276 0.48866 0.3292 0.212329 0.205686 0.195036 0.163692
threshold=0.46490147783250008 0.15258620689650002 0.22408011369950001 0.23557158712550003 0.37768949284150005 0.39250700280100009 0.67048346056000019 0.0039824486097200006 0.086736251698199998 0.36495542737800007 0.33336348287500001 0.26626382921800007 0.50817933453050002 0.033334816736600013
decision_type=2 2 2 2 2 2 2 2 2 2 2 2 2 2
left_child=1 2 11 7 -5 6 -2 -4 -9 -6 -3 13 -7 -1
right_child=5 10 3 4 9 12 -8 8 -10 -11 -12 -13 -14 -15
leaf_value=-0.011688777385279537 0.0023963530217447591 -0.02129891004699927 -0.015638707936913878 0.029183071679793872 -0.0089809182853925803 0.030756122556825478 0.020394140481948854 0.0079230936313116999 -0.011102429115109974 0.0083364808041116473 -0.0077795297617004036 -0.017544220051457806 0.017385130599141121 -0.00015623282641172409
leaf_count=32 31 26 27 26 21 24 20 27 27 23 21 31 20 20
internal_value=0 -0.0492657 -0.0285138 0.0168088 0.108843 0.165055 0.0945431 -0.0627268 -0.0158967 0.000713585 -0.152583 -0.110968 0.246784 -0.0725318
internal_count=376 281 234 151 70 95 51 81 54 44 47 83 44 52
shrinkage=0.1


Tree=12
num_leaves=15
num_cat=0
split_feature=5 5 7 1 2 6 1 3 7 6 7 3 1 2
split_gain=2.64152 0.488003 0.70832 0.895342 1.11846 0.443501 0.301897 0.413072 0.243737 0.239516 0.173798 0.171737 0.155327 0.0177918
threshold=0.46490147783250008 0.15258620689650002 0.22408011369950001 0.24072570846850003 0.37768949284150005 0.85248868778300013 0.0039824486097200006 0.27224949990900005 0.36495542737800007 0.49748858447500005 0.31114168548400006 0.15077476374200002 0.26626382921800007 0.56358893088500006
decision_type=2 2 2 2 2 2 2 2 2 2 2 2 2 2
left_child=1 2 11 6 -5 9 -4 -8 -6 -2 -3 -1 -13 -7
right_child=5 10 3 4 8 13 7 -9 -10 -11 -12 12 -14 -15
leaf_value=-0.0050371219453058747 0.016376622833988882 -0.0069662057572887062 -0.014074837002489302 0.027429067467649778 -0.007591571509838105 0.024221832508390603 -0.010211578149486471 0.0068377688775459926 0.0075028330087661748 0.0025396325464906366 -0.01919758821336123 -0.0081599829549139202 -0.019913149722244429 0.020200091668150642
leaf_count=38 22 21 27 24 20 22 27 30 23 29 26 22 23 22
internal_value=0 -0.0443391 -0.0256625 0.0151279 0.101348 0.148549 -0.0536429 -0.0123824 0.0048218 0.0850853 -0.137325 -0.0998714 -0.141672 0.22211
internal_count=376 281 234 151 67 95 84 57 43 51 47 83 45 44
shrinkage=0.1


Tree=13
num_leaves=14
num_cat=0
split_feature=5 4 5 1 2 7 1 5 3 3 1 4 7
split_gain=2.13963 0.464001 0.621346 0.559751 1.03475 0.415513 0.411143 0.283948 0.282711 0.265672 0.185044 0.106969 0.0522572
threshold=0.46490147783250008 0.39932922312600011 0.15258620689650002 0.22601271980450002 0.37155499367900008 0.39250700280100009 0.47807914344200003 0.67048346056000019 0.063244047619050017 0.38988432321250005 0.76479456108550015 0.26205032892300012 0.25086367065900006
decision_type=2 2 2 2 2 2 2 2 2 2 2 2 2
left_child=1 2 3 8 -5 7 -3 -2 -1 11 -7 12 -10
right_child=5 6 -4 4 -6 10 -8 -9 9 -11 -12 -13 -14
leaf_value=0.0007905522040252028 0.0012332226480207137 0.011576676880940795 -0.017476714517061526 0.017112381083350028 -0.0075065445547041146 0.026409560566147169 -0.0059515944317631098 0.016516214907169341 -0.013454945996403695 -0.0010437150231816551 0.013385599851608277 -0.0079945075918327682 -0.020312896035611632
leaf_count=29 31 32 39 31 38 24 23 20 25 22 20 22 20
internal_value=0 -0.0399052 -0.0599515 -0.036006 0.0355413 0.133694 0.0424667 0.0722655 -0.0778429 -0.105783 0.204896 -0.137091 -0.165029
internal_count=376 281 226 187 69 95 55 51 118 89 44 67 45
shrinkage=0.1


Tree=14
num_leaves=15
num_cat=0
split_feature=5 7 7 0 2 1 2 1 2 5 2 3 1 3
split_gain=1.7331 0.338339 0.336565 0.273379 0.333041 1.46406 0.236639 0.479953 0.433423 0.229998 0.22679 0.152035 0.111177 0.101744
threshold=0.46490147783250008 0.48144833427450001 0.39250700280100009 0.14431204905500003 0.27482932897150009 0.20207362836450002 0.44141203392100004 0.4962526805550001 0.35654966634300006 0.67048346056000019 0.036295316836150011 0.50817933453050002 0.11742629413150002 0.22228997289950003
decision_type=2 2 2 2 2 2 2 2 2 2 2 2 2 2
left_child=1 3 9 10 5 -5 8 -8 -6 -2 13 -4 -12 -1
right_child=2 -3 11 4 6 -7 7 -9 -10 -11 12 -13 -14 -15
leaf_value=-0.00044973224401474005 0.0011099005418439066 0.0054607410397794522 0.023806664409736791 -0.013474692590534687 -0.0020985376475186183 0.024788350723683836 0.0099906914557019878 -0.0092808495674814497 -0.020962471940687726 0.014864593520760536 -0.0093226906464055747 0.012001366838812829 -0.01878389729105908 -0.0092900631544382672
leaf_count=30 31 36 24 20 29 20 24 28 21 20 27 20 23 23
internal_value=0 -0.0359147 0.120325 -0.0492159 -0.0207664 0.0565683 -0.0510938 -0.00386292 -0.100214 0.065039 -0.0884374 0.184406 -0.136748 -0.042861
internal_count=376 281 95 245 142 40 102 52 50 51 103 44 50 53
shrinkage=0.1


Tree=15
num_leaves=16
num_cat=0
split_feature=6 3 3 2 4 7 4 1 3 2 2 4 7 7 1
split_gain=1.24626 1.27595 0.952856 0.399817 0.372543 0.528029 0.176109 0.850236 0.447944 0.487251 0.55367 0.59429 0.120807 0.090326 0.0857708
threshold=0.30086206896550005 0.33506145346950006 0.24301264178150003 0.80065310547250002 0.5204240204245002 0.39927024821150009 0.14783361189150002 0.15105230431050004 0.05616904264800001 0.44749373433600009 0.27482932897150009 0.31445022089600011 0.29296530651500002 0.25411938225250008 0.3652240343960001
decision_type=2 2 2 2 2 2 2 2 2 2 2 2 2 2 2
left_child=3 2 -2 6 5 -3 7 13 -8 10 11 12 -10 -1 -12
right_child=1 4 -4 -5 -6 -7 8 -9 9 -11 14 -13 -14 -15 -16
leaf_value=-0.0037522110950063779 0.0084761902176100634 0.013541011712872066 -0.019493652596360163 0.0093353458396766495 0.008140266162377818 0.035153564251959327 0.0066667278823645225 0.017092213474679738 -0.0069418675824999805 0.0049141731923041145 -0.015921061486005784 0.0052533410489559174 -0.017117746493646079 -0.012618838660418989 -0.025182316154241564
leaf_count=27 29 26 21 23 27 20 23 20 20 23 20 29 28 20 20
internal_value=0 0.0903551 -0.0327114 -0.0323567 0.174647 0.229378 -0.0449277 -0.00176749 -0.0626684 -0.0839164 -0.110073 -0.0604919 -0.128778 -0.0752524 -0.205517
internal_count=376 123 50 253 73 46 230 67 163 140 117 77 48 47 40
shrinkage=0.1


Tree=16
num_leaves=15
num_cat=0
split_feature=7 4 4 1 5 3 1 7 1 0 2 5 1 1
split_gain=0.927494 0.853735 0.719123 1.1115 0.561199 0.863454 0.609063 0.524419 0.466887 0.294855 0.551045 0.245407 0.0939303 0.0730753
threshold=0.13508326828000003 0.31445022089600011 0.15384615384600003 0.16923537391450003 0.26500000000000007 0.4697751061160001 0.28062781562800004 0.44562697002250007 0.26626382921800007 0.33336348287500001 0.46065577737200009 0.19821428571450003 0.22601271980450002 0.44773758262000002
decision_type=2 2 2 2 2 2 2 2 2 2 2 2 2 2
left_child=8 2 3 -2 5 6 -3 11 -1 -6 -11 12 -4 -8
right_child=1 4 7 -5 9 -7 13 -9 -10 10 -12 -13 -14 -15
leaf_value=-0.0040098068163250435 -0.004842767232295239 0.0087116769474485638 -0.012578372657299042 0.025033152056857945 0.0046941470603148149 0.019594230279326441 -0.015984966009855269 0.0053768875246698209 -0.023083565738939105 0.02505095009292875 0.0060369464810247778 -0.021677980832755569 -0.0040528720865646998 -0.0074365550279617311
leaf_count=33 33 23 28 20 30 20 20 22 21 35 27 20 24 20
internal_value=0 0.0273462 -0.0288354 0.0643116 0.0745387 0.0149184 -0.0425495 -0.0813544 -0.114274 0.128327 0.167707 -0.122642 -0.0864353 -0.117108
internal_count=376 322 147 53 175 83 63 94 54 92 62 72 52 40
shrinkage=0.1


Tree=17
num_leaves=15
num_cat=0
split_feature=7 0 4 5 4 2 1 3 3 7 1 3 5 0
split_gain=0.75127 0.753095 0.395867 0.559409 0.538871 0.8995 0.378966 0.316726 0.373731 0.308008 0.408318 0.222562 0.136515 0.05521
threshold=0.13508326828000003 0.78050620173300012 0.31445022089600011 0.26500000000000007 0.20383519237350003 0.20805866133600004 0.29480520174950003 0.28785858576650003 0.43214285714250006 0.32883426699600005 0.43183574470450009 0.34647235514300007 0.0080540820287250021 0.019915774930400001
decision_type=2 2 2 2 2 2 2 2 2 2 2 2 2 2
left_child=6 2 4 7 5 13 -1 -4 -9 -5 -11 12 -6 -2
right_child=1 -3 3 9 11 -7 -8 8 -10 10 -12 -13 -14 -15
leaf_value=-0.0038595605532036111 -0.0026462333463132381 0.015883202669588297 0.0057073767627439194 0.020379605957052925 -1.2240067124366761e-05 0.017007918655872346 -0.021207279674708843 -0.017004757410004026 0.0020958289876580236 -0.0016270464864270443 0.016214722006217295 -0.016560124082920645 -0.011096618101000787 -0.010076574413105846
leaf_count=34 20 37 31 22 25 28 20 21 20 29 23 26 20 20
internal_value=0 0.0246116 0.00718649 0.0435514 -0.0310098 0.0326126 -0.102846 -0.019202 -0.076874 0.104609 0.062645 -0.0919439 -0.0493863 -0.063614
internal_count=376 322 285 146 139 68 54 72 41 74 52 71 45 40
shrinkage=0.1


Tree=18
num_leaves=15
num_cat=0
split_feature=6 3 3 4 7 2 2 3 0 2 3 7 1 7
split_gain=0.741154 0.882723 0.709623 0.340478 0.406263 0.278642 0.447613 0.28683 0.211649 0.335194 0.246421 0.212645 0.0966144 0.0315361
threshold=0.30086206896550005 0.33506145346950006 0.24301264178150003 0.5204240204245002 0.39927024821150009 0.44749373433600009 0.37155499367900008 0.30522632872000005 0.22677320310450003 0.27482932897150009 0.39523136648400004 0.37022078395950003 0.12547245243950003 0.25086367065900006
decision_type=2 2 2 2 2 2 2 2 2 2 2 2 2 2
left_child=5 2 -2 4 -3 6 8 -7 10 -10 11 12 13 -1
right_child=1 3 -4 -5 -6 7 -8 -9 9 -11 -12 -13 -14 -15
leaf_value=-0.0013726384068528811 0.0068366335897610117 0.010935958446218419 -0.017300757907685781 0.0050319749448034497 0.029893438853323462 -0.0034454139570395149 -0.018064650520682336 0.011130826947865664 0.008975949206135491 -0.0058997383374454725 -0.014654315161434088 0.0057090316983786499 -0.011428612805902958 -0.0064049765933305025
leaf_count=33 29 26 21 27 20 27 21 27 33 28 22 22 20 20
internal_value=0 0.0693507 -0.0330107 0.139461 0.191783 -0.0252807 -0.0425683 0.0384271 -0.0262782 0.0214776 -0.0511765 -0.0290916 -0.0550642 -0.0327163
internal_count=376 123 50 73 46 253 199 54 178 61 117 95 73 53
shrinkage=0.1


Tree=19
num_leaves=15
num_cat=0
split_feature=7 2 4 2 0 0 4 1 1 1 7 3 5 0
split_gain=0.583132 0.552626 0.484069 0.487288 0.883151 0.338261 0.326075 0.764348 0.310181 0.291304 0.376946 0.183055 0.106042 0.0685278
threshold=0.13508326828000003 0.80065310547250002 0.31445022089600011 0.28367658164450005 0.28070215611200006 0.33336348287500001 0.20383519237350003 0.20207362836450002 0.29480520174950003 0.39301665221100007 0.3313985646810001 0.34647235514300007 0.0080540820287250021 0.019915774930400001
decision_type=2 2 2 2 2 2 2 2 2 2 2 2 2 2
left_child=8 2 6 4 -4 -5 7 13 -1 -7 -11 12 -8 -2
right_child=1 -3 3 5 -6 9 11 -9 -10 10 -12 -13 -14 -15
leaf_value=-0.0032929506810272444 -0.0018846603482961654 0.013800225675933891 0.0012528773604167833 -0.011275711371785119 0.025439507270661684 0.012358269872872727 0.00021819702535867693 0.016751258786429059 -0.018987531736493111 -0.011527656707912684 0.0076549217814490915 -0.014311954896126328 -0.0095510113332420588 -0.0098883236555949508
leaf_count=34 20 36 36 21 26 23 25 22 20 20 21 29 20 23
internal_value=0 0.0212354 0.00653749 0.0465429 0.113957 -0.00262935 -0.0357704 0.0159082 -0.0910576 0.0335063 -0.0170243 -0.0811638 -0.0412367 -0.0616569
internal_count=376 322 286 147 62 85 139 65 54 64 41 74 45 43
shrinkage=0.1



feature importances:
Column_2=44
Column_7=43
Column_1=42
Column_3=42
Column_0=30
Column_4=25
Column_5=25
Column_6=21

pandas_categorical:null
