tree
version=v2
num_class=1
num_tree_per_iteration=1
label_index=0
max_feature_idx=14
objective=regression
feature_names=Column_0 Column_1 Column_2 Column_3 Column_4 Column_5 Column_6 Column_7 Column_8 Column_9 Column_10 Column_11 Column_12 Column_13 Column_14
feature_infos=[0:1] [0:1] [0:1] [0:1] [0:1] [0.0020827673639400002:0.95603146658299998] [0:1] [0:1] [0:1] [0:1] [0:1] [0.029819844036299999:0.876709477101] [0:1] [0:1] 1:0:5:3:2:-1
tree_sizes=1223 1402 1420 1409 1344 1494 1269 1507 1592 1513 1585 1590 1516 1430 1510 1519 1507 1433 1604 1599

Tree=0
num_leaves=15
num_cat=0
split_feature=13 12 9 2 6 10 0 6 2 6 9 5 0 0
split_gain=25.4838 3.62359 2.43174 2.04217 1.58699 1.44944 1.15015 1.40354 0.917397 0.622924 0.47871 0.157418 0.136704 0.0261905
threshold=0.44255952380950009 0.90454545454550017 0.39736842105250009 0.44409722222200004 0.36356901138700004 0.35522451686250006 0.45861910625800001 0.32751080600050003 0.49410459148300007 0.43400872942750007 0.3203067151795001 0.40834657439100003 0.20511403103800002 0.49918300653600006
decision_type=2 2 2 2 2 2 2 2 2 2 2 2 2 2
left_child=2 5 3 6 -4 -2 7 10 -7 -9 11 -1 -11 -3
right_child=1 13 4 -5 -6 8 -8 9 -10 12 -12 -13 -14 -15
leaf_value=0.29999999900658925 0.34285714314097449 0.39500000183780987 0.35909090985854464 0.34000000019868215 0.32499999975164728 0.38636363794406253 0.3310344826901096 0.33333333333333331 0.35714285785243621 0.30869565143965289 0.31739130387271658 0.30952380881423042 0.3199999996026357 0.40000000198682151
leaf_count=100 28 20 22 30 36 22 29 27 21 23 23 21 20 22
internal_value=0 0.41003 -0.13998 -0.179487 0.045977 0.2723 -0.209877 -0.235202 0.387597 -0.119048 -0.291667 -0.316804 -0.193798 0.642857
internal_count=444 113 331 273 58 71 243 214 43 70 144 121 43 42
shrinkage=1


Tree=1
num_leaves=17
num_cat=0
split_feature=13 11 11 8 6 11 0 9 12 7 5 8 9 4 6 4
split_gain=20.6419 5.49439 4.54704 2.05729 1.42261 0.980236 0.58461 0.549366 0.536429 0.63757 0.183135 0.259411 0.489849 0.0255025 0.00163147 0.000285822
threshold=0.44255952380950009 0.3301142498475001 0.3397637109740001 0.29303917377400007 0.36356901138700004 0.35716820638750008 0.4332293823735 0.36357918810750006 0.90454545454550017 0.43660985915500006 0.30496988596900004 0.3061300283165001 0.23027823240600004 0.84686737320200012 0.28402602711700004 0.031445368002300009
decision_type=2 2 2 2 2 2 2 2 2 2 2 2 2 2 2 2
left_child=1 6 -2 5 -5 -3 7 10 9 -4 14 12 -12 -10 15 -1
right_child=2 3 8 4 -6 -7 -8 -9 13 -11 11 -13 -14 -15 -16 -17
leaf_value=-0.030000001192092896 0.004987824894487858 -0.02442264075462635 0.05364254854974293 0.030532548102465546 0.0015920193706239973 0.001718090195208788 -0.0098011788725852964 -0.0097373109488260185 0.06027500212192536 0.028694805204868321 -0.027578606704870862 -0.031500959396362306 -0.0076651879719325487 0.055225002020597463 -0.031247826516628264 -0.030456522728006048
leaf_count=32 32 26 21 33 35 32 30 21 20 20 30 27 21 20 20 24
internal_value=0 -0.125982 0.369027 0.038356 0.156367 -0.100002 -0.22699 -0.2491 0.49511 0.414729 -0.26979 -0.23575 -0.19379 0.5775 -0.304725 -0.301957
internal_count=444 331 113 126 68 58 205 175 81 41 154 78 51 40 76 56
shrinkage=0.1


Tree=2
num_leaves=17
num_cat=0
split_feature=13 11 11 4 12 0 7 9 6 3 13 4 6 5 4 6
split_gain=16.7318 4.42724 3.71741 1.89645 1.01801 0.700456 0.6453 0.581861 0.849974 0.474634 0.365823 0.320142 0.308892 0.00530487 0.00624769 6.69975e-05
threshold=0.47420634920600002 0.34973463394350007 0.3397637109740001 0.40798959005700003 0.41742286751350005 0.4332293823735 0.49894380755550005 0.29725004725000009 0.26687587334550006 0.20108522893650005 0.94243421052650012 0.34116194375600006 0.33195828938850008 0.30496988596900004 0.081699104658750007 0.012079491530900001
decision_type=2 2 2 2 2 2 2 2 2 2 2 2 2 2 2 2
left_child=1 4 -2 -3 5 7 -5 12 -9 10 -4 -10 13 15 -15 -1
right_child=2 3 9 6 -6 -7 -8 8 11 -11 -12 -13 -14 14 -16 -17
leaf_value=-0.027193153053522115 0.0040639888246854147 0.0318503244055642 0.028349010199308397 0.011715287268161775 0.0016958196575825033 -0.0058649099924985102 -0.012383880019187929 0.00081149089336395258 -0.030065600449840232 0.053670745040919336 0.04703575575893576 -0.012934816479682924 -0.016079659194781864 -0.027506067012918408 -0.029740844666957856 -0.026962493360042573
leaf_count=20 30 27 20 20 26 34 25 25 24 37 22 20 29 29 22 34
internal_value=0 -0.110731 0.340321 0.108982 -0.170881 -0.191488 -0.0167314 -0.213737 -0.139128 0.454125 0.381373 -0.222789 -0.252155 -0.277387 -0.284701 -0.270479
internal_count=444 335 109 72 263 237 45 203 69 79 42 44 134 105 51 54
shrinkage=0.1


Tree=3
num_leaves=17
num_cat=0
split_feature=11 12 1 8 1 8 0 0 0 8 5 5 6 11 9 7
split_gain=12.8916 5.32032 2.13118 2.53777 1.26884 0.887922 0.681173 0.562069 0.433499 0.4233 0.399786 0.96312 0.600523 0.0901486 0.0140999 0.00100226
threshold=0.3301142498475001 0.57310344827600013 0.33405797101450002 0.318493371011 0.18808275058250001 0.29503044163800002 0.3623327730005001 0.39543038173600004 0.5176478952675001 0.54786770787700012 0.30496988596900004 0.38136625196300006 0.15890000005200003 0.29685289989350006 0.29359110169500008 0.16414390207500004
decision_type=2 2 2 2 2 2 2 2 2 2 2 2 2 2 2 2
left_child=6 2 4 -4 -2 -6 10 -5 -8 -3 14 12 -12 -13 15 -1
right_child=1 9 3 7 5 -7 8 -9 -10 -11 11 13 -14 -15 -16 -17
leaf_value=-0.024330572741372247 0.010288573925693829 0.034824147730162645 -0.0017143423066419716 0.024323348127878633 0.0010637500882148742 -0.026962482356108153 0.00073313370347023016 0.046319541051274254 -0.017999936285473053 0.051707594372608051 -0.018051107227802277 -0.02125099025666714 0.0043973933045680707 -0.030258417665958406 -0.027696702097143446 -0.025204429952871234
leaf_count=35 36 33 34 26 20 26 30 21 21 27 22 20 26 25 21 21
internal_value=0 0.169631 0.0759183 0.190967 -0.0377269 -0.147772 -0.171166 0.341514 -0.0698048 0.424217 -0.201574 -0.157449 -0.058915 -0.262551 -0.254869 -0.246583
internal_count=444 223 163 81 82 46 221 47 51 60 170 93 48 45 77 56
shrinkage=0.1


Tree=4
num_leaves=16
num_cat=0
split_feature=13 11 11 8 1 8 10 7 9 4 4 9 0 0 10
split_gain=11.5129 2.95858 2.5035 1.54745 1.18929 0.710423 0.514351 0.56057 0.864669 0.460732 0.606372 0.149046 0.0282216 0.0101247 0.00845595
threshold=0.44255952380950009 0.3301142498475001 0.3397637109740001 0.29303917377400007 0.33405797101450002 0.16769681392800004 0.069568452380950024 0.28764509310000003 0.29239210571100011 0.34541252398400007 0.52018099547500019 0.20450367647050002 0.32762268864500005 0.28288744970950008 0.30320054477350006
decision_type=2 2 2 2 2 2 2 2 2 2 2 2 2 2 2
left_child=1 6 -2 5 -5 -3 -1 8 11 -4 -11 13 14 -8 -9
right_child=2 3 9 4 -6 -7 7 12 -10 10 -12 -13 -14 -15 -16
leaf_value=-0.0023740089752457361 0.0038787188008427621 0.0017184358218620564 0.050086691081523894 -0.0011415337212383747 0.025353945543368658 -0.020416304880175099 -0.022730285227298738 -0.023309540934860706 -0.0017840552571657545 0.020632558226585388 0.040905330247349214 -0.015439238813188342 -0.029030704853080569 -0.025748931616544724 -0.02609365485608578
leaf_count=22 32 29 20 32 36 29 25 24 37 25 36 36 21 20 20
internal_value=0 -0.0940864 0.275598 0.0265059 0.128855 -0.0934893 -0.168207 -0.185574 -0.144496 0.369153 0.325968 -0.202352 -0.260146 -0.240719 -0.24575
internal_count=444 331 113 126 68 58 205 183 118 81 61 81 65 45 44
shrinkage=0.1


Tree=5
num_leaves=18
num_cat=0
split_feature=11 9 3 2 10 7 9 6 6 11 10 0 2 0 1 0 0
split_gain=9.16415 2.58222 1.67299 0.93884 1.52775 0.885122 1.13135 0.664153 0.376567 0.495255 0.243824 0.302851 0.153202 0.110275 0.104212 0.11528 0.0290676
threshold=0.34973463394350007 0.40309279294150008 0.38750000000000007 0.35041666666700005 0.34833164812950007 0.48334595161550004 0.49895615866400006 0.25986565683400004 0.35769779324150003 0.32964367991850002 0.20106382978700005 0.22227711901600003 0.93468045112750009 0.25004363889500009 0.39718286099850009 0.17939627618600004 0.37159377078800004
decision_type=2 2 2 2 2 2 2 2 2 2 2 2 2 2 2 2 2
left_child=1 3 5 8 -5 7 -7 -2 9 10 11 -1 -4 -10 15 -12 -17
right_child=2 -3 12 4 -6 6 -8 -9 13 -11 14 -13 -14 -15 -16 16 -18
leaf_value=-0.018576812247435251 0.0085439658977768639 0.014398132844103706 0.03108316172253002 0.014848596316117508 -0.021913801431655885 -0.013506308062510056 0.017888741195201875 0.031262473041011443 -0.019306583777070049 -0.0019864084055790537 -0.015581633008661725 -0.0038312585881123181 0.043176065087318423 -0.029183371594318976 -0.013687435388565065 -0.022491137543693186 -0.027350913882255558
leaf_count=30 22 36 22 26 20 22 24 31 20 26 21 26 20 26 20 32 20
internal_value=0 -0.107427 0.201181 -0.141325 -0.0113505 0.130232 0.0287372 0.218321 -0.168378 -0.147215 -0.169437 -0.117307 0.368417 -0.248891 -0.200828 -0.218349 -0.243603
internal_count=444 303 141 267 46 99 46 53 221 175 149 56 42 46 93 73 52
shrinkage=0.1


Tree=6
num_leaves=15
num_cat=0
split_feature=12 11 13 7 9 1 2 1 7 9 7 7 11 10
split_gain=10.9266 2.65851 1.75933 1.08103 0.790274 0.540993 0.449516 0.371383 0.293279 0.244449 0.190731 0.153209 0.0924617 0.0696107
threshold=0.57310344827600013 0.32964367991850002 0.48504652193150005 0.3699231396605 0.31216327025600005 0.22445976155000003 0.35041666666700005 0.36616539799450004 0.0035554799740500002 0.27306775621350005 0.51109071291550012 0.05159103977800001 0.27155814156750008 0.32420587353900004
decision_type=2 2 2 2 2 2 2 2 2 2 2 2 2 2
left_child=1 6 3 4 -3 -5 8 -7 -1 11 -2 -10 -13 -11
right_child=10 2 -4 5 -6 7 -8 -9 9 13 -12 12 -14 -15
leaf_value=-0.008795897089518034 0.030339961498975755 -0.0036199912942689039 0.021164389397646931 0.0025052335113286972 0.021201482156048654 -0.024706636794975825 -0.001117880642414093 -0.0079379075169563294 -0.020420130202546717 -0.019951610565185546 0.040784015900948468 -0.0062922175228595743 -0.014909036141453367 -0.026404678961262109
leaf_count=39 36 29 37 20 23 28 21 25 32 35 34 20 33 32
internal_value=0 -0.0763489 0.0200993 -0.036598 0.0735874 -0.115086 -0.15005 -0.167969 -0.165318 -0.185167 0.354128 -0.149563 -0.116574 -0.230337
internal_count=444 374 162 125 52 73 212 53 191 152 70 85 53 67
shrinkage=0.1


Tree=7
num_leaves=18
num_cat=0
split_feature=12 13 2 8 13 1 1 5 13 8 5 9 5 0 4 6 7
split_gain=8.85057 1.70668 1.12378 0.621095 0.87852 0.668389 0.808717 0.637121 0.455512 0.675158 0.364229 0.275212 0.175484 0.0942241 0.0838416 0.0739386 0.0326204
threshold=0.57310344827600013 0.43405797101450005 0.33534136546150006 0.28794961231700006 0.14642857142850005 0.33405797101450002 0.25407435701550007 0.3345143776665 0.13583886023100003 0.070332415811150004 0.4347055744640001 0.29239210571100011 0.29714498186650007 0.31938699234200008 0.074413692841300019 0.31043524425300006 0.077959299537100027
decision_type=2 2 2 2 2 2 2 2 2 2 2 2 2 2 2 2 2
left_child=1 3 -3 8 5 6 -5 -7 9 11 12 14 -2 15 -1 16 -11
right_child=10 2 -4 4 -6 7 -8 -9 -10 13 -12 -13 -14 -15 -16 -17 -18
leaf_value=-0.015650097578763962 0.029177939146757127 -0.0068109864225754371 0.020987659692764282 0.0041542160191706248 -0.018502496864114492 0.020430685709352081 -0.020101762259448017 -0.0024178495773902308 8.020131360916865e-05 -0.014479996476854599 0.020466170608997344 0.0015731766819953919 0.041270781258742013 -0.027237168834968045 -0.0072913887351751337 -0.024658748954534532 -0.019990076463330876
leaf_count=30 20 26 33 28 35 23 27 26 21 21 20 20 30 22 20 20 22
internal_value=0 -0.068714 0.0873741 -0.0979496 -0.0479838 -0.00186422 -0.0775326 0.0830697 -0.137411 -0.156137 0.318715 -0.0834096 0.364336 -0.21603 -0.123066 -0.196355 -0.172991
internal_count=444 374 59 315 139 104 55 49 176 155 70 70 50 85 50 63 43
shrinkage=0.1


Tree=8
num_leaves=19
num_cat=0
split_feature=13 11 11 9 7 11 11 6 2 13 10 5 12 9 6 12 8 6
split_gain=7.3459 1.83176 1.54375 0.828569 0.67508 0.591677 1.69997 0.426449 0.363635 0.283018 0.281163 0.438737 0.148593 0.149583 0.0728471 0.0351648 0.00401522 0.000678942
threshold=0.70408163265300006 0.34973463394350007 0.36182291358750002 0.40309279294150008 0.49303257117500005 0.33284442602150005 0.32964367991850002 0.44424424547100011 0.49928774928750003 0.064583333333350007 0.069568452380950024 0.44130371279400005 0.042438271604950006 0.2403536479625 0.52466820132450009 0.27386363636350003 0.20203252032500002 0.012079491530900001
decision_type=2 2 2 2 2 2 2 2 2 2 2 2 2 2 2 2 2 2
left_child=1 3 -3 5 7 6 10 -4 -2 -7 -1 12 13 16 -10 -14 17 -12
right_child=8 2 4 -5 -6 9 -8 -9 14 -11 11 -13 15 -15 -16 -17 -18 -19
leaf_value=-0.0015955552458763124 0.018035001697994414 0.030787138789892199 -0.0028072042763233186 0.0068871412712794081 -0.012727128395012447 -0.014248495726358324 0.018066272363066675 0.017843427509069445 0.038034508309581064 -0.030478561669588091 -0.016231654658913613 -0.0036338462549097396 -0.018527499213814736 -0.0092037198574919446 0.030282556900271665 -0.024205034896731377 -0.018378987833857535 -0.017055634185671808
leaf_count=21 21 20 20 26 28 21 20 20 22 22 20 34 24 38 27 20 20 20
internal_value=0 -0.0625169 0.0636486 -0.101337 -0.00818164 -0.118358 -0.0971226 0.0751811 0.290446 -0.225523 -0.125324 -0.138374 -0.162805 -0.141129 0.33763 -0.211082 -0.172221 -0.166436
internal_count=444 374 88 286 68 260 217 40 70 43 197 176 142 98 49 44 60 40
shrinkage=0.1


Tree=9
num_leaves=18
num_cat=0
split_feature=13 11 11 9 11 11 0 0 2 4 10 11 4 6 1 0 6
split_gain=5.95018 1.48373 1.25044 0.671141 0.479258 1.37698 0.428311 0.564406 0.294544 0.280818 0.269167 0.29503 0.149262 0.311355 0.0657097 0.0656782 0.0590062
threshold=0.70408163265300006 0.34973463394350007 0.36182291358750002 0.40309279294150008 0.33284442602150005 0.32964367991850002 0.25004363889500009 0.45213156408850003 0.49928774928750003 0.36679963939600008 0.33434959349600007 0.32087236408450004 0.070948724979450026 0.24196883230800004 0.30710648456000006 0.24852511179900003 0.52466820132450009
decision_type=2 2 2 2 2 2 2 2 2 2 2 2 2 2 2 2 2
left_child=1 3 -3 4 5 10 -4 -8 -2 -6 11 12 14 -14 15 -1 -10
right_child=8 2 6 -5 9 -7 7 -9 16 -11 -12 -13 13 -15 -16 -17 -18
leaf_value=-0.015340344439591131 0.016231501670110792 0.027708425223827361 0.010739707066254184 0.0061984273676688861 -0.028192470358176666 0.016259645223617555 -0.015939948421258194 0.0064046747982501985 0.034231057492169467 -0.012025606987022219 -0.019519468329169537 -0.00046983440888339077 -0.00042437428030474441 -0.014955329944690069 -0.018716353088617323 -0.0079901298508048054 0.027254301088827627
leaf_count=31 21 20 22 26 22 20 26 20 22 21 33 29 29 30 25 20 27
internal_value=0 -0.0562652 0.0572837 -0.0912034 -0.106522 -0.0874103 -0.00736347 -0.0622489 0.261402 -0.20297 -0.112792 -0.0962106 -0.115869 -0.07813 -0.145166 -0.124579 0.303867
internal_count=444 374 88 286 260 217 68 46 70 43 197 164 135 59 76 51 49
shrinkage=0.1


Tree=10
num_leaves=19
num_cat=0
split_feature=11 13 0 2 4 9 0 9 11 11 13 6 1 11 11 4 9 4
split_gain=3.91644 1.54341 0.920065 1.57474 0.994093 0.669295 0.588934 0.583844 0.594216 0.630602 0.457625 0.447718 0.194134 0.155902 0.0982 0.0717392 0.0413344 0.0029724
threshold=0.34973463394350007 0.046031746031700009 0.34516134606400006 0.37812500000000004 0.016902349601400003 0.38557054848550004 0.33323054710100003 0.23027823240600004 0.29397279017350003 0.32748599198150002 0.94243421052650012 0.34711157190150005 0.33659148331150007 0.31393539321050007 0.27569485498450003 0.31881463731100007 0.64833383405900002 0.0078164909673550005
decision_type=2 2 2 2 2 2 2 2 2 2 2 2 2 2 2 2 2 2
left_child=2 6 7 4 -4 -3 -2 13 -9 15 -7 -11 -6 14 17 -10 -12 -1
right_child=1 5 3 -5 12 10 -8 8 9 11 16 -13 -14 -15 -16 -17 -18 -19
leaf_value=-0.013993180968931743 -0.0067108009130724018 0.037989114969968797 0.014063319496133111 0.023981587809545023 -0.017113580803076425 0.0081600851737535923 0.014978452594507308 0.012088357321918012 -0.018528598002516307 0.012188599542492913 0.028416266143321989 -0.0087173391878604886 -0.0054254254202047991 -0.022190218158066273 -0.0064594603720165428 -0.010562321878969669 0.021987080052495004 -0.015589354783296587
leaf_count=28 31 24 22 27 27 26 21 20 26 21 20 20 30 20 21 20 20 20
internal_value=0 0.157639 -0.0437282 0.031327 -0.0399287 0.236885 0.0204832 -0.0843193 -0.0345429 -0.0702731 0.184883 0.0199058 -0.109619 -0.144163 -0.12163 -0.15065 0.252017 -0.146583
internal_count=444 142 302 106 79 90 52 196 107 87 66 41 57 89 69 46 40 48
shrinkage=0.1


Tree=11
num_leaves=19
num_cat=0
split_feature=13 0 0 11 11 12 8 8 8 10 9 4 12 9 10 11 5 0
split_gain=3.22626 0.964646 0.926456 0.871511 0.554212 0.769074 0.517327 0.506125 0.545652 0.458104 0.385441 0.379165 0.216261 0.330165 0.490627 0.3185 0.0174584 0.00797019
threshold=0.44255952380950009 0.35301234333900006 0.61437586888150009 0.35101522890900005 0.32841633353250005 0.14571428571400005 0.38144725913600003 0.32084700955400003 0.12968821591100002 0.069568452380950024 0.33389868837600006 0.49561050053900008 1.0000000180025095e-35 0.20450367647050002 0.35895947657250005 0.29642895863050006 0.30496988596900004 0.20073337351800005
decision_type=2 2 2 2 2 2 2 2 2 2 2 2 2 2 2 2 2 2
left_child=2 3 4 -2 9 7 -3 8 -6 -1 -7 -8 13 17 15 -15 -14 -11
right_child=1 6 -4 -5 5 10 11 -9 -10 12 -12 -13 16 14 -16 -17 -18 -19
leaf_value=0.006217717453837395 -0.010850274041295052 0.034922254264354712 0.015769933288296064 0.01831753154595693 0.00045425727963447574 0.02069671147248962 0.025707126498222349 0.0042658403967366079 -0.021515994748243922 -0.01235103071309053 0.0015154559165239335 0.0079161167792651966 -0.013517544716596603 0.010971717374480289 -0.016162959709763527 -0.0053340467810630808 -0.017481453090906145 -0.014827099757698867
leaf_count=20 20 25 24 21 20 22 25 33 26 26 20 23 20 23 20 25 25 26
internal_value=0 0.163638 -0.031496 0.0408933 -0.0463348 0.0062875 0.232576 -0.0518428 -0.119637 -0.0807527 0.115628 0.171823 -0.0980775 -0.0759077 -0.0300384 0.0247913 -0.157197 -0.135891
internal_count=444 114 330 41 306 121 73 79 46 185 42 48 165 120 68 48 45 52
shrinkage=0.1


Tree=12
num_leaves=18
num_cat=0
split_feature=11 0 1 7 2 7 1 4 6 11 0 8 0 4 4 10 11
split_gain=2.71915 0.905686 0.691963 0.63171 0.915642 0.545179 0.43486 0.522763 0.758234 0.369794 0.358319 0.344256 0.307253 0.182333 0.173828 0.1053 0.0488505
threshold=0.35101522890900005 0.31014055211550001 0.56177342478500003 0.28764509310000003 0.26820317087500006 0.48334595161550004 0.16245823506300003 0.34030489919650003 0.38786208252350002 0.29094573413200003 0.41557518923250003 0.54786770787700012 0.31599031899000002 0.00042291487956800001 0.17614050731450004 0.32847663588750003 0.23215786540000002
decision_type=2 2 2 2 2 2 2 2 2 2 2 2 2 2 2 2 2
left_child=2 5 3 4 9 -2 -5 15 -9 13 -3 -12 14 -1 -11 -8 -15
right_child=1 10 -4 6 -6 -7 7 8 -10 12 11 -13 -14 16 -16 -17 -18
leaf_value=-0.00092869117856025701 0.012099030337951802 0.030952995873632885 0.012779294047504663 -0.022563935362774394 0.018793420316207978 -0.0091077316891063336 -0.018444463908672333 0.014925006441771985 -0.0096132753964732684 0.0025102904549351448 0.0097562055838735489 0.024369298560278758 0.011955597549676896 -0.015484786437203489 -0.0096205120994931181 -0.0092117453614870715 -0.0090354686198027244
leaf_count=20 27 21 24 23 21 22 30 20 34 27 38 28 20 24 21 21 23
internal_value=0 0.134514 -0.0352566 -0.0490354 -0.00631433 0.0257763 -0.101102 -0.0738221 -0.00525023 -0.0365308 0.195757 0.159557 0.0154204 -0.0892574 -0.0279694 -0.146428 -0.123287
internal_count=444 136 308 284 156 49 128 105 54 135 87 66 68 67 48 51 47
shrinkage=0.1


Tree=13
num_leaves=17
num_cat=0
split_feature=11 0 1 7 9 0 7 9 4 1 5 6 4 10 10 10
split_gain=2.20251 0.733606 0.56049 0.511685 0.861636 0.4703 0.441595 0.432043 0.342204 0.477754 0.337999 0.311476 0.21489 0.130422 0.0887497 0.00712652
threshold=0.35101522890900005 0.31014055211550001 0.56177342478500003 0.28764509310000003 0.31598028579050003 0.39126871742000008 0.48334595161550004 0.36231641222950006 0.34541252398400007 0.30863289070400007 0.42638439785800009 0.11697519985550002 0.36679963939600008 0.41801075268850002 0.32305502846300005 0.097059663145900005
decision_type=2 2 2 2 2 2 2 2 2 2 2 2 2 2 2 2
left_child=2 6 3 4 5 11 -2 8 14 -10 12 15 -3 -14 -5 -1
right_child=1 10 -4 7 -6 -7 -8 -9 9 -11 -12 -13 13 -15 -16 -17
leaf_value=-0.01386990025639534 0.010889127022690244 0.013348438150503419 0.011501364875584841 -0.014293877695287976 0.012304130483132142 0.0086965613776729227 -0.0081969586963003323 -0.020078583327787267 -0.0089377270390590038 0.011989321596920491 0.0072207838944766834 -0.00063153275766888181 0.031392993107438087 0.020235301486470486 -0.0060708103790169674 -0.011548138849246197
leaf_count=20 27 22 24 35 39 21 22 28 24 20 23 37 20 22 21 39
internal_value=0 0.121063 -0.0317309 -0.0441319 -0.0056829 -0.048591 0.0231986 -0.0909916 -0.0602492 0.00574568 0.176182 -0.078244 0.213547 0.255485 -0.112102 -0.123352
internal_count=444 136 308 284 156 117 49 128 100 44 87 96 64 42 56 59
shrinkage=0.1


Tree=14
num_leaves=18
num_cat=0
split_feature=13 9 0 11 5 12 0 10 6 0 1 2 11 6 1 1 0
split_gain=1.97868 0.593016 0.583699 0.556011 0.46456 0.567317 0.444989 0.530504 0.767398 0.348251 0.768074 0.45629 0.413251 0.217739 0.089624 0.0682498 0.0888906
threshold=0.44255952380950009 0.44529980225400007 0.35301234333900006 0.35101522890900005 0.27930521771250005 0.77804878048800019 0.45861910625800001 0.35149985149950008 0.11697519985550002 0.27194404527150007 0.16600529100550002 0.25410353535350005 0.32424045129200002 0.35162038387500011 0.32732269322150004 0.31353410808950005 0.22227711901600003
decision_type=2 2 2 2 2 2 2 2 2 2 2 2 2 2 2 2 2
left_child=1 6 3 -2 -4 -6 7 8 15 10 -10 14 -12 -9 -11 16 -1
right_child=2 -3 4 -5 5 -7 -8 13 9 11 12 -13 -14 -15 -16 -17 -18
leaf_value=-0.011947924996677198 -0.008766516596078874 0.0097397319759641374 0.0076643551389376334 0.014530972072056362 0.034821202171345551 0.012589396468617701 0.0060729455006750012 -0.0080655673010782761 -0.0074709278345108029 -0.014531902472178141 0.0047480382025241854 0.0084392384625971324 0.024586702457496099 -0.021838606211046378 -0.005293061619713193 -0.015448511764407159 -0.0037115676887333397
leaf_count=38 20 35 27 21 24 22 38 22 25 21 21 20 21 24 21 24 20
internal_value=0 -0.0256729 0.127143 0.0316634 0.180769 0.241886 -0.0402745 -0.0552089 -0.0339953 0.0140866 0.0640681 -0.0399257 0.146674 -0.152515 -0.0991248 -0.109636 -0.091078
internal_count=444 330 114 41 73 46 295 257 211 129 67 62 42 46 42 82 58
shrinkage=0.1


Tree=15
num_leaves=18
num_cat=0
split_feature=12 5 4 11 5 5 9 11 11 5 9 8 0 10 1 1 4
split_gain=1.60355 0.684643 0.443577 0.838208 0.81264 0.521895 0.458943 0.793299 0.661342 0.333277 0.276023 0.223141 0.16921 0.232478 0.203822 0.171481 0.00577515
threshold=0.57310344827600013 0.049622298013650014 0.49999799596800004 0.34973463394350007 0.35134911083450004 0.33062145931400005 0.40114166655250011 0.33284442602150005 0.32672290058450004 0.48123913974100008 0.60844803037500017 0.33086480219150005 0.32539986171150009 0.32847663588750003 0.230442286947 0.32732269322150004 0.0092011118026500017
decision_type=2 2 2 2 2 2 2 2 2 2 2 2 2 2 2 2 2
left_child=1 -1 3 6 -4 -5 7 8 9 12 -2 -9 14 -14 16 -16 -3
right_child=10 2 4 5 -6 -7 -8 11 -10 -11 -12 -13 13 -15 15 -17 -18
leaf_value=0.014679991342127325 0.0073573256118430038 -0.0086427086889743817 -0.028671590052545073 0.020681878179311754 -0.0022793844076139584 -0.00086193875126216719 0.0077900696396827705 -0.025076568871736527 0.010512992766286646 0.0050712964780952625 0.020121735474094751 -0.010774629190564156 -0.018633831797965936 -0.0048970392481847251 0.0064442758820950994 -0.0062166001485741661 -0.01079215517640114
leaf_count=20 36 25 20 22 28 23 25 24 28 23 32 20 28 22 20 23 25
internal_value=0 -0.0332315 -0.0433456 -0.0294107 -0.132761 0.0967059 -0.0509895 -0.0645284 -0.0370333 -0.0610127 0.133641 -0.185757 -0.0789825 -0.125896 -0.05376 -0.00327821 -0.0971743
internal_count=444 376 356 308 48 45 263 238 194 166 68 44 143 50 93 43 50
shrinkage=0.1


Tree=16
num_leaves=18
num_cat=0
split_feature=12 5 1 4 4 2 4 1 0 1 0 13 11 5 10 5 10
split_gain=1.29888 0.554561 0.390459 0.812302 1.25838 0.869761 0.454879 0.474219 0.368817 0.232846 0.31613 0.263997 0.328863 0.196867 0.15573 0.106933 0.0511697
threshold=0.57310344827600013 0.049622298013650014 0.33405797101450002 0.30035311777150003 0.46976141964200008 0.17083333333350001 0.13267313229150005 0.24133351543350004 0.3623327730005001 0.18208874458850002 0.16443885301750003 0.37797619047600006 0.32947626686600007 0.4347055744640001 0.55211406096400018 0.25389896366900006 0.30810147299500007
decision_type=2 2 2 2 2 2 2 2 2 2 2 2 2 2 2 2 2
left_child=1 -1 6 8 5 -5 7 15 -4 10 -8 12 16 14 -2 -3 -11
right_child=13 2 3 4 -6 -7 9 -9 -10 11 -12 -13 -14 -15 -16 -17 -18
leaf_value=0.013211991973221301 0.021439295164916827 0.00017565444466613589 -0.014269272630151951 0.03236889138140462 -0.0079568469235973983 0.003916864345471064 -0.012328770182405909 0.011588992842513583 0.0010165435020570402 -0.013905408809130843 0.0040775892932129942 -0.002819538712501526 -0.024514567493288605 0.0036920814961194995 0.010037516742944718 -0.0088505924173763826 -0.0070850063962015243
leaf_count=20 23 21 38 22 31 21 24 23 27 22 23 20 27 20 25 35 22
internal_value=0 -0.0299083 -0.039011 0.00236848 0.0740145 0.184737 -0.0655168 -0.00500445 -0.0791978 -0.100158 -0.0430013 -0.129678 -0.158265 0.120277 0.155009 -0.0546575 -0.104952
internal_count=444 376 356 139 74 43 217 79 65 138 47 91 71 68 48 56 44
shrinkage=0.1


Tree=17
num_leaves=17
num_cat=0
split_feature=12 5 8 11 0 11 4 4 11 11 12 6 11 5 12 11
split_gain=1.05831 0.42546 0.3299 0.67025 0.916511 0.4078 1.10232 0.902345 0.341659 0.34659 0.310077 0.376399 0.280849 0.09027 0.0601019 0.031768
threshold=0.90454545454550017 0.049622298013650014 0.08988385390795002 0.28710498051400007 0.30744783948100002 0.39776311382450008 0.46512425503800009 0.36484628021950011 0.33033700700400009 0.33448284546000001 0.012013327397250003 0.21200931392150005 0.33192060071950008 0.33865632547800006 0.29775360451550004 0.25155805555300009
decision_type=2 2 2 2 2 2 2 2 2 2 2 2 2 2 2 2
left_child=1 -1 3 -3 -5 6 7 8 10 -10 11 15 -8 -2 -12 -4
right_child=13 2 5 4 -6 -7 12 -9 9 -11 14 -13 -14 -15 -16 -17
leaf_value=0.011890793666243554 0.017738048359751703 -0.0081257145334449089 -0.008196402916854079 -0.0010718922341062178 0.026385423131287101 0.005416902346270425 -0.013100838525728745 0.010795728676021099 0.01080573856830597 -0.0056963998611484256 -0.01251675372477621 0.0036059136406101028 -0.029474091902375224 0.0090648154572894168 -0.019939246792346238 -0.013457265899827084
leaf_count=20 24 36 22 31 20 35 22 38 20 35 24 29 20 24 20 24
internal_value=0 -0.0232139 -0.0307736 0.0232131 0.0969568 -0.0470256 -0.0609698 -0.0316478 -0.0621362 0.00304378 -0.0922614 -0.0531632 -0.208976 0.134014 -0.158906 -0.109412
internal_count=444 396 376 87 51 289 254 212 174 55 119 75 42 48 44 46
shrinkage=0.1


Tree=18
num_leaves=19
num_cat=0
split_feature=13 7 9 11 11 11 4 10 1 10 10 13 9 7 1 9 5 9
split_gain=0.865285 0.494991 0.582907 0.299439 0.482961 0.482328 0.392424 1.22122 0.322078 0.25819 0.314336 0.290159 0.450789 0.374831 0.29982 0.220638 0.148575 0.0323083
threshold=0.61733416771000005 0.31595115161250004 0.60844803037500017 0.34973463394350007 0.36345389487700003 0.39776311382450008 0.011003916829650002 0.27482394366200008 0.35083464331149999 0.37188449848050004 0.43498389694050005 0.016122799484750004 0.20450367647050002 0.29206031083300005 0.33659148331150007 0.094044811320750002 0.40459257473500004 0.083768063800400014
decision_type=2 2 2 2 2 2 2 2 2 2 2 2 2 2 2 2 2 2
left_child=3 -2 -3 6 -5 -6 7 17 -7 11 -11 12 15 -13 -14 -8 -15 -1
right_child=1 2 -4 4 5 8 9 -9 -10 10 -12 13 14 16 -16 -17 -18 -19
leaf_value=-0.0096546030230820184 0.021755491230975501 -0.0064763152488955741 0.014116714628679411 0.01627120390534401 -0.013907932951336816 -0.0041659148037433624 0.00033415426838804375 0.023277279008179903 0.013780609667301179 -0.019131049706504265 -0.0030663203625451952 -0.00069523792275611102 -0.00053778934478759767 -0.019526386411430743 0.015888947378844023 -0.013156870904344101 -0.0080620320979505784 -0.0041012493216178638
leaf_count=20 22 27 28 20 21 20 22 20 20 29 21 34 25 26 20 27 20 22
internal_value=0 0.0907829 0.0400741 -0.0258155 0.0278582 -0.0163562 -0.0410168 0.0293913 0.0480735 -0.0605048 -0.123839 -0.0423054 -0.00463297 -0.0865706 0.0676298 -0.0709968 -0.145419 -0.067457
internal_count=444 77 55 367 81 61 286 62 40 224 50 174 94 80 45 49 46 42
shrinkage=0.1


Tree=19
num_leaves=19
num_cat=0
split_feature=12 5 7 6 0 8 11 7 7 5 5 7 7 10 0 7 10 11
split_gain=0.731589 0.343956 0.29368 0.654456 0.918941 0.432251 0.573612 0.406749 0.394057 0.353163 0.312256 0.295088 0.274102 0.27022 0.262992 0.226146 0.392814 0.135871
threshold=0.57310344827600013 0.049622298013650014 0.39179280983900006 0.32751080600050003 0.34100224341650004 0.070332415811150004 0.27454064801350003 0.45332894235000004 0.48334595161550004 0.34489594792800005 0.32785389953950006 0.20567841501100001 0.66001881967900011 0.25307881773400004 0.20511403103800002 0.31595115161250004 0.58283492822950012 0.29094573413200003
decision_type=2 2 2 2 2 2 2 2 2 2 2 2 2 2 2 2 2 2
left_child=1 -1 3 5 14 6 -3 -4 -9 10 11 17 -10 -11 -5 -2 -17 -7
right_child=15 2 7 4 -6 9 -8 8 12 13 -12 -13 -14 -15 -16 16 -18 -19
leaf_value=0.010530730262398721 0.017975608073174953 -0.0061943551758304244 -0.01773292122940932 0.0069973809830844412 0.023036164293686549 -0.0061925077145653113 0.016436449766513848 0.0080150248926310324 -0.015253275837663009 -0.0073927322588860991 -0.018838021358282404 0.0012351762118010686 -0.0010041104560648954 0.0088487696656513789 -0.0086819111491027081 -0.0026590210420114023 0.015576694249397234 -0.017567945750696319
leaf_count=20 20 24 28 20 24 21 21 21 27 20 29 29 27 21 23 27 21 21
internal_value=0 -0.0222976 -0.0294665 -0.0111403 0.0736017 -0.0416657 0.0436669 -0.0744811 -0.0360845 -0.0688995 -0.100945 -0.0652323 -0.0812869 0.00926086 -0.0138922 0.0904161 0.053191 -0.118802
internal_count=444 376 356 253 67 186 45 103 75 141 100 71 54 41 43 68 48 42
shrinkage=0.1



feature importances:
Column_11=51
Column_0=38
Column_9=30
Column_4=27
Column_5=25
Column_1=24
Column_6=24
Column_7=23
Column_10=23
Column_13=19
Column_8=17
Column_12=17
Column_2=12
Column_3=2

pandas_categorical:null
