tree
version=v2
num_class=1
num_tree_per_iteration=1
label_index=0
max_feature_idx=8
objective=regression
feature_names=Column_0 Column_1 Column_2 Column_3 Column_4 Column_5 Column_6 Column_7 Column_8
feature_infos=[0:1] [0:1] [0:1] [0:1] [0:0.99019607843099999] [0:1] [0:1] [0:1] 1:0:5:3:2:-1
tree_sizes=925 1103 1260 1180 1105 1188 1263 1264 1259 1340 1188 1265 1268 1183 1195 1280 1347 1199 1349 1217

Tree=0
num_leaves=11
num_cat=0
split_feature=6 5 0 4 7 6 7 7 4 2
split_gain=19.1744 3.59102 2.24136 1.47059 1.34559 0.963319 0.948713 0.915751 0.465014 0.248328
threshold=0.35099637681200002 0.83432455395100014 0.30545858457650005 0.40747377516000011 0.44225692237050007 0.019408602150550004 0.37148596526250005 0.23188225423850004 0.29045868347350007 0.24786063840550002
decision_type=2 2 2 2 2 2 2 2 2 2
left_child=2 3 4 -2 8 6 7 -4 9 -1
right_child=1 -3 5 -5 -6 -7 -8 -9 -10 -11
leaf_value=0.29999999900658925 0.34117647082197899 0.39459459642032246 0.34230769257514904 0.37058823640440025 0.3294117645890105 0.31428571371805097 0.35200000055630998 0.31666666616996125 0.31666666616996125 0.31153846088892373
leaf_count=66 34 37 26 34 34 28 25 30 36 26
internal_value=0 0.361905 -0.141451 0.22549 -0.216049 -0.030581 0.0246914 -0.047619 -0.263021 -0.300725
internal_count=376 105 271 68 162 109 81 56 128 92
shrinkage=1


Tree=1
num_leaves=13
num_cat=0
split_feature=5 6 4 0 7 7 7 7 1 7 3 4
split_gain=15.7882 3.01736 2.87035 1.52523 1.25649 0.898426 1.4913 0.857892 0.220032 0.120671 0.0304708 0.00159633
threshold=0.46229421639550006 0.8354838709675001 0.44889601139600005 0.30545858457650005 0.39753961625750006 0.23188225423850004 0.37712848297200008 0.44225692237050007 0.30488261123400001 0.28091013624300004 0.22454079220000001 0.21256948180000004
decision_type=2 2 2 2 2 2 2 2 2 2 2 2
left_child=2 4 3 7 -2 -5 -7 8 9 11 -11 -1
right_child=1 -3 -4 5 -6 6 -8 -9 -10 10 -12 -13
leaf_value=-0.030118344227472945 0.010392793542460393 0.057977829376856485 0.013959775583164111 0.009225921439273017 0.040871998667716986 -0.024371902759258563 0.0073102240761121111 -0.0071726757672525218 -0.016211538314819335 -0.020693816840648652 -0.026147741363162086 -0.031183669377457014
leaf_count=39 38 36 37 28 21 39 24 31 20 20 21 22
internal_value=0 0.351625 -0.119944 -0.159301 0.212413 -0.0567838 -0.123025 -0.220276 -0.258022 -0.276827 -0.234873 -0.305026
internal_count=376 95 281 244 59 91 63 153 122 102 41 61
shrinkage=0.1


Tree=2
num_leaves=15
num_cat=0
split_feature=6 5 2 7 6 7 4 3 2 4 0 4 4 7
split_gain=12.9768 2.35876 1.42975 1.56159 1.1824 0.872302 1.02639 0.598863 0.536611 0.51277 0.921721 0.157747 0.0418039 0.00875505
threshold=0.35099637681200002 0.46229421639550006 0.17620626105400003 0.34447723993200002 0.8354838709675001 0.28602654176400005 0.21820050857550002 0.27856570512850004 0.48934936440900006 0.26058662642650005 0.088504660194000009 0.049369428136600002 0.39350451566250005 0.32431213550900007
decision_type=2 2 2 2 2 2 2 2 2 2 2 2 2 2
left_child=2 -2 9 5 12 6 -4 -8 -5 11 -11 -1 -3 -13
right_child=1 4 3 8 -6 -7 7 -9 -10 10 -12 13 -14 -15
leaf_value=-0.018051919043064118 0.0055101868407479646 0.023966399431228639 -0.02559204200903575 0.016682750172913076 0.052180049568414689 -0.026604807376861574 -0.010009465685912542 0.010672879751239504 -0.0041977803409099582 0.0038886950910091405 -0.026107553782917205 -0.027479722400506341 0.030431991368532182 -0.030180810540914538
leaf_count=20 29 20 21 32 36 31 28 28 20 20 21 30 20 20
internal_value=0 0.297738 -0.116356 -0.0558571 0.390322 -0.124408 -0.0673841 0.00331707 0.0865178 -0.203561 -0.114752 -0.255578 0.271992 -0.285602
internal_count=376 105 271 160 76 108 77 56 52 111 41 70 40 50
shrinkage=0.1


Tree=3
num_leaves=14
num_cat=0
split_feature=6 5 0 6 7 6 7 7 4 2 4 7 4
split_gain=10.5112 1.91059 1.24783 0.957742 0.779422 0.717954 0.57231 0.560141 0.24522 0.155792 0.0338612 0.000801252 0.000283314
threshold=0.35099637681200002 0.46229421639550006 0.30545858457650005 0.8354838709675001 0.44225692237050007 0.019408602150550004 0.37148596526250005 0.20919591613000002 0.29045868347350007 0.24786063840550002 0.39350451566250005 0.27114134271850004 0.11786767512050002
decision_type=2 2 2 2 2 2 2 2 2 2 2 2 2
left_child=2 -2 4 10 8 6 7 -4 9 11 -3 12 -1
right_child=1 3 5 -5 -6 -7 -8 -9 -10 -11 -12 -13 -14
leaf_value=-0.024919016659259798 0.0049591667693236786 0.021569758951663971 0.010373973697423936 0.046962041738960486 -0.002579678156796624 -0.01600331919533866 0.015152645945549013 -0.01049862379829089 -0.012615931696361965 -0.015794607653067665 0.027388792484998703 -0.025365963291663393 -0.02438674435019493
leaf_count=20 29 20 20 36 34 28 25 36 36 26 20 26 20
internal_value=0 0.267964 -0.10472 0.35129 -0.160381 -0.0219952 0.0257216 -0.0304412 -0.19613 -0.22351 0.244793 -0.249338 -0.246529
internal_count=376 105 271 76 162 109 81 56 128 92 40 66 40
shrinkage=0.1


Tree=4
num_leaves=13
num_cat=0
split_feature=5 6 7 7 1 2 1 3 0 0 3 1
split_gain=8.60479 1.54131 1.29383 0.932605 0.773558 0.717293 0.814423 1.12229 1.04677 0.216457 0.0962691 0.0523175
threshold=0.46229421639550006 0.8354838709675001 0.42255489021950005 0.39753961625750006 0.32368858202900003 0.21649421127500004 0.434886904016 0.20203252032500002 0.30545858457650005 0.00030938827136550007 0.058537776812850009 0.087152209492650026
decision_type=2 2 2 2 2 2 2 2 2 2 2 2
left_child=2 3 5 -2 -4 9 7 -7 -9 -1 -11 -12
right_child=1 -3 4 -5 -6 6 -8 8 -10 10 11 -13
leaf_value=-0.010042984512719242 0.0066634758522636011 0.042265839212470589 -0.0055205490138079674 0.032922189718201045 0.016987051528233748 -0.016501538595184686 -0.019831415845288171 -0.0072209719419479377 0.021437591543564432 -0.016035751377542814 -0.020700862790857043 -0.026994653582572938
leaf_count=22 38 36 37 21 26 32 36 25 26 24 28 25
internal_value=0 0.259595 -0.0885416 0.160098 0.037683 -0.125019 -0.0726998 -0.0182164 0.0738928 -0.187909 -0.212902 -0.236696
internal_count=376 95 281 59 63 218 119 83 51 99 77 53
shrinkage=0.1


Tree=5
num_leaves=14
num_cat=0
split_feature=6 6 7 3 0 5 7 2 2 0 0 1 0
split_gain=7.842 1.73914 0.743129 0.687195 0.674058 0.574789 0.518686 0.565167 0.488935 0.259551 0.100885 0.0925777 0.0695591
threshold=0.8354838709675001 0.40491141977900008 0.34165151305250008 0.28643738977100003 0.22806215175650005 0.041344916344950002 0.28602654176400005 0.35049406330350008 0.18861596752750001 0.00030938827136550007 0.61199858380950012 0.066856037509750013 0.012420214151800002
decision_type=2 2 2 2 2 2 2 2 2 2 2 2 2
left_child=1 2 4 -3 9 8 7 -6 -4 -1 -2 12 -11
right_child=10 3 5 -5 6 -7 -8 -9 -10 11 -12 -13 -14
leaf_value=-0.0079713194817304621 0.033399721622467043 -0.0034791862680798487 -0.0042122591506032385 0.019528457960661719 0.009172298918877329 -0.01351526059486248 -0.019624040311291106 -0.0096583394182694939 0.0134626645466377 -0.021592616885900501 0.04257669798705889 -0.024362641089671368 -0.013252405300736429
leaf_count=20 25 21 34 34 28 27 21 37 29 20 23 37 20
internal_value=0 -0.0547924 -0.087476 0.107437 -0.124065 -0.0130791 -0.0596092 -0.0154668 0.0392382 -0.181211 0.37797 -0.207574 -0.174225
internal_count=376 328 273 55 183 90 86 65 63 97 48 77 40
shrinkage=0.1


Tree=6
num_leaves=15
num_cat=0
split_feature=6 5 0 3 1 4 2 3 2 4 1 1 3 3
split_gain=6.35202 1.51626 0.691034 0.529057 0.562608 0.343158 0.832357 0.601222 0.520991 0.892677 0.422713 0.0841904 0.0343011 0.0330219
threshold=0.8354838709675001 0.49575493501550005 0.42025499672300004 0.47483248398100003 0.38902773463750007 0.29045868347350007 0.23966888203950004 0.28334113060400007 0.13870881514900002 0.18847049689450002 0.45208504960550006 0.5514962775290001 0.22028985507250001 0.03556547619050001
decision_type=2 2 2 2 2 2 2 2 2 2 2 2 2 2
left_child=1 3 -3 5 -5 8 7 -7 12 -10 -8 -2 13 -1
right_child=11 2 -4 4 -6 6 10 -9 9 -11 -12 -13 -14 -15
leaf_value=-0.020547233309064591 0.029829281941056253 -1.8570184707641604e-05 0.023999398039734884 0.011764740370787107 -0.01024200093178522 0.01508216679096222 -0.0055151034146547319 -0.0078696326840491521 0.003985685192876392 -0.018442347262586867 -0.02360099293291569 0.038205358882745108 -0.022602550426255103 -0.014869588017463685
leaf_count=21 24 25 23 26 21 25 28 21 36 35 24 24 23 20
internal_value=0 -0.0493132 0.1149 -0.0774641 0.0193194 -0.0969869 -0.0519444 0.0460417 -0.129684 -0.0707039 -0.138624 0.340173 -0.195116 -0.177777
internal_count=376 328 48 280 47 233 98 46 135 71 52 48 64 41
shrinkage=0.1


Tree=7
num_leaves=15
num_cat=0
split_feature=6 6 7 3 7 0 1 1 5 3 3 7 4 7
split_gain=5.2334 1.04441 0.522083 0.675646 0.512632 0.436377 0.70865 0.710174 0.501657 0.53928 0.327027 0.129864 0.126923 0.0732914
threshold=0.49176860605650002 0.8354838709675001 0.17123678563550002 0.072326215254300011 0.36263872376750006 0.31581812888850008 0.15210670304300003 0.034005528332700007 0.23863636363650001 0.32629372771850002 0.31671480734000007 0.054924835577800007 0.2853520718630001 0.50853166552700013
decision_type=2 2 2 2 2 2 2 2 2 2 2 2 2 2
left_child=2 4 10 -4 -2 6 7 -5 9 -7 11 -1 -8 -3
right_child=1 13 3 5 -6 8 12 -9 -10 -11 -12 -13 -14 -15
leaf_value=-0.012431536540389062 -0.00057949883242448168 0.026184827089309692 0.0074990154076845219 -0.012417570437703813 0.02008915183444818 -0.019419790133833888 -0.015483451499180359 0.011204327568411828 0.011420280554077844 0.0017792673905690512 -0.0035432175546884536 -0.022834437489509585 -0.026225155524232172 0.03406173355049557
leaf_count=20 24 21 39 35 24 20 22 20 22 30 20 30 22 27
internal_value=0 0.201852 -0.0687127 -0.0437823 0.0975483 -0.0708707 -0.113951 -0.0382779 -0.0116349 -0.0670036 -0.143504 -0.186733 -0.208543 0.306156
internal_count=376 96 280 210 48 171 99 55 72 50 70 50 44 48
shrinkage=0.1


Tree=8
num_leaves=15
num_cat=0
split_feature=6 6 3 7 3 2 2 0 5 3 4 4 7 0
split_gain=4.23905 0.845973 0.493991 0.422887 0.547273 0.3819 1.08495 0.571311 0.418173 0.264892 0.246417 0.143749 0.10519 0.0703802
threshold=0.49176860605650002 0.8354838709675001 0.318493371011 0.17123678563550002 0.072326215254300011 0.18861596752750001 0.26184955879950006 0.31581812888850008 0.21013563049850001 0.31671480734000007 0.31983120839350004 0.14366883116900006 0.054924835577800007 0.61199858380950012
decision_type=2 2 2 2 2 2 2 2 2 2 2 2 2 2
left_child=3 2 -2 9 -5 10 -7 -8 -9 12 11 -6 -1 -3
right_child=1 13 -4 4 5 6 7 8 -10 -11 -12 -13 -14 -15
leaf_value=-0.011188382729887963 -0.0022490999915383081 0.023881217241287233 0.018111104804735916 0.0067491143941879276 -0.010194197297096252 0.017112513834779915 -0.018610294163227081 -0.0085486637894064185 0.009884056225419045 -0.0031888958811759948 -0.0033945107743853613 -0.021568474173545838 -0.020550993631283446 0.031546214741209277
leaf_count=20 22 25 26 39 20 22 31 32 20 20 21 25 30 23
internal_value=0 0.181667 0.0877934 -0.0618414 -0.039404 -0.0637837 -0.0263162 -0.07865 -0.0145916 -0.129154 -0.123391 -0.165132 -0.168059 0.27554
internal_count=376 96 48 280 210 171 105 83 52 70 66 45 50 48
shrinkage=0.1


Tree=9
num_leaves=16
num_cat=0
split_feature=6 6 3 2 2 1 0 4 3 0 4 4 2 1 4
split_gain=3.43363 0.685238 0.400133 0.303684 1.31357 0.623121 0.986946 0.554912 0.375229 0.322541 0.20935 0.149802 0.116108 0.0581457 0.0161236
threshold=0.49176860605650002 0.8354838709675001 0.318493371011 0.17620626105400003 0.26184955879950006 0.45208504960550006 0.31581812888850008 0.31983120839350004 0.33790637124300005 0.52097964536850006 0.061015873015900009 0.25701368523950002 0.026062021584050004 0.5514962775290001 0.21256948180000004
decision_type=2 2 2 2 2 2 2 2 2 2 2 2 2 2 2
left_child=3 2 -2 7 -5 6 11 10 -8 -7 -1 -6 -12 -3 -14
right_child=1 13 -4 4 5 9 8 -9 -10 -11 12 -13 14 -15 -16
leaf_value=-0.0045729903947739374 -0.0020241899923844771 0.021318153788646065 0.016299994175250715 0.014735037351355834 -0.0071252951771020902 -0.025503494996916166 -0.00071613125503063209 0.0021978688336187794 0.01865469701588154 -0.0085670106436895304 -0.011158422252227521 -0.019364638179540636 -0.017461213991045953 0.028279098495841027 -0.021476638242602347
leaf_count=21 22 24 26 34 20 22 20 31 20 23 29 20 20 24 20
internal_value=0 0.1635 0.0790141 -0.0556573 -0.0269279 -0.0743316 -0.0213784 -0.0934091 0.0896928 -0.168471 -0.133154 -0.13245 -0.159761 0.247986 -0.194689
internal_count=376 96 48 280 159 125 80 121 40 45 90 40 69 48 40
shrinkage=0.1


Tree=10
num_leaves=14
num_cat=0
split_feature=6 4 4 3 3 3 2 4 4 0 3 7 3
split_gain=3.00962 0.727588 0.714706 0.674813 0.443387 1.2612 0.58081 0.307652 0.270698 0.396978 0.0774412 0.0620163 0.0279844
threshold=0.8354838709675001 0.37300747198 0.49455882352950004 0.32629372771850002 0.3965368608660001 0.32629372771850002 0.30599782268450004 0.31983120839350004 0.13775746355000004 0.16630970069000003 0.08522492127755002 0.50853166552700013 0.16967411370800004
decision_type=2 2 2 2 2 2 2 2 2 2 2 2 2
left_child=1 4 3 -3 5 7 -6 8 -1 10 -10 -2 -11
right_child=11 2 -4 -5 6 -7 -8 -9 9 12 -12 -13 -14
leaf_value=-0.0047282824390812925 0.01795102506875992 0.022448337016006313 -0.0089693047827289953 -0.00080495562690954944 -0.0038600681349635125 0.011810962877729361 -0.024305292828516525 -0.00087074944467255559 -0.003800087682902813 -0.019484793841838838 -0.012148565828800202 0.025139922276139259 -0.024774825312197209
leaf_count=38 24 24 31 26 24 34 33 33 20 20 25 24 20
internal_value=0 -0.0526426 0.0296028 0.103566 -0.0796138 -0.0564076 -0.156968 -0.0944434 -0.117446 -0.148813 -0.0843813 0.215455 -0.221298
internal_count=376 328 81 50 247 190 57 156 123 85 45 48 40
shrinkage=0.1


Tree=11
num_leaves=15
num_cat=0
split_feature=6 7 3 3 2 6 4 7 3 0 6 0 7 2
split_gain=2.4378 0.67208 0.597163 0.943274 1.75308 1.4187 0.508357 0.299363 0.264619 0.458565 0.193245 0.11167 0.0672851 0.0575271
threshold=0.8354838709675001 0.43027206478600005 0.41491275557900004 0.28643738977100003 0.21649421127500004 0.18206521739150003 0.31983120839350004 0.2729650835600001 0.16445164565450002 0.27638932352550005 0.012270400481750002 0.088504660194000009 0.14372474094350005 0.72115445635050013
decision_type=2 2 2 2 2 2 2 2 2 2 2 2 2 2
left_child=1 2 3 8 -5 -6 -3 -4 9 11 -10 12 -1 -2
right_child=13 6 7 4 5 -7 -8 -9 10 -11 -12 -13 -14 -15
leaf_value=-0.011967492422887258 0.022316772118210794 -0.0051904198142790035 -0.0089242985546588906 -0.018896076753735544 0.036418815851211553 2.0515011704486348e-06 0.012279456191592748 -0.024250256155545897 -0.010011159718939754 0.0038462880067527297 -0.022468344159424308 -0.017043678127229216 -0.0039624302869751341 0.015294741690158846
leaf_count=21 28 31 25 20 20 23 36 26 33 32 20 20 21 20
internal_value=0 -0.0473784 -0.070313 -0.0467407 0.0556352 0.169401 0.0419638 -0.167375 -0.090616 -0.0587575 -0.14712 -0.108936 -0.0796496 0.193909
internal_count=376 328 261 210 63 43 67 51 147 94 53 62 42 48
shrinkage=0.1


Tree=12
num_leaves=15
num_cat=0
split_feature=6 2 1 4 2 4 5 1 6 3 0 4 2 2
split_gain=1.97461 0.566493 0.80323 1.34726 0.626461 0.881506 0.840344 0.713451 0.755072 1.13857 0.61635 0.0976091 0.0472421 0.0465969
threshold=0.8354838709675001 0.14405927700800003 0.066856037509750013 0.29912280701750005 0.28716845298750004 0.39350451566250005 0.46021235521250009 0.434886904016 0.14835164835150003 0.29495660454200007 0.26366970911900006 0.27867383512550009 0.00074887668497250015 0.72115445635050013
decision_type=2 2 2 2 2 2 2 2 2 2 2 2 2 2
left_child=1 2 3 12 10 7 -7 8 9 -6 -3 -4 -1 -2
right_child=13 4 11 -5 5 6 -8 -9 -10 -11 -12 -13 -14 -15
leaf_value=-0.015908297257763999 0.020085095135228978 -0.0012153661344200374 -0.015511275983105102 0.018085794008913494 -0.0095054855942726148 -0.0044943567779329096 0.022550242543220522 -0.021649247746575964 -0.017944090469525411 0.020853989748727708 0.019984207550684613 -0.024627699994522592 -0.0095312867027062646 0.01376526787877083
leaf_count=21 28 32 24 21 30 27 20 33 26 21 24 23 26 20
internal_value=0 -0.0426405 -0.0991995 -0.0297185 -0.012104 -0.0444933 0.0701398 -0.0934729 -0.0407503 0.0299547 0.0787017 -0.199725 -0.123806 0.174518
internal_count=376 328 115 68 213 157 47 110 77 51 56 47 47 48
shrinkage=0.1


Tree=13
num_leaves=14
num_cat=0
split_feature=7 4 4 1 2 2 1 6 1 7 0 0 7
split_gain=1.86054 1.03678 0.632138 0.519608 0.737904 1.02226 0.842663 0.977772 0.5094 0.730452 0.254578 0.210198 0.189566
threshold=0.65327266693550012 0.37300747198 0.35152540262350007 0.12114547519700002 0.14405927700800003 0.28179147707550006 0.3985233711315001 0.025353016688050005 0.25223082230450006 0.28824090139550002 0.49203136477350001 0.094741636309050012 0.24757915387550003
decision_type=2 2 2 2 2 2 2 2 2 2 2 2 2
left_child=1 2 3 11 -5 -6 7 -7 -3 -10 -11 12 -1
right_child=-2 8 -4 4 5 6 -8 -9 9 10 -12 -13 -14
leaf_value=-0.012783556698988646 0.024466478308806053 -0.0073093098516647638 -0.0234758082599867 -0.016857739180326462 0.018265235732341633 0.018302538156509399 -0.016538496363547543 -0.010267151017551837 -0.0027463763049154575 0.0088362964599028888 0.023279321996065288 -0.019497521804726643 -0.0017601084823791798
leaf_count=39 26 26 21 25 29 25 31 23 33 23 26 23 26
internal_value=0 -0.0325988 -0.068958 -0.0532032 -0.0137614 0.0220757 -0.0368702 0.046129 0.0488727 0.0875447 0.164999 -0.112814 -0.0837418
internal_count=376 350 242 221 133 108 79 48 108 82 49 88 65
shrinkage=0.1


Tree=14
num_leaves=14
num_cat=0
split_feature=7 6 2 2 3 3 6 3 7 3 7 0 4
split_gain=1.50704 0.869393 0.510073 0.502538 0.455127 1.50867 0.602258 0.344526 0.403326 0.372522 0.342026 0.304324 0.158056
threshold=0.65327266693550012 0.8354838709675001 0.14405927700800003 0.004603740542170001 0.28643738977100003 0.41491275557900004 0.14835164835150003 0.22028985507250001 0.28824090139550002 0.08522492127755002 0.33349107712000003 0.47301157067400001 0.13775746355000004
decision_type=2 2 2 2 2 2 2 2 2 2 2 2 2
left_child=1 2 3 12 7 6 -6 8 9 -4 -5 -7 -1
right_child=-2 -3 4 10 5 11 -8 -9 -10 -11 -12 -13 -14
leaf_value=-0.0073783944614908906 0.022019830632668276 0.012260315917870579 0.001316291131079197 -0.008851196430623532 0.024476865519370353 -0.015863582179430995 0.0039155658976785064 -0.017274295765420663 0.0059685485630199828 -0.016690162403715982 -0.023180816971486617 -4.1738450527191169e-05 0.0049045963585376742
leaf_count=22 26 34 20 36 28 31 29 23 29 27 31 20 20
internal_value=0 -0.0293389 -0.0456871 -0.101053 -0.0165329 0.0283609 0.140159 -0.065508 -0.0330553 -0.0902784 -0.154813 -0.0965894 -0.0152935
internal_count=376 350 316 109 207 108 57 99 76 47 67 51 42
shrinkage=0.1


Tree=15
num_leaves=15
num_cat=0
split_feature=6 2 2 2 2 6 4 5 2 2 2 2 2 0
split_gain=1.49104 0.835394 0.826114 0.482628 1.0541 0.429319 0.610679 0.572338 0.382719 0.215406 0.505052 0.193877 0.0333202 0.0483048
threshold=0.26795271187800002 0.77657424766900018 0.54033099233100013 0.28716845298750004 0.42088769943350002 0.099769512280900016 0.25701368523950002 1.0000000180025095e-35 0.26184955879950006 0.13870881514900002 0.28179147707550006 0.77657424766900018 0.00021053473237800003 0.012420214151800002
decision_type=2 2 2 2 2 2 2 2 2 2 2 2 2 2
left_child=1 2 5 -2 -5 6 9 8 -8 12 -11 -6 -1 -14
right_child=3 -3 -4 4 11 -7 7 -9 -10 10 -12 -13 13 -15
leaf_value=-0.013488828018307687 0.021136087179183961 0.016743783652782441 -0.023985516354441645 -0.0084454347193241124 0.018838307535962055 -0.015648368713648424 0.015972576156640664 -0.0092819669594367341 0.00030947482356658354 0.010303329002289545 -0.010932006717969974 0.00686572946253277 -0.0049929679371416569 -0.011859896175918126
leaf_count=20 32 20 20 30 38 23 39 21 26 21 24 21 20 21
internal_value=0 -0.0287601 -0.0454578 0.106035 0.0681655 -0.0273744 -0.0119082 0.0507041 0.0970734 -0.0627068 -0.0102218 0.145769 -0.101425 -0.0851018
internal_count=376 255 235 121 89 215 192 86 65 106 45 59 61 41
shrinkage=0.1


Tree=16
num_leaves=16
num_cat=0
split_feature=6 2 2 7 1 4 4 0 7 2 7 7 7 4 2
split_gain=1.20774 0.676669 0.669152 0.431718 0.600259 0.451389 0.486553 0.37994 1.46447 0.387615 0.447075 0.278264 0.194459 0.130401 0.010836
threshold=0.26795271187800002 0.77657424766900018 0.54033099233100013 0.2617559140095001 0.53440380759500006 0.37581168831150008 0.47580015612800003 0.30545858457650005 0.23188225423850004 0.26184955879950006 0.34165151305250008 0.46891775808650005 0.34694623745199998 0.21820050857550002 0.016607692826250003
decision_type=2 2 2 2 2 2 2 2 2 2 2 2 2 2 2
left_child=1 2 7 -2 5 -5 -7 9 -9 10 13 -12 -10 14 -1
right_child=3 -3 -4 4 -6 6 -8 8 12 -11 11 -13 -14 -15 -16
leaf_value=-0.0090401208092426438 -0.0031278990209102631 0.015069405324757099 -0.021586965061724188 -0.0011145915836095811 0.025755666911602023 0.024912614375352859 0.0033618256449699404 0.024220067457012509 -0.013312600553035736 -0.01563675198061713 0.014100811369717121 -0.0021968953311443328 0.00016986001282930376 -0.0017692413846296922 -0.01202283116678397
leaf_count=29 22 20 20 32 25 22 20 23 23 29 20 22 20 28 21
internal_value=0 -0.0258841 -0.0409121 0.0954318 0.12359 0.0783307 0.146503 -0.0246369 0.0385256 -0.052615 -0.0275414 0.0556392 -0.0704169 -0.072331 -0.102929
internal_count=376 255 235 121 99 74 42 215 66 149 120 42 43 78 50
shrinkage=0.1


Tree=17
num_leaves=14
num_cat=0
split_feature=6 2 2 2 4 6 4 7 3 4 7 3 1
split_gain=0.978269 0.548102 0.542013 0.424109 0.820986 0.342996 0.453252 0.360864 0.681481 0.341102 0.223201 0.177777 0.263812
threshold=0.26795271187800002 0.77657424766900018 0.54033099233100013 0.28716845298750004 0.37375382901699999 0.099769512280900016 0.25701368523950002 0.25528773439850011 0.35044836116250005 0.48189029689700008 0.34948937908500005 0.20203252032500002 0.034005528332700007
decision_type=2 2 2 2 2 2 2 2 2 2 2 2 2
left_child=1 2 5 -2 -5 6 10 -8 -9 -6 11 12 -1
right_child=3 -3 -4 4 9 -7 7 8 -10 -11 -12 -13 -14
leaf_value=-0.010427765948352992 0.018462247680872679 0.013562464639544487 -0.019428268540650606 -0.0095152701492662792 0.019289313744882061 -0.013757481976695683 0.013187496364116669 0.0084441810517626656 -0.014467622339725495 0.0044237198928991951 0.0026379242539405824 -0.01364300863351673 0.0047252479661256085
leaf_count=27 32 20 20 27 29 23 31 34 21 33 27 32 20
internal_value=0 -0.0232957 -0.0368209 0.0858886 0.0503888 -0.0221732 -0.00834909 0.0455924 -0.00303962 0.11377 -0.0521129 -0.0789394 -0.0397967
internal_count=376 255 235 121 89 215 192 86 55 62 106 79 47
shrinkage=0.1


Tree=18
num_leaves=16
num_cat=0
split_feature=4 3 7 0 2 0 0 7 4 3 2 6 2 4 0
split_gain=0.806081 0.47078 0.779185 0.400134 0.809958 0.8261 0.785718 0.36538 0.450547 0.338651 0.333335 0.261855 0.236729 0.119256 0.0273118
threshold=0.38826871657750006 0.46428202531400004 0.28824090139550002 0.47806801513900005 0.30599782268450004 0.28562514364550001 0.64809854915700005 0.22431504678950004 0.29045868347350007 0.35044836116250005 0.12425556018850002 0.94112060778750017 0.42524501943500009 0.47580015612800003 0.012420214151800002
decision_type=2 2 2 2 2 2 2 2 2 2 2 2 2 2 2
left_child=3 2 -2 4 5 7 -5 14 10 12 -9 -3 -6 -4 -1
right_child=1 11 13 6 9 -7 -8 8 -10 -11 -12 -13 -14 -15 -16
leaf_value=-0.0074087668858144598 -0.012686034021052449 0.023006428529818854 0.016204318590462209 0.021336889825761318 -0.013162897334054666 0.018164858270598494 -0.0063580624049618135 -0.0087774484141452894 0.013740837641737677 -0.020674916064100608 0.0069966176081271399 0.0083828665316104892 0.00081142320943234324 0.0052838858217000963 -0.012396787248906636
leaf_count=23 22 24 20 20 27 23 21 37 22 28 21 25 22 20 21
internal_value=0 0.082198 0.0243018 -0.0193097 -0.0359342 0.00758635 0.0715167 -0.0246994 0.0155577 -0.119019 -0.0306615 0.155454 -0.0688871 0.107441 -0.0978941
internal_count=376 111 62 265 224 147 41 124 80 77 58 49 49 40 44
shrinkage=0.1


Tree=19
num_leaves=14
num_cat=1
split_feature=5 6 4 3 8 2 2 7 4 1 7 4 4
split_gain=0.694646 0.44653 0.578576 0.401659 0.381091 0.887729 0.707122 0.399469 0.367982 0.238899 0.202592 0.488251 0.127411
threshold=0.46229421639550006 0.40491141977900008 0.47580015612800003 0.47483248398100003 0 0.46107447071350005 0.14405927700800003 0.28091013624300004 0.35381934805200005 0.05464077268910001 0.19418281364150003 0.33071841453350004 0.26306042885000008
decision_type=2 2 2 2 9 2 2 2 2 2 2 2 2
left_child=3 -2 -3 4 6 10 9 -8 -5 -1 -6 12 -12
right_child=1 2 -4 8 5 -7 7 -9 -10 -11 11 -13 -14
leaf_value=-0.00033580407500267029 -0.0042235413211442179 0.020507947756693914 0.0022052063095954161 -0.00082676270655516928 -0.0096702851704321812 -0.023970671994611621 0.019905865084349543 0.0018137723207473757 0.016324186054143038 -0.013721397814030449 -0.00052771067813686711 0.011224614620208741 -0.010745340757645093
leaf_count=30 21 39 31 29 32 25 23 26 22 24 23 25 26
internal_value=0 0.0856568 0.124024 -0.0146967 -0.0322227 -0.065221 0.0146553 0.10306 0.0657169 -0.0628496 -0.0302217 -0.00147309 -0.0594931
internal_count=376 91 70 285 234 131 103 49 51 54 106 74 49
cat_boundaries=0 1
cat_threshold=34
shrinkage=0.1



feature importances:
Column_2=46
Column_7=46
Column_4=45
Column_3=35
Column_6=34
Column_0=29
Column_1=20
Column_5=12
Column_8=1

pandas_categorical:null
