tree
version=v2
num_class=1
num_tree_per_iteration=1
label_index=0
max_feature_idx=14
objective=regression
feature_names=Column_0 Column_1 Column_2 Column_3 Column_4 Column_5 Column_6 Column_7 Column_8 Column_9 Column_10 Column_11 Column_12 Column_13 Column_14
feature_infos=[0:1] [0:1] [0:0.98690564470200004] [-13.448183182799999:14.448183182799999] [0:1] [0.0036630036630000001:0.99659550117500006] [0:1] [0:1] [0:1] [0:1] [0:1] [0.026432072104999999:0.87826037461500006] [0:1] [0:1] 1:0:5:3:2:-1
tree_sizes=1678 1732 1969 2051 2055 1986 2211 2053 2133 2048 2049 2211 2061 2201 2220 2058 2148 2303 2147 2060 2148 1911 2228 2129 2076 2151 2157 2155 2235 2084 1997 2158 2076 2012 2085 2168 2004 2144 2246 2097 2326 2018 2007 2262 2261

Tree=0
num_leaves=21
num_cat=0
split_feature=13 2 11 9 6 5 2 4 12 2 1 0 0 5 9 9 7 10 0 0
split_gain=41.3058 11.6437 4.37306 3.3576 2.86883 2.43567 2.41693 2.05364 1.26523 1.25654 1.00087 0.473011 0.395538 1.03235 0.321429 0.238388 0.123377 0.194805 3.55271e-15 8.88178e-16
threshold=0.55714285714300005 0.39683541374750003 0.34243816882200001 0.41102669857950008 0.37228473909350007 0.30558964253200011 0.44178327176400006 0.51566047584350005 0.31591676414900005 0.309075189709 0.30039012720850006 0.18095238095250002 0.27918005755850001 0.31425895765450007 0.3906910657605 0.11020036429850001 0.19754677342600002 0.31475155279500006 0.48922870799050006 0.36796273405800006
decision_type=2 2 2 2 2 2 2 2 2 2 2 2 2 2 2 2 2 2 2 2
left_child=1 2 8 4 5 -3 -2 9 11 -4 -10 -1 13 -13 -8 -14 17 -17 -16 -18
right_child=6 3 7 -5 -6 -7 14 -9 10 -11 -12 12 15 -15 18 16 19 -19 -20 -21
leaf_value=0.30654490151679314 0.33731413136902938 0.31958837938893675 0.32192951644291123 0.34244233634440208 0.31368775844677654 0.34091990049233833 0.34940204309669359 0.31423720897985219 0.31109035592678258 0.33779490058547057 0.32654490092074667 0.30654490151679314 0.31404490129327572 0.31978019523999768 0.35654490002667705 0.30654490151679314 0.30654490151679314 0.3133630831317773 0.35654490002667705 0.30654490151679314
leaf_count=108 26 23 26 39 35 32 21 39 22 24 20 26 20 34 25 20 30 22 38 27
internal_value=0 -0.112441 -0.193492 0.150189 0.0439878 0.186412 0.559139 0.00316385 -0.246691 0.137321 -0.0845836 -0.270414 -0.23888 -0.172679 0.641607 -0.272259 -0.292376 -0.25125 0.677321 -0.322679
internal_count=657 547 418 129 90 55 110 89 329 50 42 287 179 60 84 119 99 42 63 57
shrinkage=1


Tree=1
num_leaves=21
num_cat=0
split_feature=13 2 11 9 6 5 2 6 8 12 1 0 0 5 9 4 10 4 6 7
split_gain=37.2785 10.5084 3.94668 3.03024 2.58912 2.19819 2.18128 1.89317 1.47128 1.14187 0.903281 0.426893 0.356973 0.931699 0.290089 0.289278 0.227251 0.115519 0.0398777 0.000246778
threshold=0.55714285714300005 0.39683541374750003 0.34243816882200001 0.41102669857950008 0.37228473909350007 0.30558964253200011 0.44178327176400006 0.46841572678050009 0.30502384018000006 0.31591676414900005 0.30039012720850006 0.18095238095250002 0.27918005755850001 0.31425895765450007 0.3906910657605 0.79697945289750016 0.11313999283900002 0.022503362519950002 0.35803233908650006 0.19754677342600002
decision_type=2 2 2 2 2 2 2 2 2 2 2 2 2 2 2 2 2 2 2 2
left_child=1 2 9 4 5 -3 -2 8 -4 11 -11 -1 13 -13 -8 -9 -14 -18 19 -19
right_child=6 3 7 -5 -6 -7 14 15 -10 10 -12 12 16 -15 -16 -17 17 18 -20 -21
leaf_value=-0.015327244997024536 0.013903524325444148 -0.0029359409990517994 -0.0016163075342774391 0.018775319212522262 -0.0085415312222072073 0.017329004406929017 0.025387039567743033 -0.011520426788113335 0.016080572747665903 -0.011009062962098555 0.0036727550625801093 -0.015327244997024536 -0.0080709947645664221 -0.0027537155239021078 0.032172754406929016 -0.0032118607312440874 -0.010519858449697495 -0.015531790256500245 -0.01284429043531418 -0.015327244997024536
leaf_count=108 26 23 24 39 35 32 21 22 23 22 20 26 20 34 63 20 20 29 20 30
internal_value=0 -0.106819 -0.183818 0.14268 0.0417884 0.177091 0.531182 0.00300566 0.140877 -0.234356 -0.0803544 -0.256893 -0.226936 -0.164045 0.609527 -0.151279 -0.258646 -0.278287 -0.295475 -0.308556
internal_count=657 547 418 129 90 55 110 89 47 329 42 287 179 60 84 42 119 99 79 59
shrinkage=0.05


Tree=2
num_leaves=24
num_cat=0
split_feature=13 2 11 9 6 5 2 2 6 12 1 1 2 8 9 10 7 4 11 0 5 9 11
split_gain=33.6438 9.48387 3.56188 2.73479 2.33668 1.98707 1.96861 1.78677 1.98542 1.03054 0.815211 0.385854 0.261906 0.255896 0.334849 0.285654 0.45693 0.0414651 0.00134093 0.00131204 0.00168374 0.000528109 0.00023151
threshold=0.55714285714300005 0.39683541374750003 0.34243816882200001 0.41102669857950008 0.37228473909350007 0.3161624533775001 0.44178327176400006 0.19711988973600003 0.47269204439900003 0.31591676414900005 0.30039012720850006 0.44079322045700003 0.62537619029800018 0.15367854413800003 0.076643356643350022 0.33242753623150006 0.31318203556350005 0.332783537543 0.32540087928250006 0.19561906697950002 0.32247481551650004 0.47678571428550004 0.2798269758200001
decision_type=2 2 2 2 2 2 2 2 2 2 2 2 2 2 2 2 2 2 2 2 2 2 2
left_child=1 2 9 4 5 -3 -2 -4 -9 11 -11 13 -8 19 -15 17 -17 18 22 -1 -21 -14 -16
right_child=6 3 7 -5 -6 -7 12 8 -10 10 -12 -13 21 14 15 16 -18 -19 -20 20 -22 -23 -24
leaf_value=-0.01456088274717331 0.013208348819842706 -0.0019990078210830689 -0.010313957503863744 0.017836552438063501 -0.0081144537244524275 0.017087555080652236 0.024405732686104981 0.013251669795224161 -0.0048502809235027866 -0.010458609732714567 0.0034891170263290404 -0.0069340216536675735 0.030877510756254195 -0.005813251842151989 -0.014826883524656297 -0.0045700792223215105 -0.014669249171302433 -0.012246633395552636 -0.015198027789592745 -0.014664000698498318 -0.015264668390154841 0.030564117431640628 -0.014594283311263376
leaf_count=58 26 25 28 39 35 30 23 33 28 22 20 31 20 22 20 24 21 20 20 28 20 41 23
internal_value=0 -0.101478 -0.174627 0.135546 0.039699 0.168237 0.504623 0.00285538 0.0988516 -0.222639 -0.0763367 -0.244049 0.57905 -0.256808 -0.23023 -0.249818 -0.185661 -0.284602 -0.297196 -0.294418 -0.298286 0.613337 -0.294049
internal_count=657 547 418 129 90 55 110 89 61 329 42 287 84 256 150 128 45 83 63 106 48 61 43
shrinkage=0.05


Tree=3
num_leaves=25
num_cat=0
split_feature=13 2 11 9 6 5 2 4 2 12 1 0 11 4 8 9 3 0 0 8 2 8 1 9
split_gain=30.3635 8.55919 3.2146 2.46815 2.10885 1.80376 1.77667 1.61665 1.0234 0.930059 0.735728 0.373227 0.344187 0.35487 0.350806 0.252292 0.0909996 0.0422646 0.00269364 0.000242763 0.000159794 3.10792e-05 7.40333e-06 2.12773e-07
threshold=0.55714285714300005 0.39683541374750003 0.34243816882200001 0.41102669857950008 0.37228473909350007 0.30558964253200011 0.44178327176400006 0.51566047584350005 0.309075189709 0.31591676414900005 0.30039012720850006 0.18095238095250002 0.32904297953200007 0.033262155236350004 0.21526687598150004 0.3906910657605 0.47117002406850006 0.35690476190500003 0.27078592042850003 0.25150713350900006 0.70700868828850016 0.12223241701100002 0.17891932767000004 0.62693298969050015
decision_type=2 2 2 2 2 2 2 2 2 2 2 2 2 2 2 2 2 2 2 2 2 2 2 2
left_child=1 2 9 4 5 -3 -2 8 -4 11 -11 19 13 14 -13 -8 17 18 -15 21 -17 22 -1 -22
right_child=6 3 7 -5 -6 -7 15 -9 -10 10 -12 12 -14 16 -16 20 -18 -19 -20 -21 23 -23 -24 -25
leaf_value=-0.013832838833332063 0.012547929928852961 -0.002689193448294764 -0.00078549562738491939 0.01694472604073011 -0.0077087308679308214 0.01566782216541469 0.022758720815181734 -0.0074945620619333714 0.013532580807805061 -0.0099356800317764293 0.0033146610856056215 -0.011949448571318673 -0.0056639742325333992 -0.014793687584725294 -0.0028102312769208637 0.029203700274229052 -0.010207851350307466 -0.011692321226000786 -0.014091438137822682 -0.014034481098254524 0.029028859436511997 -0.013915921942047452 -0.013870973140001297 0.029035910964012146
leaf_count=35 26 23 26 39 35 32 21 39 24 22 20 21 34 22 21 20 25 20 36 30 20 23 20 23
internal_value=0 -0.0964043 -0.165895 0.128769 0.0377141 0.159825 0.479392 0.00271261 0.121744 -0.211507 -0.0725199 -0.231846 -0.203835 -0.225069 -0.147597 0.550098 -0.256659 -0.273487 -0.287156 -0.278272 0.581739 -0.277342 -0.276934 0.580653
internal_count=657 547 418 129 90 55 110 89 50 329 42 287 179 145 42 84 103 78 58 108 63 78 55 43
shrinkage=0.05


Tree=4
num_leaves=25
num_cat=0
split_feature=13 2 11 9 6 13 5 2 6 12 1 1 2 8 2 1 8 5 0 5 9 6 9 4
split_gain=27.4031 7.72467 2.90118 2.2275 1.90324 1.66982 1.63019 1.52872 1.68577 0.839378 0.663995 0.34644 0.257713 0.255427 0.305449 0.616291 0.110397 0.0401207 0.00258572 0.00182535 0.000895719 0.00038044 3.76464e-06 1.46982e-07
threshold=0.55714285714300005 0.39683541374750003 0.34243816882200001 0.41102669857950008 0.37228473909350007 0.88811728395050016 0.3161624533775001 0.19711988973600003 0.47269204439900003 0.31591676414900005 0.30039012720850006 0.49962121212100002 0.56737392431150013 0.15367854413800003 0.14539558667800004 0.23295255114300004 0.23080677010400003 0.25972534142100007 0.19561906697950002 0.32247481551650004 0.47678571428550004 0.21690137306400004 0.6593005863175001 0.0011939923333100001
decision_type=2 2 2 2 2 2 2 2 2 2 2 2 2 2 2 2 2 2 2 2 2 2 2 2
left_child=1 2 9 4 6 -2 -3 -4 -9 11 -11 13 -7 18 15 -15 -16 -18 23 -20 -14 -19 -22 -1
right_child=5 3 7 -5 -6 12 -8 8 -10 10 -12 -13 20 14 16 -17 17 21 19 -21 22 -23 -24 -25
leaf_value=-0.013145411610603334 0.011109682793418568 -0.0018380257487297059 -0.0095433360231774195 0.016097488579077598 -0.0073232944522585199 0.021626225672662258 0.015449786335229873 0.012224975905635141 -0.0044551151139395574 -0.0094388961791992201 0.0031489285826683047 -0.0049835694107142371 0.028003820627927778 -0.012242693566914762 -0.0087454509735107426 -0.0023408638437589012 -0.011030171737074853 -0.013794910277311619 -0.013358895853161813 -0.013960049787293311 0.027582302973383949 -0.013526942718912055 0.027612241960707162 -0.013140116082994561
leaf_count=20 24 25 28 39 35 24 30 33 28 22 20 22 20 33 20 30 20 26 28 23 21 27 21 38
internal_value=0 -0.091584 -0.157601 0.12233 0.0358284 0.455422 0.151834 0.00257698 0.0913708 -0.200931 -0.0688939 -0.220254 0.52051 -0.230265 -0.204313 -0.150551 -0.240733 -0.258767 -0.267406 -0.2726 0.554568 -0.273168 0.551945 -0.262839
internal_count=657 547 418 129 90 110 55 89 61 329 42 287 86 265 156 63 93 73 109 51 62 53 42 58
shrinkage=0.05


Tree=5
num_leaves=24
num_cat=0
split_feature=13 2 11 11 12 0 8 0 0 0 9 11 9 8 8 3 7 6 2 1 1 0 7
split_gain=24.7313 6.97152 2.67936 2.07116 1.92897 1.56853 1.33684 0.959789 0.868877 0.779145 1.28686 0.537527 0.508456 0.150431 0.136912 0.328559 0.106413 0.0410313 0.00930541 0.00422578 0.001454 0.00118557 2.22663e-06
threshold=0.55714285714300005 0.39683541374750003 0.32795322001000005 0.35102398465050005 0.46673215939250007 0.31979072657200008 0.37846903277800009 0.46916229486150002 0.14917280758450002 0.30315208232950003 0.34317879694250003 0.35884609073300006 0.34405431966400007 0.39269810963900004 0.17077215548250002 0.47117002406850006 0.020064326456800004 0.38512300422150009 0.67730862016250004 0.36297760210800006 0.27805348773100008 0.19983660130700001 0.037498375404250009
decision_type=2 2 2 2 2 2 2 2 2 2 2 2 2 2 2 2 2 2 2 2 2 2 2
left_child=1 2 12 6 8 -2 -3 -5 -4 10 -10 -11 14 -7 19 16 -16 20 -15 21 -18 22 -1
right_child=5 3 4 7 -6 13 -8 -9 9 11 -12 -13 -14 18 15 -17 17 -19 -20 -21 -22 -23 -24
leaf_value=-0.012483232588537278 0.011654116624388202 -0.0062882544221104803 -0.012756211890114678 0.0079466249328106649 0.010647620571156343 0.022319751618237335 0.0069790723996284686 0.021703227502959117 0.008424878592292467 -0.010338721404204498 -0.0077131225239662898 -0.00046947341073643074 -0.0048602087253874007 0.027660286724567412 -0.0084006079658865938 -0.0049694078771964365 -0.012958447405925165 -0.010576558560132981 0.026285455655306579 -0.013436561184270042 -0.013477706057684764 -0.012869512460061483 -0.012504631094634533
leaf_count=31 29 37 27 32 24 29 39 21 30 37 21 22 33 20 20 23 26 20 32 21 28 35 20
internal_value=0 -0.0870048 -0.149721 0.116214 -0.0485671 0.432651 0.0103996 0.267947 -0.0943807 -0.0549255 0.0355964 -0.133173 -0.213089 0.504102 -0.230161 -0.206519 -0.232732 -0.250223 0.536285 -0.256014 -0.264554 -0.252908 -0.249832
internal_count=657 547 418 129 161 110 76 53 137 110 51 59 257 81 224 117 94 74 52 107 54 86 51
shrinkage=0.05


Tree=6
num_leaves=27
num_cat=0
split_feature=13 2 12 11 2 1 5 11 9 4 4 4 10 2 3 0 1 4 10 9 8 8 9 3 7 0
split_gain=22.352 6.73329 2.74239 2.08845 1.89413 1.78042 1.2639 1.19052 1.11303 0.808243 0.938338 0.803457 0.76702 0.72964 0.524849 0.378752 0.162841 0.604351 0.083636 0.0430315 0.0247181 0.00263722 0.00232509 0.000946921 0.000548221 0.000449306
threshold=0.72656960873550014 0.39683541374750003 0.30981158905050005 0.32701968472650006 0.21680331545850004 0.30872665271650007 0.30558964253200011 0.32904297953200007 0.45108380455250002 0.48944379768750007 0.33670446717200003 0.39445570019400006 0.39303051317600007 0.48449404624250003 0.29827275210200005 0.28019323542500002 0.24305927059750002 0.033262155236350004 0.33242753623150006 0.040629771779950009 0.34195972973350003 0.17077215548250002 0.48359146029950001 0.37610440607950008 0.19754677342600002 0.19561906697950002
decision_type=2 2 2 2 2 2 2 2 2 2 2 2 2 2 2 2 2 2 2 2 2 2 2 2 2 2
left_child=1 2 7 6 -4 -5 -3 16 11 10 14 -7 -6 -2 -9 -11 19 -18 24 -1 -15 25 -22 -23 -19 -21
right_child=13 3 4 5 12 8 -8 9 -10 15 -12 -13 -14 20 -16 -17 17 18 -20 21 22 23 -24 -25 -26 -27
leaf_value=-0.0097124684602022185 0.013945639282464981 -0.0113723523914814 -0.010163328264440809 0.023532521724700928 0.0019069357514381409 0.0090011278336698374 0.0050597756505012517 -0.011626112200319769 0.015570412640986237 -0.014000599086284638 0.0061964725178700912 -0.0042274539669354761 0.014707851274447008 0.023238380466188705 -0.00065898687268296883 -0.0046840879321098329 -0.0031492542227109276 -0.012691596247579741 -0.0091660380097372193 -0.011879658764776063 0.025687786489725112 -0.012317402186718854 0.025008375855053173 -0.01274689623997325 -0.012375527182046105 -0.012178323231637478
leaf_count=20 20 22 21 20 25 22 25 20 23 24 27 24 22 21 24 20 30 23 28 34 20 33 34 21 34 20
internal_value=0 -0.0758348 -0.137681 0.117888 0.0464165 0.207941 -0.0526372 -0.172649 0.131793 -0.0888225 -0.0228262 0.0419852 0.157977 0.448623 -0.112881 -0.195316 -0.21232 -0.185009 -0.228076 -0.236857 0.493879 -0.244747 0.5052 -0.249689 -0.250061 -0.239806
internal_count=657 562 426 136 68 89 47 358 69 115 71 46 47 95 44 44 243 115 85 128 75 108 54 54 57 54
shrinkage=0.05


Tree=7
num_leaves=25
num_cat=0
split_feature=13 11 2 2 5 0 12 5 3 6 12 1 0 0 5 10 0 3 10 2 1 8 0 6
split_gain=20.206 5.70167 2.28636 2.15239 1.33827 1.33741 1.20664 1.16044 0.756323 0.685997 0.560011 0.487226 0.293413 0.295483 0.772642 0.18512 0.142011 0.0906137 0.19096 0.012528 0.00206019 0.00178177 0.000385503 0.000291229
threshold=0.55714285714300005 0.34243816882200001 0.309075189709 0.39936006916750005 0.30156148604800009 0.31979072657200008 0.23681318681300004 0.30558964253200011 0.29377079090350006 0.46841572678050009 0.31591676414900005 0.30039012720850006 0.18095238095250002 0.27918005755850001 0.31425895765450007 0.10973337155950001 0.46657273525700005 0.31451198486450005 0.31475155279500006 0.76194014350400019 0.33342040089750008 0.15669901854800003 0.14395522762750002 0.062550299912150012
decision_type=2 2 2 2 2 2 2 2 2 2 2 2 2 2 2 2 2 2 2 2 2 2 2 2
left_child=1 3 9 10 -4 -2 8 -5 -6 -3 12 -12 21 14 -14 -15 -7 18 -17 -18 -19 23 -23 -1
right_child=5 2 4 7 6 16 -8 -9 -10 -11 11 -13 13 15 -16 17 19 20 -20 -21 -22 22 -24 -25
leaf_value=-0.011311316254891847 0.010339464349993345 0.0022702454924583434 0.018881298124790193 -0.0058725806077321377 0.0065398067235946655 0.020122678329547249 0.012690732534974814 0.0076192482429392194 -0.0072108541429042813 -0.00894430344303449 -0.0085992072454907694 0.002048309785979135 -0.011903693154454232 -0.005321430042386055 -0.00045360747505636775 -0.011856959330347869 0.025394706357093084 -0.011765638400207867 -0.0054464307569322135 0.023802404304345451 -0.012408755607903004 -0.011678873444045033 -0.011964509529726846 -0.011539907787333836
leaf_count=38 29 25 25 30 20 30 32 34 20 30 22 21 26 20 34 26 21 33 21 30 20 27 21 22
internal_value=0 -0.078643 0.0859397 -0.141976 0.178292 0.39107 0.109078 0.0258991 -0.00671047 -0.0769356 -0.174435 -0.0679851 -0.190329 -0.165605 -0.108306 -0.194254 0.457047 -0.211819 -0.179854 0.489161 -0.240166 -0.231536 -0.236077 -0.227903
internal_count=657 547 152 395 97 110 72 64 40 55 331 43 288 180 60 120 81 100 47 51 53 108 48 60
shrinkage=0.05


Tree=8
num_leaves=26
num_cat=0
split_feature=13 2 12 0 0 11 2 11 4 4 11 9 2 3 0 1 4 6 9 0 3 0 5 7 8
split_gain=18.2993 5.49454 2.3012 1.83769 2.40955 1.75922 1.65242 0.948436 0.709061 0.812979 0.690609 0.68411 0.628443 0.46117 0.334161 0.137151 0.543184 0.0808647 0.0377906 0.0279153 0.0259721 0.00292702 0.00198157 0.00122772 0.000625962
threshold=0.72656960873550014 0.39683541374750003 0.30981158905050005 0.44130289450250004 0.37022516274900003 0.32701968472650006 0.21680331545850004 0.32904297953200007 0.48944379768750007 0.33670446717200003 0.35205691214500007 0.37754919499100009 0.48449404624250003 0.29827275210200005 0.28019323542500002 0.24305927059750002 0.033262155236350004 0.31084376633250005 0.040629771779950009 0.46443050025100002 0.37063664036900007 0.17940747977500004 0.32167158738100005 0.23571561144450001 0.16700494405400004
decision_type=2 2 2 2 2 2 2 2 2 2 2 2 2 2 2 2 2 2 2 2 2 2 2 2 2
left_child=1 2 7 4 5 -3 -4 15 9 13 -5 -8 -2 -9 -10 18 -17 23 -1 -14 -21 24 -23 -18 -20
right_child=12 3 6 10 -6 -7 11 8 14 -11 -12 -13 19 -15 -16 16 17 -19 21 20 -22 22 -24 -25 -26
leaf_value=-0.0087257460132241262 0.012420903667807579 -0.0042437162250280385 -0.0094526679033324831 0.0071615521002698834 -0.010048953257501126 0.014659787062555552 0.0017589230537414552 -0.010792722068727017 -0.013049824722111227 0.0058359620747742832 0.018694380342960358 0.013848203081976285 0.023514250479638579 -0.00051241479814052588 -0.0042989013716578485 -0.0025588380048672359 -0.011689770921613232 -0.008241457903179629 -0.010707234500935584 0.022709784170855646 0.02024613551795483 -0.011069815548566673 -0.011699854241063198 -0.011213895710914032 -0.01103892356157303
leaf_count=20 20 20 21 27 32 32 25 20 24 27 25 22 32 24 20 30 33 29 33 23 20 26 24 23 25
internal_value=0 -0.0686164 -0.124484 0.106381 0.014922 0.147784 0.0441552 -0.156516 -0.0816966 -0.0198821 0.254124 0.148355 0.40592 -0.103706 -0.181443 -0.191925 -0.166861 -0.20769 -0.214444 0.447921 0.431278 -0.221838 -0.227445 -0.229886 -0.217004
internal_count=657 562 426 136 84 52 68 358 115 71 52 47 95 44 44 243 115 85 128 75 43 108 50 56 58
shrinkage=0.05


Tree=9
num_leaves=25
num_cat=0
split_feature=13 11 2 2 12 7 8 5 3 2 8 10 4 9 4 1 4 9 5 0 4 11 1 0
split_gain=16.5151 5.01629 2.02891 2.01769 1.31481 1.47835 2.01284 1.06691 0.932674 0.56717 0.522478 1.04407 0.389621 0.262811 0.208687 0.443793 0.0950433 0.272897 0.0670456 0.0252482 0.0279207 0.0145558 0.00822592 0.00466275
threshold=0.72656960873550014 0.34243816882200001 0.19711988973600003 0.39936006916750005 0.60769230769250016 0.46877221819450005 0.31986528142600007 0.30558964253200011 0.2786145591605001 0.48449404624250003 0.28794961231700006 0.37273737694500003 0.332783537543 0.099313358302100016 0.33670446717200003 0.20500251196800001 0.028573032806600004 0.19123809523800003 0.30814631033400003 0.44784049481500005 0.73925087986450022 0.32747775625350006 0.27312192118250006 0.16908191481750004
decision_type=2 2 2 2 2 2 2 2 2 2 2 2 2 2 2 2 2 2 2 2 2 2 2 2
left_child=1 3 -3 10 5 6 -4 -5 -7 -2 14 12 13 -12 16 -16 17 23 -15 -11 -21 22 -18 -1
right_child=9 2 4 7 -6 8 -8 -9 -10 19 11 -13 -14 18 15 -17 21 -19 -20 20 -22 -23 -24 -25
leaf_value=-0.010359428547046802 0.011799858808517458 -0.0078724861411111693 -0.00065852526043142596 -0.0050981387495994575 0.0187601937353611 0.0051365254535561521 0.017008997813651436 0.0073694390622345181 -0.0095950115810741077 0.022369197251335269 -0.0042094653844833374 0.00413619102910161 -0.001746664908917054 -0.0085997451628957479 -0.012264880314469338 -0.0026494315763314568 -0.010357778753553119 -0.0038689399138092996 -0.012136938342371503 0.019126475378870966 0.021655998130639398 -0.01240205080026672 -0.011434259389837583 -0.0113400380381129
leaf_count=27 20 28 28 32 20 21 38 37 22 31 20 24 23 21 20 30 35 20 37 20 24 21 36 22
internal_value=0 -0.0651856 0.0865547 -0.124008 0.139517 0.0962716 0.190274 0.0317475 -0.0480108 0.385624 -0.155994 -0.104761 -0.149312 -0.183039 -0.186345 -0.129912 -0.203871 -0.175816 -0.217125 0.425525 0.410124 -0.224913 -0.218072 -0.215994
internal_count=657 562 157 405 129 109 66 69 43 95 336 125 101 78 211 50 161 69 58 75 44 92 71 49
shrinkage=0.05


Tree=10
num_leaves=25
num_cat=0
split_feature=12 2 13 11 13 5 8 11 4 7 7 11 4 3 8 2 6 1 1 6 1 8 3 1
split_gain=14.9512 5.06795 1.78461 1.45225 1.26444 1.746 1.55766 1.1021 1.1649 1.05835 1.83872 1.81655 0.517656 0.263178 0.643833 0.115059 0.100908 0.21072 0.0861965 0.0520072 0.0141292 0.0048505 0.00266626 0.00217774
threshold=0.60769230769250016 0.39683541374750003 0.51923076923100009 0.32795322001000005 0.34523809523800003 0.33445736014600008 0.37846903277800009 0.37056132554550009 0.40518873649750009 0.4056494989640001 0.15940060844600004 0.34043501270350007 0.48109890338000011 0.41754669368200009 0.21526687598150004 0.19269283248850003 0.038064710854550009 0.22290247401900001 0.35673690416350007 0.53244721296100017 0.42809604667350004 0.17620863237650006 0.24736227604150005 0.20813809719300003
decision_type=2 2 2 2 2 2 2 2 2 2 2 2 2 2 2 2 2 2 2 2 2 2 2 2
left_child=1 3 4 13 5 6 -3 8 -2 10 -5 -12 -11 16 23 -14 17 -1 -9 20 21 -18 -23 -15
right_child=7 2 -4 9 -6 -7 -8 18 -10 12 11 -13 15 14 -16 -17 19 -19 -20 -21 -22 22 -24 -25
leaf_value=-0.010100527022566114 0.018494699343487069 -0.0099294476858947586 0.018139355291019787 -0.0084018273940009453 -0.006861519289237482 0.014318485952475491 0.007777582108974457 0.023769376516342165 0.0031819556718287265 -0.0021051433953371917 -0.0019131707990991658 0.016109006603558861 -0.0078041265532374383 -0.0097884264977081969 -0.0011083368005024062 -0.013103168883493969 -0.0098689083542142595 -0.003666914328932762 0.019901866553460851 -0.0080251729488372819 -0.012007726430892944 -0.011189422485503284 -0.010490751928753324 -0.010492674083936782
leaf_count=35 27 23 22 31 27 34 27 25 23 33 29 27 20 23 36 21 21 20 34 20 20 22 36 21
internal_value=0 -0.0672788 0.102594 -0.12172 0.0510243 0.111535 -0.00735303 0.338246 0.229017 -0.0474179 0.0273574 0.135522 -0.135329 -0.168817 -0.121345 -0.210365 -0.190643 -0.155221 0.430813 -0.207015 -0.216411 -0.2104 -0.215115 -0.202491
internal_count=657 548 133 415 111 84 50 109 50 161 87 56 74 254 80 41 174 55 59 119 99 79 58 44
shrinkage=0.05


Tree=11
num_leaves=27
num_cat=0
split_feature=13 11 2 2 13 1 1 1 4 2 9 3 3 9 0 5 4 6 1 2 2 1 2 8 10 9
split_gain=13.6245 4.60113 2.60478 1.392 1.22925 1.15485 1.00467 1.35416 0.955024 0.814286 0.803908 0.46916 0.749379 0.426744 0.702321 0.203362 0.300968 0.153778 0.286769 0.166739 0.109498 0.052085 0.0286755 0.00892032 0.00634827 0.00597596
threshold=0.88811728395050016 0.32786384849550004 0.40197224647650004 0.47336871651850004 0.18452380952350003 0.29215367965400008 0.32344827586200003 0.36058392518950005 0.39445570019400006 0.28063732894050003 0.41102669857950008 0.34593685725550005 0.20075538163300002 0.3327119502980001 0.27742272347550007 0.34392944038900003 0.73925087986450022 0.0031474733929250003 0.15701509813650003 0.032851792901650009 0.36273549346600004 0.087595907928350022 0.75583595174250007 0.090962890931950022 0.33007532281200008 0.14836704659300001
decision_type=2 2 2 2 2 2 2 2 2 2 2 2 2 2 2 2 2 2 2 2 2 2 2 2 2 2
left_child=1 3 4 13 6 -4 11 -8 -7 -9 -10 12 -3 17 -15 22 -17 18 -1 -19 21 -21 -2 -23 25 -25
right_child=15 2 5 -5 -6 8 7 9 10 -11 -12 -13 -14 14 -16 16 -18 19 -20 20 -22 23 -24 24 -26 -27
leaf_value=-0.010236060483889147 0.022285095974802972 -0.011591733768582344 0.019496090188622476 0.004095617624429556 0.0065305726350964729 0.013296626342667473 0.011533212177455426 0.0024420747222999735 -0.0054071484641595325 -0.010723441256129224 0.0081097407774491752 -0.01294255065066474 0.0017809690060940657 -0.0093212320469319831 0.0015220202505588532 0.011616206243634224 0.020186528208709899 -0.0054760474179472241 -0.0019636061042547226 -0.0074241523586568384 -0.013675941266119479 -0.0094198911916464571 0.019745020627975465 -0.010820650607347489 -0.011068653762340546 -0.009757603666721246
leaf_count=22 20 20 20 26 37 27 20 24 22 23 22 28 22 32 28 20 21 21 20 21 20 32 25 20 25 39
internal_value=0 -0.0558868 0.0405743 -0.139423 -0.031124 0.177668 -0.0748044 0.0127268 0.117878 -0.0800125 0.0270259 -0.158584 -0.0917397 -0.159976 -0.085221 0.371062 0.320118 -0.180364 -0.125936 -0.193206 -0.2044 -0.194309 0.417479 -0.202606 -0.208018 -0.202359
internal_count=657 571 265 306 174 91 137 67 71 47 44 70 42 280 60 86 41 220 42 178 157 137 45 116 84 59
shrinkage=0.05


Tree=12
num_leaves=25
num_cat=0
split_feature=12 2 13 11 5 0 10 11 9 11 3 10 8 8 11 1 4 1 1 5 8 11 0 2
split_gain=12.3351 4.10321 2.31354 1.61446 1.19617 1.00573 0.97038 0.947165 0.690244 0.651498 0.94851 1.57296 0.340501 0.286236 0.27787 0.125438 0.428192 0.0831916 0.0798922 0.0165027 0.00730851 0.00144009 0.000982472 0.000125268
threshold=0.60769230769250016 0.309075189709 0.51923076923100009 0.34243816882200001 0.30156148604800009 0.45932539682500007 0.35795971409999999 0.33790582364000005 0.3327119502980001 0.32849782605650008 0.27544628697450008 0.27388922702350005 0.39467561183950006 0.25658350658350004 0.37056132554550009 0.24305927059750002 0.033262155236350004 0.34811126373650009 0.35673690416350007 0.27056910974150006 0.24233182773250003 0.29574379245650007 0.19983660130700001 0.036064460659200007
decision_type=2 2 2 2 2 2 2 2 2 2 2 2 2 2 2 2 2 2 2 2 2 2 2 2
left_child=1 9 3 5 -5 8 -6 -2 12 15 13 -12 -3 -11 -9 20 -17 -18 -16 -19 22 -22 23 -1
right_child=7 2 -4 4 6 -7 -8 14 -10 10 11 -13 -14 -15 18 16 17 19 -20 -21 21 -23 -24 -25
leaf_value=-0.0089879411458969119 0.0058204029287610738 -0.012194206283704656 0.016170594726617523 0.016309199333190919 -0.0032473626945699963 0.00496322485031905 0.0093686161769760985 0.013630906980613184 -0.00017696707509458066 -0.0051356197758154441 -0.0085247152105525689 0.0075376154269490916 -0.0040967122092843058 -0.013296650917757126 0.021753916621208194 -0.0012330745756626129 -0.0070087955253464842 -0.0093311316519975665 0.01803052570013439 -0.0113623046875 -0.010093126478402513 -0.0095130043104290976 -0.0092805236901925964 -0.008829358558763158
leaf_count=20 21 37 26 20 35 27 27 29 32 22 27 35 20 21 25 25 35 20 34 20 23 20 23 33
internal_value=0 -0.0611099 0.0429588 0.00613163 0.113531 -0.0697889 0.0449339 0.307231 -0.121075 -0.133059 -0.0682979 0.0108546 -0.18706 -0.182425 0.352769 -0.164108 -0.138001 -0.17578 0.392165 -0.206934 -0.186047 -0.196466 -0.180153 -0.177784
internal_count=657 548 224 198 82 116 62 109 89 324 105 62 57 43 88 219 100 75 59 40 119 43 76 53
shrinkage=0.05


Tree=13
num_leaves=27
num_cat=0
split_feature=2 11 12 7 8 7 1 7 3 5 4 7 9 7 5 9 1 8 7 6 7 2 2 1 8 2
split_gain=11.2088 4.44118 1.9856 1.38144 2.14572 1.58723 1.0631 0.598793 0.580536 0.558216 0.41186 0.363687 0.335502 0.670289 0.271668 0.209991 0.171954 0.16763 0.142798 0.13956 0.105916 0.0620579 0.0191267 0.0057651 0.00422937 0.00233109
threshold=0.56031282466300014 0.32849782605650008 0.59337925755850007 0.47749245820950004 0.31986528142600007 0.32389818267000003 0.38947751265750008 0.53425426697050005 0.82640918458200019 0.30250717007350009 0.59568816721700013 0.54824221326500011 0.3327119502980001 0.20137312925700004 0.34254103149950005 0.32470028208750007 0.32571956795250007 0.42448630048450003 0.0063583160790800014 0.37228473909350007 0.82045393442500014 0.32031258196700002 0.31217177603700003 0.4311179931745 0.10947057684850002 0.13007643074200004
decision_type=2 2 2 2 2 2 2 2 2 2 2 2 2 2 2 2 2 2 2 2 2 2 2 2 2 2
left_child=1 8 3 4 5 15 -6 -5 12 -2 -9 -4 16 -14 -15 -3 17 18 -1 -11 -21 23 24 -18 -20 -26
right_child=9 2 11 7 6 -7 -8 10 -10 19 -12 -13 13 14 -16 -17 21 -19 22 20 -22 -23 -24 -25 25 -27
leaf_value=-0.0054163016378879552 0.010538067171971005 -0.012942865703787124 0.0075548097491264345 -0.01203082234909137 0.0037476379710894361 0.0050096513756683891 0.016152516247764714 0.0026532521979375323 0.0007455565359281457 0.02144642122413801 -0.0068179913486043622 0.016975901946425436 0.0018399023952392433 -0.0043518264964222909 -0.012593004032969474 -0.0058719514026528315 -0.009085604051748913 -0.0034168863225550877 -0.008450375745693843 0.013985585495829584 0.019131359681487086 -0.012967122718691826 -0.010614621117711068 -0.0102350252866745 -0.0095967576280236253 -0.0088333625718951241
leaf_count=33 36 21 21 24 39 35 31 22 23 23 24 20 26 20 20 21 24 21 33 20 20 20 20 20 20 20
internal_value=0 -0.0550171 0.0411846 0.00305185 0.0581105 -0.057084 0.184825 -0.112571 -0.137751 0.310096 -0.0457653 0.243009 -0.150426 -0.0881997 -0.169448 -0.188148 -0.169891 -0.151054 -0.164841 0.366859 0.331169 -0.213155 -0.184894 -0.192161 -0.177388 -0.184301
internal_count=657 558 258 217 147 77 70 70 300 99 46 41 277 66 40 42 211 147 126 63 40 64 93 44 73 40
shrinkage=0.05


Tree=14
num_leaves=27
num_cat=0
split_feature=13 11 2 2 1 13 1 1 4 2 1 3 3 9 0 5 0 2 8 5 11 2 1 10 8 5
split_gain=10.2834 3.40706 2.01296 1.01866 1.00982 0.984134 0.857128 1.20115 0.845374 0.711853 0.690804 0.433167 0.625779 0.328885 0.596175 0.19309 0.251284 0.131265 0.134432 0.289114 0.0297011 0.029305 0.00711301 0.00326756 0.00111457 0.000443459
threshold=0.88811728395050016 0.32786384849550004 0.40197224647650004 0.47336871651850004 0.29215367965400008 0.18452380952350003 0.32344827586200003 0.36058392518950005 0.39445570019400006 0.28063732894050003 0.41695209779700004 0.34593685725550005 0.20075538163300002 0.3327119502980001 0.27742272347550007 0.34392944038900003 0.5210843348330001 0.37316754445000005 0.30015764018000007 0.33922838448650006 0.12288972340050001 0.75583595174250007 0.25517533936650005 0.27055180180150001 0.10947057684850002 0.29895998640850002
decision_type=2 2 2 2 2 2 2 2 2 2 2 2 2 2 2 2 2 2 2 2 2 2 2 2 2 2
left_child=1 3 5 13 -4 6 11 -8 -6 -9 -10 12 -3 17 -15 21 -17 18 20 -20 -1 -2 24 -24 25 -22
right_child=15 2 4 -5 8 -7 7 9 10 -11 -12 -13 -14 14 -16 16 -18 -19 19 -21 22 -23 23 -25 -26 -27
leaf_value=-0.0064813874289393423 0.019806491881608962 -0.010441781021654606 0.017672468796372416 0.0034452344935673937 0.011917839171709839 0.0058069134080732197 0.010922249481081963 0.0023161752149462702 -0.0058773919939994817 -0.0099934438324492912 0.00666557181140651 -0.012069377808698586 0.0017784348265691239 -0.0082817695103585727 0.0017085275213633265 0.0096253851056098943 0.017456432041667757 -0.011555537723359608 -0.0024776305045400349 -0.0094382647424936308 -0.0079277645119211881 0.017238684535026551 -0.0085543032203401845 -0.0093793744221329703 -0.0085045706629753113 -0.0082452329044992289
leaf_count=20 20 20 20 26 27 37 20 24 21 23 23 28 22 32 28 20 21 21 35 26 22 25 21 28 25 22
internal_value=0 -0.0485531 0.0344529 -0.120437 0.15497 -0.0285762 -0.0676597 0.0131892 0.0990604 -0.0741536 0.0135831 -0.145044 -0.0808143 -0.138019 -0.0723926 0.32237 0.272728 -0.155917 -0.147982 -0.108889 -0.165262 0.367599 -0.171302 -0.180515 -0.164759 -0.16173
internal_count=657 571 265 306 91 174 137 67 71 47 44 70 42 280 60 86 41 220 199 61 138 45 118 49 69 44
shrinkage=0.05


Tree=15
num_leaves=25
num_cat=0
split_feature=12 2 11 7 11 6 2 9 11 1 3 8 9 1 4 12 8 6 2 2 0 5 1 4
split_gain=9.29698 3.64622 1.66606 1.37653 1.09775 1.43811 0.864148 0.843413 0.509284 0.455709 0.267971 0.748492 0.723626 0.188205 0.440666 0.233224 0.229109 0.195 0.0803978 0.0630124 0.018133 0.00949106 0.00388741 0.000220591
threshold=0.78078078078099999 0.39936006916750005 0.32332375880800007 0.22183205699600003 0.34243816882200001 0.46841572678050009 0.25479974866800009 0.38506309425250002 0.37056132554550009 0.37591907858400009 0.41361442708150004 0.20131639194100004 0.24932432432450002 0.30983993057100007 0.332783537543 0.38762626262650007 0.34586213104250002 0.10235287337950001 0.25479974866800009 0.75583595174250007 0.17940747977500004 0.32536113826450003 0.20813809719300003 0.028573032806600004
decision_type=2 2 2 2 2 2 2 2 2 2 2 2 2 2 2 2 2 2 2 2 2 2 2 2
left_child=1 4 -3 -4 10 6 -6 9 -2 -5 13 22 -13 15 17 16 20 -15 -7 -10 23 -22 -12 -1
right_child=8 2 3 7 5 18 -8 -9 19 -11 11 12 -14 14 -16 -17 -18 -19 -20 -21 21 -23 -24 -25
leaf_value=-0.0078762846497388989 0.010195841522593249 -0.0041965844539495617 0.018425928677121797 0.0050156309083104131 -0.0023949757218360902 -0.009197628721594811 0.010935733395238076 0.010152607088958897 0.019719019856141964 -0.0056580354273319247 -0.007753670990467071 -0.0055443683949609607 0.0067338830791413787 -0.0037250398293785427 0.00048710975050926211 -0.012927377756152833 -0.0035004344919035515 -0.0095298322920615852 -0.0047143880277872091 0.016287981998175383 -0.0083858692171898761 -0.0098098195791244524 -0.0086445575580000877 -0.0076660731807351116
leaf_count=26 38 39 24 20 20 20 31 37 23 20 25 24 24 23 25 21 31 39 20 32 22 25 24 24
internal_value=0 -0.0483048 0.091622 0.15941 -0.094507 0.00282811 0.11416 0.0942333 0.292945 -0.00642405 -0.121106 -0.0768583 0.0118951 -0.139293 -0.102336 -0.160871 -0.144846 -0.147529 -0.13912 0.354456 -0.168764 -0.182866 -0.1638 -0.155508
internal_count=657 564 140 101 424 91 51 77 93 40 333 97 48 236 87 149 128 62 40 55 97 47 49 50
shrinkage=0.05


Tree=16
num_leaves=26
num_cat=0
split_feature=2 11 12 5 2 8 9 6 9 9 5 8 8 11 1 2 7 6 4 1 7 2 11 5 11
split_gain=8.59341 3.30811 1.69573 1.38048 1.31055 0.912696 2.15084 0.739381 0.552558 0.528317 0.486856 0.456318 0.46352 0.265454 0.230129 0.433943 0.499291 0.141848 0.122761 0.104291 0.0787831 0.0322534 0.0106985 0.00175328 0.000255064
threshold=0.56031282466300014 0.34243816882200001 0.30981158905050005 0.27299892422950006 0.38251674650100004 0.34586213104250002 0.38506309425250002 0.46258392740350002 0.36219823061900008 0.3327119502980001 0.30250717007350009 0.62465053451500008 0.43004619249150006 0.39324335588150006 0.24305927059750002 0.16812184373300001 0.21766382960900002 0.37228473909350007 0.15834843971850002 0.33250740349450003 0.82045393442500014 0.25321160587450009 0.30860272249000004 0.33773934793900001 0.20956646254500005
decision_type=2 2 2 2 2 2 2 2 2 2 2 2 2 2 2 2 2 2 2 2 2 2 2 2 2
left_child=1 5 3 -3 -4 8 11 -5 9 14 -2 12 -7 -9 21 16 -16 -12 -17 -14 -19 22 23 24 -1
right_child=10 2 4 7 -6 6 -8 13 -10 -11 17 -13 19 -15 15 18 -18 20 -20 -21 -22 -23 -24 -25 -26
leaf_value=-0.0074682766944170007 0.0089374905245171651 0.0084454581622154488 0.018329117888653722 0.0013916798613288186 0.0036676883271762302 -0.0021696971400695687 0.012820789624344221 -0.012792151235044003 -0.012605450302362443 0.00016955726526000285 0.019355262038500413 0.0011320486664772034 -0.0075571683049201963 -0.0046457688882946971 -0.0064779319614171986 -0.0046544549614191055 0.0046944771334528927 0.012208407446742058 -0.0095912140958449438 -0.012663320638239384 0.016646399050951007 -0.010029479898512364 -0.0088256211578845983 -0.0078686939309472632 -0.0072307723359419755
leaf_count=20 36 31 27 33 35 34 22 20 33 33 23 27 20 20 20 20 20 20 34 20 20 20 20 23 26
internal_value=0 -0.0481726 0.0701484 -0.00788919 0.20105 -0.098278 -0.0269198 -0.0829679 -0.130906 -0.113959 0.271519 -0.0886365 -0.129238 -0.174379 -0.133035 -0.0967786 -0.0178345 0.324529 -0.155256 -0.202205 0.288548 -0.164302 -0.156148 -0.150245 -0.146681
internal_count=657 558 166 104 62 392 123 73 269 236 99 101 74 40 203 94 40 63 54 40 40 109 89 69 46
shrinkage=0.05


Tree=17
num_leaves=28
num_cat=0
split_feature=13 11 8 7 6 4 7 12 12 2 0 11 8 3 2 2 5 4 7 0 7 9 2 7 1 8 11
split_gain=7.75943 2.57149 1.69603 2.24665 1.10403 0.923846 0.827966 0.799082 0.787228 0.778928 0.700483 0.437155 0.325867 0.30846 0.187536 0.388492 0.181589 0.210866 0.149398 0.0690226 0.0382136 0.0346069 0.0285761 0.0259977 0.0053241 0.00344868 0.00256179
threshold=0.88811728395050016 0.32786384849550004 0.31986528142600007 0.39837370471600003 0.31318302452300006 0.44520427540150004 0.76058501455950023 0.47837591240900007 0.28730158730150007 0.47336871651850004 0.3610358818105 0.37898633164700007 0.14152513795200003 0.82640918458200019 0.37316754445000005 0.32405255123250004 0.34392944038900003 0.73925087986450022 0.0011779319165200004 0.40958346609050006 0.068302312464750006 0.33490310588100008 0.75583595174250007 0.020064326456800004 0.25788338678000006 0.17411887205900003 0.29324363908150003
decision_type=2 2 2 2 2 2 2 2 2 2 2 2 2 2 2 2 2 2 2 2 2 2 2 2 2 2 2
left_child=1 9 4 7 12 -6 8 10 -5 13 -4 -7 -3 14 15 18 22 -18 -1 20 23 24 -2 -20 25 -22 -26
right_child=16 2 3 6 5 11 -8 -9 -10 -11 -12 -13 -14 -15 -16 -17 17 -19 19 -21 21 -23 -24 -25 26 -27 -28
leaf_value=-0.0034762958188851675 0.017603154256939889 -0.0035371604774679455 0.01473783522166989 0.0014691766513430554 0.0076756698312237864 -0.0074889232714970902 0.0070248448068187357 0.019865403040533976 -0.011760561777786775 0.0030471491412474559 0.0026153536083606578 0.002264109179377556 -0.011658074830969175 -1.6441531479358676e-05 -0.010325684371803489 -0.0003559701144695282 0.0079200511425733568 0.015093707612582616 -0.0075893749361452857 -0.0046765419569882475 -0.0068917554681715764 -0.0098504519400497287 0.015067483246326447 -0.0051561057567596439 -0.0084731203588572414 -0.007789498269557953 -0.007691240906715394
leaf_count=30 20 21 22 23 32 27 21 21 22 26 26 20 30 20 28 27 20 21 23 22 23 24 25 21 22 20 20
internal_value=0 -0.0421758 0.029937 0.108442 -0.0515877 0.0224564 -0.0234605 0.23461 -0.0999739 -0.104626 0.16343 -0.0667739 -0.166283 -0.120001 -0.129206 -0.119876 0.280028 0.231887 -0.134727 -0.145904 -0.153435 -0.163476 0.323889 -0.128561 -0.154008 -0.146186 -0.162016
internal_count=657 571 265 135 130 79 66 69 45 306 48 47 51 280 260 232 86 41 205 175 153 109 45 44 85 43 42
shrinkage=0.05


Tree=18
num_leaves=26
num_cat=0
split_feature=2 11 12 5 2 8 9 2 9 9 5 8 8 6 1 2 7 6 6 1 7 2 11 9 4
split_gain=7.11481 2.71391 1.48302 1.24261 1.09872 0.769347 1.88387 0.495897 0.487666 0.476731 0.446918 0.398094 0.388367 0.342417 0.20533 0.384095 0.439735 0.131164 0.112952 0.090917 0.0676443 0.0307303 0.00941766 0.00213251 0.000438771
threshold=0.56031282466300014 0.34243816882200001 0.30981158905050005 0.31231712840100007 0.38251674650100004 0.34586213104250002 0.38506309425250002 0.31766281138650004 0.36219823061900008 0.3327119502980001 0.30250717007350009 0.62465053451500008 0.43004619249150006 0.46258392740350002 0.24305927059750002 0.16812184373300001 0.21766382960900002 0.37228473909350007 0.11293039842600001 0.33250740349450003 0.82045393442500014 0.25321160587450009 0.30860272249000004 0.076643356643350022 0.010971860156550002
decision_type=2 2 2 2 2 2 2 2 2 2 2 2 2 2 2 2 2 2 2 2 2 2 2 2 2
left_child=1 5 3 7 -4 8 11 -3 9 14 -2 12 -7 -5 21 16 -16 -12 -17 -14 -19 22 23 -1 -25
right_child=10 2 4 13 -6 6 -8 -9 -10 -11 17 -13 19 -15 15 18 -18 20 -20 -21 -22 -23 -24 24 -26
leaf_value=-0.0072279100234691925 0.0079087749537494461 0.00086389567703008645 0.016865927091351263 -0.00052160728308889607 0.0034415458355631146 -0.002040280051091138 0.01207341521301053 0.011998263970017435 -0.011651788087505284 0.00041113631291822962 0.01790104540793792 0.001123795023670903 -0.0069248959049582476 -0.0079271189062981983 -0.0058851237222552304 -0.0041254642233252521 0.0045998021960258484 0.011106253415346146 -0.0088608976891812168 -0.011692417040467263 0.015218561813235283 -0.0093163343705236906 -0.0081026862002909188 -0.0068255759775638584 -0.0065053592233554189
leaf_count=26 36 20 27 27 35 34 22 20 33 33 23 27 20 37 20 20 20 20 34 20 20 20 20 20 23
internal_value=0 -0.0438328 0.0633362 -0.009643 0.185753 -0.0892157 -0.0237005 0.128622 -0.119172 -0.103251 0.247058 -0.0814601 -0.119383 -0.0960584 -0.121372 -0.0871247 -0.0128532 0.297848 -0.142141 -0.186173 0.263248 -0.150907 -0.142947 -0.137409 -0.133086
internal_count=657 558 166 104 62 392 123 40 269 236 99 101 74 64 203 94 40 63 54 40 40 109 89 69 43
shrinkage=0.05


Tree=19
num_leaves=25
num_cat=0
split_feature=12 2 13 3 3 6 8 7 8 11 3 10 11 1 7 5 4 7 9 9 2 11 8 8
split_gain=6.50623 2.24384 1.29579 1.29818 0.879139 0.865911 1.8972 1.13365 0.648794 0.555687 0.416339 0.815913 1.12071 0.376082 0.279192 0.263755 0.222686 0.564642 0.217472 0.146747 0.141612 0.0884207 0.0717192 0.00606313
threshold=0.60769230769250016 0.309075189709 0.51923076923100009 0.25056228383000007 0.13557410662400002 0.43078544505450006 0.48045154081600006 0.16575091575100001 0.31986528142600007 0.33790582364000005 0.27544628697450008 0.26648550724650005 0.32849782605650008 0.23295255114300004 0.48698328389000006 0.3358664900015001 0.46692753458500008 0.76058501455950023 0.075321494182450002 0.30011547344100004 0.12116998666100001 0.32849782605650008 0.33741626572200006 0.28383046994200006
decision_type=2 2 2 2 2 2 2 2 2 2 2 2 2 2 2 2 2 2 2 2 2 2 2 2
left_child=1 10 3 4 -3 6 7 -5 -9 -2 19 18 15 -14 -7 -13 -11 -18 -12 20 -1 23 -21 -20
right_child=9 2 -4 5 -6 14 -8 8 -10 16 11 12 13 -15 -16 -17 17 -19 21 22 -22 -23 -24 -25
leaf_value=-0.0075537027104904779 0.0038484478635447367 -0.00054451599717140196 0.012123271650992909 -0.012922054998900579 0.01235730506239399 -0.0043838958171280949 0.012226973533630371 -0.0047552158221088612 0.0062361423075199124 0.016397770494222641 -0.0028768881770043541 -0.0076871773111633962 0.0013886925205588343 0.011085105128586292 -0.012546337619423868 -0.00083288356661796563 0.0059850620105862621 0.015857652127742768 -0.0065434736226286207 -0.0077250180212227078 -0.0028675018543643611 -0.010822545550763608 -0.0114413046464324 -0.0076347904093563559
leaf_count=38 21 23 26 23 31 22 25 29 25 30 29 32 20 20 20 25 28 30 35 37 28 20 20 20
internal_value=0 -0.0443818 0.0325763 0.0050151 0.137242 -0.0445699 0.00519007 -0.0725208 0.00666752 0.223131 -0.0975874 -0.0695457 -0.00357439 0.124738 -0.165415 -0.0936182 0.25801 0.221831 -0.131077 -0.143412 -0.111312 -0.159512 -0.18058 -0.138806
internal_count=657 548 224 198 54 144 102 77 54 109 324 201 97 40 42 57 88 58 104 123 66 75 57 55
shrinkage=0.05


Tree=20
num_leaves=26
num_cat=0
split_feature=2 11 12 8 7 7 4 2 3 3 5 5 5 5 2 2 2 2 9 7 6 6 10 8 5
split_gain=5.89756 2.31571 1.08368 0.987495 1.61174 0.859872 0.935071 0.629565 0.625407 0.427105 0.415456 0.393067 0.196713 0.476541 0.183839 0.502227 0.141303 0.13217 0.131724 0.128196 0.0387437 0.0262086 0.00966041 0.00472345 0.00395776
threshold=0.56031282466300014 0.32795322001000005 0.86931216931200017 0.31986528142600007 0.33208122531000006 0.32389818267000003 0.40808036284200006 0.39683541374750003 0.29827275210200005 0.82640918458200019 0.38947816592850004 0.30250717007350009 0.37577656131950005 0.33535375664850003 0.36475611161800009 0.31217177603700003 0.22805893723200002 0.70700868828850016 0.32385352636700004 0.0011779319165200004 0.58123188247849999 0.38955053536900003 0.28959627329200005 0.21995533956850002 0.25590550535450002
decision_type=2 2 2 2 2 2 2 2 2 2 2 2 2 2 2 2 2 2 2 2 2 2 2 2 2
left_child=1 9 3 5 8 18 -7 -6 -5 12 -8 -2 13 14 15 19 21 -13 -3 -1 -19 -14 23 -21 -24
right_child=11 2 -4 4 7 6 10 -9 -10 -11 -12 17 16 -15 -16 -17 -18 20 -20 22 -22 -23 24 -25 -26
leaf_value=-0.0024932825006544592 0.0070788675298293427 -0.011278607447942098 0.010350507944822313 0.0046653555706143383 -0.0059973199748330651 0.0080148546454998169 0.00034389766278090299 0.0038099971661965056 0.015965233355760576 0.001493964732989021 -0.0090330532264141818 0.01675465049391443 -0.0072245940449647611 0.0018305730540305377 -0.0094786210468521832 0.0023714840970933439 -0.011043804673397023 0.0104506682072367 -0.0058561874864002071 -0.0061182304726619475 0.013525616005063058 -0.0049172961898148061 -0.006939300615340472 -0.0070031585395336146 -0.0079111373221332389
leaf_count=20 36 21 30 24 36 26 27 30 25 23 21 22 32 24 27 20 23 21 24 38 20 20 20 25 22
internal_value=0 -0.0399075 0.0280749 0.00513452 0.0712167 -0.0587264 0.00756144 -0.030789 0.208612 -0.100953 -0.0751704 0.224933 -0.112057 -0.0953906 -0.113809 -0.0997019 -0.155611 0.272565 -0.167733 -0.123243 0.239013 -0.126743 -0.13722 -0.129388 -0.148967
internal_count=657 558 264 234 115 119 74 66 49 294 48 99 271 196 172 145 75 63 45 125 41 52 105 63 42
shrinkage=0.05


Tree=21
num_leaves=23
num_cat=0
split_feature=12 2 11 5 10 8 10 9 11 4 10 11 1 10 10 7 1 6 4 8 1 7
split_gain=5.37419 1.83753 1.1446 0.926072 0.951002 0.787576 0.554576 1.04236 0.483446 0.881721 0.412108 0.520671 0.916007 0.542428 0.114045 0.249 0.0909988 0.045132 0.103137 0.00931037 0.00843727 0.00220449
threshold=0.60769230769250016 0.309075189709 0.34243816882200001 0.30156148604800009 0.35795971409999999 0.48045154081600006 0.35407448377600004 0.29761631478550005 0.37056132554550009 0.40518873649750009 0.4977876106195 0.32849782605650008 0.33342040089750008 0.27388922702350005 0.32005494505500004 0.30834447761800005 0.35673690416350007 0.04444470656865001 0.010971860156550002 0.21995533956850002 0.2656862745100001 0.18504812351350003
decision_type=2 2 2 2 2 2 2 2 2 2 2 2 2 2 2 2 2 2 2 2 2 2
left_child=1 10 5 -4 -5 6 7 -3 9 -2 11 14 13 -13 17 -16 -10 18 -1 20 -19 -21
right_child=8 2 3 4 -6 -7 -8 -9 16 -11 -12 12 -14 -15 15 -17 -18 19 -20 21 -22 -23
leaf_value=-0.0065871492028236394 0.012650607139975937 -0.0069360707156561523 0.012663580717579013 -0.0033159333798620434 0.0086312623754624396 0.0050883755320683122 -0.0097429121362751937 0.005850562905626638 0.015495002359151841 -0.00067155853561733092 -0.010728832163537544 -0.0091309539459902677 0.0067616332588451254 0.00017740277244764218 -0.00090222358703613288 -0.0074414817461123071 0.011521216679145308 -0.0056835550548774861 -0.002154871714966638 -0.0076211273138012212 -0.0070281686075031758 -0.0069125670453776492
leaf_count=35 27 37 31 36 31 32 29 28 25 23 24 29 28 34 37 24 34 28 21 21 20 23
internal_value=0 -0.0403364 0.0293064 0.110361 0.0442375 -0.0337358 -0.0798645 -0.0285596 0.202792 0.130448 -0.0884845 -0.0783971 -0.0152616 -0.0821479 -0.105887 -0.0695009 0.2641 -0.120884 -0.0985009 -0.134508 -0.124876 -0.145015
internal_count=657 548 224 98 67 126 94 65 109 50 324 300 91 63 209 61 59 148 56 92 48 44
shrinkage=0.05


Tree=22
num_leaves=27
num_cat=0
split_feature=2 11 12 8 6 2 7 4 1 9 3 5 5 5 5 2 2 6 2 7 9 6 8 10 8 5
split_gain=4.92148 1.88881 0.914384 0.83912 1.45968 1.14781 0.76197 0.809529 0.665358 0.444498 0.374381 0.35962 0.355077 0.171247 0.414733 0.171521 0.427238 0.138436 0.130282 0.117698 0.114443 0.0871131 0.0251129 0.00971919 0.00351303 0.00305999
threshold=0.56031282466300014 0.32795322001000005 0.86931216931200017 0.31986528142600007 0.46258392740350002 0.31217177603700003 0.32389818267000003 0.40808036284200006 0.40986372344100003 0.35254420786750007 0.82640918458200019 0.38947816592850004 0.30250717007350009 0.37577656131950005 0.33535375664850003 0.36475611161800009 0.31217177603700003 0.33036048582750005 0.22805893723200002 0.0011779319165200004 0.32385352636700004 0.67711174647000016 0.17620863237650006 0.28959627329200005 0.21995533956850002 0.25590550535450002
decision_type=2 2 2 2 2 2 2 2 2 2 2 2 2 2 2 2 2 2 2 2 2 2 2 2 2 2
left_child=1 10 3 6 5 -5 20 -8 -6 -7 13 -9 -2 14 15 16 19 -14 22 -1 -3 -19 -15 24 -21 -25
right_child=12 2 -4 4 8 9 7 11 -10 -11 -12 -13 17 18 -16 -17 -18 21 -20 23 -22 -23 -24 25 -26 -27
leaf_value=-0.0020696851983666421 0.0063126310913099188 -0.010576228708738374 0.0094653261452913289 -0.00032481431704142999 -0.010544642025516146 0.017512253671884536 0.0074757157610012941 0.00033795226503301553 0.00219815906137228 0.0075711194911728735 0.0015451567328494528 -0.0083861516699904499 0.015974179208278656 -0.0046877979128449052 0.0018355335729817552 -0.0088398764116896528 0.0022856767289340498 0.0085256054997444163 -0.010264477166144745 -0.0055591157000315821 -0.0055219926871359348 0.013037583782621051 -0.006887014687061311 -0.0063962872140109544 -0.0063222826123237614 -0.0072508196769790218
leaf_count=20 36 21 30 29 21 22 26 27 20 23 23 21 20 27 24 27 20 20 23 38 24 23 25 20 25 22
internal_value=0 -0.0364557 0.0249414 0.00386897 0.0647846 0.148645 -0.0549991 0.00740112 -0.0865728 0.248625 -0.0915879 -0.0695769 0.205478 -0.101984 -0.0864338 -0.103617 -0.08999 0.250749 -0.142621 -0.111703 -0.157613 0.21878 -0.114902 -0.125095 -0.117239 -0.136878
internal_count=657 558 264 234 115 74 119 74 41 45 294 48 99 271 196 172 145 63 75 125 45 43 52 105 63 42
shrinkage=0.05


Tree=23
num_leaves=26
num_cat=0
split_feature=13 11 8 7 6 1 8 7 12 12 0 0 11 6 0 3 5 7 8 5 0 2 2 2 3
split_gain=4.52807 1.48598 1.0776 1.67701 0.808697 0.680006 0.89578 0.6675 0.735216 0.605754 0.623706 0.482201 0.423184 0.262618 0.347928 0.42168 0.28851 0.464679 0.239985 0.184077 0.1619 0.104531 0.049939 0.0252427 0.00455167
threshold=0.88811728395050016 0.32786384849550004 0.31986528142600007 0.39837370471600003 0.31318302452300006 0.30983993057100007 0.20860823141700005 0.76058501455950023 0.28730158730150007 0.47837591240900007 0.34201917948550004 0.43246445212150003 0.28961090046000004 0.41568952425450006 0.18095238095250002 0.44702838644200005 0.30156148604800009 0.20751060642900002 0.14152513795200003 0.34120184668100001 0.5160563958065002 0.22805893723200002 0.22116087560900002 0.76194014350400019 0.32657825912800004
decision_type=2 2 2 2 2 2 2 2 2 2 2 2 2 2 2 2 2 2 2 2 2 2 2 2 2
left_child=1 11 4 9 18 -6 -7 8 -5 10 -4 13 -13 14 22 16 -16 -18 -3 23 -21 -15 24 -2 -1
right_child=19 2 3 7 5 6 -8 -9 -10 -11 -12 12 -14 21 15 -17 17 -19 -20 20 -22 -23 -24 -25 -26
leaf_value=-0.0053465139741698904 0.014349077232182025 -0.0029278594645715896 0.013354154899716378 0.001376349462763123 -0.003892978230440939 0.012705482826346443 -0.0018986588077885764 0.0059215178092320766 -0.011408878896724095 0.016791892016217821 0.0017933877717171396 -0.0045866218310865485 0.0047553714502740797 -0.0060919531075091203 -0.0078750345743063728 0.0023025493643113546 0.003207470631847779 -0.0062737312034836833 -0.0098969625681638723 0.0051132944971323015 0.011204437476893266 -0.010662497275254944 -0.0086030570346684685 0.011894729496403175 -0.0061858143870319642
leaf_count=30 20 21 20 23 37 21 21 21 22 21 28 22 27 29 33 35 24 28 30 20 24 22 21 22 35
internal_value=0 -0.0322185 0.0226 0.0851763 -0.0423832 0.0209881 0.108068 -0.0287841 -0.0974841 0.194182 0.132207 -0.079692 0.0112201 -0.0970254 -0.0811199 -0.0463287 -0.0843674 -0.0379558 -0.140547 0.213916 0.168715 -0.161271 -0.129666 0.261269 -0.115969
internal_count=657 571 265 135 130 79 42 66 45 69 48 306 49 257 206 120 85 52 51 86 44 51 86 42 65
shrinkage=0.05


Tree=24
num_leaves=25
num_cat=0
split_feature=12 2 11 1 13 1 1 11 6 7 4 4 10 10 11 10 2 6 5 8 2 11 11 9
split_gain=4.10648 1.70674 1.07895 1.27997 1.1746 0.659925 0.534273 0.549521 1.26507 0.342154 0.604506 0.385184 0.295711 0.444755 0.266517 0.239917 0.149944 0.135563 0.196807 0.129727 0.0578891 0.0170363 0.0147959 0.00520508
threshold=0.78078078078099999 0.39936006916750005 0.32332375880800007 0.26931646198300008 0.51923076923100009 0.37265466973550004 0.23295255114300004 0.34243816882200001 0.46841572678050009 0.39100413522250005 0.332783537543 0.033262155236350004 0.30825791855200008 0.27388922702350005 0.37056132554550009 0.34340309372150007 0.22319113710400004 0.43537261264500005 0.34254103149950005 0.25040734394950009 0.75583595174250007 0.30939929566200003 0.32380922953700009 0.065841517152200019
decision_type=2 2 2 2 2 2 2 2 2 2 2 2 2 2 2 2 2 2 2 2 2 2 2 2
left_child=1 6 -3 -4 5 -5 12 9 -9 10 11 -8 13 16 -2 22 21 18 -14 -11 -16 23 -13 -1
right_child=14 2 3 4 -6 -7 7 8 -10 19 -12 15 17 -15 20 -17 -18 -19 -20 -21 -22 -23 -24 -25
leaf_value=-0.0061451935971325103 0.0065144643383590805 -0.0038822555771240823 0.016895181756644024 -0.0073643491010774269 0.013518972396850588 0.0035171771716130413 0.0018485098811132567 0.0085937246467385972 -0.0067072332921353263 -0.0037008091807365418 0.0059580930254676126 -0.0060847504581842161 -0.0087824572843533972 0.003207644503563643 0.013872871450755908 -0.00031085981056094169 -0.0011239292286336423 -0.010443342311514749 -0.0022384746931493281 -0.0088108492808209524 0.010584272001869977 -0.0072386348061263574 -0.0077809191867709154 -0.0051637262850999831
leaf_count=22 38 39 21 22 20 38 28 35 22 23 22 36 27 20 23 20 20 27 20 27 32 20 20 35
internal_value=0 -0.0321036 0.0636296 0.118181 0.0605041 -0.00945432 -0.0637137 -0.0315743 0.0537618 -0.0592116 -0.0314366 -0.0632939 -0.10292 -0.0716279 0.194693 -0.100233 -0.0996239 -0.152396 -0.119956 -0.129205 0.23919 -0.119662 -0.133811 -0.110851
internal_count=657 564 140 101 80 60 424 233 57 176 126 104 191 117 93 76 97 74 47 50 55 77 56 57
shrinkage=0.05


Tree=25
num_leaves=26
num_cat=0
split_feature=2 11 12 2 10 7 7 1 2 8 4 3 5 5 5 2 2 6 2 7 6 6 9 1 9
split_gain=3.76549 1.43452 0.695635 0.655086 0.644244 0.652877 0.920549 1.22769 0.483936 0.613128 0.319931 0.308582 0.304727 0.156317 0.377469 0.17289 0.356497 0.139603 0.113935 0.103525 0.0729342 0.0264464 0.00891206 0.00955679 0.000627705
threshold=0.56031282466300014 0.32795322001000005 0.86931216931200017 0.40197224647650004 0.4977876106195 0.15940060844600004 0.4056494989640001 0.32933446857100007 0.43965301909100007 0.38754578754550001 0.48944379768750007 0.82640918458200019 0.30250717007350009 0.372889497954 0.33535375664850003 0.36475611161800009 0.31217177603700003 0.33036048582750005 0.22805893723200002 0.0011779319165200004 0.67711174647000016 0.38955053536900003 0.28809764735650006 0.25788338678000006 0.15083864317850004
decision_type=2 2 2 2 2 2 2 2 2 2 2 2 2 2 2 2 2 2 2 2 2 2 2 2 2
left_child=1 11 3 4 5 -3 7 -7 -5 -10 -8 13 -2 14 15 16 19 -14 21 -1 -19 -15 23 24 -21
right_child=12 2 -4 8 -6 6 10 -9 9 -11 -12 -13 17 18 -16 -17 -18 20 -20 22 -22 -23 -24 -25 -26
leaf_value=-0.0015340642444789411 0.0053169694625669062 -0.007355352049624478 0.0082490660498539606 0.010852823257446291 -0.0097022266615004772 -0.001335069922996419 0.00082738519676270024 0.013607810299705576 -0.0047877526354222072 0.0066990240262104917 -0.0062463744571714698 0.0015636087921650514 0.014534766823053361 -0.0059863806673974701 0.0022968256927054865 -0.0081970201874220824 0.0023586717620491982 0.0072701369225978852 -0.0093309677489425823 -0.0049057412147521977 0.011398625276658846 -0.0036821864731609827 -0.0062229364046028687 -0.005824474527528792 -0.0045264667210479581
leaf_count=20 36 27 30 20 21 28 31 27 21 26 33 23 20 33 23 27 20 20 23 20 23 20 28 33 24
internal_value=0 -0.0318881 0.0216187 0.00323885 -0.0302747 -0.00671877 0.025134 0.120011 0.0867726 0.0313327 -0.0564004 -0.079935 0.179733 -0.0893732 -0.0743795 -0.0904683 -0.0767873 0.221672 -0.127844 -0.096621 0.189568 -0.102337 -0.109181 -0.103625 -0.0939773
internal_count=657 558 264 234 167 146 119 55 67 47 64 294 99 271 195 172 145 63 76 125 43 53 105 77 44
shrinkage=0.05


Tree=26
num_leaves=26
num_cat=0
split_feature=2 11 12 5 2 8 11 6 13 13 5 8 0 11 5 6 9 10 2 3 6 2 0 5 3
split_gain=3.39835 1.32638 0.896772 0.929698 0.834027 0.477226 1.18972 0.453401 0.27839 0.391778 0.275016 0.221868 0.449506 0.220548 0.215065 0.125992 0.12583 0.153824 0.462439 0.104481 0.0658232 0.0495843 0.00776221 0.00973482 0.00260191
threshold=0.56031282466300014 0.34243816882200001 0.30981158905050005 0.27299892422950006 0.38251674650100004 0.55008210390250001 0.30975027908750002 0.46258392740350002 0.34523809523800003 0.18452380952350003 0.30250717007350009 0.28794961231700006 0.29520847868000005 0.39324335588150006 0.33385290606500007 0.33036048582750005 0.34758972483050005 0.31475155279500006 0.19926154984750002 0.085361287511250009 0.67711174647000016 0.28591743625600008 0.1743741026275 0.33322615219700008 0.38768208129150006
decision_type=2 2 2 2 2 2 2 2 2 2 2 2 2 2 2 2 2 2 2 2 2 2 2 2 2
left_child=1 5 3 -3 -4 8 -7 -5 9 11 -2 16 -13 -9 -14 -12 17 19 -19 -1 -17 22 24 -24 -21
right_child=10 2 4 7 -6 6 -8 13 -10 -11 15 12 14 -15 -16 20 -18 18 -20 21 -22 -23 23 -25 -26
leaf_value=-0.0020027690167937961 0.0050511209087239373 0.0066483352693819239 0.013593679142219048 0.00065155230236775953 0.001897611064570291 -0.0063085729877154044 0.010731055997312069 -0.010978618413209915 -0.0081432146951556216 0.0027576611638069157 0.013808028399944307 0.0024372818634698268 -0.0016175749277075133 -0.0035531942360103133 -0.0077105435941900533 0.0069066299870610241 -0.008378039202874615 -0.0057919235359276504 0.0039599169977009296 -0.0044290706515312198 0.010828693923742874 -0.0081061424687504779 -0.005070362337257551 -0.0065415396778420974 -0.0052355918474495415
leaf_count=21 36 31 27 33 35 21 20 20 32 25 20 38 30 20 28 20 21 31 20 20 23 20 23 22 20
internal_value=0 -0.0302937 0.0446276 -0.0121224 0.139821 -0.0620205 0.0400688 -0.0737356 -0.0739455 -0.0650258 0.170746 -0.0752451 -0.0357929 -0.145318 -0.0911802 0.210588 -0.0943734 -0.0856901 -0.0393534 -0.104445 0.18009 -0.117323 -0.106782 -0.115792 -0.0966466
internal_count=657 558 166 104 62 392 41 73 351 319 99 294 96 40 58 63 198 177 51 126 43 105 85 45 40
shrinkage=0.05


Tree=27
num_leaves=26
num_cat=0
split_feature=13 11 8 6 6 2 6 10 4 3 8 5 13 7 11 11 8 5 1 1 0 0 2 10 10
split_gain=3.10194 1.0408 0.814155 1.44513 0.923952 0.905375 0.722363 0.648113 0.562371 0.432904 0.646535 0.857412 0.297942 0.283526 0.684894 0.260586 0.210227 0.179322 0.171188 0.219244 0.128808 0.0671022 0.0237622 0.0190568 0.0188923
threshold=0.88811728395050016 0.32786384849550004 0.31986528142600007 0.46258392740350002 0.67711174647000016 0.31217177603700003 0.31318302452300006 0.35305788982300007 0.44520427540150004 0.41754669368200009 0.21526687598150004 0.3593245035055001 0.075714285714300014 0.25368045386800003 0.30939929566200003 0.37898633164700007 0.14152513795200003 0.34120184668100001 0.33329081651200004 0.22098364598400003 0.5160563958065002 0.24850256365450005 0.76194014350400019 0.20809943865250005 0.14073550212150002
decision_type=2 2 2 2 2 2 2 2 2 2 2 2 2 2 2 2 2 2 2 2 2 2 2 2 2
left_child=1 9 6 5 -5 -4 16 -7 -8 12 24 -12 13 14 18 -10 -3 22 19 23 -19 -15 -2 -1 -11
right_child=17 2 3 4 -6 7 8 -9 15 10 11 -13 -14 21 -16 -17 -18 20 -20 -21 -22 -23 -24 -25 -26
leaf_value=-0.0033631630055606363 0.012436867617070677 -0.002665525461946215 0.00082549221556762163 -0.0080785757163539529 0.0052322592586278921 0.018912499621510509 0.0062436286010779446 0.0074387012282386422 -0.0055541677538443503 -0.0058326494964686315 0.009207363546426808 -0.0041577932735284177 -0.0087950082123279573 -0.0048136081360280513 0.0061273749545216567 0.0019758820533752443 -0.0091882491484284404 0.0036584642529487611 -0.0075104307669859663 0.0016616798005998135 0.0090915466037889327 -0.0081307320945685907 0.010055581988258795 -0.0053693865393770156 -0.0038041535920153059
leaf_count=20 20 21 29 32 22 20 32 32 27 22 28 21 35 30 20 20 30 20 26 20 24 31 22 29 24
internal_value=0 -0.0266664 0.0192114 0.0736034 -0.0531129 0.158081 -0.0372727 0.237034 0.0226206 -0.0663972 -0.0103422 0.0695888 -0.0916352 -0.074878 -0.0456462 -0.0469978 -0.130048 0.177053 -0.0810554 -0.0549976 0.132439 -0.129987 0.223791 -0.0910104 -0.0954861
internal_count=657 571 265 135 54 81 130 52 79 306 95 49 211 176 115 47 51 86 95 69 44 61 42 49 46
shrinkage=0.05


Tree=28
num_leaves=27
num_cat=0
split_feature=12 2 11 1 13 2 1 7 4 5 8 8 0 10 10 9 4 11 9 7 2 3 4 4 11 9
split_gain=2.84607 1.18946 0.822389 1.17332 0.944462 0.551222 0.425648 0.481407 0.929296 0.747259 0.468876 0.373325 0.427157 0.263136 0.393953 0.222757 0.202194 0.138817 0.130613 0.123218 0.111441 0.10606 0.0617214 0.0339734 0.0182184 0.00575459
threshold=0.78078078078099999 0.39683541374750003 0.32332375880800007 0.26931646198300008 0.51923076923100009 0.48449404624250003 0.23295255114300004 0.39837370471600003 0.30243936243950004 0.34120184668100001 0.21526687598150004 0.30015764018000007 0.30315208232950003 0.30825791855200008 0.27388922702350005 0.40666482300900003 0.042538305685150012 0.33499186295750005 0.56621411276350009 0.57768510566800013 0.22319113710400004 0.32483958953700004 0.17365456408850002 0.21951008645550002 0.30860272249000004 0.076643356643350022
decision_type=2 2 2 2 2 2 2 2 2 2 2 2 2 2 2 2 2 2 2 2 2 2 2 2 2 2
left_child=1 6 -3 -4 5 -5 13 8 11 -10 -9 16 -13 14 20 -2 -8 23 -17 -20 24 -12 -18 -15 25 -1
right_child=15 2 3 4 -6 -7 7 10 9 -11 21 12 -14 17 -16 18 22 -19 19 -21 -22 -23 -24 -25 -26 -27
leaf_value=-0.0052178422957658774 0.0034290748089551926 -0.0035884102567648279 0.01548370428028561 0.0030424638798362334 0.011720374412834645 -0.006517181009054184 -0.00052719542926008055 0.00097205349802970901 0.011645154103084848 -0.001106238029897213 -0.0046914372593164447 0.0068144590593874456 -0.0032818391241810543 -0.0037043685984352367 0.003446301352232695 0.012228583372556247 -0.0083535211604265948 -0.0095284659814621735 0.0049633621814705077 0.010112789961007927 -0.00093533933162689206 -0.0094587422109075961 -0.0046765755861997603 -0.0064219982322791351 -0.0063803312767829225 -0.0041982649194617421
leaf_count=25 20 39 21 38 20 25 22 25 27 20 20 20 22 23 20 26 21 28 21 26 20 28 25 23 21 31
internal_value=0 -0.0267265 0.0520701 0.0985095 0.0450823 -0.0150209 -0.0534912 -0.0245153 0.00668108 0.124381 -0.0916088 -0.0436087 0.0305184 -0.0883836 -0.058865 0.162083 -0.0893931 -0.135055 0.1877 0.15624 -0.0852136 -0.149447 -0.127104 -0.101264 -0.102488 -0.0930687
internal_count=657 564 143 104 83 63 421 230 157 47 73 110 42 191 117 93 68 74 73 47 97 48 46 46 77 56
shrinkage=0.05


Tree=29
num_leaves=25
num_cat=0
split_feature=2 11 12 5 2 9 6 8 12 8 1 10 3 7 4 5 11 10 9 8 9 11 0 1
split_gain=2.62378 1.04744 0.720318 0.800399 0.728334 0.411062 0.363186 0.281988 0.456023 0.256483 0.314243 0.341278 0.520951 0.359409 0.304575 0.23809 0.193407 0.145808 0.0795788 0.0327119 0.0301768 0.0252147 0.00780195 0.00456649
threshold=0.56031282466300014 0.34243816882200001 0.30981158905050005 0.27299892422950006 0.38251674650100004 0.44150957737950008 0.46258392740350002 0.55008210390250001 0.47837591240900007 0.43004619249150006 0.16467490842500002 0.30151515151500002 0.40261221633400007 0.19434937869400001 0.332783537543 0.30250717007350009 0.39324335588150006 0.38589015151550005 0.076643356643350022 0.49902749832350007 0.24154986251750002 0.31820667284100007 0.15188979963600002 0.26225367230350011
decision_type=2 2 2 2 2 2 2 2 2 2 2 2 2 2 2 2 2 2 2 2 2 2 2 2
left_child=1 5 3 -3 -4 7 -5 8 9 10 20 14 13 -13 18 -2 -8 -17 -12 -19 22 23 -1 -20
right_child=15 2 4 6 -6 -7 16 -9 -10 -11 11 12 -14 -15 -16 17 -18 19 21 -21 -22 -23 -24 -25
leaf_value=-0.0038824294783896015 0.0042578285560011869 0.0061860800510452644 0.012433906616988006 0.00047935267741029913 0.0015040268003940584 0.0042423000372946258 -0.010083543760702016 0.00090652363231548893 -0.0096939401035862315 -0.0075870152429810588 -0.0020579767453929652 0.0029631137089044962 0.0075394354421984069 -0.0046682421531942164 0.0022498921491205695 0.012882115766406061 -0.0031300017051398756 0.0091934993490576742 -0.0042417255602777001 0.0064286060469306034 -0.0063574165706672976 -0.0069055182415814625 -0.0051135973158207811 -0.0052647047676146032
leaf_count=31 36 31 27 33 35 20 20 39 28 28 23 27 22 36 20 20 20 20 20 23 31 21 22 24
internal_value=0 -0.0266184 0.0399606 -0.0109007 0.125276 -0.0548125 -0.0680691 -0.062321 -0.0717433 -0.0605308 -0.0513111 -0.0290906 0.0183094 -0.0279532 -0.0663961 0.150031 -0.132135 0.187102 -0.0917129 0.154292 -0.102365 -0.109601 -0.0878696 -0.0959943
internal_count=657 558 166 104 62 392 73 372 333 305 277 193 85 63 108 99 40 63 88 43 84 65 53 44
shrinkage=0.05


Tree=30
num_leaves=24
num_cat=0
split_feature=2 11 13 8 7 3 0 7 12 7 7 10 8 2 0 5 10 1 8 2 11 8 0
split_gain=2.36796 0.962499 0.564254 0.515754 1.20532 0.821423 0.575809 0.402546 0.716383 0.395061 0.446844 0.482103 0.309326 0.250499 0.228624 0.563559 0.186568 0.186344 0.34105 0.223224 0.0303669 0.0383506 0.00455762
threshold=0.56031282466300014 0.32165334808950002 0.94365079365050009 0.31986528142600007 0.39100413522250005 0.39837356159450005 0.33247454295850004 0.76058501455950023 0.38762626262650007 0.32389818267000003 0.4056494989640001 0.32690166975900009 0.14152513795200003 0.35993188632250001 0.50630045508900012 0.30250717007350009 0.41529364868450008 0.24305927059750002 0.27444321991050008 0.19926154984750002 0.30860272249000004 0.29897186147150007 0.15188979963600002
decision_type=2 2 2 2 2 2 2 2 2 2 2 2 2 2 2 2 2 2 2 2 2 2 2
left_child=1 13 3 9 5 6 -5 8 -6 12 -11 -12 -3 17 15 -2 -16 20 19 -19 21 22 -1
right_child=14 2 -4 4 7 -7 -8 -9 -10 10 11 -13 -14 -15 16 -17 -18 18 -20 -21 -22 -23 -24
leaf_value=-0.0036314966364039318 -0.0017606363445520402 -0.00033643791185958044 0.0085180931857654039 0.0099470268562436102 2.8197683634296539e-05 0.015444742254912852 -0.001080888150067165 0.0036380036268383268 -0.012109377942979336 0.005899755361800393 -0.0073466341655987963 0.0014892782060135354 -0.0078978522386597954 -0.007627901051080588 0.013222526535391807 0.0092285719434065487 0.0070284401577326563 -0.005900307960416142 0.002630775703915528 0.00042837460271336818 -0.0025632264346561653 -0.0062669477640436254 -0.0044165730868515217
leaf_count=36 20 21 21 20 31 20 29 20 20 24 26 38 38 33 20 28 31 38 35 22 22 26 38
internal_value=0 -0.0252874 0.0121303 0.000552397 0.0439909 0.138113 0.068406 -0.0474798 -0.0946327 -0.0408176 0.0016305 -0.0420062 -0.10413 -0.0713861 0.142529 0.0929947 0.18915 -0.059042 -0.0258337 -0.0715958 -0.0849009 -0.0923009 -0.0806929
internal_count=657 558 308 287 140 69 49 71 51 147 88 64 59 250 99 48 51 217 95 60 122 100 74
shrinkage=0.05


Tree=31
num_leaves=26
num_cat=0
split_feature=12 2 11 1 13 2 12 2 9 10 1 10 7 5 6 5 9 0 8 8 11 9 10 6 0
split_gain=2.1913 0.942176 0.685461 1.01863 0.771001 0.538624 0.393118 0.501089 0.378186 0.269306 0.260793 0.474185 0.56682 0.599333 0.401055 0.245535 0.184355 0.169293 0.14277 0.196167 0.128097 0.112798 0.120899 0.00258341 0.00146577
threshold=0.78078078078099999 0.39683541374750003 0.32332375880800007 0.2656862745100001 0.51923076923100009 0.48449404624250003 0.30981158905050005 0.25321160587450009 0.025343217277300007 0.50121951219500016 0.23295255114300004 0.30825791855200008 0.31318203556350005 0.33322615219700008 0.47269204439900003 0.37958371866200008 0.40666482300900003 0.25275667295950005 0.35393004715450005 0.26536084529550008 0.32849782605650008 0.56621411276350009 0.65399292305550016 0.05315751763140001 0.15188979963600002
decision_type=2 2 2 2 2 2 2 2 2 2 2 2 2 2 2 2 2 2 2 2 2 2 2 2 2
left_child=1 6 -3 -4 5 -5 8 -8 -1 10 18 15 13 -13 -14 17 -2 -12 19 20 23 -18 -23 24 -10
right_child=16 2 3 4 -6 -7 7 -9 9 -11 11 12 14 -15 -16 -17 21 -19 -20 -21 -22 22 -24 -25 -26
leaf_value=0.0036958851385861637 0.0028580192103981974 -0.0033190905570219726 0.014594873264431955 0.0030234693892692266 0.010336157448944592 -0.006426301896572114 -0.0040223726481199264 0.0052459094141210829 -0.0037711430937051775 -0.009007712341845036 0.00020491943277161696 -0.00067685845753420954 0.0016818731278181076 0.011006210815338861 -0.0083313032053411017 -0.0085660327070703115 0.010918856397844278 -0.0048677436664308375 -0.007662536421169837 0.00071193746756762269 -0.0082917273603379717 0.0038680353388190272 0.0089970409870147715 -0.003433428999657432 -0.0043377767361345741
leaf_count=20 20 39 20 38 21 25 25 35 25 20 29 23 20 21 20 24 26 38 30 20 20 20 27 30 21
internal_value=0 -0.0234515 0.0466778 0.0890752 0.0407842 -0.0145288 -0.0472721 0.0276825 -0.0597299 -0.0675685 -0.0605538 -0.0345191 0.0196605 0.097983 -0.0664943 -0.0845311 0.142222 -0.0534423 -0.0917598 -0.075857 -0.0946269 0.165526 0.13629 -0.0758881 -0.0805965
internal_count=657 564 143 104 84 63 421 60 361 341 321 175 84 44 40 91 93 67 146 116 96 73 47 76 46
shrinkage=0.05


Tree=32
num_leaves=25
num_cat=0
split_feature=2 13 0 2 5 13 12 11 7 7 11 1 10 5 6 8 6 7 10 11 8 1 11 9
split_gain=1.9855 0.796565 1.12204 0.731933 0.469415 1.10495 0.32581 0.365798 0.269872 0.451201 0.770375 0.349158 0.271205 0.261035 0.358746 0.228597 0.21173 0.176984 0.285008 0.188696 0.190213 0.152313 0.110127 0.00196522
threshold=0.45364350544850002 0.30384615384600006 0.41682734992250009 0.35673274894450002 0.33116043835050007 0.72656960873550014 0.019913928012500002 0.37137262802050003 0.15940060844600004 0.39533796419950007 0.34043501270350007 0.46247522344550002 0.33242753623150006 0.22131941230650001 0.37228473909350007 0.28249557113450002 0.32280217033250008 0.091179154077700011 0.35143325143300003 0.32712044330900009 0.33299510121300002 0.24305927059750002 0.31285108712050008 0.095789034813450011
decision_type=2 2 2 2 2 2 2 2 2 2 2 2 2 2 2 2 2 2 2 2 2 2 2 2
left_child=1 8 3 -3 5 -2 -6 -8 17 10 12 13 16 -11 -15 -16 22 18 19 20 21 23 -10 -1
right_child=4 2 -4 -5 6 -7 7 -9 9 11 -12 -13 -14 14 15 -17 -18 -19 -20 -21 -22 -23 -24 -25
leaf_value=-0.0040627425909042355 -0.0039531064660925617 0.0043966378160827865 0.013186147157102824 -0.006112850345671177 0.011838626268285293 0.008767055119237593 0.00072882497826447853 0.008467623863268544 -0.002428458120835864 0.0028447973728179931 0.0092532355676997798 -0.009357847503962971 0.0028021687145034471 0.00088470046738943747 -0.0031812915844576699 -0.009516941538701456 0.0013353815302252769 -0.00745330230603295 0.0022429020795971155 -0.0086385933309793463 -0.0073354030027985573 0.0012235210121919714 -0.0073766556483778091 -0.0034034882027369276
leaf_count=20 38 37 20 30 27 31 26 37 23 20 22 21 30 31 35 24 20 31 20 20 22 24 22 26
internal_value=0 -0.0310625 0.0558651 -0.00618206 0.09729 0.035235 0.144865 0.105477 -0.0494632 -0.0286889 0.0164449 -0.0689992 -0.0226038 -0.0464418 -0.0694058 -0.11517 -0.0589026 -0.0810707 -0.0651021 -0.0847378 -0.0656 -0.0401089 -0.0969515 -0.0738024
internal_count=657 498 87 67 159 69 90 63 411 248 117 131 95 110 90 59 65 163 132 112 92 70 45 46
shrinkage=0.05


Tree=33
num_leaves=24
num_cat=0
split_feature=12 2 11 1 13 2 0 12 0 8 12 5 4 3 1 5 7 2 10 4 11 8 3
split_gain=1.81061 0.790516 0.593073 0.926753 0.645862 0.512922 0.355035 0.396152 0.343103 0.78455 0.315629 0.321069 0.258429 0.17252 0.313276 0.170117 0.348894 0.130099 0.121407 0.0880101 0.0733613 0.0306382 0.0013334
threshold=0.78078078078099999 0.39683541374750003 0.32332375880800007 0.2656862745100001 0.51923076923100009 0.48449404624250003 0.18095238095250002 0.30981158905050005 0.29520847868000005 0.30015764018000007 0.0061410172925250011 0.28435130032850003 0.33858075682500005 0.28453822289000003 0.33329081651200004 0.3358664900015001 0.71175706014400009 0.12116998666100001 0.32827050997800006 0.16988253601050005 0.32818016448400006 0.24068016361250003 0.35672170993400004
decision_type=2 2 2 2 2 2 2 2 2 2 2 2 2 2 2 2 2 2 2 2 2 2 2
left_child=1 6 -3 -4 5 -5 18 8 9 17 11 -10 -9 -13 -15 -2 -17 -8 19 21 -20 22 -1
right_child=15 2 3 4 -6 -7 7 12 10 -11 -12 13 -14 14 -16 16 -18 -19 20 -21 -22 -23 -24
leaf_value=-0.0032160991647591196 0.0091547892325454291 -0.0031122304308108797 0.013790823668241501 0.0029428367650038319 0.0094085938341560826 -0.006278721034526826 -0.0054075127754073873 -0.0010569050163030623 0.0015936798894324818 0.0072314662666156373 -0.0077006029074682906 -0.0074960669875144964 0.0065684777498245242 -0.0067100155743814649 0.0017366729838692624 0.00078339696462665287 0.0086082541480146605 -0.00081746012070461329 -0.0045788842918617388 -0.00095908928722623866 -0.0085437639662995935 -0.0058275718800723554 -0.0037688846793025735
leaf_count=24 36 39 20 38 21 25 26 20 37 29 34 25 25 21 23 28 29 38 28 31 20 20 20
internal_value=0 -0.0213173 0.0429202 0.0823571 0.0362953 -0.0143302 -0.0431367 -0.022309 -0.0388986 0.00818359 -0.0701747 -0.0432835 0.0635884 -0.0835851 -0.045894 0.129279 0.0952893 -0.0536434 -0.0836268 -0.0629152 -0.124618 -0.0840986 -0.0693473
internal_count=657 564 143 104 84 63 421 278 233 93 140 106 45 69 44 93 57 64 143 95 48 64 44
shrinkage=0.05


Tree=34
num_leaves=25
num_cat=0
split_feature=2 13 0 2 8 11 9 1 9 10 8 11 7 6 11 4 11 3 1 2 5 2 1 8
split_gain=1.65177 0.673135 0.976306 0.666714 0.439094 0.783191 0.406141 0.48373 0.247965 0.205725 0.308106 0.255628 0.651539 0.841198 0.498741 0.149318 0.112086 0.107189 0.0736029 0.0842761 0.0881313 0.060624 0.088691 0.0110253
threshold=0.45364350544850002 0.30384615384600006 0.41682734992250009 0.35673274894450002 0.38371267715900009 0.37572118384400011 0.34758972483050005 0.4147829499470001 0.025343217277300007 0.24806955496600003 0.63305411979300008 0.32701968472650006 0.15940060844600004 0.45523552452100008 0.34043501270350007 0.0057118493480150011 0.33193831931500001 0.30935148441500004 0.39685111865250006 0.29374971060400007 0.33773934793900001 0.21134403921900005 0.32344827586200003 0.24233182773250003
decision_type=2 2 2 2 2 2 2 2 2 2 2 2 2 2 2 2 2 2 2 2 2 2 2 2
left_child=1 8 3 -3 5 -2 -6 -8 -1 16 11 15 -13 14 -14 -11 21 -9 19 20 -17 22 23 -10
right_child=4 2 -4 -5 6 -7 7 17 9 10 -12 12 13 -15 -16 18 -18 -19 -20 -21 -22 -23 -24 -25
leaf_value=0.0030302230357414205 -0.0041177237801479569 0.0041761885925724702 0.012273383196443319 -0.0058541491503516837 0.011491810684574062 0.0071450104487353356 -0.0007719746342411748 0.010341869454298701 -0.0031649126217533382 0.00052304822685463092 -0.0076287837140262132 -0.0074388145841658123 0.002479358338590326 -0.0034649432992891354 0.012597111293247767 -0.0038327081845356869 -0.0067231211570962781 0.0052272503077983859 -0.0061658367175947536 -0.00546597849408334 0.00028412720689979885 -0.0052874770400852993 6.0072573630706126e-06 -0.0046088350564241409
leaf_count=21 33 37 20 30 29 29 27 21 39 28 20 20 29 34 21 26 31 20 22 22 26 29 23 20
internal_value=0 -0.0283319 0.0515775 -0.00630015 0.0887376 0.0230066 0.130751 0.0884944 -0.045247 -0.0509467 -0.0335675 -0.0231282 0.0134339 0.0520554 0.134576 -0.0537932 -0.0812991 0.156939 -0.072534 -0.0574364 -0.0354858 -0.0664517 -0.0525537 -0.0730876
internal_count=657 498 87 67 159 62 97 68 411 390 248 228 104 84 50 124 142 41 96 74 52 111 82 59
shrinkage=0.05


Tree=35
num_leaves=26
num_cat=0
split_feature=2 11 3 3 4 1 8 11 13 13 1 0 5 10 1 8 9 5 1 10 5 8 10 3 4
split_gain=1.53876 0.676154 0.626763 1.06116 1.23104 0.552084 0.339755 0.803164 0.284364 0.266468 0.26225 0.183122 0.475445 0.200309 0.18218 0.26879 0.503514 0.242106 0.140261 0.0685821 0.151309 0.0324284 0.0174081 0.00349409 0.00167145
threshold=0.56031282466300014 0.34243816882200001 0.094943062299150019 0.24815277934950003 0.38378331086450007 0.20500251196800001 0.55008210390250001 0.30975027908750002 0.34523809523800003 0.18452380952350003 0.39109663524950006 0.51262560069900009 0.30250717007350009 0.41529364868450008 0.35673690416350007 0.34586213104250002 0.29289398141400008 0.31750701088850003 0.32344827586200003 0.32827050997800006 0.34254103149950005 0.25040734394950009 0.26376285541450006 0.31914539959600002 0.066878912614650024
decision_type=2 2 2 2 2 2 2 2 2 2 2 2 2 2 2 2 2 2 2 2 2 2 2 2 2
left_child=1 6 -3 -4 -5 -6 8 -8 9 14 -7 12 -2 -13 15 18 -17 -16 19 21 -21 22 23 -1 -25
right_child=11 2 3 4 5 10 7 -9 -10 -11 -12 13 -14 -15 17 16 -18 -19 -20 20 -22 -23 -24 24 -26
leaf_value=-0.002734794542193413 -0.0023581891879439357 -0.0062048662030561412 0.010728246955709024 0.0086113125988931376 0.0028723454999702949 -0.0094855191329350844 -0.0046743346023417655 0.0093260299414396289 -0.0071483429928775877 0.0027514457330107692 -0.0023132513910531999 0.011749544497579338 0.0076626474615828751 0.0052895838394761089 -0.0018263258204302369 -0.0034227818250656128 0.0071787026755156975 -0.0077097675038708584 0.00075865430214131879 0.00078507110906335029 -0.0049996048305183654 -0.0058515169750899083 -0.0047742138771961137 -0.0031651013251394037 -0.0038115236721932887
leaf_count=25 20 22 33 33 27 26 21 20 32 25 25 20 29 30 34 24 21 36 24 26 20 20 24 20 20
internal_value=0 -0.0203846 0.0331081 0.0571256 0.0103193 -0.0581799 -0.0430372 0.0431022 -0.053099 -0.0440841 -0.119394 0.114895 0.0714502 0.157471 -0.052512 -0.0385965 0.0304916 -0.0970419 -0.055965 -0.0669799 -0.0346001 -0.0806447 -0.0724682 -0.06397 -0.0697662
internal_count=657 558 166 144 111 78 392 41 351 319 51 99 49 50 294 224 45 70 179 155 46 109 89 65 40
shrinkage=0.05


Tree=36
num_leaves=24
num_cat=0
split_feature=12 2 11 1 1 9 0 13 1 13 3 8 0 10 9 8 7 7 10 10 11 8 11
split_gain=1.41142 0.590733 0.50363 0.812768 0.563548 0.428836 0.312274 0.273142 0.292025 0.244811 0.287304 0.268719 0.855552 0.338319 0.330957 0.268026 0.166043 0.577318 0.119847 0.0777584 0.0700947 0.0358423 0.0321572
threshold=0.78078078078099999 0.39936006916750005 0.32332375880800007 0.2656862745100001 0.37123331910950003 0.38506309425250002 0.18095238095250002 0.18452380952350003 0.29686285936300005 0.01535087719295 0.13557410662400002 0.28794961231700006 0.29520847868000005 0.28496240601500006 0.32470028208750007 0.37451498657750004 0.38840344626150008 0.71175706014400009 0.32827050997800006 0.26648550724650005 0.32818016448400006 0.10793010752650002 0.31742295970950002
decision_type=2 2 2 2 2 2 2 2 2 2 2 2 2 2 2 2 2 2 2 2 2 2 2
left_child=1 6 -3 -4 -5 -6 18 9 -9 10 -8 13 -13 22 -15 -14 -2 -18 19 21 -20 -1 -12
right_child=16 2 3 4 5 -7 7 8 -10 -11 11 12 15 14 -16 -17 17 -19 20 -21 -22 -23 -24
leaf_value=-0.0023751073038658583 0.0085558457920948666 -0.0029510137935479484 0.012765048816800118 -0.0045560263527127413 0.00063420396763831384 0.0095849278666402995 -0.004996008652488928 -0.0018099702805990264 0.0061174591430104702 -0.0059881857363507157 -0.0036992211764057476 0.010123445028844089 0.0028564753688194535 -0.0028792442499913952 0.0060077353566885001 -0.0043126915872562675 -0.002305635301904245 0.0078720778520954288 -0.0041945609663214005 2.5987140834331512e-05 -0.0080701637594029312 -0.0045613879215364401 -0.0062875437177717687
leaf_count=37 33 39 20 26 32 23 37 21 26 28 30 23 22 22 20 32 22 38 28 20 20 38 20
internal_value=0 -0.0188212 0.0375004 0.0747707 0.0301954 0.0875447 -0.0374179 -0.0180582 0.0515083 -0.032031 -0.0201061 -0.00263203 0.0409547 -0.0391122 0.027053 -0.0278384 0.114141 0.082805 -0.0754606 -0.0548825 -0.116188 -0.0696565 -0.094691
internal_count=657 564 140 101 81 55 424 281 47 234 206 169 77 92 42 54 93 60 143 95 48 75 50
shrinkage=0.05


Tree=37
num_leaves=26
num_cat=0
split_feature=2 11 3 3 4 1 8 11 11 11 11 1 12 2 10 7 12 9 6 1 5 5 12 2 0
split_gain=1.28135 0.568643 0.546877 0.932018 1.09808 0.479542 0.30424 0.696017 0.276277 0.44529 0.256926 0.211414 0.453407 0.225573 0.17831 0.17332 0.173212 0.155796 0.131661 0.16112 0.234324 0.398386 0.130506 0.0255845 0.011492
threshold=0.56031282466300014 0.34243816882200001 0.094943062299150019 0.24815277934950003 0.38378331086450007 0.20500251196800001 0.55008210390250001 0.30975027908750002 0.333795271261 0.3314419964175 0.39666749543250002 0.33250740349450003 0.25961538461550004 0.35993188632250001 0.4049125979505 0.23571561144450001 0.28730158730150007 0.34405431966400007 0.31318302452300006 0.16467490842500002 0.30156148604800009 0.372889497954 0.95974235104650008 0.20762725055950004 0.16445559933050002
decision_type=2 2 2 2 2 2 2 2 2 2 2 2 2 2 2 2 2 2 2 2 2 2 2 2 2
left_child=1 6 -3 -4 -5 -6 8 -8 9 11 -7 12 18 15 17 -13 -10 -2 19 24 -21 -22 -16 -20 -1
right_child=14 2 3 4 5 10 7 -9 16 -11 -12 13 -14 -15 22 -17 -18 -19 23 20 21 -23 -24 -25 -26
leaf_value=-0.0028859935767416444 0.010924418345093728 -0.0058195630850439726 0.010021886489156522 0.0080968465317379345 0.0026045883281363385 -0.0089819968307252845 -0.0042507232388570198 0.0087823633104562766 -0.0028820616193115712 0.0047654906611727631 -0.0018719645837942762 -0.00052605661947061034 0.0049086504383012656 -0.0091288416460156441 0.000188944973051548 -0.0054101487717185268 -0.0093112680722366691 0.0047582433159862256 -0.0036332796082004081 -0.0036317383476461361 0.0074865386448800565 -0.0023737444254081875 0.0051788470707833769 -0.0059602313275848124 -0.0043458149732592015
leaf_count=28 20 22 33 33 27 27 21 20 20 23 24 34 24 20 20 39 22 21 27 26 20 21 38 21 26
internal_value=0 -0.0186017 0.0304543 0.052889 0.0090232 -0.0556711 -0.0393754 0.0421376 -0.0488968 -0.0385534 -0.112722 -0.0493186 -0.0304454 -0.0884857 0.104846 -0.0627073 -0.124995 0.155323 -0.0487107 -0.0311309 0.00162894 0.048723 0.0691638 -0.0930264 -0.0717774
internal_count=657 558 166 144 111 78 392 41 351 309 51 286 193 93 99 73 42 41 169 121 67 41 58 48 54
shrinkage=0.05


Tree=38
num_leaves=27
num_cat=0
split_feature=12 2 5 8 0 5 13 8 8 8 10 9 9 3 11 2 4 7 10 11 3 2 6 2 1 10
split_gain=1.2009 0.494797 1.03401 0.637347 0.31659 0.315525 0.449465 0.387922 0.279985 0.409743 0.283456 0.244603 0.233248 0.231636 0.395845 0.191806 0.148505 0.587846 0.119438 0.10317 0.100908 0.0925045 0.0622257 0.0136563 0.00585199 0.002241
threshold=0.78078078078099999 0.45364350544850002 0.33116043835050007 0.39269810963900004 0.18095238095250002 0.47146472659200006 0.30384615384600006 0.33336000693650009 0.30015764018000007 0.37451498657750004 0.34078421578400003 0.34548626792600007 0.36913263026200011 0.36118921568050005 0.32701968472650006 0.21426826218050002 0.41357091802400009 0.57768510566800013 0.38158705701050005 0.33926050606950003 0.47117002406850006 0.75583595174250007 0.13224043715850001 0.21134403921900005 0.20049019607850002 0.23606811145500003
decision_type=2 2 2 2 2 2 2 2 2 2 2 2 2 2 2 2 2 2 2 2 2 2 2 2 2 2
left_child=1 4 3 -3 18 6 8 -8 11 -10 -11 13 -4 14 22 -7 -2 -18 19 23 -15 -19 -6 24 25 -1
right_child=16 2 12 -5 5 15 7 -9 9 10 -12 -13 -14 20 -16 -17 17 21 -20 -21 -22 -23 -24 -25 -26 -27
leaf_value=-0.0025325847338094859 0.0083881176111322859 -0.0094815242104232325 0.004522716548914711 0.0024935821741819382 -0.00067797975969456495 -0.00065816787204572142 0.0093034118667922241 0.00028219783965211653 0.0052628367082089992 -0.004545915917013631 0.0022938545660248825 -0.0072331078350543979 0.011738279036113195 -0.0068296700050788266 0.0053439542204141623 -0.0069326466013645317 -0.0022560195686916512 0.0097907387143508964 -0.0063084785497329876 0.00054548483574762946 -0.0018671661708503963 0.0050923424027860169 -0.0045270876426781927 -0.0044298183463979514 -0.0037919270154088735 -0.0031840692697600887
leaf_count=33 27 20 24 25 21 21 22 26 37 33 28 22 21 21 25 29 24 22 29 20 20 20 21 24 20 22
internal_value=0 -0.0173609 0.0506129 -0.0565737 -0.0302673 -0.012854 0.000387503 0.0883384 -0.0181285 0.0222322 -0.028127 -0.0485542 0.1578 -0.0289767 0.00725147 -0.0859473 0.105286 0.0797269 -0.0686237 -0.0545999 -0.0881787 0.151068 -0.0520507 -0.0678341 -0.0611902 -0.0558636
internal_count=657 564 90 45 474 326 276 48 228 98 61 130 45 108 67 50 93 66 148 119 41 42 42 99 75 55
shrinkage=0.05


Tree=39
num_leaves=25
num_cat=0
split_feature=12 2 11 1 1 8 9 2 12 2 10 10 1 0 0 11 7 7 1 11 0 3 10 1
split_gain=1.08381 0.451814 0.427378 0.725688 0.487648 0.381112 0.249548 0.253197 0.384453 0.564319 0.24819 0.208885 0.351377 0.297029 0.693636 0.159443 0.148525 0.477716 0.137539 0.133089 0.0474354 0.0810049 0.0251771 0.00760562
threshold=0.78078078078099999 0.39936006916750005 0.32332375880800007 0.2656862745100001 0.37123331910950003 0.31986528142600007 0.025343217277300007 0.37316754445000005 0.30981158905050005 0.25321160587450009 0.50121951219500016 0.24806955496600003 0.43991662518650004 0.24601780786250005 0.30315208232950003 0.33193831931500001 0.38840344626150008 0.71175706014400009 0.32302380001350006 0.32849782605650008 0.22370657232100002 0.33889356389350006 0.33242753623150006 0.28787672975150008
decision_type=2 2 2 2 2 2 2 2 2 2 2 2 2 2 2 2 2 2 2 2 2 2 2 2
left_child=1 6 -3 -4 -5 -6 -1 8 10 -10 11 15 13 19 -15 20 -2 -18 -16 22 21 -8 -13 -22
right_child=16 2 3 4 5 -7 7 -9 9 -11 -12 12 -14 14 18 -17 17 -19 -20 -21 23 -23 -24 -25
leaf_value=0.0038139692414551974 0.0076953722502697596 -0.0028075448404519987 0.011884078979492188 -0.0043937254410523641 -0.0015897632390260699 0.0070624758196728577 0.00097609678283333784 -0.0070022855844834577 -0.0032814003005623817 0.0068900562698642406 -0.0076488939300179484 -0.0037701983142782143 0.0040454747696076669 0.0076112219982821016 -0.0048499377357074996 -0.0070222996114753192 -0.0023443422534249049 0.0069138724650991594 0.0003576368625674929 -0.0074778913032440917 -0.0031351009728731935 -0.0030341207761974895 -0.0015190066142088694 -0.0043874984564767645
leaf_count=20 33 39 20 26 20 35 20 23 25 30 20 27 31 23 32 25 22 38 21 21 27 34 23 22
internal_value=0 -0.0164929 0.0327631 0.0670963 0.0249764 0.0783241 -0.0327566 -0.0381545 -0.0320035 0.0453333 -0.0450512 -0.0379971 -0.0158414 -0.0362446 0.00720276 -0.0688076 0.100021 0.0703839 -0.0557312 -0.0827516 -0.0514196 -0.0309771 -0.054693 -0.073948
internal_count=657 564 140 101 81 55 424 404 381 55 326 306 178 147 76 128 93 60 53 71 103 54 50 49
shrinkage=0.05


Tree=40
num_leaves=28
num_cat=0
split_feature=2 12 11 3 3 4 11 5 6 4 3 7 4 9 3 8 13 5 10 8 0 7 1 10 5 10 1
split_gain=1.00697 0.544802 0.298709 0.355642 0.885639 0.343203 0.432739 0.47235 0.460238 0.569829 0.324565 0.278139 0.78996 0.26511 0.219988 0.387819 0.217845 0.212322 0.20069 0.112674 0.204335 0.0615834 0.0508646 0.0236245 0.020721 0.0179686 0.00553454
threshold=0.71641544315000016 0.59337925755850007 0.32795322001000005 0.58252203751850007 0.43704635066200004 0.16988253601050005 0.33311546536550007 0.18165828748500004 0.46258392740350002 0.43615071907600006 0.25743859714100009 0.57768510566800013 0.40518873649750009 0.32815778379700006 0.44702838644200005 0.21526687598150004 0.14446227929350003 0.34726602204900009 0.40708249496950005 0.49902749832350007 0.393909815188 0.0011779319165200004 0.25788338678000006 0.65399292305550016 0.33385290606500007 0.28496240601500006 0.19511217948750004
decision_type=2 2 2 2 2 2 2 2 2 2 2 2 2 2 2 2 2 2 2 2 2 2 2 2 2 2 2
left_child=1 2 14 4 5 -4 -7 -8 9 13 -10 12 -3 -9 16 26 19 -17 -2 20 21 -1 24 -20 -23 -24 -16
right_child=18 11 3 -5 -6 6 7 8 10 -11 -12 -13 -14 -15 15 17 -18 -19 23 -21 -22 22 25 -25 -26 -27 -28
leaf_value=-0.00042779821416606077 0.010264103300869465 0.0078352748992897205 -0.0048938519704867815 -0.0060432727847780504 0.010045725852251053 0.0069833681979419096 0.00645469572572481 0.0013285786192864181 -0.00056611485779285437 0.0067662168007630577 -0.0089057616024677249 0.0076730814260932119 -0.0060495301522314549 -0.0068125143274664875 -0.0028935829354893596 0.00692803297369253 -0.007267176132235262 -0.00027034273371100425 0.0029147034231573345 -0.0056553759456922613 0.0019852558909742922 -0.001453318659846178 -0.0032075775251723827 0.0053449565451592213 -0.0033721845538821071 -0.0051068780040650665 -0.0040557757904753095
leaf_count=23 20 21 34 21 23 23 21 20 20 26 28 26 20 20 21 21 27 20 20 24 27 34 20 20 24 33 20
internal_value=0 -0.0124112 -0.0231519 0.00334554 0.0154778 -0.006736 0.0128766 -0.00872475 -0.0341124 0.0200736 -0.108618 0.0725523 0.021244 -0.0548394 -0.044422 -0.000438761 -0.0614343 0.0683326 0.123492 -0.0491881 -0.0396598 -0.0556512 -0.0654097 0.0825966 -0.0449466 -0.0878032 -0.0692101
internal_count=657 597 530 236 215 192 158 135 114 66 48 67 41 40 294 82 212 41 60 185 161 134 111 40 58 53 41
shrinkage=0.05


Tree=41
num_leaves=24
num_cat=0
split_feature=2 11 4 11 6 7 11 12 5 2 10 12 4 11 12 10 10 7 9 8 7 10 1
split_gain=0.908794 0.501158 0.461866 0.862051 0.551407 0.777604 0.588668 0.3344 0.300688 0.353244 0.264969 0.294328 0.270285 0.446797 0.215305 0.181122 0.11784 0.308645 0.103549 0.0638973 0.0479424 0.0213211 0.0113438
threshold=0.71641544315000016 0.34243816882200001 0.38378331086450007 0.36946912177150004 0.37228473909350007 0.56426420162150015 0.38232783010250004 0.31591676414900005 0.17227522408050003 0.44178327176400006 0.46770833333350004 0.38762626262650007 0.33670446717200003 0.31608441902800005 0.014219443323900001 0.40708249496950005 0.31475155279500006 0.17888192008250003 0.075321494182450002 0.28249557113450002 0.13938395025200004 0.65399292305550016 0.25788338678000006
decision_type=2 2 2 2 2 2 2 2 2 2 2 2 2 2 2 2 2 2 2 2 2 2 2
left_child=1 8 3 -3 -4 6 -6 -7 14 10 11 12 16 -14 20 -2 18 -18 -10 22 -1 -17 -20
right_child=15 2 4 -5 5 7 -8 -9 9 -11 -12 -13 13 -15 -16 21 17 -19 19 -21 -22 -23 -24
leaf_value=-0.003923197097681237 0.0097508981637656686 0.010916997828791219 0.0063160581031331308 -0.0017050918191671373 -0.010863772759746228 -0.00085134129557344661 -0.00051650360778526024 0.0074530582451684917 -0.0006467315779231927 0.0038247713978801453 0.0039361635888261462 -0.0061764022548283851 -0.0040102366299834104 0.0054606561326760459 -0.0087347394476334269 0.0027689682971686128 0.0029749889124297737 -0.0039728854127573749 -0.0023635752548120527 -0.0055990466012564655 -0.00082081085536628957 0.005077708717435599 -0.003770456995572085
leaf_count=33 20 31 27 24 28 27 27 22 34 35 21 35 20 33 21 20 33 31 38 34 20 20 23
internal_value=0 -0.0117907 0.0312783 0.108184 -0.00101017 -0.0340673 -0.115684 0.0575433 -0.0312817 -0.018607 -0.0296288 -0.0377263 -0.0255188 0.0377347 -0.089003 0.117317 -0.0428889 -0.00780775 -0.0602935 -0.0772429 -0.0550497 0.0784668 -0.0578808
internal_count=657 597 186 55 131 104 55 49 411 337 302 281 246 53 74 60 193 64 129 95 53 40 61
shrinkage=0.05


Tree=42
num_leaves=24
num_cat=0
split_feature=2 11 13 7 7 3 6 3 2 2 8 0 9 2 10 1 2 1 11 9 8 6 2
split_gain=0.820187 0.460245 0.311212 0.474452 1.03274 0.404162 0.333903 0.571479 0.745266 0.616236 0.472472 0.255687 0.321719 0.283665 0.16563 0.160748 0.30533 0.146045 0.0722827 0.0625485 0.0325562 0.00579169 0.00170928
threshold=0.71641544315000016 0.32786384849550004 0.18452380952350003 0.53425426697050005 0.40096972961000005 0.29475722816200006 0.26023291143200006 0.24815277934950003 0.22319113710400004 0.39683541374750003 0.32864995736550001 0.43246445212150003 0.2967952845065 0.4243249713490001 0.42782738095200007 0.32571956795250007 0.32405255123250004 0.24305927059750002 0.31389335225700005 0.25020458265150008 0.32977130476700006 0.070649369074750015 0.043432662879650002
decision_type=2 2 2 2 2 2 2 2 2 2 2 2 2 2 2 2 2 2 2 2 2 2 2
left_child=1 11 6 4 5 -4 10 -8 -9 -10 -3 13 -13 15 -2 16 17 20 19 -17 21 22 -1
right_child=14 2 3 -5 -6 -7 7 8 9 -11 -12 12 -14 -15 -16 18 -18 -19 -20 -21 -22 -23 -24
leaf_value=-0.0023274448048323394 0.0089045340033329055 -0.0074727452416537389 6.4168222572492513e-05 0.0086861346572361612 -0.006222813636545213 0.0086983435759038635 0.0060029611391469069 0.0050318272194514674 -0.0094219635150605639 0.0012498533974091212 0.001986820335415277 -0.0019795790411018094 0.0062635563686490071 -0.0082750261016190062 0.0035013417235097372 -0.0045305877474361459 0.0044180704014641905 0.0011296444612651552 -0.0065212995822851857 -0.0009475223631376312 -0.0042909614460799718 -0.001845346293446389 -0.0029203242442059902
leaf_count=20 23 33 23 27 31 33 39 30 31 24 22 29 20 20 37 29 21 29 21 21 29 34 31
internal_value=0 -0.0112011 0.0170809 0.0579192 0.0219802 0.103043 -0.00892789 0.0198364 -0.0261481 -0.0953034 -0.0737784 -0.0384598 0.0276993 -0.0511727 0.111451 -0.0414427 -0.0242341 -0.0407691 -0.0811922 -0.060514 -0.0568875 -0.0470166 -0.0537565
internal_count=657 597 293 114 87 56 179 124 85 55 55 304 49 255 60 235 164 143 71 50 114 85 51
shrinkage=0.05


Tree=43
num_leaves=27
num_cat=0
split_feature=2 12 0 3 13 11 0 0 6 4 6 13 7 4 8 10 0 4 13 11 8 10 2 1 10 4
split_gain=0.740218 0.417913 0.291356 0.340619 0.5794 0.259146 0.334996 0.450205 0.376649 0.392147 0.327008 0.24496 0.231472 0.206575 0.192594 0.149481 0.139129 0.0826681 0.0712664 0.0738391 0.0619098 0.0309935 0.0142695 0.00692156 0.00332586 0.00220991
threshold=0.71641544315000016 0.78078078078099999 0.18095238095250002 0.43704635066200004 0.21764705882350002 0.32701968472650006 0.37087492925850002 0.46443050025100002 0.37717886926950006 0.332783537543 0.49447713697750006 0.075714285714300014 0.57768510566800013 0.36303087300550002 0.21526687598150004 0.42782738095200007 0.38863636363650006 0.042538305685150012 1.0000000180025095e-35 0.33790582364000005 0.36090336852600008 0.31475155279500006 0.22116087560900002 0.24132335358300003 0.26961538461550005 0.0031563671419700006
decision_type=2 2 2 2 2 2 2 2 2 2 2 2 2 2 2 2 2 2 2 2 2 2 2 2 2 2
left_child=1 2 18 5 13 11 8 20 9 -7 -10 16 -3 14 -5 -2 17 -4 19 22 -8 -19 23 24 25 -1
right_child=15 12 3 4 -6 6 7 -9 10 -11 -12 -13 -14 -15 -16 -17 -18 21 -20 -21 -22 -23 -24 -25 -26 -27
leaf_value=-0.0023874424176201937 0.0084593074072314336 0.00087974323994583566 -0.00046175131574273111 -0.0018138942754139073 0.0080002469521376404 0.0013161211507394912 -0.0073014184265680938 0.0020302131772041323 -0.0056389781087636953 0.010795943606644869 0.003017772474170973 -0.0071004482845847434 0.0078789483622780862 -0.0045110869221389295 0.004467253225783889 0.0033262746484094374 0.00088760609372652013 -0.0030372217348169374 -0.0050873911698107368 0.00030554912822402044 -0.0035464838856742497 -0.0057285144738852978 -0.0040227200156368785 -0.0033548407396301627 -0.0027625974461746713 -0.0016620675855804059
leaf_count=21 23 27 21 23 31 24 23 36 20 20 24 26 21 20 26 37 35 23 27 23 21 20 20 20 24 21
internal_value=0 -0.0106411 -0.0184644 -0.00395023 0.046443 -0.0211493 0.00450377 -0.0423303 0.0470802 0.112503 -0.0183423 -0.055627 0.0788379 -0.0045776 0.0303792 0.105879 -0.0329408 -0.0606635 -0.0550289 -0.0452505 -0.110186 -0.0857797 -0.056395 -0.0507997 -0.0458612 -0.0404951
internal_count=657 597 549 393 100 293 168 80 88 44 44 125 48 69 49 60 99 64 156 129 44 43 106 86 66 42
shrinkage=0.05


Tree=44
num_leaves=27
num_cat=0
split_feature=2 12 0 3 7 13 8 11 5 0 8 9 9 13 7 10 0 4 13 11 10 10 2 1 10 9
split_gain=0.668047 0.377166 0.262948 0.307409 0.533919 0.621467 0.317765 0.233879 0.30913 0.417552 0.412876 0.327132 0.362125 0.221076 0.208904 0.135953 0.125564 0.074608 0.0647435 0.0618366 0.0279717 0.0206538 0.0168263 0.00639691 0.003115 0.00207412
threshold=0.71641544315000016 0.78078078078099999 0.18095238095250002 0.43704635066200004 0.46877221819450005 0.21764705882350002 0.21526687598150004 0.32701968472650006 0.47282885599250007 0.37087492925850002 0.37846903277800009 0.33356610800750003 0.41239328733450009 0.075714285714300014 0.57768510566800013 0.40708249496950005 0.38863636363650006 0.042538305685150012 0.13392857142850004 0.33790582364000005 0.31475155279500006 0.65399292305550016 0.22116087560900002 0.24132335358300003 0.26961538461550005 0.08392018779340002
decision_type=2 2 2 2 2 2 2 2 2 2 2 2 2 2 2 2 2 2 2 2 2 2 2 2 2 2
left_child=1 2 18 7 5 6 -5 13 9 11 -11 -9 -13 16 -3 -2 17 -4 19 22 -19 -17 23 24 25 -1
right_child=15 14 3 4 -6 -7 -8 8 -10 10 -12 12 -14 -15 -16 21 -18 20 -20 -21 -22 -23 -24 -25 -26 -27
leaf_value=-0.0022858172329142689 0.0083951611258089552 0.00083575608829657231 -0.00043866374485549472 -0.0032928025476973164 -0.0044787673077181633 0.011305179573934187 0.0044649557464502077 0.0070433621036095758 -0.0054606714685048376 -0.005502099952557021 0.0021810338558519589 -0.0040742237475656327 0.0053266135230660445 -0.0067454257693428266 0.0074850010463879228 0.0022101173596456645 0.00084322573151439427 -0.0028853606685753101 -0.0050633158089350106 5.0547359511256223e-05 -0.0054420887585729365 0.0044824425084516407 -0.003979282463634653 -0.0031870987080037591 -0.0026244675333146009 -0.0015896035641755745
leaf_count=20 20 27 21 22 23 22 33 36 21 36 34 21 20 26 21 20 35 23 23 25 20 20 21 20 24 23
internal_value=0 -0.010109 -0.0175412 -0.00375272 0.0441208 0.0840561 0.027237 -0.0200918 0.00427858 0.0204917 -0.0354058 0.0713077 0.010231 -0.0528456 0.074896 0.100585 -0.0312938 -0.0576303 -0.0522774 -0.0438057 -0.0814907 0.0669256 -0.0541799 -0.0480475 -0.0433625 -0.0382685
internal_count=657 597 549 393 100 77 55 293 168 147 70 77 41 125 48 60 99 64 156 133 43 40 108 87 67 43
shrinkage=0.05



feature importances:
Column_2=144
Column_11=112
Column_8=99
Column_1=96
Column_5=80
Column_9=76
Column_0=74
Column_7=74
Column_10=69
Column_4=62
Column_6=60
Column_3=54
Column_12=52
Column_13=46

pandas_categorical:null
